tree
version=v4
num_class=1
num_tree_per_iteration=1
label_index=0
max_feature_idx=278
objective=regression
feature_names=zigzag XSMOM1M RPP_22D day_jump before_bot_price_diff day_first4greencorr FAC_MPB_downmean Y_LH_closepctchg20_sub masign FAC_SPREAD_max dOI FAC_VWAP_Deviation_biddommean drawback Y_LH_oi5_diff FAC_VWAP_Deviation_mean Y_LH_closepctchg5_sub RPP_30M FAC_ILLIQ_downmean Y_LH_cvcorr10_diff RPP_5D Y_P_cvcorr10_diff Y_P_oi5_diff FAC_tsi_first FAC_PRICE_VOL_CORR_A_kurtosis RPP_4H C_Y_volumediv20_diff5 FAC_PRICE_STD_A_Mstdwap FAC_ASKDEPTH_biddommean FAC_CORR_PVOL_RET_vwap C_Y_volumediv5_diff5 FAC_PRICE_VOL_CORR_A_MADmean FAC_VOI_kurtosis A_Y_volumediv5_diff5 A_Y_volumediv20_diff5 FAC_bid3_vmean_20_min FAC_MCIA_biddommean FAC_KDJ_corrBidwap FAC_OFI3_MADmean FAC_ask5_vmean_20_biddommean FAC_BIDDEPTH_askdommean FAC_ASKDEPTH_min CS_Y_closepctchg5_sub FAC_ORDER_SLOPE_B_askdommean CS_Y_volumediv20_diff5 FAC_PVcorrsub_a4b4_biddommean FAC_bid2_vmean_20_last FAC_STREN_biddommean FAC_PVcorrsub_a4b4_min B_Y_volumediv20_diff5 FAC_bid5_vmean_20_Mstdwap FAC_bid4_vmean_20_min FAC_OI_CHG_corrBidwap FAC_AVGDEPTH_min FAC_bid2_vmean_20_min FAC_ask4_vmean_20_biddommean FAC_RTN_JUMP_biddommean FAC_ask4_vmean_20_min FAC_bid_amount_sub20_biddommean FAC_PVcorrsub_a1b1_max FAC_MPC_min FAC_OFI4_MADmean FAC_PIR_std FAC_bid4_vmean_20_Mstdwap FAC_RTN_JUMP_Mstdwap FAC_STREN_downmean FAC_bid3_vmean_20_Mstdwap FAC_CORR_PVOL_RET_biddommean FAC_ask_amount_sub20_MADmean FAC_sub_a5b5_vmean_20_last FAC_bid3_vmean_20_askdommean FAC_bid1_vmean_20_askdommean FAC_CORR_PVOL_RET_Volraiseap FAC_CORR_PVOL_RET_max FAC_RKurt_askdommean FAC_ask2_vmean_20_biddommean FAC_ask2_vmean_20_askdommean CS_Y_volumediv5_diff5 FAC_PVcorrsub_a4b4_mean FAC_bid2_vmean_20_askdommean FAC_PVcorrsub_a3b3_askdommean FAC_RTN_JUMP_askdommean FAC_CMF_askdommean FAC_bid1_vmean_20_biddommean FAC_Momentum_Decay_biddommean FAC_OFI5_kurtosis FAC_AVGDEPTH_askdommean FAC_ask3_vmean_20_biddommean FAC_ask1_vmean_20_min FAC_OIR_min FAC_sub_a5b5_vmean_20_max FAC_ask3_vmean_20_min FAC_ask1_vmean_20_mean FAC_money_flow_power_first FAC_RSI_first FAC_OI_CHG_biddommean FAC_OI_CHG_upmean FAC_OI_GP_CH_askdommean FAC_OI_GP_CH_downmean FAC_ask2_vmean_20_last FAC_ask5_vmean_20_Volraiseap FAC_Depth_Reversal_TrendRevmean FAC_ask3_vmean_20_mean FAC_Bolling_kurtosis FAC_bid5_vmean_20_max FAC_Depth_Reversal_askdommean FAC_RVar_down_rate_TrendRevmean FAC_bid4_vmean_20_max B_Y_volumediv5_diff5 bar5_trend_corr bar3_trend_corr FAC_BIDDEPTH_Volraiseap FAC_ADTM_first FAC_bid2_vmean_20_Mstdwap FAC_MCIB_min FAC_bid1_vmean_20_last FAC_DBCD_min FAC_STREN_kurtosis FAC_PVcorrsub_a5b5_corrAskwap FAC_PVcorrsub_a4b4_Mstdwap FAC_OI_V_DIV_kurtosis FAC_PRICE_VOL_CORR_B_askdommean FAC_RKurt_vwap FAC_ILLIQ_biddommean FAC_ask_amount_sub20_askdommean FAC_OFI4_upmean FAC_ask4_vmean_20_vwap FAC_Momentum_Decay_first FAC_RUSHSTOPBID_kurtosis FAC_PVcorrsub_a1b1_mean FAC_NR_min FAC_PRICE_VOL_CORR_A_mean FAC_ask1_vmean_20_TrendRevmean FAC_RVar_down_rate_Volraiseap FAC_bid_amount_sub20_askdommean FAC_bid_amount_sub20_first FAC_bid1_vmean_20_first FAC_ORDER_SLOPE_B_corrBidwap FAC_ORDER_SLOPE_B_min FAC_ASKDEPTH_downmean FAC_ORDER_SLOPE_B_max FAC_Bolling_first FAC_tsi_askdommean FAC_SPREAD_kurtosis FAC_PVcorrsub_a2b2_min FAC_AVGDEPTH_MADmean FAC_MACD_last M_Y_volumediv20_diff5 FAC_MCIA_corrBidwap FAC_tsi_last FAC_Depth_Reversal_skewness FAC_ask1_vmean_20_std FAC_MCIA_askdommean FAC_RKurt_min FAC_ask_amount_sub20_kurtosis FAC_ask5_vmean_20_max FAC_PVcorrsub_a1b1_MADmean FAC_MCIA_min RPP_2H FAC_ADTM_last FAC_RSJ_askdommean FAC_sub_a4b4_vmean_20_askdommean FAC_Depth_OI_Pressure_askdommean FAC_OI_V_DIV_vwap FAC_MOFI_max FAC_bid1_vmean_20_TrendRevmean FAC_PVcorrsub_a5b5_askdommean FAC_OFI2_MADmean FAC_PVcorrsub_a5b5_min FAC_OFI5_biddommean FAC_ask3_vmean_20_last FAC_ask5_vmean_20_min FAC_ask3_vmean_20_first FAC_Imbalance_OI_MADmean FAC_Depth_Reversal_min FAC_OFI3_max day_first10rev TMB day_first4redcorr Y_P_closepctchg20_sub volatility_rg VHF FAC_resiliency_biddommean M_Y_oi5_diff ATR FAC_PIR_biddommean Y_LH_volumediv20_diff5 MAdiff_Vol_div FAC_resiliency_askdommean FAC_MLQSweight_min CR day_first10colarrate Y_P_volumediv20_diff5 SNR FAC_MLQSweight_askdommean Y_LH_vcorr10 FAC_PIR_first C_Y_oi5_diff C_Y_closepctchg20_sub FAC_SPREAD_first A_Y_oi5_diff Y_LH_volumediv5_diff5 Y_P_vcorr10 M_Y_closepctchg20_sub C_Y_vcorr10 FAC_OI_GP_CH_MADmean CS_Y_vcorr10 A_Y_vcorr10 B_Y_closepctchg20_sub FAC_MPC_max B_Y_vcorr10 CS_Y_cvcorr10_diff B_Y_closepctchg5_sub M_Y_closepctchg5_sub A_Y_closepctchg20_sub CS_Y_oi5_diff M_Y_vcorr10 RPP_10M FAC_ILLIQ_upmean B_Y_oi5_diff A_Y_cvcorr10_diff CS_Y_closepctchg20_sub PV_corr_std FAC_RVar_biddommean FAC_ORDER_SLOPE_A_biddommean FAC_ORDER_SLOPE_A_max up_shadow_5mean FAC_OI_V_DIV_MADmean Y_P_volumediv5_diff5 FAC_MCIB_biddommean FAC_VOI_std C_Y_closepctchg5_sub up_shadow_5std FAC_MPB_TrendRevmean FAC_QUA_biddommean Y_P_closepctchg5_sub C_Y_cvcorr10_diff down_shadow_5std lastprice_bias1 down_shadow_5mean FAC_OI_V_DIV_biddommean FAC_Depth_OI_Pressure_biddommean FAC_Depth_Reversal_max M_Y_cvcorr10_diff FAC_RVar_min FAC_MAX_askdommean FAC_OFI3_downmean FAC_CORR_PVOL_RET_upmean FAC_Bolling_std RPP_5M FAC_MCIB_vwap FAC_OI_V_DIV_upmean FAC_STREN_std FAC_ask1_vmean_20_kurtosis B_Y_cvcorr10_diff FAC_MAX_max FAC_PVcorrsub_a3b3_Volraiseap FAC_Depth_Reversal_std FAC_ORDER_SLOPE_A_askdommean FAC_Imbalance_OI_std FAC_RVar_askdommean FAC_Depth_Reversal_first FAC_QUA_vwap FAC_VOI_downmean FAC_MAX_std FAC_OI_GP_CH_TrendRevmean FAC_DBCD_max FAC_PVcorrsub_a4b4_max FAC_STREN_askdommean FAC_QUA_askdommean FAC_MPC_upmean FAC_RUSHSTOPBID_downmean FAC_Imbalance_OI_askdommean FAC_OFI5_std FAC_PRICE_VOL_CORR_A_skewness FAC_PRICE_VOL_CORR_A_corrBidwap FAC_PRICE_VOL_CORR_A_biddommean FAC_Depth_Reversal_mean FAC_CORR_PVOL_RET_min hour
feature_infos=[-35.975692099932388:32.470588235294116] [-0.25886766712141884:0.24736842105263168] [0:1] [-456.66666666666606:342] [-0.032655231975300292:0.020246201947524245] [-0.98004228593388631:0.99882766965587688] [-0.57329716544274956:6942.6557782220098] [-0.35909603699756243:0.12287521713296068] [-59:59] [-0.0004950478938860138:1.2999145939715293] [-0.10860531196572865:0.044429341424928381] [0.09110944594573997:0.10311248427663536] [-0.011048367296832801:0.0086550112515146275] [-0.062217275734398392:0.039558206729674361] [0.0090320587628070007:0.10307678485247911] [-0.032251043765993526:0.029738035771281313] [0:1] [-687.29398014354149:53.414018457188646] [-1.9735397500145702:1.923489352855857] [0:1] [-1.7823482223031044:1.7990999499563343] [-0.037671667471308234:0.037404575760628944] [-99.893781172382901:100] [-5.9250580782138664:129.24469813978502] [0:1] [-8.2836154460777038:13.168802947181339] [3.1622776601683813:4489.441097888016] [673.96532575822243:65043.773376382109] [-0.19729680342054451:71.60465642065266] [-58.297070958780992:61.553997726411517] [-0.99960216248367462:0.99996581876418145] [-0.89859481016958576:216.9063925121134] [-5.9819362765741353:5.7043789193203835] [-1.9692489964617639:4.2905036245198138] [0:5.6603986582437775] [0.00029035319989165805:0.0010311557326568377] [-1668.7199781437982:136.97323397899697] [-2373:821] [0:7.6093347902855477] [7.8990909090909085:67857.166361552605] [0:90769.066401615884] [-0.020345228650226921:0.019995252658339235] [-10.511434507218778:-0.002119943621791969] [-1.3685820725312925:3.8107870378716937] [-2.0000090915733342:2.0000083225877958] [0:16.028387332315145] [-1:1] [-2.0000475900008565:2.0000003011170229] [-0.77004951570168967:2.4452325902310168] [0:8.4369906398689647] [0:6.5813814377617668] [-0.0044769318219186616:0.0019353202997351995] [1:987.5] [0:9.5330315239305516] [0:9.783714257997925] [-1:0] [0:5.052144581486183] [-5202218:15665668] [-1.8048931572113092:1.9999514269570757] [-0.50017259233690026:0.001390981801321356] [-972:1648] [0:0.3121640536305908] [0:8.5486377474306714] [-1:0] [-0.91191709844559588:0.024242424242424242] [0.01736168637004384:9.7206348489638135] [-3.0716103373651422:81.179446443262393] [-6691308:8571164] [-71480:80439] [0:4.3575196427243048] [0.010143829406023959:5.5798247775793071] [0:32.055923074394542] [-2.5310077517825094:118.91094383291946] [3.1142954713203146:119.99974955861488] [0.014748073604733295:4.9633940884244572] [0.018180725599622562:9.6349864525819928] [-16.689984895005814:17.512933825433823] [-2.0000009686612867:2.0000005622536619] [0.021144652707763043:4.5864797801926125] [-1.9999997993215282:2.0000002679769664] [-1:0] [-2166.0205015654133:4854.1603400274053] [0.012402098137964329:5.287878315724039] [-0.79231097653082483:0.81843067190276853] [-1.6096849217910854:235.75269202515079] [1.5:5317.3641975308637] [0.017210876825325214:3.2553736953496206] [0.0042936066155169405:3.9942663667247418] [-1:0.85625431928127149] [-45538:85355] [0:4.6313384876740544] [0.0096619605153931559:12.62804535490616] [-1:1] [0:99.963951407087563] [-0.00085025365109481221:0.0019353202997351993] [-3.3014244806877772e-05:2.4604496272462757e-05] [-1:1] [-0.0090053607075678208:0.012405700675838688] [0.0077809138702501111:9.672549159123788] [0:7.4147292957088711] [-0.0074710494829648665:0.0031180178704236167] [0.0092237464151399828:6.5240378417014817] [-1.563613903418728:116.3644403651478] [0:10.362119702347957] [-0.0014505755863705473:0.0011368607254033736] [0.00042718105503076537:0.99918165624650268] [0:10.329395725656999] [-7.4049416578033433:6.803900614480364] [-1:1] [-1:1] [1602.0951205304416:129021.90097133649] [-2060.2000008347482:122009.1343162928] [0.024296169626747931:11.285617214295723] [-0.0075688122838133533:-0.00032181927844649849] [0.0045078830384148926:6.4554418308203223] [-0.37764091372986219:0.00013835902946563835] [-1.3348499905585069:240.00000000000037] [-1.9991188859200015:1.9999999896156524] [-1.9996761446738724:1.9999973656031036] [0.50386582424839688:226.55026816737671] [-0.99994561279976601:0.99849627523115514] [2.9465984342345473:113.42522531488034] [-313.9705878514697:688.89049983586688] [-6691308:12303576] [-138.29716981132074:18.184100418410043] [0:8.6110870228875367] [-0.85978411025228907:0.86171921437622767] [-1.3130288920681634:226.08573106211119] [-1.8532727966322891:1.9990028655151784] [-0.10159758994980278:0] [-0.99877622652418341:0.99995308866271249] [0.012847939355836512:4.8457535582883473] [0.0039281991410988091:0.99793428318901778] [-22418462:2566202] [-26465384:23839700] [0.0054669918147579911:6.4549009324418867] [-10.590419989360306:-0.001251201525969282] [-144.80000000000001:-0.0013199142055766375] [0:59244.063290871731] [-11.844686648501362:-0.0010377480866519651] [-4.149467354487018:4.1051833995379585] [-99.99020577065393:99.713163154509843] [-2.034656099864868:158.32667063614295] [-2.0000169107521044:1.9998459899583105] [3.5:3048.0787878787878] [-1.5043493225704139:404.57097670148789] [-8.7256560875510019:17.509920378433055] [0.00031161303241190939:0.0092945069646062344] [-100:99.990287684882361] [-6.5657865528034547:7.0710678118654773] [0.0033303690292015363:14.92596458506311] [0.00021721608116720924:0.0099531510271956437] [2.1840201340132679:117.5889451603356] [-0.52870897538386563:210.54211443657587] [0:11.927585754659329] [-1.9192992548875385:1.9990924460713069] [3.753495358680221e-05:0.0014469137437530825] [0:1] [-1945.8108108387637:14698.31250369269] [-0.99966212223056816:0.99999942563208377] [-43334:59990.529999999999] [-12.66902107811484:-0.0031901523126343315] [8.5543410226439275e-06:0.062865088691230808] [-866.39999999999998:2394.6666666666665] [0.01277499955395121:5.1763796367163062] [-2.0000056260589529:2.000025587736328] [-571:1019] [-2.0000499597094263:2.0000043334854811] [-1051:2344] [0:9.5913708431082991] [0:4.8125921889121761] [0.0084475434450690216:9.5915888894116783] [-219.26666666666665:827.13207547169816] [-0.15723270364013731:0.0050927495548738003] [-2373:7145] [0:4.7621178535437991] [-67.035297105401256:19.860359855109753] [-0.98853511678135431:0.99987992854520857] [-0.078509767708137335:0.12510524274098] [0.083333333333333329:19.108333333333348] [2.3999999999999999:58.799999999999997] [41.672287543863717:1000] [-0.019814516158922824:0.02036485520740916] [-7.1797357363284267:6.977743301428327] [-0.24201091532636554:0.29308460252374158] [-1116.0802976889931:1209.0903751420992] [-139.49599881446446:247.59848040522607] [41.669936397918526:1000] [8.4072788740607784e-05:0.0003209671250715728] [0.88674321503131159:1.1577928363988632] [0:0.80000000000000004] [-2.3732969156270132:15.722292660745904] [0.00026051843315252681:0.038985992942181483] [9.1532215237498144e-05:0.00054194088865936883] [-0.94631802755660888:0.99967455468757427] [-1:0.11072933432193431] [-0.028744186849047559:0.044226301706395299] [-0.055213567153838294:0.092551376795826035] [-2:-0.00016302044367338099] [-0.047162616178112238:0.050490208744931486] [-6979.4074074074078:6524.291666666667] [-0.80587454821195359:0.99974539235381477] [-0.12567234147545026:0.082525698276489812] [-0.97640296508062097:0.99954623946444288] [-0.70158438590213668:1] [-0.90951419770285202:0.99974896245221578] [-0.93896460332074627:0.99973079677066068] [-0.082136348906546197:0.080692960748213638] [-0.0069811958112825367:1.0023020257826887] [-0.94653031909254115:0.99649656422572441] [-1.9299208125178904:1.9176576730505761] [-0.019397012747107922:0.031261930154853568] [-0.024086859346185152:0.017369473998266716] [-0.060652976127189451:0.075795891344482169] [-0.049409594243967514:0.078469491947299685] [-0.95302020366969287:0.99960586058130618] [0:1] [-617.84663940935263:44.278989984327048] [-0.089703453714129244:0.072287673153243137] [-1.9149496569584143:1.90688451495358] [-0.054885505673855195:0.075094043053773984] [0.0012466531727648852:1.0508766977281647] [0:1] [-7.5432514917420521:0.24242424242424243] [-4.1593908629441625:1.6000000000000001] [0:8.0000000000000444] [0:1] [-14.068542237391931:12.322219853314031] [-0.001428905028023528:-0.0002771508269828008] [0.97680902210262321:536.7687599038843] [-0.020798837549813154:0.020448817050628287] [0:13.228849879555025] [-1.9528672822557216:2.4931455550697552] [0:0.3252833174440376] [-0.020289584131761851:0.012738145191766193] [-1.8373658969659181:1.8879896986228442] [0:13.671584683957754] [0.0066666666666666671:0.85833333333333328] [0:9.8109890109890667] [0:0.025566317778846128] [0.0035099023713587238:10.763146717753568] [-0.0075887001451054228:0.47507404995166203] [-1.836706571351006:1.8745573063771008] [2.0943499820743126e-06:1] [-47.527772677595664:8702.9380818181835] [-25.761658031088082:145.57499999999999] [-0.9511377646669319:1.2380793233793781] [0.008390434686356904:1.1998046703083918] [0:1] [-0.0010667788544985687:-0.0001199574075653105] [0:0.0017995676729685277] [0:0.77603577251512823] [-1.9525097405622005:52.321910032288798] [-1.8657266447644969:1.8209091281480512] [-14.266899999998714:8704.0833000000002] [-1.9986300158944912:1.9360668352444868] [0:0.076131141967399216] [-5.4064018393516111:0.13676212741087085] [0.026307049013859617:168.64627315548407] [0:1] [-0.053831865948392572:0.44201657972858843] [0:0.34463317643338826] [-46.613553113553088:121.56940418679548] [0:3958.5157782573765] [-0.064747990194906624:0.096803792015033585] [-0.00023795413303269596:0.0030208175789498844] [-2.0000008071357058:2.0000487235541633] [-1:1] [0:0.27860465116279071] [-0.0066936035765981878:0.025087264619331508] [-0.00089266649202331789:0.0017422092316160219] [-616.46357615894044:827.13207547169816] [0:976.82052163439585] [-10.987997980116569:4.8169405653334332] [-0.98402829361355948:0.99943053383778169] [-0.99948885364708495:0.99992597536077887] [-0.010351675183457915:0.028844133430979167] [-8.2799202740202364:58.794100372950552] -1:14:9:22:21:10:11:13
tree_sizes=2702 3284 2759 2840 2489 3088 3172 2975 2738 2474 2712 3107 2298

Tree=0
num_leaves=27
num_cat=0
split_feature=16 178 90 177 7 212 5 156 139 4 5 5 90 188 3 30 245 26 89 35 202 247 183 85 274 18
split_gain=39.9476 100.433 43.5974 39.097 37.8436 34.7424 31.2583 30.4015 26.0003 21.0843 18.7568 18.3598 21.4796 58.5138 73.1996 30.2122 17.9205 17.0617 23.0177 17.0385 15.9095 15.6144 15.791 14.908 10.868 7.71566
threshold=0.32274865591397855 0.0027516331298189649 0.084280004017440444 0.95451614856709222 -0.00030136367140520809 0.00055363946940939501 -0.68757723114177682 0.00036863223461960004 -0.0077783197770492285 -0.0032673424723095863 -0.27807330632610278 0.72473236505341554 0.096916593857051689 0.00013849790973199344 -30.999999999999996 0.38788907033609815 13.794618725868729 3.1650120630801912 7021.5000000000009 0.00056341559225267111 -0.00066985994637441804 0.64788917216927655 -0.24570301954298487 37.111716985617505 0.33651092884819511 0.35036344543492787
decision_type=8 10 2 8 8 10 10 2 2 10 10 10 2 10 10 10 2 2 2 10 8 8 10 8 10 8
left_child=1 2 6 4 7 -5 23 -3 -8 10 -4 17 13 15 -15 -13 -11 18 20 -6 -2 22 -14 -1 -23 -20
right_child=11 3 9 5 19 -7 8 -9 -10 16 -12 12 21 14 -16 -17 -18 -19 25 -21 -22 24 -24 -25 -26 -27
leaf_value=0.002618357511744837 0.0044677241722130175 0.0044970625516955369 0.0038324470605239319 0.0038967508229838595 0.004000569830784559 0.0022966716543623054 0.0042138016741884035 0.0033627489917033644 0.0030813305428872609 0.0043551134602646145 0.0043575430740721418 0.0033285834636504019 0.0043676110320501338 0.0070391775658879049 0.0048690985012409174 0.004599084590571614 0.0045655617982033585 0.0036735198676676835 0.0040273637323510894 0.0048439266954913261 0.0043387040214229022 0.003385105103156105 0.0045739656939936925 0.0037236377035608607 0.0043330127537172724 0.0042808439359965714
leaf_weight=519 48772 723 3133 598 1318 815 6488 3049 551 36811 3761 531 19373 547 1367 3849 13926 865 5130 1095 46741 564 17869 797 675 7407
leaf_count=519 48772 723 3133 598 1318 815 6488 3049 551 36811 3761 531 19373 547 1367 3849 13926 865 5130 1095 46741 564 17869 797 675 7407
internal_value=0.00436163 0.00426583 0.00432859 0.00372146 0.00389426 0.0029695 0.00399105 0.00358147 0.00412427 0.00437744 0.00411814 0.00440749 0.00449274 0.00476372 0.00549297 0.00444372 0.00441278 0.0043724 0.00437805 0.00438125 0.00440453 0.00444827 0.00446676 0.00328295 0.00389705 0.00417671
internal_weight=227274 73584 65986 7598 6185 1413 8355 3772 7039 57631 6894 153690 44775 6294 1914 4380 50737 108915 108050 2413 95513 38481 37242 1316 1239 12537
internal_count=227274 73584 65986 7598 6185 1413 8355 3772 7039 57631 6894 153690 44775 6294 1914 4380 50737 108915 108050 2413 95513 38481 37242 1316 1239 12537
is_linear=0
shrinkage=1


Tree=1
num_leaves=32
num_cat=0
split_feature=0 184 175 4 5 177 5 0 36 181 192 206 180 195 222 1 5 180 196 211 2 7 183 16 219 235 222 187 175 43 227
split_gain=40.0549 33.2446 35.4843 55.3631 61.1645 55.4717 26.5056 21.774 52.3355 26.6152 37.7224 60.9443 20.1916 57.2734 21.6402 19.7725 16.9884 25.8301 16.7137 16.4601 13.8052 12.5778 16.5498 15.0812 14.5564 18.0088 13.9612 12.1057 12.0507 11.5152 7.51481
threshold=-2.6664860226708202 -0.00045052560823680447 1.8145666367265636 -0.0040738912166261567 -0.68757723114177682 1.0000000180025095e-35 0.23482293574429294 5.4001985440105837 51.459722987161733 199.45494414619816 0.0085283791456146792 0.033720031513144302 13.900000000000002 -0.00040815893907955684 0.014200381684273598 0.039055413598348084 -0.44833729923115923 13.900000000000002 -0.00083864706145864154 0.0007938325277859205 0.93496846403441625 -0.0048659519342444937 1.1382450076691171 0.091372912801484255 -0.533038991778511 0.59673997974966919 0.010024611930234384 184.55056286687474 1.4048808511073543 -0.069062956050754812 -0.018304819448242578
decision_type=10 10 10 10 10 10 8 10 10 8 10 10 10 2 10 8 10 10 10 8 10 8 8 10 8 10 10 8 10 8 10
left_child=1 21 6 5 -5 -4 19 9 15 10 28 -12 14 -14 -10 18 29 -18 -9 -3 -8 22 23 -1 26 -26 -23 -24 -2 -11 -17
right_child=7 2 3 4 -6 -7 20 8 12 16 11 -13 13 -15 -16 30 17 -19 -20 -21 -22 24 27 -25 25 -27 -28 -29 -30 -31 -32
leaf_value=-0.00062239718784475051 -1.6418936000133856e-05 2.5287028350166832e-05 -0.0014369180910126305 -0.00087260263882264451 -8.1759513074581289e-05 -0.00027754314378344809 -0.00014775752275614118 0.00021809205373345415 2.6189564593440538e-05 -0.00057948357022128739 -0.00048345514340185819 0.0014234890970042558 0.00075877857023216671 -0.00066985886771507954 0.00027943885466128366 0.00055047930652935559 2.9266844174133897e-05 -0.00043642658679156858 0.001124085797156512 0.00047385607768155876 -0.00095788922127383927 4.7719569024186875e-05 0.00012789904510412619 0.00029677752970884164 -0.0001159410952019506 0.00015875331208667045 0.00062602945618381474 0.0010490471485573619 0.00015194862613035414 -0.00015624522664023491 -0.00013456416318343326
leaf_weight=646 20719 6728 1999 2875 16455 2159 12518 685 22501 1851 621 1264 965 2544 13542 795 35222 3251 2167 2954 551 2929 596 1436 23346 8003 1639 941 21715 12870 787
leaf_count=646 20719 6728 1999 2875 16455 2159 12518 685 22501 1851 621 1264 965 2544 13542 795 35222 3251 2167 2954 551 2929 596 1436 23346 8003 1639 941 21715 12870 787
internal_value=0 -8.52554e-05 -0.000176287 -0.00031263 -0.000199681 -0.000836338 -3.52993e-05 5.16792e-05 0.000144036 9.96669e-06 0.000100508 0.000792685 8.61363e-05 -0.000275445 0.000121484 0.00065925 -6.53751e-05 -9.96499e-06 0.000908387 0.000162698 -0.000182367 2.10848e-05 0.000302027 9.01504e-06 -7.09139e-06 -4.56528e-05 0.000256403 0.000695421 6.96245e-05 -0.000209838 0.000206661
internal_weight=227274 85775 46239 23488 19330 4158 22751 141499 43986 97513 44319 1885 39552 3509 36043 4434 53194 38473 2852 9682 13069 39536 3619 2082 35917 31349 4568 1537 42434 14721 1582
internal_count=227274 85775 46239 23488 19330 4158 22751 141499 43986 97513 44319 1885 39552 3509 36043 4434 53194 38473 2852 9682 13069 39536 3619 2082 35917 31349 4568 1537 42434 14721 1582
is_linear=0
shrinkage=0.005


Tree=2
num_leaves=27
num_cat=3
split_feature=190 5 1 175 223 278 196 225 38 193 8 3 187 278 207 0 215 85 177 278 63 218 1 200 73 155
split_gain=32.0084 82.5312 160.612 100.251 78.0206 55.6117 35.7554 25.9134 20.3456 38.9219 36.0416 54.917 25.2162 27.1042 18.6914 18.1499 18.0994 17.4565 60.2519 23.0784 15.9793 13.2664 12.6935 7.58364 6.01783 1.88134
threshold=0.65000000000000002 0.60943720360243858 0.073329980174088108 1.5276256926333742 0.01669480501841045 0 0.00024037262053289157 1.2000000000000643 0.070907052321964162 0.00015148934211130433 -41.499999999999993 -38.666666666666963 177.67120676349299 1 0.0015795001330254357 8.0630591451292268 0.51860052242312182 47.041655651024463 0.34552568173187342 2 -0.0040284790546906033 -0.002210977704801997 -0.0060665150749852894 -15.689046718842752 13.345780757967992 1.3549572851746958
decision_type=10 10 10 10 10 1 10 10 8 10 8 10 10 1 8 10 10 10 8 1 2 8 10 10 8 8
left_child=8 2 7 23 -4 -5 -6 21 12 10 11 -10 14 20 24 -12 -15 18 -11 -19 -14 -2 -9 -3 -1 -7
right_child=1 3 4 5 6 25 -8 22 9 17 15 -13 13 16 -16 -17 -18 19 -20 -21 -22 -23 -24 -25 -26 -27
leaf_value=0.00093070454403387933 0.00038790958182391373 -1.1772530675149544e-05 -5.8007732410866692e-05 0.0021813193469237659 -0.0012363704005511134 0.00067847195298662043 -0.0025602677485831531 -0.00090305985275616549 -0.00081983990360076002 0.0009667371664093472 9.2228668077818993e-06 -8.6249764390551351e-05 0.00068985525961033991 -0.0010810300911524543 -0.00055852361736895392 0.00018032702426363516 -3.3174736572286784e-05 -0.00016767378695415738 5.4127644276678778e-06 0.00027060257826665249 -0.000343258866946658 -8.2434136913033351e-05 -0.00021600048538008386 -0.00064722762092784289 0.00020444821280724338 0.00023262162298823779
leaf_weight=607 1858 908 767 882 1004 522 1090 1295 3017 3009 145018 16651 554 1804 512 17364 547 4374 3578 9474 1148 7735 1449 1009 579 519
leaf_count=607 1858 908 767 882 1004 522 1090 1295 3017 3009 145018 16651 554 1804 512 17364 547 4374 3578 9474 1148 7735 1449 1009 579 519
internal_value=0 -0.000196239 -0.000361899 0.000458037 -0.00142919 0.00126493 -0.00192878 -0.000113888 1.7941e-05 2.62933e-05 3.0396e-06 -0.00019907 -0.000275217 -0.00048988 0.000234212 2.75513e-05 -0.000835918 0.0002332 0.000445393 0.000131881 -3.81481e-06 8.17317e-06 -0.000542283 -0.00034901 0.000580833 0.000457038
internal_weight=227274 19038 15198 3840 2861 1923 2094 12337 208236 202485 182050 19668 5751 4053 1698 162382 2351 20435 6587 13848 1702 9593 2744 1917 1186 1041
internal_count=227274 19038 15198 3840 2861 1923 2094 12337 208236 202485 182050 19668 5751 4053 1698 162382 2351 20435 6587 13848 1702 9593 2744 1917 1186 1041
cat_boundaries=0 1 2 3
cat_threshold=19456 4203008 4195328
is_linear=0
shrinkage=0.005


Tree=3
num_leaves=28
num_cat=4
split_feature=181 0 175 278 184 175 278 178 177 278 180 278 152 12 225 173 192 156 10 256 12 112 256 173 5 104 85
split_gain=30.6023 40.8865 52.9409 52.1938 47.2423 39.7391 57.845 39.0979 36.3057 35.2711 34.7909 29.9811 33.6228 45.6788 26.7033 25.7741 20.5669 22.6495 19.8221 17.0861 15.6438 14.8197 14.359 12.0687 11.5852 10.5326 8.06061
threshold=99.500996695128734 1.0000000180025095e-35 2.0817167896389726 0 -0.00040428115855495474 1.6030061805257017 1 0.0018009033843199298 0.70746060005410627 2 12.500000000000002 3 4.2062908061573578 -0.0015597365162410518 0.97777777777782082 -0.00048449893469003938 0.0052535717177340392 0.00041747912695335674 -0.0039117084047166619 5.5986306111934461e-05 -0.00068333238647639248 0.29772837889754422 0.00046345519421143701 -0.00013656892617231218 -0.21693278758884324 -2.801990325657095e-07 83.667635658914747
decision_type=8 10 10 1 10 10 1 10 8 1 10 1 2 10 10 8 10 2 10 10 10 2 8 8 10 10 10
left_child=5 2 7 8 -5 15 23 10 -4 -9 -2 12 13 -3 21 25 18 -18 -13 -14 22 -8 -17 -7 -16 -1 -22
right_child=1 11 3 4 -6 6 14 9 -10 -11 -12 16 19 -15 24 20 17 -19 -20 -21 26 -23 -24 -25 -26 -27 -28
leaf_value=-0.00016660123635518949 -6.7016614226289929e-06 0 -0.00038745408676247949 9.161307000447557e-05 -0.00041224686709979719 0.0018829244809386758 0.0011880304643349005 0.00015175086127720564 -0.0011782434099993186 -0.00049432027528192282 0.00047683554136225971 0.00041629420804820973 3.2575960924943802e-05 0.0021340155635612783 0.0001652592683906073 -0.00040361834016048047 -0.00037616654961778714 -3.5441333944360807e-05 2.3829104859728131e-05 0.00024164149491027854 0 0.00031013582835871654 0.00017278541460703326 0.00094858351951223805 -0.000796493293904734 -0.0011298349466230674 0.00071294341692904734
leaf_weight=555 63624 504 3920 9527 9067 734 651 2947 2333 7348 3949 3487 19509 500 566 1647 6574 19052 42042 19709 571 1939 3130 721 680 612 1376
leaf_count=555 63624 504 3920 9527 9067 734 651 2947 2333 7348 3949 3487 19509 500 566 1647 6574 19052 42042 19709 571 1939 3130 721 680 612 1376
internal_value=0 -1.43979e-05 -8.63674e-05 -0.000287331 -0.000153742 0.00023381 0.000569043 -2.21746e-05 -0.000682348 -0.000309229 2.14891e-05 5.19296e-05 0.000161024 0.00106486 0.00024241 8.3554e-06 -9.69111e-06 -0.000123056 5.40057e-05 0.000137773 0.000128054 0.000533099 -2.49418e-05 0.00141462 -0.000355822 -0.000676557 0.000505817
internal_weight=227274 214092 102715 24847 18594 13182 5291 77868 6253 10295 67573 111377 40222 1004 3836 7891 71155 25626 45529 39218 6724 2590 4777 1455 1246 1167 1947
internal_count=227274 214092 102715 24847 18594 13182 5291 77868 6253 10295 67573 111377 40222 1004 3836 7891 71155 25626 45529 39218 6724 2590 4777 1455 1246 1167 1947
cat_boundaries=0 1 2 3 4
cat_threshold=3072 1536 2113536 4204544
is_linear=0
shrinkage=0.005


Tree=4
num_leaves=24
num_cat=0
split_feature=2 9 235 7 114 4 0 213 182 177 181 41 166 12 71 12 129 35 237 222 183 86 170
split_gain=31.1768 86.4702 62.6166 42.7446 41.8929 32.7907 23.2907 32.673 40.0721 39.2347 28.893 22.3082 18.8547 16.015 30.4706 13.793 13.7523 12.1518 27.7378 18.4607 12.022 11.361 10.609
threshold=0.044136745607333848 -0.00022111297451676956 0.44931170528503683 0.0011441735414118306 0.20071201655486975 -0.0018252964660868674 -3.8418887689273942 -0.0032661469692988328 -0.0028071986105163145 -0.38557026455456184 234.77673988410362 -0.0018919393630489887 0.051188470896500103 -0.00068333238647639248 3.9039812155926499 0.00054195646725253388 -0.0004614289651382291 0.00055587613890150961 0.30812382149591461 0.035264487314536234 -0.24570301954298487 0.54479396268071945 0.18768056287802401
decision_type=8 2 10 8 2 10 10 8 8 10 10 8 2 10 8 8 2 10 10 10 10 10 2
left_child=1 3 15 5 -5 -1 7 9 10 -2 -9 -10 17 16 -15 -3 -14 19 -19 -8 -7 -6 -11
right_child=6 2 -4 4 21 20 12 8 11 22 -12 -13 13 14 -16 -17 -18 18 -20 -21 -22 -23 -24
leaf_value=-0.001255070095021131 0.0002007159186527133 -0.0012347709182853675 -0.0027119522042870032 0.0015981751087044208 -0.00021897285797893248 0.00029942432698434402 -3.0830233324323405e-05 0.00015615409192880274 -0.00053498616718415421 -0.0016236781068468395 0.001197447952039795 -6.1525483738264755e-05 -0.0002383476822933517 0.00034637066013222826 -4.8291158136588624e-05 -0.00019816761490672009 8.0217470846001451e-05 -2.1438858624263676e-05 0.00021730059909215774 -0.00038014911458923224 -0.00039092497236327249 0.00062587471984236356 -0.00067144330696249121
leaf_weight=800 749 593 528 640 1061 1098 36522 1995 2623 747 1010 49446 3743 15006 7224 729 35081 44037 16795 4225 1468 632 522
leaf_count=800 749 593 528 640 1061 1098 36522 1995 2623 747 1010 49446 3743 15006 7224 729 35081 44037 16795 4225 1468 632 522
internal_value=0 -0.000315919 -0.00125486 -1.00794e-05 0.000509023 -0.000371403 1.08551e-05 -7.59969e-05 -5.29959e-05 -0.000700911 0.000508085 -8.54821e-05 4.13753e-05 0.000110816 0.000217898 -0.00066751 4.93707e-05 -3.13707e-07 4.43946e-05 -6.71818e-05 -9.35728e-05 9.3642e-05 -0.00123675
internal_weight=227274 7549 1850 5699 2333 3366 219725 57092 55074 2018 3005 52069 162633 61054 22230 1322 38824 101579 60832 40747 2566 1693 1269
internal_count=227274 7549 1850 5699 2333 3366 219725 57092 55074 2018 3005 52069 162633 61054 22230 1322 38824 101579 60832 40747 2566 1693 1269
is_linear=0
shrinkage=0.005


Tree=5
num_leaves=30
num_cat=0
split_feature=6 207 180 206 183 191 208 8 187 4 52 268 189 19 2 95 191 0 19 263 233 6 151 48 210 188 120 140 111
split_gain=30.2884 35.6118 48.9956 65.725 31.392 24.8076 15.3204 25.4845 23.9697 20.2093 34.0451 14.2649 13.5701 27.5404 22.286 19.6717 17.6587 12.7278 12.116 12.0462 11.3025 11.1396 14.0715 10.7525 11.5642 10.0926 8.21666 7.42322 6.58037
threshold=0.031955268129026153 -0.0025320927377301956 12.500000000000002 0.068057692999154026 1.5006679565670016 0.042195679277432348 0.00025367833995137984 -41.499999999999993 108.71496698427207 -0.0011983523434284102 12.250000000000002 0.090341947129031416 0.99639732372620704 0.75950635448111425 0.63368702504925423 -6.250702436855368e-07 1.0000000180025095e-35 5.4001985440105837 0.75950635448111425 2.4615841170511659 0.038398852851056008 -0.062328029197861519 0.00060688974147921819 -0.0063176628413832763 -0.29295151983402162 0.0001247056612744093 -0.60135769642551873 -0.019725501476620184 0.6086454434626648
decision_type=2 8 10 10 10 10 2 8 8 10 2 8 10 8 10 2 10 10 10 8 10 2 10 8 8 10 10 10 8
left_child=6 12 17 5 -5 -4 11 9 18 10 -8 21 15 14 -14 -2 -17 26 -9 -10 -19 28 -23 27 -25 -11 -3 -13 -1
right_child=1 2 3 4 -6 -7 7 8 19 25 -12 23 13 -15 -16 16 -18 20 -20 -21 -22 22 -24 24 -26 -27 -28 -29 -30
leaf_value=2.8999599810522934e-05 -0.00062287068309818802 1.690636936462254e-05 -0.00075469190500396883 -0.00043023790333278198 0.00031676897172163538 -0.001697328069669177 -0.0014519363774441007 0.00056567749888640267 0.00011482248823609067 -0.00037347475053958339 -0.00020039311924666481 -0.00055822570482278887 0.00095903683223989692 -0.00041327210417510155 -1.0163977760330094e-06 0.00063716799974494406 -0.00016320044007620574 -1.7888634725090208e-06 7.6056454049361198e-05 -2.8209066673336361e-05 0.00047298791450694724 8.1591570616470021e-05 -0.00011650610850048666 -0.00033709307621085003 2.1614229105280015e-05 6.4070552626760028e-05 -0.00017185581583454857 -0.00014351365496965558 0.00019354485059552753
leaf_weight=15614 933 8060 2604 3861 2204 976 717 4018 60232 1640 2291 2338 1954 745 860 1311 1436 4284 1880 19413 1759 14428 23596 3050 8443 6664 19845 2079 10039
leaf_count=15614 933 8060 2604 3861 2204 976 717 4018 60232 1640 2291 2338 1954 745 860 1311 1436 4284 1880 19413 1759 14428 23596 3050 8443 6664 19845 2079 10039
internal_value=0 -0.000107539 -0.000161535 -0.00047609 -0.000157946 -0.00101348 3.09805e-05 7.32256e-05 0.000102754 -0.000149618 -0.000500761 -2.0368e-05 0.00021691 0.000437006 0.000663958 2.63085e-06 0.000217047 -7.20073e-05 0.000410497 7.98967e-05 0.000135638 1.30203e-05 -4.12074e-05 -0.000154306 -7.31652e-05 -2.17751e-05 -0.000117156 -0.000364237 9.35924e-05
internal_weight=227274 50832 43593 9645 6065 3580 176442 96855 85543 11312 3008 79587 7239 3559 2814 3680 2747 33948 5898 79645 6043 63677 38024 15910 11493 8304 27905 4417 25653
internal_count=227274 50832 43593 9645 6065 3580 176442 96855 85543 11312 3008 79587 7239 3559 2814 3680 2747 33948 5898 79645 6043 63677 38024 15910 11493 8304 27905 4417 25653
is_linear=0
shrinkage=0.005


Tree=6
num_leaves=31
num_cat=3
split_feature=24 90 1 4 267 208 187 184 278 5 49 196 71 11 151 278 187 9 183 39 18 278 222 3 209 146 17 234 177 267
split_gain=41.59 68.2532 49.1929 49.5887 32.8126 30.0042 27.5743 49.1892 34.2418 25.2095 32.3411 28.0992 40.1688 29.5808 22.6595 21.4323 20.8374 25.8131 43.1675 25.7318 15.8454 14.7126 14.6033 12.843 10.1986 9.98958 14.7038 11.4647 9.23476 8.257
threshold=0.10592130892091937 0.1528455175007731 -0.016127250831926006 -0.0021975230382770823 -1.0000000180025095e-35 0.00044101433832666187 233.87406531969842 -0.00036709249127250847 0 0.77468754622505165 0.37577341814707138 0.0019059296437587416 1.6986978529983228 0.10108073210184869 0.0006293976972023543 1 158.43464231948607 -0.00020153671979830737 -1.8389305713173754 3540.3476968493783 -0.45966102400715103 2 0.016272479740258236 57.333333333333037 0.26685099793425837 -0.19447913744252895 -8.5287803562124456 0.00053753840663756114 0.87065075494137456 0.01120456970686084
decision_type=8 2 10 10 10 2 10 10 1 10 2 8 10 10 10 1 10 2 8 8 10 1 10 10 10 10 10 10 8 8
left_child=1 2 3 5 -5 -1 8 -8 -4 16 11 13 -13 -11 25 24 19 23 -19 -2 29 -21 -17 -18 -16 26 -3 -27 -22 -12
right_child=9 14 6 4 -6 -7 7 -9 -10 10 20 12 -14 -15 15 22 17 18 -20 21 28 -23 -24 -25 -26 27 -28 -29 -30 -31
leaf_value=-0.0010909373002384532 0.00085472235721452069 -0.00017334786254562807 -0.001347388415907049 0.00048119511372199104 -0.00095341202509195537 -0.0027573743437116884 0.0011001104907354983 -0.00061628935263170368 -0.00018795550786717468 0.00024991196630194586 4.7698363818452141e-05 -0.0014035926293499599 5.2108943620933653e-05 0.00097041966012457494 -0.00053382712625452957 0.00021650082224655446 5.0876996711703169e-07 0.00043333077217978675 -0.00032942401728828038 -0.00014853378179218216 0.00015199509992677533 7.5682576154532542e-05 0.0008605280374344653 -0.00027046028933195898 0.00013862916896645582 -0.00013225652490394033 0.00061142850467114159 -0.00059269883576286637 -0.00034469266675469129 -0.00022175434527228966
leaf_weight=572 998 1655 895 524 1608 540 861 805 2228 22609 4169 566 2853 1526 979 2309 64520 2111 14976 8429 11951 54485 1452 4687 1309 5103 928 1861 1009 8756
leaf_count=572 998 1655 895 524 1608 540 861 805 2228 22609 4169 566 2853 1526 979 2309 64520 2111 14976 8429 11951 54485 1452 4687 1309 5103 928 1861 1009 8756
internal_value=0 -0.000198562 -0.000572972 -0.00104877 -0.000598412 -0.00190642 -0.000249478 0.000267886 -0.00052707 2.30384e-05 0.000116312 0.000235537 -0.000187754 0.000295713 -5.37102e-06 0.000233705 -1.0113e-05 -6.08225e-05 -0.000234878 5.82767e-05 -1.04108e-05 4.55499e-05 0.000465393 -1.77738e-05 -0.000146388 -0.000157383 0.000106793 -0.000256087 0.000112916 -0.000134458
internal_weight=227274 23629 8033 3244 2132 1112 4789 1666 3123 203645 53439 27554 3419 24135 15596 6049 150206 86294 17087 63912 25885 62914 3761 69207 2288 9547 2583 6964 12960 12925
internal_count=227274 23629 8033 3244 2132 1112 4789 1666 3123 203645 53439 27554 3419 24135 15596 6049 150206 86294 17087 63912 25885 62914 3761 69207 2288 9547 2583 6964 12960 12925
cat_boundaries=0 1 2 3
cat_threshold=6291968 4204544 2048
is_linear=0
shrinkage=0.005


Tree=7
num_leaves=29
num_cat=0
split_feature=8 178 157 195 15 196 0 194 32 5 103 67 16 173 277 187 201 254 188 18 219 96 144 35 11 271 149 11
split_gain=33.5945 33.0925 36.9617 49.6604 22.4179 21.4199 34.0054 24.5428 19.6176 19.5023 28.3456 16.4289 22.9798 22.5574 26.385 21.5678 20.4902 20.1616 17.4073 16.8936 15.2397 14.4148 14.3032 11.5461 10.7107 6.36993 5.1021 5.04503
threshold=-8.4999999999999982 0.0038445605922102781 0.14319890635680113 -0.00043786323369411037 0.0022000066532226752 0.00078991548494744556 -11.1431626107321 0.099222991619566214 -0.0060879171937661047 -0.62076922604107543 0.65452020726442361 6155.6347290640406 0.8099343185550083 -0.0018252659454708398 -0.8470685998397226 108.71496698427207 -1.0000000180025095e-35 8.0090999999997639 0.00012052528053979077 0.94680384608671653 0.45410690707322493 5.9476730905951774e-05 126.56426777689666 0.00047948505444629229 0.099956395876562951 -0.043234319338165302 0.35142070677159648 0.10031158888151449
decision_type=10 10 10 2 8 10 8 10 10 10 2 2 8 8 10 8 10 2 10 10 10 10 2 10 8 10 8 10
left_child=1 5 3 -3 26 9 8 -8 -7 10 -1 13 18 14 -2 17 -17 -15 23 22 -11 -5 -14 -13 -20 -6 -4 -21
right_child=11 2 4 21 25 6 7 -9 -10 20 -12 12 19 15 -16 16 -18 -19 24 27 -22 -23 -24 -25 -26 -27 -28 -29
leaf_value=-0.0003900710830666127 5.6149549248075976e-05 0.00011533682508865612 -0.00079335455619387657 -0.0010863240130882881 7.2996108987706383e-05 -0.0012005044382043682 -0.00020958758497817472 0.00012754570137479525 -0.00028573399446923822 -8.7567271404593139e-06 8.4527046799238176e-05 -0.00085411928127966696 0.00042949292059005754 0.00013431609264882933 -0.0013389363170739268 -0.00045967290217719899 2.2725399824652746e-05 0.00066529094926556028 0.00037580273874021289 0.0013559592680242659 0.00018811467581202952 -0.0021315272187559355 -0.00014667525595606342 -8.4520953199515925e-05 3.7186714588048638e-05 0.00086372544666559836 -0.00015369094000385714 0.00063695872031079167
leaf_weight=6857 692 718 679 922 505 1167 18638 7579 1214 33736 5786 750 4965 8436 651 2250 98610 2282 3301 512 13846 551 1360 1438 8117 546 619 547
leaf_count=6857 692 718 679 922 505 1167 18638 7579 1214 33736 5786 750 4965 8436 651 2250 98610 2282 3301 512 13846 551 1360 1438 8117 546 619 547
internal_value=0 -7.28047e-05 -0.00048926 -0.000956365 -5.12237e-05 -5.1457e-05 -0.000164134 -0.000111935 -0.000736505 1.96674e-06 -0.000172489 5.07562e-05 0.000179249 2.68261e-05 -0.000616871 3.46242e-05 1.191e-05 0.000247885 5.69349e-05 0.000403913 4.8429e-05 -0.00148187 0.000304811 -0.000350877 0.000135544 0.000488968 -0.000492509 0.000990246
internal_weight=227274 93363 4540 2191 2349 88823 28598 26217 2381 60225 12643 133911 20990 112921 1343 111578 100860 10718 13606 7384 47582 1473 6325 2188 11418 1051 1298 1059
internal_count=227274 93363 4540 2191 2349 88823 28598 26217 2381 60225 12643 133911 20990 112921 1343 111578 100860 10718 13606 7384 47582 1473 6325 2188 11418 1051 1298 1059
is_linear=0
shrinkage=0.005


Tree=8
num_leaves=26
num_cat=1
split_feature=190 1 38 39 259 182 218 231 16 9 238 4 154 205 1 186 1 278 79 243 235 59 187 207 55
split_gain=31.5404 100.18 46.3683 55.7135 37.3297 33.7004 21.6163 28.7462 21.2264 42.7796 34.5247 46.0252 25.2571 20.6969 19.5091 51.2708 18.5807 17.1286 11.8161 13.6155 10.8828 8.99226 9.66818 8.39496 3.54553
threshold=0.65000000000000002 0.066680916043366914 0.28118098257036589 4295.6647832479457 0.021680675603425233 0.0036345325725722914 -0.0015607578400853581 0.72438573555564789 0.32274865591397855 -0.00024454511843306342 0.61333333333338758 -0.00094471321407979525 0.99066984202288288 0.20001357338983927 -0.043086416259978548 0.13064842887076411 -0.016127250831926006 0 0.016843817478592159 0.0058050392651256355 0.3225650472630997 -0.00025505324340130414 358.51006612890473 0.0021687525238741627 -0.0018906101484047692
decision_type=10 10 8 8 10 10 10 10 10 2 10 10 10 10 10 10 10 1 10 2 10 2 8 10 10
left_child=8 5 3 -3 -5 6 7 -2 9 18 16 -12 14 -8 15 -10 -11 -16 20 -20 -1 23 -23 -14 -4
right_child=1 2 24 4 -6 -7 13 -9 12 10 11 -13 21 -15 17 -17 -18 -19 19 -21 -22 22 -24 -25 -26
leaf_value=-5.9334938142759987e-05 0.00082116432189090443 -0.00010733651205099055 0.00034126783531829421 -0.00078615928091520292 -0.0021192238887467636 -0.0012308802953484971 9.9354624902281137e-05 -1.1359630758596183e-05 3.2308252758705069e-05 -0.00029248628401942457 -0.0006073243838258536 -0.00012451818735075595 -3.3611112560771414e-05 -0.00036248500595948546 -3.9825264612282551e-05 0.00058445384521062021 0.00010430900386649952 0.0001052330829159806 8.3538707487378644e-05 0.00054521625350278783 0.00015736594542753037 -0.00020833217130409418 0.00023494332551111604 0.00034038401736555355 -0.00024619271262781695
leaf_weight=13714 1803 874 502 878 1370 538 6148 2411 11313 3897 7742 13717 13395 3995 30040 6710 12126 62800 4000 2693 10010 13044 1347 1688 519
leaf_count=13714 1803 874 502 878 1370 538 6148 2411 11313 3897 7742 13717 13395 3995 30040 6710 12126 62800 4000 2693 10010 13044 1347 1688 519
internal_value=0 -0.0001948 -0.000882426 -0.00118489 -0.00160137 -3.15668e-06 4.25841e-05 0.000343768 1.78082e-05 -5.47297e-05 -0.000167831 -0.000298959 5.29399e-05 -8.2074e-05 8.7547e-05 0.000238172 7.47902e-06 5.82502e-05 8.44784e-05 0.0002701 3.18909e-05 -7.70597e-05 -0.000166481 7.93252e-06 3.78058e-05
internal_weight=227274 19038 4143 3122 2248 14895 14357 4214 208236 67899 37482 21459 140337 10143 110863 18023 16023 92840 30417 6693 23724 29474 14391 15083 1021
internal_count=227274 19038 4143 3122 2248 14895 14357 4214 208236 67899 37482 21459 140337 10143 110863 18023 16023 92840 30417 6693 23724 29474 14391 15083 1021
cat_boundaries=0 1
cat_threshold=2113536
is_linear=0
shrinkage=0.005


Tree=9
num_leaves=24
num_cat=0
split_feature=178 41 183 220 0 3 6 5 9 194 247 238 156 214 257 151 239 193 259 193 67 262 1
split_gain=37.2984 49.0327 37.2028 50.8795 37.3783 38.7093 34.9411 37.7645 33.5734 34.6413 30.8625 29.3018 27.0781 26.7049 25.7984 21.2374 16.0122 14.1797 9.12415 7.98421 7.80884 6.03337 5.42305
threshold=0.0038445605922102781 0.0005927274389038174 2.2379493052464525 0.004755799168260467 6.0694560840504446 -38.666666666666963 1.0000000180025095e-35 -0.68757723114177682 -0.00022111297451676956 0.47591139749126526 0.70058980966719842 0.61333333333338758 0.00045285520452640672 -0.00089874514760573943 0.010452794056496581 0.0005315156645009112 4.0877579145884883e-05 0.0001396627075991267 0.035185372965655326 0.00013875977065100258 1021.3202640056574 5.5911405386124491 0.032783461282345001
decision_type=10 10 10 10 10 10 2 10 2 8 10 10 2 10 10 10 10 10 8 10 2 2 8
left_child=2 15 4 8 6 13 18 -8 17 -10 -7 19 -5 -6 -13 20 -17 -4 -1 -3 -2 -16 -18
right_child=1 11 3 12 5 10 7 -9 9 -11 -12 14 -14 -15 21 16 22 -19 -20 -21 -22 -23 -24
leaf_value=5.1950160789887063e-05 -0.00090458145909526528 -0.0006791211283033279 0.00011521052709427372 0.0020941549387092878 0.00091740122219454334 0.00010405543124028853 -0.00038113663360533109 -6.5202634178923707e-05 -0.0011604703998628148 0.00035840689046074889 -0.00096955829080751666 -0.00024724938233352818 0.00062317681717480452 0.00021067595173576123 -0.0012814094325095246 -0.00029144209757307971 0.00072437513988948929 0.00072086144951708008 -5.2659812280618695e-05 8.79708723758769e-05 -7.267444456506166e-05 -0.0019979265970807114 0.00015226723065679505
leaf_weight=83327 648 580 2028 564 2512 28117 11372 56619 823 682 684 539 734 2907 912 870 1221 1887 27755 792 524 512 665
leaf_count=83327 648 580 2028 564 2512 28117 11372 56619 823 682 684 539 734 2907 912 870 1221 1887 27755 792 524 512 665
internal_value=0 -0.000352514 1.16364e-05 0.000377965 7.31164e-08 0.000151508 -2.88381e-05 -0.000118123 0.000163865 -0.000469081 7.83516e-05 -0.000798317 0.00126731 0.000539313 -0.00119062 2.48213e-05 0.000265778 0.000408516 2.5767e-05 -0.000232927 -0.000537278 -0.00154376 0.000525488
internal_weight=227274 7263 220011 6718 213293 34220 179073 67991 5420 1505 28801 3335 1298 5419 1963 3928 2756 3915 111082 1372 1172 1424 1886
internal_count=227274 7263 220011 6718 213293 34220 179073 67991 5420 1505 28801 3335 1298 5419 1963 3928 2756 3915 111082 1372 1172 1424 1886
is_linear=0
shrinkage=0.005


Tree=10
num_leaves=26
num_cat=2
split_feature=90 8 154 16 31 4 18 191 278 195 58 11 175 177 24 33 189 94 121 199 220 278 234 9 276
split_gain=29.1125 30.0832 27.7995 24.7002 24.1292 89.0871 46.041 43.3928 23.7519 19.8024 21.6268 23.307 17.4764 17.411 21.7336 14.4393 28.5571 16.296 15.3936 14.2036 23.7942 23.5147 11.5419 8.11444 7.93132
threshold=0.047492578370978568 -16.499999999999996 0.99066984202288288 0.35758377425044097 4.9815496368204899 -0.0026455319203304568 0.054555096683591105 -0.0052535981310331539 0 -0.00037104500143833445 1.9011578208011006 0.10005998044294502 0.7736405878458531 0.34552568173187342 0.89591666666666681 -0.0043558746532506602 0.98059779758785759 -5.703261449014035e-07 7.3926233038426492 -0.0001655863849722716 0.0038785861708063312 1 -0.00021417751904428958 -0.00021879325501125758 -6.7329549609904617e-05
decision_type=2 10 10 8 8 10 8 10 1 2 10 10 10 8 10 10 10 8 10 10 10 1 10 2 10
left_child=9 4 3 8 5 6 -2 -7 -3 10 11 -1 -5 23 -15 16 -11 -18 -17 20 -6 -21 -20 -4 -12
right_child=1 2 13 12 19 7 -8 -9 -10 15 24 -13 -14 14 -16 18 17 -19 22 21 -22 -23 -24 -25 -26
leaf_value=0.0010028862818346599 -0.0004602096985908933 0.00013253221706863261 5.8839450039113801e-05 -5.6638078012011566e-05 -9.845659243948029e-06 0.0002905242350575688 -0.0018263460767809609 -0.00036110295196397388 -0.00016715088799885893 0.00083182701139924888 -0.00086097447290689314 -0.00026121855225020018 0.00015541728335028953 -7.3324006099565045e-05 -0.00048699442559636412 -0.00018734144844679177 -0.0010680786664603906 -3.0919778502333074e-05 -0.0015383229032565145 0.00013903573214478414 0.00039285237328196487 -0.00017585590263607763 -0.0006836585962111272 -0.00041931837015912841 -8.2020233920995317e-05
leaf_weight=816 1301 11222 15395 11087 24017 4695 1195 5595 16034 501 608 649 76723 9948 4689 789 748 787 701 7742 4324 25040 989 939 740
leaf_count=816 1301 11222 15395 11087 24017 4695 1195 5595 16034 501 608 649 76723 9948 4689 789 748 787 701 7742 4324 25040 989 939 740
internal_value=0 1.03276e-05 5.19472e-05 8.77578e-05 -7.18406e-05 -0.000269409 -0.00111674 -6.3301e-05 -4.35925e-05 -0.000310008 1.75748e-05 0.000439677 0.000128586 -8.09367e-05 -0.00020621 -0.000515169 -0.000199695 -0.000539945 -0.000772066 -3.04268e-05 5.14294e-05 -0.000101346 -0.00104182 3.10213e-05 -0.000437443
internal_weight=227274 219946 146037 115066 73909 12786 2496 10290 27256 7328 2813 1465 87810 30971 14637 4515 2036 1535 2479 61123 28341 32782 1690 16334 1348
internal_count=227274 219946 146037 115066 73909 12786 2496 10290 27256 7328 2813 1465 87810 30971 14637 4515 2036 1535 2479 61123 28341 32782 1690 16334 1348
cat_boundaries=0 1 2
cat_threshold=25600 2105344
is_linear=0
shrinkage=0.005


Tree=11
num_leaves=30
num_cat=2
split_feature=16 53 238 190 4 278 206 190 278 52 218 191 237 86 238 187 251 214 181 182 10 181 105 6 4 59 187 5 219
split_gain=37.34 61.2276 41.5808 49.0756 33.3536 30.0481 24.3641 24.185 22.858 21.2868 20.5337 17.6878 34.0577 27.728 19.774 24.5649 20.0043 17.6459 16.0427 23.3013 13.8266 13.0124 9.12583 10.4401 8.40679 11.1609 7.27034 7.05341 6.63875
threshold=0.32274865591397855 0.19814083266118124 0.61333333333338758 0.15000000000000005 -0.0040738912166261567 0 -0.1111935279744939 0.55000000000000016 1 39.250000000000007 -0.0049065127353922757 -0.042003829537359975 0.36549973744092429 0.12701416661914905 0.49523809523815437 158.43464231948607 0.39345806198970162 0.00031874721139790735 171.74373189196089 -0.001102917218840038 -0.003240249693686081 99.500996695128734 0.44200087728385518 0.005897787595907966 -0.0026455319203304568 -0.00024795438020586141 116.90095353320568 0.98429222295456542 -1.1260981021303307
decision_type=8 2 10 10 10 1 8 10 1 2 10 8 10 10 10 8 10 10 8 8 10 8 10 2 10 2 10 8 8
left_child=1 2 5 -4 -5 6 -1 -7 10 11 -3 12 21 -14 16 -16 -13 -12 20 -20 -10 -2 23 26 25 -24 -11 -25 -26
right_child=9 8 3 4 -6 7 -8 -9 18 22 17 14 13 -15 15 -17 -18 -19 19 -21 -22 -23 24 27 28 -27 -28 -29 -30
leaf_value=-0.0012016992346637078 0.000827791835240453 -0.0010139898189254651 -0.0019194324037509142 -0.0010041959116206343 -0.0003066228220064714 0.00027823349819750622 -0.00019252840743133357 -0.0003522689045834203 -9.2154234406126547e-05 0.00015306271433631076 5.2595801462980536e-05 7.0595732761930737e-06 0.0012013228586392497 0.00033766439063380178 0.00035863829229423416 5.0777143288073076e-05 -0.00042993004526858193 -0.0003215009371740144 0.00030123752256028903 -0.00011179750187535265 0.00027505494670657419 9.0950954484948437e-05 0.00035378265770828581 -0.00011916076915790683 0.00031640869186037049 -6.0001681450614352e-05 -5.16761543146864e-05 -0.00041418530103717551 -2.3155307679138406e-06
leaf_weight=846 630 675 558 2006 12138 5687 2093 2070 3211 5953 6871 13787 1459 2627 8905 23976 3226 5794 4431 14856 12348 12870 4340 13146 1701 2579 15943 2421 40127
leaf_count=846 630 675 558 2006 12138 5687 2093 2070 3211 5953 6871 13787 1459 2627 8905 23976 3226 5794 4431 14856 12348 12870 4340 13146 1701 2579 15943 2421 40127
internal_value=0 -9.26246e-05 -0.000291288 -0.000463883 -0.000405975 -5.35618e-05 -0.000483388 0.000109171 1.19876e-05 4.4342e-05 -0.000163817 0.000110857 0.000247301 0.000647495 6.2661e-05 0.000134314 -7.55288e-05 -0.000118164 7.94607e-05 -1.66368e-05 0.000198949 0.000125766 -7.66464e-06 -6.63931e-05 3.73672e-05 0.000198839 3.76357e-06 -0.000165388 1.05336e-05
internal_weight=227274 73584 25398 14702 14144 10696 2939 7757 48186 153690 13340 67480 17586 4086 49894 32881 17013 12665 34846 19287 15559 13500 86210 37463 48747 6919 21896 15567 41828
internal_count=227274 73584 25398 14702 14144 10696 2939 7757 48186 153690 13340 67480 17586 4086 49894 32881 17013 12665 34846 19287 15559 13500 86210 37463 48747 6919 21896 15567 41828
cat_boundaries=0 1 2
cat_threshold=3072 4196352
is_linear=0
shrinkage=0.005


Tree=12
num_leaves=22
num_cat=0
split_feature=0 176 8 190 222 184 94 116 71 100 14 14 3 234 33 73 182 186 181 132 79
split_gain=42.0186 25.4056 22.5959 36.0223 41.5565 22.9852 34.5135 18.3971 17.8597 17.5892 17.4268 23.3921 18.7542 50.531 25.6218 13.6775 11.1708 10.1825 5.62769 8.79022 4.53165
threshold=6.9052922045924863 0.077576938086220182 -41.499999999999993 0.65000000000000002 0.020107196614448885 -0.00043657989087687735 3.5478333886247251e-06 11.640997876063286 2.147756969102812 -1.3265775032467853e-06 0.0998732498489973 0.10004632985300253 -62.666666666666963 -0.00064596342952183406 -0.022776586114234765 13.345780757967992 0.00011709309279273052 1.8331868830373079 139.05205159721021 0.46140299319575268 0.084445351554999243
decision_type=10 10 8 10 10 8 10 10 10 8 2 2 10 10 10 8 10 10 8 10 8
left_child=1 2 5 9 -5 7 -7 -1 15 -4 16 -12 13 -13 -14 17 -2 -3 20 -20 -10
right_child=10 8 3 4 -6 6 -8 -9 18 -11 11 12 14 -15 -16 -17 -18 -19 19 -21 -22
leaf_value=0.00026942537548999262 0.00025089533891478627 -0.00043905944374622677 0.00014269373009640445 -4.1697497316365705e-05 -0.00065120720527308954 -0.0002265276563288881 -0.0011249605561864117 -0.0001425360178066841 0.00031862178156318678 4.8014257407276649e-06 0.00092402569035485399 0.0018092238494714524 0.00035842050322016554 0.00013110887008044262 -9.7093725688781497e-06 0.00015148059456426252 0.0012855394337218263 -0.0010074999740535019 -8.6009736347356823e-05 -0.00058722668718381033 -0.00020445527129934405
leaf_weight=3924 509 2854 28616 8307 4230 9138 1215 8745 1231 120979 951 596 6342 1837 18452 699 568 1125 5288 1057 611
leaf_count=3924 509 2854 28616 8307 4230 9138 1215 8745 1231 120979 951 596 6342 1837 18452 699 568 1125 5288 1057 611
internal_value=0 -2.61355e-05 -1.11779e-05 9.60731e-06 -0.000247781 -0.000157769 -0.000332547 -1.45324e-05 -0.000240999 3.1213e-05 0.000176869 0.000152775 0.00012562 0.000544817 8.42627e-05 -0.000487695 0.000801882 -0.000601246 -9.93864e-05 -0.000170374 0.000142385
internal_weight=227274 198019 185154 162132 12537 23022 10353 12669 12865 149595 29255 28178 27227 2433 24794 4678 1077 3979 8187 6345 1842
internal_count=227274 198019 185154 162132 12537 23022 10353 12669 12865 149595 29255 28178 27227 2433 24794 4678 1077 3979 8187 6345 1842
is_linear=0
shrinkage=0.005


end of trees

feature_importances:
hour=15
day_first4greencorr=12
zigzag=9
before_bot_price_diff=9
FAC_resiliency_askdommean=9
XSMOM1M=8
day_first4redcorr=7
RPP_30M=6
day_first10rev=6
FAC_resiliency_biddommean=6
ATR=6
day_jump=5
masign=5
FAC_SPREAD_max=5
day_first10colarrate=5
FAC_RVar_biddommean=5
FAC_MPB_downmean=4
FAC_VWAP_Deviation_biddommean=4
drawback=4
Y_LH_cvcorr10_diff=4
FAC_ask3_vmean_20_min=4
Y_P_closepctchg20_sub=4
VHF=4
M_Y_oi5_diff=4
FAC_PIR_biddommean=4
Y_P_volumediv20_diff5=4
C_Y_oi5_diff=4
down_shadow_5mean=4
RPP_22D=3
Y_LH_closepctchg20_sub=3
FAC_MCIA_biddommean=3
FAC_CORR_PVOL_RET_Volraiseap=3
FAC_AVGDEPTH_askdommean=3
FAC_MCIA_askdommean=3
FAC_MCIA_min=3
FAC_Depth_Reversal_min=3
FAC_MLQSweight_min=3
FAC_MLQSweight_askdommean=3
FAC_PIR_first=3
A_Y_vcorr10=3
B_Y_closepctchg20_sub=3
B_Y_oi5_diff=3
A_Y_cvcorr10_diff=3
Y_P_closepctchg5_sub=3
C_Y_cvcorr10_diff=3
dOI=2
FAC_VWAP_Deviation_mean=2
RPP_5D=2
RPP_4H=2
A_Y_volumediv20_diff5=2
FAC_ask5_vmean_20_biddommean=2
FAC_BIDDEPTH_askdommean=2
CS_Y_closepctchg5_sub=2
FAC_AVGDEPTH_min=2
FAC_MPC_min=2
FAC_ask_amount_sub20_MADmean=2
FAC_RKurt_askdommean=2
FAC_PVcorrsub_a3b3_askdommean=2
FAC_ask3_vmean_20_biddommean=2
FAC_OI_CHG_biddommean=2
FAC_ask5_vmean_20_max=2
MAdiff_Vol_div=2
CR=2
SNR=2
Y_LH_vcorr10=2
FAC_MPC_max=2
CS_Y_oi5_diff=2
CS_Y_closepctchg20_sub=2
up_shadow_5mean=2
lastprice_bias1=2
FAC_Bolling_std=2
FAC_Depth_Reversal_std=2
FAC_RVar_askdommean=2
FAC_STREN_askdommean=2
Y_LH_closepctchg5_sub=1
FAC_ILLIQ_downmean=1
FAC_PRICE_STD_A_Mstdwap=1
FAC_PRICE_VOL_CORR_A_MADmean=1
FAC_VOI_kurtosis=1
A_Y_volumediv5_diff5=1
FAC_KDJ_corrBidwap=1
CS_Y_volumediv20_diff5=1
B_Y_volumediv20_diff5=1
FAC_bid5_vmean_20_Mstdwap=1
FAC_bid2_vmean_20_min=1
FAC_RTN_JUMP_biddommean=1
FAC_PVcorrsub_a1b1_max=1
FAC_RTN_JUMP_Mstdwap=1
FAC_sub_a5b5_vmean_20_max=1
FAC_OI_CHG_upmean=1
FAC_OI_GP_CH_askdommean=1
FAC_Depth_Reversal_TrendRevmean=1
FAC_bid5_vmean_20_max=1
FAC_Depth_Reversal_askdommean=1
FAC_RVar_down_rate_TrendRevmean=1
FAC_ADTM_first=1
FAC_bid2_vmean_20_Mstdwap=1
FAC_bid1_vmean_20_last=1
FAC_STREN_kurtosis=1
FAC_PRICE_VOL_CORR_B_askdommean=1
FAC_RKurt_vwap=1
FAC_NR_min=1
FAC_RVar_down_rate_Volraiseap=1
FAC_ORDER_SLOPE_B_max=1
FAC_Bolling_first=1
FAC_AVGDEPTH_MADmean=1
M_Y_volumediv20_diff5=1
FAC_Depth_Reversal_skewness=1
FAC_RKurt_min=1
FAC_PVcorrsub_a1b1_MADmean=1
RPP_2H=1
FAC_OFI2_MADmean=1
FAC_ask5_vmean_20_min=1
TMB=1
A_Y_oi5_diff=1
Y_LH_volumediv5_diff5=1
Y_P_vcorr10=1
M_Y_closepctchg20_sub=1
CS_Y_vcorr10=1
B_Y_vcorr10=1
CS_Y_cvcorr10_diff=1
B_Y_closepctchg5_sub=1
M_Y_closepctchg5_sub=1
A_Y_closepctchg20_sub=1
M_Y_vcorr10=1
FAC_ORDER_SLOPE_A_biddommean=1
Y_P_volumediv5_diff5=1
up_shadow_5std=1
FAC_QUA_biddommean=1
FAC_OI_V_DIV_biddommean=1
FAC_RVar_min=1
FAC_OFI3_downmean=1
FAC_STREN_std=1
FAC_MAX_max=1
FAC_ORDER_SLOPE_A_askdommean=1
FAC_VOI_downmean=1
FAC_MAX_std=1
FAC_QUA_askdommean=1
FAC_Imbalance_OI_askdommean=1
FAC_PRICE_VOL_CORR_A_corrBidwap=1
FAC_Depth_Reversal_mean=1
FAC_CORR_PVOL_RET_min=1

parameters:
[boosting: gbdt]
[objective: regression]
[metric: rmse]
[tree_learner: serial]
[device_type: cpu]
[data_sample_strategy: bagging]
[data: ]
[valid: ]
[num_iterations: 10000]
[learning_rate: 0.005]
[num_leaves: 32]
[num_threads: 20]
[seed: 142]
[deterministic: 1]
[force_col_wise: 0]
[force_row_wise: 0]
[histogram_pool_size: -1]
[max_depth: 5]
[min_data_in_leaf: 500]
[min_sum_hessian_in_leaf: 0.001]
[bagging_fraction: 1]
[pos_bagging_fraction: 1]
[neg_bagging_fraction: 1]
[bagging_freq: 10]
[bagging_seed: 26665]
[bagging_by_query: 0]
[feature_fraction: 0.7]
[feature_fraction_bynode: 1]
[feature_fraction_seed: 11555]
[extra_trees: 1]
[extra_seed: 12336]
[early_stopping_round: 0]
[early_stopping_min_delta: 0]
[first_metric_only: 0]
[max_delta_step: 0]
[lambda_l1: 1]
[lambda_l2: 1]
[linear_lambda: 0]
[min_gain_to_split: 0]
[drop_rate: 0.1]
[max_drop: 50]
[skip_drop: 0.5]
[xgboost_dart_mode: 0]
[uniform_drop: 0]
[drop_seed: 2046]
[top_rate: 0.2]
[other_rate: 0.1]
[min_data_per_group: 100]
[max_cat_threshold: 32]
[cat_l2: 10]
[cat_smooth: 10]
[max_cat_to_onehot: 4]
[top_k: 20]
[monotone_constraints: ]
[monotone_constraints_method: basic]
[monotone_penalty: 0]
[feature_contri: ]
[forcedsplits_filename: ]
[refit_decay_rate: 0.9]
[cegb_tradeoff: 1]
[cegb_penalty_split: 0]
[cegb_penalty_feature_lazy: ]
[cegb_penalty_feature_coupled: ]
[path_smooth: 0]
[interaction_constraints: ]
[verbosity: -1]
[saved_feature_importance_type: 0]
[use_quantized_grad: 0]
[num_grad_quant_bins: 4]
[quant_train_renew_leaf: 0]
[stochastic_rounding: 1]
[linear_tree: 0]
[max_bin: 32]
[max_bin_by_feature: ]
[min_data_in_bin: 3]
[bin_construct_sample_cnt: 200000]
[data_random_seed: 502]
[is_enable_sparse: 1]
[enable_bundle: 1]
[use_missing: 1]
[zero_as_missing: 0]
[feature_pre_filter: 1]
[pre_partition: 0]
[two_round: 0]
[header: 0]
[label_column: ]
[weight_column: ]
[group_column: ]
[ignore_column: ]
[categorical_feature: 278]
[forcedbins_filename: ]
[precise_float_parser: 0]
[parser_config_file: ]
[objective_seed: 31732]
[num_class: 1]
[is_unbalance: 0]
[scale_pos_weight: 1]
[sigmoid: 1]
[boost_from_average: 1]
[reg_sqrt: 0]
[alpha: 0.9]
[fair_c: 1]
[poisson_max_delta_step: 0.7]
[tweedie_variance_power: 1.5]
[lambdarank_truncation_level: 30]
[lambdarank_norm: 1]
[label_gain: ]
[lambdarank_position_bias_regularization: 0]
[eval_at: ]
[multi_error_top_k: 1]
[auc_mu_weights: ]
[num_machines: 1]
[local_listen_port: 12400]
[time_out: 120]
[machine_list_filename: ]
[machines: ]
[gpu_platform_id: -1]
[gpu_device_id: -1]
[gpu_use_dp: 0]
[num_gpu: 1]

end of parameters

pandas_categorical:null
