tree
version=v4
num_class=1
num_tree_per_iteration=1
label_index=0
max_feature_idx=267
objective=regression
feature_names=LR A_LH_oi5_diff A_LH_closepctchg5_sub day_first4greencorr day_first3power A_CS_oi5_diff A_Y_oi5_diff A_C_oi5_diff QST dOI A_M_oi5_diff FAC_MCIA_biddommean FAC_VWAP_Deviation_min CV BuzzResonance A_P_oi5_diff A_B_oi5_diff FAC_ask2_vmean_20_corrBidwap FAC_MPB_Volraiseap FAC_KDJ_askdommean FAC_MCIA_min FAC_Bolling_first FAC_PVcorrsub_a4b4_biddommean FAC_RTN_JUMP_downmean FAC_ask2_vmean_20_biddommean FAC_MPC_min FAC_bid5_vmean_20_biddommean FAC_RTN_JUMP_askdommean FAC_bid4_vmean_20_min FAC_ORDER_SLOPE_B_max FAC_ASKDEPTH_vwap FAC_bid2_vmean_20_askdommean A_P_cvcorr10_diff FAC_BIDDEPTH_askdommean FAC_bid3_vmean_20_askdommean FAC_bid3_vmean_20_min FAC_Depth_OI_Pressure_askdommean FAC_Bolling_min FAC_NR_biddommean A_Y_cvcorr10_diff FAC_MPB_biddommean FAC_ORDER_SLOPE_B_askdommean FAC_bid1_vmean_20_max FAC_PIR_min FAC_BIDDEPTH_biddommean FAC_bid2_vmean_20_min FAC_MPB_kurtosis FAC_KDJ_min bar5_trend_corr FAC_bid_amount_sub20_min FAC_ASKDEPTH_biddommean FAC_ask5_vmean_20_askdommean FAC_ask5_vmean_20_biddommean FAC_ask3_vmean_20_biddommean FAC_MCIA_Mstdwap FAC_bid2_vmean_20_TrendRevmean FAC_ask3_vmean_20_min FAC_bid4_vmean_20_last FAC_bid3_vmean_20_max FAC_ORDER_SLOPE_B_biddommean FAC_BBI_last FAC_ORDER_SLOPE_B_TrendRevmean FAC_bid4_vmean_20_askdommean FAC_BIDDEPTH_min FAC_RUSHSTOPASK_min FAC_RKurt_min FAC_BIDDEPTH_TrendRevmean FAC_bid3_vmean_20_biddommean FAC_bid2_vmean_20_biddommean FAC_ask3_vmean_20_corrAskwap FAC_RKurt_biddommean FAC_OI_CHG_min FAC_SPREAD_min FAC_RKurt_askdommean FAC_RTN_JUMP_Mstdwap FAC_OI_CHG_downmean FAC_OI_Price_Accel_upmean FAC_PVcorrsub_a3b3_biddommean FAC_PVcorrsub_a4b4_corrAskwap FAC_ILLIQ_askdommean FAC_MCIA_askdommean FAC_Depth_OI_Pressure_min FAC_bid5_vmean_20_min FAC_PVcorrsub_a4b4_Volraiseap FAC_OI_CHG_corrBidwap FAC_PVcorrsub_a5b5_min FAC_Bolling_last FAC_fibonacci_retracement_first FAC_bid5_vmean_20_askdommean FAC_bid1_vmean_20_biddommean FAC_MCIB_min FAC_PRICE_VOL_CORR_A_biddommean FAC_sub_a5b5_vmean_20_askdommean FAC_bid_amount_sub20_Volraiseap FAC_MOFI_kurtosis FAC_NR_askdommean FAC_bid2_vmean_20_max FAC_bid1_vmean_20_askdommean FAC_RKurt_TrendRevmean FAC_OI_Price_Accel_askdommean FAC_RTN_JUMP_biddommean FAC_PVcorrsub_a5b5_TrendRevmean FAC_PRICE_VOL_CORR_B_biddommean FAC_PVcorrsub_a5b5_Volraiseap FAC_NR_first FAC_PVcorrsub_a5b5_kurtosis FAC_PRICE_PRESSURE_askdommean FAC_MPB_mean FAC_sub_a1b1_vmean_20_Volraiseap FAC_PVcorrsub_a5b5_askdommean FAC_ask1_vmean_20_min FAC_PRICE_VOL_CORR_B_corrBidwap FAC_sub_a1b1_vmean_20_askdommean FAC_PVcorrsub_a4b4_TrendRevmean FAC_OIR_askdommean FAC_ask4_vmean_20_askdommean FAC_Depth_Reversal_askdommean FAC_PRICE_VOL_CORR_A_MADmean FAC_sub_a4b4_vmean_20_askdommean FAC_sub_a4b4_vmean_20_min FAC_ask4_vmean_20_biddommean FAC_CORR_PVOL_RET_kurtosis FAC_MPB_vwap FAC_RKurt_vwap FAC_fibonacci_retracement_min FAC_Bolling_downmean FAC_PVcorrsub_a2b2_vwap FAC_STREN_askdommean FAC_ask1_vmean_20_biddommean FAC_bid1_vmean_20_MADmean FAC_CORR_PVOL_RET_askdommean FAC_bid4_vmean_20_biddommean FAC_MACD_askdommean FAC_CORR_PVOL_RET_Volraiseap FAC_Depth_OI_Pressure_biddommean FAC_Bolling_kurtosis FAC_Depth_Reversal_min FAC_STREN_downmean FAC_PRICE_VOL_CORR_A_last FAC_BBI_askdommean FAC_ask1_vmean_20_askdommean FAC_SOIR_askdommean FAC_bid_amount_sub20_askdommean FAC_OFI1_skewness FAC_OFI1_min FAC_PVcorrsub_a3b3_askdommean FAC_PRICE_VOL_CORR_B_TrendRevmean FAC_PVcorrsub_a1b1_min FAC_BBI_first FAC_Depth_OI_Pressure_TrendRevmean FAC_sub_a3b3_vmean_20_askdommean FAC_PVcorrsub_a2b2_min XSMOM1M RPP_22D day_first4redcorr RPP_5D day_jump VHF drawback MAdiff_Vol_div A_C_closepctchg20_sub FAC_PIR_max volatility_rg before_bot_price_diff PVcorr SNR A_LH_vcorr10 A_P_vcorr10 day_first10rev A_LH_closepctchg20_sub FAC_VWAP_Deviation_biddommean A_Y_closepctchg20_sub A_P_closepctchg5_sub A_LH_volumediv5_diff5 A_M_closepctchg20_sub A_P_closepctchg20_sub A_LH_volumediv20_diff5 FAC_resiliency_biddommean A_CS_vcorr10 FAC_resiliency_askdommean FAC_VWAP_Deviation_askdommean down_shadow_5std A_M_cvcorr10_diff A_LH_cvcorr10_diff RPP_4H FAC_resiliency_TrendRevmean A_C_cvcorr10_diff up_shadow_5mean up_shadow_5std A_CS_closepctchg20_sub A_B_closepctchg20_sub A_P_volumediv20_diff5 FAC_MAX_askdommean FAC_PRICE_STD_B_biddommean A_CS_cvcorr10_diff A_B_vcorr10 A_M_volumediv5_diff5 FAC_OI_V_DIV_upmean FAC_Bolling_biddommean FAC_KDJ_biddommean FAC_RVar_biddommean A_B_volumediv5_diff5 A_C_closepctchg5_sub A_B_closepctchg5_sub FAC_OI_V_DIV_biddommean A_C_vcorr10 A_M_closepctchg5_sub A_M_volumediv20_diff5 FAC_PIR_first FAC_CORR_PVOL_RET_downmean A_Y_vcorr10 FAC_PRICE_STD_A_askdommean FAC_PRICE_STD_B_Volraiseap A_CS_volumediv20_diff5 A_CS_closepctchg5_sub FAC_PRICE_STD_B_askdommean FAC_CORR_PVOL_RET_upmean RPP_2H A_Y_volumediv20_diff5 FAC_MLQSweight_biddommean A_B_cvcorr10_diff FAC_SPREAD_biddommean A_Y_closepctchg5_sub A_C_volumediv20_diff5 FAC_BBI_biddommean FAC_MPB_max FAC_ORDER_SLOPE_A_vwap FAC_sub_a5b5_vmean_20_min FAC_OI_V_DIV_Mstdwap FAC_MCIB_biddommean FAC_MLQSweight_askdommean FAC_RVar_max FAC_STREN_mean FAC_NR_std FAC_MPC_max FAC_MAX_max A_M_vcorr10 RPP_30M FAC_PIR_last FAC_MFI_biddommean FAC_PIR_biddommean A_B_volumediv20_diff5 FAC_MLQSweight_max FAC_RVar_askdommean FAC_ORDER_SLOPE_A_biddommean FAC_Bolling_std A_CS_volumediv5_diff5 FAC_PRICE_STD_A_mean PV_corr_std FAC_MPC_std FAC_RSI_biddommean FAC_ORDER_SLOPE_A_max down_shadow_5mean FAC_STREN_std FAC_MAX_std FAC_RVar_first A_P_volumediv5_diff5 FAC_MLQSweight_min A_Y_volumediv5_diff5 FAC_CORR_PVOL_RET_MADmean FAC_SPREAD_askdommean FAC_MPB_std FAC_CORR_PVOL_RET_min FAC_MPB_downmean FAC_OFI1_last FAC_STREN_Volraiseap FAC_ILLIQ_max hour
feature_infos=[-7.5342872796940732:7.5528591528307647] [-0.067617558726728144:0.039032773472568949] [-0.030838419530998973:0.023722818871362072] [-0.99967775203985043:0.99902377756151317] [-36.333333333333336:25.333333333333332] [-0.044428902658250169:0.041346749421894424] [-0.044290646785004717:0.039232566583948802] [-0.044676635601912817:0.038532218724037781] [-128:5321] [-0.14306012288326286:0.10253660724069391] [-0.043678058556421928:0.037626008511929099] [9.5605179577046257e-05:0.001108224255334902] [0.097721434258164486:0.10233994520094096] [1.5203590833460916:11205.873687596926] [-0.032072394800360692:0.024842903374313337] [-0.051004168757557422:0.040081852107555882] [-0.049011808202768625:0.06899654143950007] [0.0062020743237576614:13.369161853180591] [-1.9385000000002037:2.1549503770739271] [-12.391688270806533:106.0293883219958] [6.1854427592575464e-05:0.0010133408415934318] [-2.745418904045593:3.1068425262444896] [-2.0000152495113523:2.0000032047931091] [-0.045040227416127697:0] [0.0070284546679612557:5.9813060565761909] [-0.0062545104642771632:0.00057021831215386953] [0.0032785306572841789:18.109022393048662] [-0.89091455129666675:0] [0.0031482502585844863:7.3381302554735397] [-1.25:-0.00057678442682047588] [217.15161663893949:68731.731695400391] [0.0039978565353348599:4.8951209972384211] [-1.8888979690646721:1.9210375619413644] [99.518813952475227:44524.075814965901] [0.0059541839645956048:4.1693196637896781] [0.0031605219456609249:7.5444347881424836] [-11.337108233427539:-0.0047102247406366846] [-3.6839902472485071:1.8762877945294449] [-0.040035219202129747:0] [-1.8797054315614261:1.90688451495358] [-1.9768999999996595:2.0200000000004366] [-1.25:-0.0014503084835670217] [0.0077919242946176666:11.85842810449383] [-0.00295127709808967:-0.000286659891069194] [137.97252281967062:75845.454279695958] [0.0031751795402492752:6.6815724066590994] [-6:165.19084605884515] [-39.602783219959399:99.984080701881567] [-1:1] [-29202933:2296714] [104.8496486819399:32797.000662619306] [0.0032667657582357602:12.319122557279757] [0.0032843992495561547:9.9995625326922397] [0.0040734421977977773:6.3949739283207014] [0.00010676497592534411:0.0010885812956493333] [0.0032437704860691168:15.819541963345825] [0.0031420310232282067:12.802732473285184] [0.0032634592788941099:15.806138777482515] [0.0065687984991123095:18.035842839162758] [-0.66666666666666663:-0.00074978285139098684] [-2.9175125000001572:4.0185750000000553] [-0.28463138761803281:-0.0007459903021260724] [0.0032740905555390617:4.2562382880710548] [62.36925444908907:68670.546844759054] [-0.01:0.0013144799699997822] [-69.697141586147055:240.06252846594955] [148.53160434679396:75639.317484802712] [0.0053495862802833121:10.852070554172299] [0.0064249080630190067:17.41779037536589] [0.0040734421977977773:12.802817111210391] [1.3360071238017819:505.34504205109334] [-0.01:0.00067756186139789065] [-0.00084545414589012305:-0.00015636849887226429] [1.2957374583018781:117.46374887166381] [-0.89091455129666675:0] [-0.00024944187728386013:8.6405962963604781e-05] [-0.025226559933799252:0.018134103925905913] [-2.0000000095956434:2.0000029190716937] [-1.9999999777690998:2.000000003311019] [-355.05764936736529:395.87500585501596] [0.00013123372626016688:0.00117005946190017] [-12.324090984981984:10.21980489810116] [0.0031537293856813788:18.036269212330314] [-2.0000002031548232:2.0000004347161138] [-0.00063351046782889053:0.00067756186139789065] [-2.000026433734166:2.0000086986337942] [-2.055950441329387:2.2926570037663025] [-0.00097841927044239885:0.0012112993919284332] [0.003340980912063099:12.100819568044221] [0.0082970825949760848:9.1387643002521415] [-0.0031222065262709298:-9.8917818093814604e-05] [-0.9998161296360093:0.99999861834787451] [-46941:65320.209677419356] [-2658785:3143440.1875] [-4.4881923780555013:219.50585945205256] [-0.04066920103638464:0] [0.011751628431603281:17.601125702240662] [0.0032765262321311365:7.7695905471385673] [1.1436114598712697:594.80515230764354] [-1:0.95346693685967909] [-1:0] [-2.0000141369704245:2.0000116630558913] [-0.99997475420289694:0.99991101326486687] [-2.0000062367383173:2.0000079679834291] [-0.10215567392448044:0] [-5.99999999999996:116.10530845495786] [-3.2790999999997439:5.8333000000002357] [-1.9768999999996595:2.5713999999998123] [-40905.083333333336:43736.714285714283] [-2.0000060931773036:2.0000114342263546] [0.0031786556957272521:8.2082347907649176] [-0.9999400464750281:0.94237776720009359] [-35177:41968.526315789473] [-2.0000136158464716:2.0000124758424018] [-0.94238205723124513:0.3812448039935778] [0.0032839325466200399:11.737139741528683] [-0.0010272628408204674:0.00090892517656637609] [-0.99992444961579197:0.99999979959053142] [-13250.1:69809.131868131866] [-70140:61958] [0.0032877060074210677:4.8681533311476635] [-5.9989520365457834:148.57042570591761] [-3.6964949775782863:9.0720438144328241] [1.3118555571829316:509.67428984382843] [-0.0034218151187582757:0.00050666370673502215] [-0.50597764607370388:0.23445049193170714] [-1.9984690247286048:1.994710218265251] [-1:1] [0.0075548644810790799:7.0695740856737732] [0.0044327562548714247:9.3209207653009383] [-7.2376958735530188:233.99426007676433] [0.003280279630172858:8.9324584510797003] [-0.33557699430200327:0.43781110857867434] [0:196.98438392604783] [0.0051735388012958657:10.599279077786756] [-2.318464283660489:75.112991429513201] [-0.19920814229761041:0.0075112551268896859] [-0.24644549763033174:0.13636363636363635] [-0.9999998465597254:1.0000001563936058] [-1.8682333333335919:2.9046024999999647] [0.0074386727057919131:8.3527814168081189] [-0.50696032055809792:0.82748373110325957] [-9539822:1187678] [-13.611975049677637:13.507316892994975] [-4000:268] [-2.0000061178670441:2.0000068914832192] [-1.0000005680994268:0.9982421174006485] [-1.999015312491403:1.9991615420099205] [-3.2888124999999491:2.4800375000004351] [-10.763595848363291:10.648732507116828] [-16214.234042553191:73300.743589743593] [-2.0000234381683599:1.9999982786648127] [-0.086078886310904879:0.12143482064741917] [0:1] [-0.963961868689173:0.99974825251830302] [0:1] [-129.66666666666697:133.33333333333303] [0.80000000000000004:41.299999999999997] [-0.0041942248749798359:0.0093124320968492932] [-79.296122026886508:70.393929186902483] [-0.04642458130397642:0.037042037607414646] [-0.000874890638670105:-0.0002857217070574206] [0.01250000000000758:9.8374999999999773] [-0.02012231526688546:0.016043606717170977] [-0.030778180522629688:0.01828589381390909] [0:0.040774903743525277] [-0.94021622807711913:0.99047989336932651] [-0.9235359852095758:0.9988672968774911] [0:5.2550495976769893] [-0.35511415029487314:0.12403165863522347] [0.097833599220322295:0.1024754628983601] [-0.060652976127189451:0.075795891344482169] [-0.035022106729232449:0.025500240582705613] [-254.47508305647841:289.55900621118013] [-0.057518129746830793:0.13261009569078031] [-0.082521820050267758:0.12747748967484296] [-35.008922252552821:34.374580011531044] [20.777355930290014:1000] [-0.94458419911229796:0.99949491968620907] [22.2503864688486:1000] [0.097800737687778749:0.10246260914062999] [0:5.2553180062617351] [-1.8690652636426321:1.8571120444704614] [-1.8881961690176681:1.9104137931931033] [0:1] [20.768110429182222:1000.0000000000005] [-1.8798738448040515:1.8603982482645185] [0:4.3000000000000096] [0:6.1573533275263719] [-0.056223093004676539:0.035755546567460161] [-0.051028631057178364:0.10447126941301066] [-1.4060429996695556:1.6297636709935102] [-7.6542636363641243:81.920452857142436] [1.5811388300841906:5.9267451088934919] [-1.8569673068293411:1.8879347245006297] [-0.91579862778746268:0.99738030972475333] [-74.538408631732793:73.238963160383435] [0:0.020052657063676559] [-2.2018724842976494:1.8324104736891962] [-5.2667088791071173:108.12936379440558] [1.44703924745287e-06:1] [-1131.3777777777777:1039.8666666666668] [-0.022802434252958914:0.015925786108961226] [-0.030184580932379079:0.020642359213758121] [0:0.39454526038896881] [-0.96917090786211335:0.99834869550923844] [-0.019778141480269129:0.013856020625231169] [-6.1497738939002264:7.3313922616406195] [-0.0014067016144098945:-0.0002864359555242606] [-3.985897385145015:9.6702484196424958] [-0.91766461372460018:0.99941056468911138] [1.5811388300841906:6.2289646009589745] [1.5811388300841904:7.1738786817506366] [-7.7681050222675809:8.2367092484831854] [-0.016143688327482808:0.016159635284306861] [1.5811388300841906:6.5444383988046413] [-3.9230760879539468:14.694189643890978] [0:1] [-1.9692489964617639:2.2474454307615819] [9.1976084137387597e-05:0.00091540149885035148] [-1.8953539241471011:1.8207117080857365] [-0.00049132429288295:-0.00015639067087949699] [-0.018553701185196614:0.015581433491881347] [-3.3695848006707454:5.7579950869108778] [-1.6737374999993335:2.4056375000000116] [-1.9768999999996595:35.875] [0.00080461635017136551:0.80190458451197622] [-82930:52825] [0:0.036073421456562921] [-0.0011378616405388054:-0.00012978390789316675] [9.2871998601308576e-05:0.00076137271166809486] [2.046119484047265e-06:1] [-1:1] [0:0.013955445020495083] [-0.00043211476968285645:0.0060975609756097615] [-4.4171000000005733:86.641799999999421] [-0.94928339007908902:0.99857669635876767] [0:1] [-0.000874890638670105:-0.00028603375198261571] [0:100] [-0.00073096636380416485:-0.00028670472020213863] [-93.76800460917994:80.133305988515161] [9.5118005484885339e-05:0.0015570647841094576] [9.8220635005670603e-06:1] [0.0015938471083147905:0.72040247763931975] [0.0025266431094001906:0.98321525544619837] [-102.67959447506294:110.1540975609756] [1.58113883008419:6.4314792880509142] [0.001477658603374641:1.0551310493110535] [0:0.001008637060898179] [0.70062691787825315:99.546379398416391] [0.00081716036772216548:1.75] [0:3.4277777777777843] [0:0.70620962694767597] [0:20.090216467174116] [5.0183881585737457e-07:1] [-4.63033389926429:4.6929286528000969] [8.7690611882524977e-05:0.00069402563506270807] [-5.9819362765741353:5.7043789193203835] [-12.174872615155964:233.01459480517087] [-0.00050686820510465586:-0.00015635720982932631] [0:3.3728909000192822] [-20.060997329006501:233.01459480517087] [-0.49940233642761861:0.42936729559750225] [-1094:818] [-1:1] [-421.50713462505081:1447.0460349010532] -1:14:9:22:21:10:11:13
tree_sizes=2919 2962 2218 2396 2859 2796 3204 2390 2692 2664 2725 3021 2214 2393 2890 2624 3004 2943 2817 2459 2800 2704 2628 2933 2689 3006 3129 2814 2287 2514 2791 2806 2217 2807 3081 3006 2198 2570 2812 2489 2504 2907 2350 1920 2482 2792 2467 2817 2590 2793 2321 3108 2980 2504 2583 2510 2396 2114 2884 2975 1800 2382 2476 2025 2277 2609 2735 3082 2804 2881 2700 2826 2879 2391 3151 3177 2800 2887 2623 2763 2995 3094 2400 3050 2488 3077 2476 2790 2335 2594 2513 2901 2714 2328 1899 2429 2993 2287 3307 2946 2408 2956 2584 3046 2671 3184 2923 2300 2360 2885 2297 2799 2977 2317 2379 2488 2897 2896 2584 1938 2570 1934 2790 2791 3102 2413 2399 2311 1624 2676 2210 2414 2474 3005 2801 2760 2556 3198 2895 2881 2884 2897 2298 2902 2390 2563 2887 3100 2808 2519 2688 2694 1605 2599 3303 2720 1907 2505 2395 2888 3093 2696 2378 2983 2998 2377 3101 2311 1919 3002 2205 2090 3098 2841 1801 3166 2796 2892 3171 3105 2561 2821 2891 2194 2007 2509 2592 2684 2866 2588 3096 2491 3081 2584 2847 2819 2777 2768 2497 3200 3182 2617 2389 2170 2275 3021 2905 2882 3099 2508 2452 2983 2490 2413 2894 2491 2315 2847 1886 2497 3011 2554 1630 2810 1815 2887 3095 2518 2668 2708 3116 2271 2989 2370 3063 2697 2507 2596 1920 2785 2421 2375 3120 2297 2378 2497 2494

Tree=0
num_leaves=29
num_cat=3
split_feature=239 267 171 185 163 137 21 48 165 177 131 215 188 174 153 54 12 197 116 267 267 233 176 85 68 251 13 109
split_gain=50.2448 44.6721 55.3317 71.704 38.2023 31.6657 27.4831 22.3552 17.6504 54.637 14.258 17.3658 22.3978 13.5351 26.8744 13.2243 19.2534 17.5486 31.8344 19.4695 14.0004 13.6971 12.9891 12.0589 11.6754 11.4819 10.7359 6.07573
threshold=58.33352168474935 0 0.0045434356947615115 163.64112856845705 -0.0015975021012216149 -0.036557523109477665 -0.010220918183683992 0.75000000000000011 0.0048715407885086574 92.913268695448934 0.054370694220258101 1.6074772590136475 0.41833001326707997 -0.0005685785261838604 0.12227960578245868 0.00048764028697887986 0.10002745059653434 0.0006404596477587516 4.9353342141120657e-07 1 2 7.3725806444997503e-06 0.26693014692150446 -1.9889609464254721 0.26207134495669987 0.023310149967398396 5.7656303880866409 0.00064741376892054302
decision_type=8 1 10 10 2 2 8 2 2 10 8 8 2 10 2 2 2 2 10 1 1 8 8 10 10 2 2 10
left_child=1 2 13 25 6 -5 7 -3 23 -10 11 12 27 14 -1 16 21 19 -19 -17 -18 -12 -14 -6 -8 -4 -15 -2
right_child=10 4 3 5 8 -7 24 -9 9 -11 15 -13 22 26 -16 17 20 18 -20 -21 -22 -23 -24 -25 -26 -27 -28 -29
leaf_value=0.0027096635408718327 0.001223561579669829 0.0030803029129188781 0.0027341747413462238 -0.00016737949528212136 0.002267029070652766 0.001430275115976626 0.0022455415669950674 0.0021863726270669637 0.0018159067961824814 0.0029196772730847101 0.0020600027521871312 0.0011251224089637642 0.0019143273108631462 0.0024178939841307868 0.0022637156070192087 0.0023426046759000433 0.0022564151148417194 0.0022278330244045875 0.0013549893710710225 0.0021346272117228307 0.002529190522822823 0.0023171926893188772 0.002737437759923511 0.0024106636467897662 0.0027254794890801026 0.0019022689595537918 0.0021382133381877486 0.0018954569545931747
leaf_weight=4446 681 4662 681 604 24916 667 3118 811 1499 4394 11282 606 819 4178 13979 15175 8974 2483 1819 43185 9809 9513 1143 35132 2114 1053 18825 732
leaf_count=4446 681 4662 681 604 24916 667 3118 811 1499 4394 11282 606 819 4178 13979 15175 8974 2483 1819 43185 9809 9513 1143 35132 2114 1053 18825 732
internal_value=0.00227902 0.00234865 0.00222259 0.00156754 0.00242178 0.000665786 0.00269897 0.00294693 0.00237672 0.00263803 0.00219965 0.00190584 0.0020478 0.00227023 0.00237107 0.00221114 0.00228257 0.00216595 0.00185748 0.00218878 0.00239873 0.00217789 0.00239129 0.00235098 0.00243855 0.00223194 0.00218923 0.00156758
internal_weight=227300 121079 44433 3005 76646 1271 10705 5473 65941 5893 106221 3981 3375 41428 18425 102240 39578 62662 4302 58360 18783 20795 1962 60048 5232 1734 23003 1413
internal_count=227300 121079 44433 3005 76646 1271 10705 5473 65941 5893 106221 3981 3375 41428 18425 102240 39578 62662 4302 58360 18783 20795 1962 60048 5232 1734 23003 1413
cat_boundaries=0 1 2 3
cat_threshold=2107392 8704 6307840
is_linear=0
shrinkage=1


Tree=1
num_leaves=29
num_cat=4
split_feature=160 152 155 65 206 267 195 19 197 12 15 267 161 267 193 229 71 105 3 267 6 199 155 91 176 47 52 19
split_gain=63.7487 34.2691 43.7615 37.8519 56.1462 36.7962 35.3309 33.0917 32.8573 35.4519 91.7364 40.4677 40.2772 69.9623 32.6014 31.8164 29.6919 27.7251 35.6357 26.6905 24.9362 29.8302 22.1004 20.2421 20.1844 17.4094 14.4911 9.15341
threshold=-0.0019905927909481531 0.0024439934753835994 0.42433051444679354 6.5357971390870828 -0.0010578149786972799 0 0.13982695081962127 42.048025150787858 0.00015760418024985233 0.10042266362429654 0.0043669359346594225 1 -0.00029400169783472062 2 1.5842658320509193 -0.00039964617172051766 -8.337056506041439e-05 1.4700014052279557 1.0000000180025095e-35 3 0.0019815292760343999 42.287820344226205 0.7092354797388073 -0.13040014060545152 -1.3899823172722814 37.029998608474791 0.11976391633737708 70.341533079357092
decision_type=8 2 2 2 10 1 10 8 2 2 10 1 2 1 10 8 2 8 8 1 10 10 2 10 10 8 8 8
left_child=1 3 17 4 7 6 -4 -1 14 12 11 -11 19 -14 15 22 -16 18 -3 -10 21 -5 -2 -22 -7 -17 -6 -19
right_child=8 2 5 20 26 24 -8 -9 9 10 -12 -13 13 -15 16 25 -18 27 -20 -21 23 -23 -24 -25 -26 -27 -28 -29
leaf_value=0.0022013561883750111 2.2659868044173333e-05 0.0012114794466210306 -5.1434492412258791e-05 -9.507640241201385e-05 7.2528326634551798e-05 0.00071690252303604606 -0.0010900481559375493 0.00079547338449878578 -0.00013577324832039458 -0.0010456655218789657 -0.0022849561362209979 0.00012149832354113858 0.00039205037478192632 -0.00089882987179423605 0.0017357089362195915 -0.00029848975387762182 9.2038742987898408e-05 -0.00074312452032200354 0.00016139710290566175 6.465299525282757e-05 -0.00037062306418019181 0.00044355984887243019 0.00022156734517513645 0.00067570020894945507 -0.00013088923294690501 -4.7076781814263876e-05 0.00078905735720539831 0.00013098054358101031
leaf_weight=786 57013 1406 1464 7539 2096 947 1888 932 41994 1062 652 2392 1477 3555 524 8856 591 565 1929 27431 523 3892 18526 3607 2687 31270 1077 619
leaf_count=786 57013 1406 1464 7539 2096 947 1888 932 41994 1062 652 2392 1477 3555 524 8856 591 565 1929 27431 523 3892 18526 3607 2687 31270 1077 619
internal_value=0 0.00020702 -1.08649e-05 0.000329828 0.000713888 -0.00025929 -0.000636174 0.00144249 -3.38692e-05 -0.000112939 -0.000565404 -0.000238796 -8.79127e-05 -0.00051994 1.92821e-05 1.10322e-05 0.000869833 0.000372046 0.00060583 -5.65199e-05 0.000208754 8.79026e-05 7.15106e-05 0.000541932 8.85578e-05 -0.000102695 0.000317484 -0.000282195
internal_weight=227300 31957 11505 20452 4891 6986 3352 1718 195343 78563 4106 3454 74457 5032 116780 115665 1115 4519 3335 69425 15561 11431 75539 4130 3634 40126 3173 1184
internal_count=227300 31957 11505 20452 4891 6986 3352 1718 195343 78563 4106 3454 74457 5032 116780 115665 1115 4519 3335 69425 15561 11431 75539 4130 3634 40126 3173 1184
cat_boundaries=0 1 2 3 4
cat_threshold=2106368 2121728 4196352 6299648
is_linear=0
shrinkage=0.005


Tree=2
num_leaves=21
num_cat=2
split_feature=244 198 267 170 45 267 154 27 12 158 152 180 222 163 216 165 15 85 1 19
split_gain=42.6958 39.1297 51.8681 41.4992 56.895 36.3948 43.4103 34.3872 32.216 26.7379 32.0369 19.9373 18.6545 26.6121 21.4724 17.8595 16.2289 14.6457 8.77903 7.7334
threshold=0.057145098146405358 0.16663078973963902 0 0.099495845309571743 0.38028134088041093 1 -1.0000000180025095e-35 -0.0077188955739983149 0.099885538974575902 0.00098866334436163478 -0.028930935763513518 0.099832896478805278 -0.002629432926512298 -0.00010112052335742304 0.34797823575615172 0.002734694751320339 0.0014120721106964387 -0.7673992139290372 -0.0015188732213529119 63.997905852385749
decision_type=10 8 1 10 2 1 10 8 2 10 2 8 8 2 8 2 10 10 10 8
left_child=1 2 9 4 -4 6 19 -7 -5 10 -1 -9 13 -3 17 -16 -13 -14 -15 -2
right_child=5 12 3 8 -6 7 -8 11 -10 -11 -12 16 14 18 15 -17 -18 -19 -20 -21
leaf_value=0.00014805391644407762 0.00012500099752220389 0.0010054453931230812 0.00064895907763068959 -2.1156341845454577e-05 -0.00058570487268368642 -0.0012993151982890027 -0.0018337922792067093 0.00070331764297968465 0.00016464452776498883 -0.0011878756082304483 -0.00017303179542502864 -0.00040628477397784842 2.5199172240422161e-05 0.00028632062447899332 -0.00011211248678520394 -0.00040673248447639729 0.00054864661007351001 -0.00014437932674751984 -0.00056182255126043163 -0.00073744969158996015
leaf_weight=10890 514 950 6551 38930 1083 553 853 856 58057 553 27003 1895 33977 646 13704 8301 577 20328 571 508
leaf_count=10890 514 950 6551 38930 1083 553 853 856 58057 553 27003 1895 33977 646 13704 8301 577 20328 571 508
internal_value=0 1.1046e-05 6.02804e-05 0.000118008 0.000473094 -0.000425103 -0.000995252 -0.00014524 9.00142e-05 -9.6684e-05 -8.06221e-05 4.49219e-05 -7.86462e-05 0.000378259 -9.16914e-05 -0.000223493 -0.000181237 -3.81886e-05 -0.000107646 -0.000299107
internal_weight=227300 221544 143067 104621 7634 5756 1875 3881 96987 38446 37893 3328 78477 2167 76310 22005 2472 54305 1217 1022
internal_count=227300 221544 143067 104621 7634 5756 1875 3881 96987 38446 37893 3328 78477 2167 76310 22005 2472 54305 1217 1022
cat_boundaries=0 1 2
cat_threshold=2099200 2098176
is_linear=0
shrinkage=0.005


Tree=3
num_leaves=23
num_cat=0
split_feature=161 168 250 174 197 176 173 185 217 164 147 174 177 168 180 253 22 180 163 7 172 228
split_gain=99.662 159.532 56.3705 32.1788 30.0802 31.938 24.3453 22.1067 21.0473 31.6365 21.015 18.5783 39.264 34.012 26.4714 25.0323 17.6004 15.2093 17.1593 14.2255 14.0269 13.693
threshold=-0.00029151428604246515 2.3466117135121145 50.389075496966562 -0.0032135564440709525 0.00020557110285624445 -0.10725660975936262 1.1362677924568509 98.519148323218616 0.051355311355311357 0.0012842326213338363 1.6676016779879539 -0.0026976416273096766 194.34824265369602 1.7506357427634636 0.099970388609701852 0.33320322546900255 0.0019133908994276329 0.10017300317756798 -0.0015975021012216149 0.0010399630895806535 1.0000000180025095e-35 0.00055923580488797522
decision_type=2 2 8 8 2 10 10 10 2 10 8 8 10 2 8 10 8 10 2 10 8 2
left_child=2 4 3 8 6 16 7 -2 9 -1 -10 12 15 -14 20 -4 -6 18 -5 -19 -13 -16
right_child=1 -3 11 17 5 -7 -8 -9 10 -11 -12 14 13 -15 21 -17 -18 19 -20 -21 -22 -23
leaf_value=0.00039152030614527603 0.00073578818351517769 -0.0027789978931670035 -5.4891734002246123e-05 0.00025925441672457856 -0.00099986115677679391 -0.0016973164972081223 -0.00074831284105150871 -0.00015593215631250562 0.00034235460286505942 0.0018396820941765225 -0.00052740869949946545 -0.00032488155235610043 0.00016449686942686295 0.0017161158072297644 4.4621631354534769e-06 0.00059700212961107091 0.00010048507026805931 0.00033080840943795287 1.958610878164378e-05 -4.1245842352307443e-05 -9.9091315528572187e-05 -0.00015389351131145634
leaf_weight=1150 1048 742 11181 8488 645 686 1010 2043 8393 570 752 13211 753 678 65797 1694 814 9758 62696 3456 14529 17206
leaf_count=1150 1048 742 11181 8488 645 686 1010 2043 8393 570 752 13211 753 678 65797 1694 814 9758 62696 3456 14529 17206
internal_value=0 -0.000587823 1.86465e-05 0.000110296 -0.000326317 -0.000806184 -7.39707e-05 0.000144928 0.000366527 0.00087513 0.000270237 -5.1133e-05 0.000118291 0.000903822 -7.30656e-05 3.05312e-05 -0.000382887 7.7247e-05 4.82377e-05 0.000233127 -0.000206811 -2.83052e-05
internal_weight=227300 6988 220312 95263 6246 2145 4101 3091 10865 1720 9145 125049 14306 1431 110743 12875 1459 84398 71184 13214 27740 83003
internal_count=227300 6988 220312 95263 6246 2145 4101 3091 10865 1720 9145 125049 14306 1431 110743 12875 1459 84398 71184 13214 27740 83003
is_linear=0
shrinkage=0.005


Tree=4
num_leaves=28
num_cat=0
split_feature=160 154 170 189 9 216 211 1 99 120 261 204 174 202 183 50 127 1 158 159 222 159 172 195 43 170 106
split_gain=48.6909 45.4242 34.0749 58.7435 33.6827 33.4753 35.9035 26.8292 22.6922 20.6109 36.1266 44.3495 19.0866 26.1714 18.0573 16.9343 17.2543 16.6457 15.9232 15.2507 14.4456 12.866 12.5238 10.6496 10.3259 9.73275 4.84218
threshold=-0.0023976025538773311 0.97811462459361753 0.10020101554095191 0.002769993371671831 0.00068547958233011752 -0.060523721030539213 1.5979678093441081 -0.003559039831952215 6.2435177104139589e-05 0.2778324742140047 0.37184827094695322 0.0008533762013494074 0.0019119059323800538 -0.00014797797698873347 0.55705844024619211 1058.3356451120344 0.03234524847428074 0.0011295417497569906 0.00033678538590183542 0.0063663737760196373 0.00060853093997748086 0.039922777408940985 1.0000000180025095e-35 0.49024020943718172 -0.00045813987516986468 0.099495845309571743 0.026267000000011653
decision_type=8 10 10 10 2 8 10 8 10 8 10 10 10 8 8 10 8 8 8 2 10 2 10 10 2 10 10
left_child=4 5 12 19 7 15 14 18 22 10 24 -12 13 -3 -7 16 -2 -17 26 -4 -14 25 -9 -10 -6 -11 -1
right_child=1 2 3 -5 9 6 -8 8 23 21 11 -13 20 -15 -16 17 -18 -19 -20 -21 -22 -23 -24 -25 -26 -27 -28
leaf_value=0.00053726505643150963 -4.1474950142001328e-05 0.00062229189468681104 0.00082441411642045323 0.0022808481493130374 0.00057571114582917525 -3.3688335399348953e-05 -0.0011524554090129142 -7.333992303330712e-05 -0.00025869823279898898 -0.00065244907977503417 0.00057013197595349172 0.0018944289377810337 -0.00065017871338978448 0 -0.0001732716157843212 0.0001441843817151485 -0.00048845165677036118 -1.3058257897389582e-05 0.0011890486086991352 -7.0857880163027073e-05 0.00021514954663664977 0.00067073786472731495 0.0003188179737780983 -0.00098058962942057428 0.00012139527238851941 9.7273280229723583e-05 -0.00011210004910450303
leaf_weight=598 28722 2926 981 530 2008 47776 820 5108 2170 717 2094 917 1166 3983 45185 33756 2338 33460 713 904 810 553 3369 682 3416 1067 531
leaf_count=598 28722 2926 981 530 2008 47776 820 5108 2170 717 2094 917 1166 3983 45185 33756 2338 33460 713 904 810 553 3369 682 3416 1067 531
internal_value=0 -2.51116e-05 0.000282893 0.000809842 0.000213267 -4.3261e-05 -0.000110844 4.32365e-05 -4.73657e-05 0.000420676 0.00053579 0.000975602 0.000139027 0.000263338 -0.00010159 2.11801e-05 -7.52961e-05 6.58359e-05 0.000602911 0.000392602 -0.000293006 3.0018e-06 8.19442e-05 -0.00043336 0.000290583 -0.00020144 0.000227597
internal_weight=227300 203357 11300 2415 23943 192057 93781 13171 11329 10772 8435 3011 8885 6909 92961 98276 31060 67216 1842 1885 1976 2337 8477 2852 5424 1784 1129
internal_count=227300 203357 11300 2415 23943 192057 93781 13171 11329 10772 8435 3011 8885 6909 92961 98276 31060 67216 1842 1885 1976 2337 8477 2852 5424 1784 1129
is_linear=0
shrinkage=0.005


Tree=5
num_leaves=27
num_cat=3
split_feature=197 208 157 178 5 193 160 6 198 267 246 233 182 206 157 138 163 129 267 23 173 160 179 267 88 131
split_gain=45.2202 47.6752 61.2642 43.2763 44.3919 42.3997 39.9055 39.588 39.2307 23.3341 21.7212 19.9837 22.9012 31.6672 18.2657 30.4796 17.4735 16.8565 16.0064 15.2021 13.9654 13.1715 11.4932 8.69945 8.6183 7.16615
threshold=0.00018751010162405707 -0.00029531787133145346 4.3500000000000005 0.24479879552070263 -0.00084532462249703444 1.6230748026304818 -0.0029596114947331715 -0.00064418028169810338 0.16663078973963902 0 0.079690659162730298 3.1374482686744606e-06 0.35759472664220443 -0.0023611711986623591 5.5500000000000007 0.57180032844073747 0.0027054484149806606 0.059682264148466745 1 -0.0014215100475734649 2.8213963604247803 -0.0016801715613702914 87.878690364232924 2 0.070251330014681743 0.17590220413220639
decision_type=2 2 2 10 10 10 10 10 8 1 10 10 8 10 2 10 2 2 1 2 8 8 10 1 8 8
left_child=8 5 17 10 -5 6 7 -2 11 -8 -4 21 13 -13 16 -16 19 20 -14 -10 -3 23 -18 -1 -23 -19
right_child=1 2 3 4 -6 -7 9 -9 14 -11 -12 12 18 -15 15 -17 22 25 -20 -21 -22 24 -24 -25 -26 -27
leaf_value=0.00045035627821246517 -0.00011698520419247991 -0.00099070779179700704 -0.0011545525963515225 -0.00084371063228662487 -0.0028550691419927032 -0.001285325799033726 -0.00016096656063425627 0.00062401496827934515 0.00041938211256759358 3.2180517937449406e-05 3.6038086722748208e-05 0.00084928335678760894 -0.00055488626097844164 0.00020229462195466515 -0.00025520025445298973 0.0012121266037656976 -9.542359179079364e-05 -1.7526004851105782e-05 5.3006797639703629e-05 -7.2095470663832053e-05 -4.2921704348953597e-05 -0.0002618020996536002 -0.00066309124956855417 7.7970202819737297e-05 1.5433778100782288e-05 0.00065103630676578597
leaf_weight=2743 3180 650 738 565 552 700 41404 4130 1632 25062 779 1995 1164 38251 683 723 1623 817 13779 41507 994 3053 2043 3772 34001 760
leaf_count=2743 3180 650 738 565 552 700 41404 4130 1632 25062 779 1995 1164 38251 683 723 1623 817 13779 41507 994 3053 2043 3772 34001 760
internal_value=0 -9.53911e-05 -0.000529893 -0.00109545 -0.00184382 -6.11586e-05 -4.94584e-05 0.000301009 5.21385e-05 -8.80823e-05 -0.000540253 0.000109234 0.000172446 0.00023451 -6.4714e-05 0.000496107 -8.16779e-05 -6.56597e-05 4.94997e-06 -5.33771e-05 -0.000421069 2.90447e-05 -0.000413233 0.000236379 -7.2801e-06 0.000301713
internal_weight=227300 80331 5855 2634 1117 74476 73776 7310 146969 66466 1517 98758 55189 40246 48211 1406 46805 3221 14943 43139 1644 43569 3666 6515 37054 1577
internal_count=227300 80331 5855 2634 1117 74476 73776 7310 146969 66466 1517 98758 55189 40246 48211 1406 46805 3221 14943 43139 1644 43569 3666 6515 37054 1577
cat_boundaries=0 1 2 3
cat_threshold=6299648 2097152 4203008
is_linear=0
shrinkage=0.005


Tree=6
num_leaves=31
num_cat=1
split_feature=198 267 161 254 242 204 155 162 190 13 8 156 3 25 236 153 165 176 21 197 229 37 151 163 219 160 71 246 42 95
split_gain=35.2888 32.6946 55.5016 29.4364 28.2758 27.3341 26.4394 23.61 22.7622 29.9386 22.1482 80.7691 37.8608 31.796 21.0236 20.8579 53.7922 20.6666 20.4382 17.8934 20.2 15.0089 13.843 13.7513 11.2697 11.8521 10.3006 10.9502 9.54775 7.75554
threshold=-0.019965386162075684 0 -0.00029400169783472062 1.0604881763742966 0.00021182994502007423 0.00025397536881151364 0.75032133676092549 0.48541666666667055 -0.00288043635098667 5.3328741665274366 16.500000000000004 -4.833333333333484 0.93833191603146215 -0.00035637919028436155 0.58458281568842507 0.1029656048465898 0.0037667434078649856 0.21309941299970817 0.57446603744047364 4.0325970485285583e-05 -0.00055840951601955375 -0.64784876503100564 -0.83396324707024794 -0.0019880321517756201 0.00015577753496605906 -0.0006335788603841207 -9.9495737514165836e-05 0.039181312615235837 0.50032091919969812 -1.7400488641056748e-05
decision_type=8 1 2 10 2 8 2 2 10 2 2 2 8 2 10 2 2 10 8 2 10 8 8 2 10 10 2 10 2 8
left_child=1 6 3 23 -5 21 8 22 9 -1 15 13 -13 -12 -10 16 -7 -9 -17 -8 -21 26 -4 -3 28 -26 27 -2 -23 -28
right_child=5 2 7 4 -6 10 19 17 14 -11 11 12 -14 -15 -16 18 -18 -19 -20 20 -22 24 -24 -25 25 -27 29 -29 -30 -31
leaf_value=0.0012586042205692738 0.00063290649249901165 0.00039289704542596769 -0.0004963937766431527 0.00036171633928052234 0.0012912271841184217 -5.9417521058493299e-05 0.00042030300612041599 -0.00042319817215984574 5.8130398058095386e-06 9.600573267032293e-05 0.0015169078727763007 -0.00059444002281970447 -0.001926562965420752 3.491233083274592e-06 -0.00055614579191710077 -8.0740450201965323e-05 0.00070602806517869072 -0.001732061924823635 -0.00039504999812766035 -5.3638983012516366e-06 -0.00076376669403116981 0.00011263869244544211 0.00025321754776602847 0.0001132839484158936 0.00011383665576128879 -0.00031948544253770846 0.00033959622565263168 0.00015812932205099377 -0.0001222857065849571 -0.00010204792296099118
leaf_weight=775 2469 4915 1373 5824 959 10158 558 696 11971 1973 511 2471 688 1098 1929 82442 2961 551 5529 1289 2845 19706 1106 43372 2414 4480 1569 2460 5522 2686
leaf_count=775 2469 4915 1373 5824 959 10158 558 696 11971 1973 511 2471 688 1098 1929 82442 2961 551 5529 1289 2845 19706 1106 43372 2414 4480 1569 2460 5522 2686
internal_value=0 8.44241e-05 0.000145284 0.000185334 0.000494041 -4.59739e-05 -8.30512e-05 -0.000444808 1.00561e-05 0.000426043 -8.85597e-05 -0.000421758 -0.000886664 0.000487884 -7.18486e-05 -7.27906e-05 0.000113006 -0.00100646 -0.000100556 -0.000414586 -0.000528561 6.30423e-05 -0.000159973 0.000141856 1.19132e-05 -0.000167034 0.000241306 0.000397046 6.10166e-05 5.96718e-05
internal_weight=227300 80136 58796 55070 6783 147164 21340 3726 16648 2748 105858 4768 3159 1609 13900 101090 13119 1247 87971 4692 4134 41306 2479 48287 32122 6894 9184 4929 25228 4255
internal_count=227300 80136 58796 55070 6783 147164 21340 3726 16648 2748 105858 4768 3159 1609 13900 101090 13119 1247 87971 4692 4134 41306 2479 48287 32122 6894 9184 4929 25228 4255
cat_boundaries=0 1
cat_threshold=2099200
is_linear=0
shrinkage=0.005


Tree=7
num_leaves=23
num_cat=0
split_feature=160 206 155 251 12 6 193 6 265 250 193 261 169 126 5 124 5 46 118 187 12 185
split_gain=55.0595 44.5648 51.5615 59.0138 29.5941 29.3491 22.5291 31.3993 23.0628 22.5556 28.4282 22.3871 19.6634 23.3887 25.9017 18.2531 17.6231 12.0307 11.2106 18.9245 12.7791 7.26782
threshold=-0.0014234487566722185 -0.0014785612665430545 0.32299510800857478 0.018390901788356662 0.099967518787093312 0.00061040382701238471 1.5957476544768807 0.00078009390403088752 -0.098780487804878039 48.380470078055929 1.5866894502124596 0.38517323073894599 0.0036717214420012305 -0.63511403527515975 -0.0010519436372531386 -0.00013087409857737151 0.00065469380656796316 3.3852543551195562 520.09808612440202 0.55000000000000737 0.1001967302967144 190.42237549312503
decision_type=8 10 2 2 2 10 10 10 8 8 10 10 10 10 10 2 10 10 8 2 2 10
left_child=1 2 3 -1 5 -4 8 -8 18 21 -11 -5 13 15 -15 -3 -14 -6 20 -20 -2 -10
right_child=6 12 4 11 17 -7 7 -9 9 10 -12 -13 16 14 -16 -17 -18 -19 19 -21 -22 -23
leaf_value=-0.00019219062932360025 8.1643992559106687e-05 -0.00057838161491092122 -0.00054937407556140234 0.00089172169533404517 0.00089066212171678072 0.000591000305760244 -6.4421772870450227e-05 -0.0015702775400294191 4.979240237061129e-05 -0.00011468210983060339 0.0010005524937300341 0.00179328121515345 3.3835069736128043e-06 -6.2462608040771134e-05 0.00024195812226766243 5.3070997363701662e-05 -0.0010185765861906112 1.0624324929753353e-05 7.4105274169192973e-05 -0.00030130174578166935 0.00037218660296498029 -0.00018004554505391266
leaf_weight=925 16074 2068 1912 1783 1236 796 891 573 39377 95308 573 1167 942 9967 23190 2532 749 583 13442 4471 4980 3761
leaf_count=925 16074 2068 1912 1783 1236 796 891 573 39377 95308 573 1167 942 9967 23190 2532 749 583 13442 4471 4980 3761
internal_value=0 0.000150699 0.000481429 0.000904906 0.000117718 -0.000212228 -4.01851e-05 -0.000657886 -3.50726e-05 -6.52246e-05 -0.000107955 0.00125055 8.01196e-05 0.000103856 0.000150299 -0.000229785 -0.000446656 0.000611513 7.23687e-05 -1.9327e-05 0.000150619 2.96343e-05
internal_weight=227300 47850 8402 3875 4527 2708 179450 1464 177986 139019 95881 2950 39448 37757 33157 4600 1691 1819 38967 17913 21054 43138
internal_count=227300 47850 8402 3875 4527 2708 179450 1464 177986 139019 95881 2950 39448 37757 33157 4600 1691 1819 38967 17913 21054 43138
is_linear=0
shrinkage=0.005


Tree=8
num_leaves=26
num_cat=0
split_feature=239 206 174 68 152 7 3 266 8 38 12 68 197 171 5 24 249 47 80 168 169 56 140 153 216
split_gain=52.3196 27.3463 28.4432 33.0704 23.6346 38.3541 26.5946 20.4752 19.9844 19.4246 19.2556 18.0606 17.9922 17.6958 17.1378 14.9953 13.9636 13.8039 11.7121 24.2977 14.5995 11.4426 9.57212 7.03702 3.43167
threshold=56.531836339976586 0.0018859386026274796 -0.0032135564440709525 0.092257497551464743 0.023355483723644602 -0.00013230046882811705 0.91546130124634006 19.812913901009001 16.500000000000004 -1.0000000180025095e-35 0.10006682064425475 0.066927514793665835 0.00018751010162405707 -0.0028993079151620744 -0.00031913784670950513 0.076571196387596394 8.7724561950742086e-05 84.989853693731646 0.00051743319527831834 2.2043678189418174 -0.0015770909311514922 0.077930363697138932 0.1812592276471171 0.42834821428571429 -0.3054466890971958
decision_type=8 10 10 10 2 10 10 10 2 10 2 8 2 10 10 10 10 10 8 2 8 2 8 2 10
left_child=1 2 3 13 6 -6 8 -5 -3 11 12 14 -4 -1 -2 -12 22 21 19 -13 -20 -18 23 -11 -24
right_child=9 4 10 7 5 -7 -8 -9 -10 16 15 18 -14 -15 -16 -17 17 -19 20 -21 -22 -23 24 -25 -26
leaf_value=-0.0011790245020617282 -8.5369579988898504e-05 -4.5356105689853168e-05 7.4592432329496618e-05 0.00010062973682716879 4.5261545245889047e-05 -0.0015616903607139406 -0.00090936515426544968 0.00054285454779620364 0.0010027360776781037 -0.00068402899249625255 -0.00032101570009315127 -3.4150738766142001e-05 -9.9562623765157412e-05 0.00012062780062658239 -0.001147825248515526 0.00021016677683204633 -0.00066625241164256529 -0.0010061547620053746 9.0779678389320514e-05 0.00030161568179341418 -0.00012286640506421379 -0.00017051893921310235 -0.00011291105115294201 -7.7545579180577932e-05 0.0001911157668770657
leaf_weight=528 814 4083 48546 4010 704 771 814 7708 510 939 1397 31782 21338 506 729 24428 1746 900 9465 6484 50707 3616 1617 1017 2141
leaf_count=528 814 4083 48546 4010 704 771 814 7708 510 939 1397 31782 21338 506 729 24428 1746 900 9465 6484 50707 3616 1617 1017 2141
internal_value=0 7.47357e-05 9.4162e-05 0.000316078 -0.000230667 -0.000791813 -7.65475e-05 0.00039197 7.01271e-05 -7.69969e-05 6.45393e-05 -5.41389e-05 2.13447e-05 -0.000538691 -0.00059099 0.000181228 -0.000267388 -0.000430665 -4.56671e-05 2.26191e-05 -8.9176e-05 -0.000332968 -8.75326e-05 -0.000371451 5.89731e-05
internal_weight=227300 115343 108461 12752 6882 1475 5407 11718 4593 111957 95709 99981 69884 1034 1543 25825 11976 6262 98438 38266 60172 5362 5714 1956 3758
internal_count=227300 115343 108461 12752 6882 1475 5407 11718 4593 111957 95709 99981 69884 1034 1543 25825 11976 6262 98438 38266 60172 5362 5714 1956 3758
is_linear=0
shrinkage=0.005


Tree=9
num_leaves=26
num_cat=4
split_feature=237 161 15 204 267 165 155 161 179 181 267 161 193 173 267 10 266 198 267 236 190 120 169 1 30
split_gain=44.5589 71.4203 83.3783 35.6205 35.0055 28.2613 86.6244 55.7343 40.9674 30.5695 29.956 29.0406 27.3357 35.5358 26.2311 35.0262 23.9001 22.7931 21.5302 18.225 18.497 15.0536 13.1995 11.2946 9.11286
threshold=0.16035714285714289 -0.00029151428604246515 0.0043669359346594225 0.00016471102214888898 0 0.0039664861209525943 0.29238026124818584 -0.00038362279836820192 95.637702273798482 0.40994579587497754 1 -0.00032081769116636577 1.6121072156056095 1.4063308398874046 2 -0.0018092305540917117 129.92854283268431 0.093003858742831527 3 0.53254592132086576 -0.0010499799548543962 0.088982136165224698 -0.003233099609195655 0.00090674831528975164 3427.1338613587909
decision_type=2 2 10 10 1 2 2 2 10 2 1 2 10 10 1 10 10 8 1 10 10 8 10 10 10
left_child=5 12 3 24 -5 14 7 -7 9 -8 -9 -10 13 17 19 22 -14 -2 -15 23 -21 -17 -16 -1 -3
right_child=1 2 -4 4 -6 6 8 10 11 -11 -12 -13 16 18 15 21 -18 -19 -20 20 -22 -23 -24 -25 -26
leaf_value=-0.00010949312537025381 2.0663564573707268e-05 0.00028063133561230383 -0.0022078750616318019 -0.0015168573926053663 -0.00033794224063911094 -0.00048604209368745494 0.0010445068251532486 0.00056143699488782719 -0.0012027970415209753 -0.00016573792829206917 0.0016781193100320797 -2.1015072583037689e-05 -9.619156886896623e-05 0.00032590997221475183 -0.00070027914139719565 0.00058206925116460219 -0.0015427308681811318 -0.00010014970915797957 3.6123289398983496e-05 0.00012765470424973781 -0.00092383625512576192 0.00021358452953309265 0 0.00026848572316396025 -0.00034167361163296684
leaf_weight=7494 81757 1723 683 954 1917 506 1068 960 917 1007 1863 1219 618 11348 1212 3694 543 74627 14836 635 1181 11469 1499 2682 888
leaf_count=7494 81757 1723 683 954 1917 506 1068 960 917 1007 1863 1219 618 11348 1212 3694 543 74627 14836 635 1181 11469 1499 2682 888
internal_value=0 -3.10722e-05 -0.000560403 -0.000353868 -0.000738273 0.000157729 0.000431406 0.00103409 -4.39915e-05 0.000454968 0.00130841 -0.000531028 -1.32804e-05 -8.38711e-06 8.84571e-05 0.000209843 -0.000777787 -3.69573e-05 0.000162052 -9.21511e-05 -0.000553542 0.000303717 -0.000312508 -9.36462e-06 6.70217e-05
internal_weight=227300 189894 6165 5482 2871 37406 7540 3329 4211 2075 2823 2136 183729 182568 29866 17874 1161 156384 26184 11992 1816 15163 2711 10176 2611
internal_count=227300 189894 6165 5482 2871 37406 7540 3329 4211 2075 2823 2136 183729 182568 29866 17874 1161 156384 26184 11992 1816 15163 2711 10176 2611
cat_boundaries=0 1 2 3 4
cat_threshold=1536 2560 2099712 1536
is_linear=0
shrinkage=0.005


Tree=10
num_leaves=26
num_cat=2
split_feature=239 267 163 155 171 233 162 199 170 206 61 162 68 172 189 37 54 119 198 112 180 176 267 116 190
split_gain=41.3395 53.5691 43.0703 40.0029 81.2653 55.3283 45.8081 48.715 43.7845 32.4967 32.8012 29.3742 19.0804 13.5356 29.1091 15.7342 13.099 14.0103 12.3969 11.8966 20.5604 11.6824 10.2848 10.2686 6.05677
threshold=62.133819339283036 0 -0.0015975021012216149 0.26392413987591662 0.0027011895296845671 0.00015081042594401631 0.45625000000001142 35.422203630731239 0.099684778160541679 -0.00089943941140374617 -0.018612795199779254 0.45625000000001142 0.066927514793665835 0.0011317060241453627 0.0034106934362494461 -0.75392223055153151 0.00050388873261753583 -203.49999999999997 0.20701756398125579 -855.89112903225794 0.10008773849668816 -1.0000000180025095e-35 1 2.7676762840085645e-06 0.00020984416718405899
decision_type=8 1 2 2 10 10 2 10 10 10 10 2 8 10 8 8 2 2 8 8 10 8 1 10 10
left_child=1 3 9 6 8 -6 23 -8 -5 11 -11 -3 18 14 -4 -15 19 21 -2 24 -21 -18 -19 -1 -14
right_child=12 2 13 4 5 -7 7 -9 -10 10 -12 -13 16 15 -16 -17 17 22 -20 20 -22 -23 -24 -25 -26
leaf_value=-0.00021303576348682165 -6.8824244018489067e-05 0.0004118773843059685 4.8079152529653721e-05 -0.0014068932670680309 -0.0006216268985792464 -0.0022203428613959846 0.0012465376464656573 -0.00011075218882852192 -7.6826678684434579e-05 -9.4544365732897101e-05 0.0004214269948512195 0.0012813077977763868 -0.00013185877968063269 0.00034628334533744155 -0.0004702633088478162 6.2224294407095334e-05 0.0001774055395328599 -3.4106149617796981e-05 -0.0010470695930814586 -8.7586885832413307e-05 0.0001406168670835015 -9.6405837260472266e-05 -0.00023552327587905925 0.00051934654414316083 -0.00090869095665512532
leaf_weight=5187 548 2936 69654 656 1647 816 1495 1173 10891 5303 7303 1473 510 8028 2816 12551 5610 8581 834 23314 17110 12723 25089 523 529
leaf_count=5187 548 2936 69654 656 1647 816 1495 1173 10891 5303 7303 1473 510 8028 2816 12551 5610 8581 834 23314 17110 12723 25089 523 529
internal_value=0 5.70592e-05 0.000102435 -0.000165761 -0.000329355 -0.001154 0.000107018 0.000648107 -0.000152938 0.000333802 0.000203985 0.000703703 -7.96844e-05 6.00814e-05 2.78625e-05 0.000173292 -7.09972e-05 -0.000123854 -0.000663115 -4.58178e-06 8.88082e-06 -1.23402e-05 -0.000184422 -0.000144999 -0.000532679
internal_weight=227300 132452 110064 22388 14010 2463 8378 2668 11547 17015 12606 4409 94848 93049 72470 20579 93466 52003 1382 41463 40424 18333 33670 5710 1039
internal_count=227300 132452 110064 22388 14010 2463 8378 2668 11547 17015 12606 4409 94848 93049 72470 20579 93466 52003 1382 41463 40424 18333 33670 5710 1039
cat_boundaries=0 1 2
cat_threshold=2097152 8704
is_linear=0
shrinkage=0.005


Tree=11
num_leaves=29
num_cat=3
split_feature=198 267 160 153 216 193 15 267 208 181 133 253 267 234 155 38 155 159 160 128 14 170 168 170 202 155 48 156
split_gain=55.1137 34.3083 24.9954 22.9336 22.3755 25.8461 22.2452 19.8391 37.1353 16.4267 29.8472 18.6575 14.6678 18.8555 15.271 14.166 22.4111 28.7834 25.9181 14.1596 14.0607 13.4478 13.3841 13.3555 17.1584 11.9557 10.746 9.51286
threshold=0.032432410779056065 0 -0.0023976025538773311 0.16608971671557768 1.0000000180025095e-35 1.5957476544768807 -0.0005915038314681097 1 -0.00030879793605138162 0.49999999999991068 6.2838405774153143 0.33320322546900255 2 0.0003183995118434258 0.35560204556020464 -3.9345609590934031e-06 0.85421901172529324 0.057255639763005621 0.0016025301671946381 0.11786672617789286 -1.7289169119229851e-05 0.099906550311824313 1.2627205951576141 0.099634621019010772 -0.00024046598974347686 0.29238026124818584 -0.44999999999999996 -15.166666666666513
decision_type=8 1 10 2 8 10 8 1 2 2 10 10 1 2 2 10 2 2 10 10 8 10 2 8 8 2 2 2
left_child=1 2 3 19 6 9 12 8 -4 11 -11 -6 14 -14 -2 16 17 -3 -18 -1 -5 25 -9 24 -8 -17 -25 -23
right_child=4 15 7 20 5 -7 23 22 -10 10 -12 -13 13 -15 -16 21 18 -19 -20 -21 -22 27 -24 26 -26 -27 -28 -29
leaf_value=0.0012024777250021304 0.0002706886423675443 0.0002582480377132154 -0.00012889332312293177 0.00083117518987008696 -0.00011373857369531127 -0.0010620015655830994 0.00082231844460542978 -0.00012464926641510775 -0.00087348663565533049 -0.0004865879197943291 -8.3484970475634657e-05 0.00021974606744668769 9.9799943983174477e-05 0.00053295688464682185 -0.00035652203009568551 5.7408174048133819e-05 0.00033462585400251542 -3.5031040841585848e-05 0.00124594937655345 0.00030233427690700652 -4.9480912388056275e-05 0.00063846817735864437 0.00014249315927387002 7.1882885999417008e-05 -0.00010243258969800081 -0.00028112471035923422 -0.00015816086454780045 0.00011985448060572873
leaf_weight=854 1417 26199 12589 515 34247 757 893 8800 1936 7929 10999 4770 18331 2922 3035 6483 3626 12249 1004 934 3676 949 10022 6254 1124 4343 26354 14089
leaf_count=854 1417 26199 12589 515 34247 757 893 8800 1936 7929 10999 4770 18331 2922 3035 6483 3626 12249 1004 934 3676 949 10022 6254 1124 4343 26354 14089
internal_value=0 8.16334e-05 -3.61185e-05 0.000261329 -7.42556e-05 -0.000143756 -6.54697e-06 -8.96168e-05 -0.000228379 -0.000131655 -0.000252627 -7.28359e-05 0.000104793 0.000159536 -0.000155403 0.000148857 0.000204458 0.000164685 0.000533549 0.000735495 5.77159e-05 5.61115e-05 1.73191e-05 -8.93486e-05 0.000304716 -7.79506e-05 -0.000113886 0.000152955
internal_weight=227300 108268 39326 5979 119032 58702 60330 33347 14525 57945 18928 39017 25705 21253 4452 68942 43078 38448 4630 1788 4191 25864 18822 34625 2017 10826 32608 15038
internal_count=227300 108268 39326 5979 119032 58702 60330 33347 14525 57945 18928 39017 25705 21253 4452 68942 43078 38448 4630 1788 4191 25864 18822 34625 2017 10826 32608 15038
cat_boundaries=0 1 2 3
cat_threshold=2107392 2097152 2097152
is_linear=0
shrinkage=0.005


Tree=12
num_leaves=21
num_cat=2
split_feature=174 155 55 203 52 193 267 2 221 170 2 206 26 190 153 52 213 242 177 267
split_gain=41.3843 56.8012 45.2471 43.056 49.0992 40.2712 31.4711 30.3436 28.4235 26.696 33.661 26.1413 24.7296 20.035 19.335 22.7268 21.7464 19.2862 20.788 18.6342
threshold=-0.0022988519743172837 0.20874343048256094 0.06345459230447463 -0.0018942936630690352 0.1860516056803079 1.6611145642999061 0 -0.0016273352945167516 -0.00019794057475134251 0.10002524840970813 0.0013528193554830927 0.00054525782829589764 0.11655893764943366 -0.00288043635098667 0.047451441296548318 0.20184536120899435 0.085368061667324649 0.00015057962898479393 128.8136404154578 1
decision_type=8 2 8 10 8 10 1 10 8 10 8 10 10 10 2 8 10 2 10 1
left_child=1 3 -3 4 7 9 11 -1 -8 17 13 -4 -12 -11 16 -16 -5 19 -19 -2
right_child=5 2 6 14 -6 -7 8 -9 -10 10 12 -13 -14 -15 15 -17 -18 18 -20 -21
leaf_value=0.0022201516545163587 0.00017775821953751141 -0.001017039677768364 -0.00011153715490703373 0.00028682541967679174 -1.6898958131298635e-05 -0.001184951152748028 0.00032721429049888638 0.00070007592507105132 -5.2581049350989587e-05 -0.00040847951352931754 -0.00028402706364305102 -0.0010301448387539695 4.9708651367429733e-05 0.00021474690366695282 0.00035746770167262645 -0.00027545243654724722 0.0011970227267472824 -6.1679109374619811e-05 -0.0002388555964014505 -4.7908878325232968e-05
leaf_weight=856 13786 1002 4483 1671 660 751 11040 553 8859 1347 8537 940 15815 27430 4321 2102 1102 73536 21419 27090
leaf_count=856 13786 1002 4483 1671 660 751 11040 553 8859 1347 8537 940 15815 27430 4321 2102 1102 73536 21419 27090
internal_value=0 0.000151563 2.42095e-05 0.000448689 0.00110113 -3.00332e-05 6.56481e-05 0.00162802 0.000157805 -2.54104e-05 6.95701e-05 -0.000271347 -6.70895e-05 0.000185388 0.000301249 0.000149548 0.000650645 -6.25981e-05 -0.0001017 2.81124e-05
internal_weight=227300 37589 26324 11265 2069 189711 25322 1409 19899 188960 53129 5423 24352 28777 9196 6423 2773 135831 94955 40876
internal_count=227300 37589 26324 11265 2069 189711 25322 1409 19899 188960 53129 5423 24352 28777 9196 6423 2773 135831 94955 40876
cat_boundaries=0 1 2
cat_threshold=2097152 10752
is_linear=0
shrinkage=0.005


Tree=13
num_leaves=23
num_cat=0
split_feature=160 206 212 250 31 185 142 170 197 86 197 244 179 199 12 165 244 12 177 168 169 179
split_gain=53.7086 37.5569 33.6223 33.3955 30.243 27.3221 32.3387 24.4543 23.699 18.9988 26.833 18.4163 23.2366 15.1123 13.6077 25.4868 21.3128 13.016 12.2099 21.2295 19.7029 11.766
threshold=-0.0014234487566722185 -1.0000000180025095e-35 1.6764136630986846 51.450953274411305 0.055498391472613554 175.25759624883702 -21784.833333333332 0.099906550311824313 0.00020557110285624445 -0.41198606404566224 0.0002265212780196625 0.057145098146405358 260.00476938838892 49.51241097586135 0.099885538974575902 0.0054280739159906092 0.043870306740591239 0.10013569475659724 156.86101542702608 1.2227623931551534 0.0016967077993703119 178.23376351732801
decision_type=8 10 10 8 8 8 8 10 2 10 2 8 10 10 2 2 10 2 10 2 8 8
left_child=1 4 3 11 -1 8 -7 9 -6 10 -3 12 -2 -13 15 -5 -16 -11 20 -20 -9 -4
right_child=2 7 21 14 5 6 -8 18 -10 17 -12 13 -14 -15 16 -17 -18 -19 19 -21 -22 -23
leaf_value=-0.00073302046403410002 7.2170441730118434e-05 -6.8743978482125283e-05 -0.00037842820127018551 -0.0002317223412560816 0.00032404767700621768 0.0014225191807144273 0.00042102782499653878 0.00032736514338199679 -2.5124384992450245e-05 -0.00014160650176868336 -0.0015212212515430166 -9.1821245889810589e-05 -0.00053861621857815537 -0.00096047412154341499 -4.7300623626137517e-05 0.00047812462642520676 -0.0005985628660778085 0.00053885124670881291 -0.00026610322031880948 0.00091526758297627911 -0.00027174110811418426 -0.0014388547573582313
leaf_weight=737 71884 705 535 23883 15762 1017 4028 3431 6988 9760 590 1415 1589 787 75686 1330 1796 754 535 1264 2279 545
leaf_count=737 71884 705 535 23883 15762 1017 4028 3431 6988 9760 590 1415 1589 787 75686 1330 1796 754 535 1264 2279 545
internal_value=0 0.000148837 -3.96904e-05 -3.43331e-05 0.00026411 0.000290755 0.000624147 -2.11623e-05 0.000216578 -0.000163248 -0.000735012 4.53208e-05 5.88858e-05 -0.000404845 -9.30779e-05 -0.000194062 -6.01507e-05 -9.22861e-05 0.000201615 0.000561212 8.7366e-05 -0.000919012
internal_weight=227300 47850 179450 178370 28532 27795 5045 19318 22750 11809 1295 75675 73473 2202 102695 25213 77482 10514 7509 1799 5710 1080
internal_count=227300 47850 179450 178370 28532 27795 5045 19318 22750 11809 1295 75675 73473 2202 102695 25213 77482 10514 7509 1799 5710 1080
is_linear=0
shrinkage=0.005


Tree=14
num_leaves=28
num_cat=3
split_feature=198 267 153 185 33 175 263 175 254 48 267 187 179 229 172 155 52 47 267 168 170 188 42 22 66 241 112
split_gain=41.8958 51.1766 47.4875 44.83 38.2646 37.8525 52.8727 37.7902 37.4879 37.0062 25.488 25.5417 24.8565 20.254 19.9926 54.3626 20.1105 19.304 17.7866 16.1024 15.5067 11.4661 11.3934 12.3143 11.6649 11.2847 9.54719
threshold=0.13673065831743073 0 0.1029656048465898 145.9925017798831 908.31736639406097 1.0000000180025095e-35 0.028196536064929941 -0.0027543243697660809 1.6309319905541455 0.25000000000000006 1 0.26666666666667493 134.24567543897848 -0.00050196527490557915 0.0011317060241453627 0.7092354797388073 0.043432024745746763 37.029998608474791 2 0.99250639049847267 0.099842986907474798 0.27386127875257232 0.26371985925105257 -0.068801735804034078 2359.2971213603182 1.3214882707092765 1.0000000180025095e-35
decision_type=8 1 2 10 8 8 2 10 10 2 1 2 10 10 10 2 10 10 1 2 10 2 2 10 8 10 10
left_child=1 2 12 21 5 6 -2 -5 13 14 26 -12 19 25 15 -3 -16 -14 -7 -1 -15 -4 23 -11 -24 -6 -10
right_child=4 9 3 7 8 18 -8 -9 10 22 11 -13 17 20 16 -17 -18 -19 -20 -21 -22 -23 24 -25 -26 -27 -28
leaf_value=-0.00028842717733210073 -0.00049401831468788744 5.6571872763340898e-05 0.00020371506641286467 2.2919228007277723e-05 -6.7797338247529786e-05 -0.00067231448850243612 -0.0025217211401686373 -0.00056685661263198228 0.00014095085165605575 -7.6722868298705142e-05 -5.9466115932560592e-05 0.00074587778358870416 0.0011904144969110025 -0.00053990160573583028 0.00092225293933140533 0.00045098179699648377 0.00029610493357089149 0.00013955064264048513 0.0003827188882466597 0.00029208783925335215 -0.00016424480212286701 -9.3971188054663948e-05 -0.00052090689998995454 0.00016625012440654992 -5.6379993350092662e-05 0.00040761654672770155 -0.00077344649344109051
leaf_weight=1830 882 38733 4294 3732 62432 740 513 9821 523 8366 1421 3124 1090 3853 1486 11296 9873 749 839 3414 9807 13065 1463 13753 18324 1270 607
leaf_count=1830 882 38733 4294 3732 62432 740 513 9821 523 8366 1421 3124 1090 3853 1486 11296 9873 749 839 3414 9807 13065 1463 13753 18324 1270 607
internal_value=0 5.29607e-05 -0.000103857 -0.000188593 -8.7005e-05 -0.000644363 -0.00124454 -0.000404095 -6.69753e-05 0.000110692 0.000325037 0.000491946 0.000265073 -9.58004e-05 0.000188896 0.000145732 0.000378533 0.000765438 -0.000110505 8.85357e-05 -0.000270602 -2.00387e-05 -3.72508e-06 7.41259e-05 -9.10032e-05 -5.82345e-05 -0.00034303
internal_weight=227300 141289 37995 30912 86011 2974 1395 13553 83037 103294 5675 4545 7083 77362 61388 50029 11359 1839 1579 5244 13660 17359 41906 22119 19787 63702 1130
internal_count=227300 141289 37995 30912 86011 2974 1395 13553 83037 103294 5675 4545 7083 77362 61388 50029 11359 1839 1579 5244 13660 17359 41906 22119 19787 63702 1130
cat_boundaries=0 1 2 3
cat_threshold=2099200 4196352 19456
is_linear=0
shrinkage=0.005


Tree=15
num_leaves=25
num_cat=3
split_feature=224 267 48 255 151 211 267 20 189 2 12 80 172 12 28 222 173 120 3 14 267 3 1 21
split_gain=34.8141 31.3554 35.0243 29.8533 31.4048 22.27 19.3404 17.6669 17.6651 17.1184 57.1891 19.7991 19.9679 18.3509 31.2679 16.5548 15.4813 15.2666 14.5385 12.9517 11.0768 10.6807 9.54209 6.97305
threshold=0.028695164194900792 0 0.65000000000000002 0.019360554538506183 -1.807657594695582 1.5849432698184454 1 0.00032600954953741339 0.00059826643897020759 0.0033930093599939264 0.10034186336913181 0.00049094271833770861 1.0000000180025095e-35 0.10042266362429654 0.046004037363227251 -0.0016401832300261263 -1.0000000180025095e-35 0.06571607514917574 0.26776094117914856 0.00029827283972979458 2 -1.0000000180025095e-35 -0.00087990502697282691 -0.069432990681521284
decision_type=8 1 2 2 10 10 1 2 10 10 2 8 10 2 2 8 10 10 8 10 1 10 8 8
left_child=1 5 3 19 -5 6 18 -8 23 11 17 12 15 16 -15 -2 -13 21 -1 -3 -10 -11 -14 -4
right_child=9 2 8 4 -6 -7 7 -9 20 10 -12 13 22 14 -16 -17 -18 -19 -20 -21 -22 -23 -24 -25
leaf_value=-0.00027202893580745047 0.00019332492203474197 7.2264679014560315e-05 -0.00012480789275870935 -9.0806657836097699e-07 0.00058363090236258647 -0.00084462061886853544 -0.00018244691915572363 0.00010431218764545159 -0.00063805092105110488 3.5410962844170111e-05 -0.0017825600313406979 -0.0001571716991934246 0.00034773439572570144 -0.0015081199434521793 -0.00025841694208760029 -0.0001809706576150789 2.1275331505365787e-05 0.00047145952735649514 -1.3493943842298472e-05 0.00026673485333954526 -0.00014856434593510541 -0.00092228621637410919 8.0801105981911982e-05 0.00013065761167983781
leaf_weight=10702 3843 30714 3662 3194 8035 838 6629 28121 1404 592 631 34785 4475 594 3275 12638 18611 812 11141 11935 6757 554 13619 9739
leaf_count=10702 3843 30714 3662 3194 8035 838 6629 28121 1404 592 631 34785 4475 594 3275 12638 18611 812 11141 11935 6757 554 13619 9739
internal_value=0 5.21626e-05 0.000119185 0.000187374 0.000416933 -3.58042e-05 -2.3731e-05 4.94475e-05 -5.09155e-05 -7.3405e-05 -0.000474576 -6.20364e-05 3.23295e-05 -0.000119099 -0.000451914 -9.33835e-05 -9.48817e-05 -4.98078e-05 -0.000140335 0.000126808 -0.000234419 -0.000423601 0.000147111 6.04711e-05
internal_weight=227300 132871 75440 53878 11229 57431 56593 34750 21562 94429 2589 91840 34575 57265 3869 16481 53396 1958 21843 42649 8161 1146 18094 13401
internal_count=227300 132871 75440 53878 11229 57431 56593 34750 21562 94429 2589 91840 34575 57265 3869 16481 53396 1958 21843 42649 8161 1146 18094 13401
cat_boundaries=0 1 2 3
cat_threshold=2099712 2097152 8192
is_linear=0
shrinkage=0.005


Tree=16
num_leaves=29
num_cat=2
split_feature=160 177 6 197 229 204 141 199 179 267 208 53 172 1 214 233 267 2 191 62 78 200 125 157 72 147 172 79
split_gain=55.1196 33.3761 62.6236 37.6156 28.3147 35.6864 26.568 25.8307 22.0078 20.4946 31.5988 23.8684 20.2216 29.865 19.117 19.1103 17.6083 19.5809 16.9371 16.7755 16.3344 14.7429 14.502 22.7604 12.118 7.34423 5.18169 2.75683
threshold=-0.0016801715613702914 194.34824265369602 -0.00047537541247788523 0.00014494500592932721 -0.0004571235809823829 0.0016359291740808998 0.15300896146772516 26.116817667378246 216.44012339108744 0 -0.00029531787133145346 0.061535821855606403 1.0000000180025095e-35 0.0055600436468751244 0.00025881169260300046 5.8730215661558437e-05 1 -0.0019401893183652594 0.0061291849348750005 0.10628097408565422 -0.33778309515967458 0.035800702629039276 0.013256193992277522 4.1500000000000012 -0.00027976899300931991 -0.39441878335455977 0.00026261874496125165 0.64206277608470919
decision_type=8 10 10 2 8 10 10 10 10 1 2 8 8 10 10 10 1 10 10 10 10 10 8 2 2 10 10 8
left_child=1 3 20 16 8 12 7 -4 22 10 -5 -11 21 -14 26 25 17 -1 -16 -18 -3 -6 23 -2 -24 -7 -10 -22
right_child=4 2 6 9 5 15 -8 -9 14 11 -12 -13 13 -15 18 -17 19 -19 -20 -21 27 -23 24 -25 -26 -27 -28 -29
leaf_value=-0.00053449455501753675 3.3095102578147732e-05 -0.0006280755306096933 0.0013738196549041557 0.00025569726080500307 -0.00018962939427547433 -0.00011684366211857869 0.0020701030396616405 0.00020769262723522924 -0.00023622897387859189 -0.00094660608322207995 -0.00097228911099138491 -0.00011997660373665399 9.177240553216649e-06 -0.00095647559322060267 -0.00040695696980660979 -0.0012507208631606834 0.00050047177986451178 0.00020643363011966571 -0.0015550816707589432 0.00014791885791576461 1.294776132512173e-06 0.00019829745636281313 -0.00032973305139544256 0.00030597926214789357 -2.1419863966688308e-05 -0.00082214178375592559 0.00035041812312407183 0.00045629339792670301
leaf_weight=1252 72210 783 1015 6322 37920 1131 562 914 1049 971 569 8896 42385 815 924 937 8365 3090 507 5738 593 2605 4242 8555 12974 563 584 829
leaf_count=1252 72210 783 1015 6322 37920 1131 562 914 1049 971 569 8896 42385 815 924 937 8365 3090 507 5738 593 2605 4242 8555 12974 563 584 829
internal_value=0 0.000168738 0.000564911 0.000115733 -3.59305e-05 -0.000102421 0.00110807 0.000824269 2.08454e-05 -5.54904e-05 0.000153226 -0.000201714 -8.43307e-05 -8.9465e-06 -0.000396236 -0.000675962 0.000271561 -6.11884e-06 -0.000818028 0.000357153 -4.66539e-05 -0.000164565 3.39431e-05 6.20656e-05 -9.7693e-05 -0.000354546 -2.32839e-05 0.000270199
internal_weight=227300 39899 4696 35203 187401 86356 2491 1929 101045 16758 6891 9867 83725 43200 3064 2631 18445 4342 1431 14103 2205 40525 97981 80765 17216 1694 1633 1422
internal_count=227300 39899 4696 35203 187401 86356 2491 1929 101045 16758 6891 9867 83725 43200 3064 2631 18445 4342 1431 14103 2205 40525 97981 80765 17216 1694 1633 1422
cat_boundaries=0 1 2
cat_threshold=4194816 2097664
is_linear=0
shrinkage=0.005


Tree=17
num_leaves=29
num_cat=0
split_feature=250 24 174 160 59 7 162 76 217 152 155 228 19 206 170 185 222 59 39 155 159 126 166 38 173 168 173 230
split_gain=48.7055 22.1816 30.0965 20.2229 19.8067 39.4252 34.8583 27.219 18.7595 28.2123 15.6586 17.9923 17.7332 15.2527 14.6409 21.7088 22.7771 18.3539 17.1774 13.9312 14.858 13.8608 13.7163 12.9182 12.1963 10.4801 9.72946 8.56509
threshold=49.375945896306497 0.076571196387596394 -0.0026976416273096766 0.00041438537239157919 -0.039485747136611245 0.0048729720534720364 0.59791666666666299 -1.5968692860767576e-05 0.051355311355311357 -0.0027461015954022834 0.23597752808988767 0.0003890184381303743 19.723921029932615 -0.00031938667345687838 0.10007025760383867 213.38869951827479 -0.0011765745670117009 -0.023910015694031339 0.25244231231596176 0.91580719475456329 -0.41595336814761025 -0.14988147567639226 1.0000000180025095e-35 -5.0041174306904816e-07 -1.5199375793073016 1.9141246880618017 -0.10444858851280157 0.00015559304523400373
decision_type=8 10 8 10 8 10 2 2 2 2 2 2 10 8 10 10 10 10 10 2 2 10 8 10 10 2 8 8
left_child=1 10 8 14 7 23 -7 -5 9 -3 12 27 26 -13 15 21 -17 18 -16 20 -4 -2 -10 -6 -21 -19 -1 -12
right_child=3 2 19 4 5 6 -8 -9 22 -11 11 13 -14 -15 17 16 -18 25 -20 24 -22 -23 -24 -25 -26 -27 -28 -29
leaf_value=0.00098058389092111893 -0.00017934723846810215 0.0012183194638330165 0.00025550016527946679 0 -5.6517325149211193e-05 -0.00033099111181962749 -0.001770853329245037 -0.0014696898167262747 0.00051605304321815056 0 -0.00058428709763518429 -0.0012808976390349962 -0.00042171902200162609 -0.00032377381143915428 6.3217533044593872e-05 0.0010908167266157984 0.00012842809079442329 0.00015927406228006134 -0.00082312677738224233 6.57039894576883e-05 2.5227125769199316e-05 -9.2230712142416956e-06 0.00012980030062780486 -0.00025139581193873989 0.00058200483581535986 0.00054534464646068155 0.00014325055633388072 0.0001330206811221133
leaf_weight=533 16922 1296 7933 620 47989 1242 644 641 3338 746 592 815 993 888 1658 790 2837 6923 808 2222 60559 41170 7553 10370 2411 2387 1043 1377
leaf_count=533 16922 1296 7933 620 47989 1242 644 641 3338 746 592 815 993 888 1658 790 2837 6923 808 2222 60559 41170 7553 10370 2411 2387 1043 1377
internal_value=0 8.85133e-05 0.000109425 -6.05222e-05 -0.000127419 -0.000114333 -0.000825979 -0.000748076 0.000331858 0.000772709 -0.000199012 -0.00040872 9.88314e-05 -0.000785239 -4.46877e-06 -3.53613e-05 0.000339668 0.000157006 -0.000225388 7.00127e-05 5.19746e-05 -5.8868e-05 0.000248679 -9.12353e-05 0.000335532 0.000258844 0.000430048 -8.02943e-05
internal_weight=227300 92299 86058 135001 61506 60245 1886 1261 12933 2042 6241 3672 2569 1703 73495 61719 3627 11776 2466 73125 68492 58092 10891 58359 4633 9310 1576 1969
internal_count=227300 92299 86058 135001 61506 60245 1886 1261 12933 2042 6241 3672 2569 1703 73495 61719 3627 11776 2466 73125 68492 58092 10891 58359 4633 9310 1576 1969
is_linear=0
shrinkage=0.005


Tree=18
num_leaves=27
num_cat=2
split_feature=160 185 155 51 64 1 165 267 6 190 7 240 183 267 166 161 152 185 163 23 197 198 152 219 111 2
split_gain=41.4016 43.0174 91.0383 67.977 82.6028 40.5187 39.9601 29.0443 61.1935 32.5634 28.4557 38.3505 40.1388 30.2936 32.417 67.7405 28.109 27.6537 28.0929 25.472 24.5409 24.0366 17.8597 13.7682 13.1928 7.68229
threshold=-0.00081564869309136412 190.42237549312503 0.7092354797388073 0.091136122478851347 -0.00020357501069237502 1.0000000180025095e-35 0.0039664861209525943 0 0.0036758609245192701 -0.00040737508604637979 0.0048729720534720364 -0.00035181193433999784 -0.85270578402210473 1 0.44572247649819202 -0.00029622448623340894 -0.037045507808934945 154.07062449730668 -0.00052284946313846381 -0.002505459581416894 8.0096144378473424e-05 0.059968291734679186 -0.05986440880136306 0.0001312587026538643 -0.2480339974690926 1.0000000180025095e-35
decision_type=8 10 2 8 2 10 2 1 10 10 10 10 10 1 8 2 2 10 2 2 2 8 2 10 10 8
left_child=10 6 5 -4 -5 16 21 9 -9 -8 13 24 -13 17 15 -15 -3 20 -19 -16 -1 23 -23 -2 25 -12
right_child=1 2 3 4 -6 -7 7 8 -10 -11 11 12 -14 14 19 -17 -18 18 -20 -21 -22 22 -24 -25 -26 -27
leaf_value=0.00033411505991112289 0.00019587251983483109 0.00043860922753684604 -0.0022959235884616133 -0.0023215097025553071 -0.00024413748835541292 -0.0012250644813757391 -0.00081754037375356917 0.00036865197205017701 -0.00063734539461057121 0.00010380546387382252 0.00030792706215864173 0.0021060659706195698 0.00036235203788743703 0.00019644334440957809 -0.001073878285081619 -0.00067741587240539673 -0.00015488526967893712 0.00122056872755463 0.00029518388974401628 -0.00013619572031808774 6.0070397759545081e-06 -0.00067193552609067192 -0.00010958288654847948 -1.5103020342845263e-05 0.00080309169786071737 -0.00036613705742171966
leaf_weight=9740 9232 2903 763 588 2595 689 1387 15569 1670 3080 727 642 696 21733 760 2467 6364 1244 2468 15941 13811 1448 61789 47439 558 997
leaf_count=9740 9232 2903 763 588 2595 689 1387 15569 1670 3080 727 642 696 21733 760 2467 6364 1244 2468 15941 13811 1448 61789 47439 558 997
internal_value=0 -4.58498e-05 -0.000311275 -0.000953949 -0.000630072 -5.59825e-05 -1.97562e-05 0.000177592 0.000270719 -0.000180867 9.93193e-05 0.00053147 0.0012037 7.62882e-05 -9.67482e-06 0.000107129 3.05218e-05 0.00020536 0.000606899 -0.000179227 0.000141924 -5.55234e-05 -0.000122549 1.91806e-05 0.000134776 -7.89762e-05
internal_weight=227300 155516 13902 3946 3183 9956 141614 21706 17239 4467 71784 3620 1338 68164 40901 24200 9267 27263 3712 16701 23551 119908 63237 56671 2282 1724
internal_count=227300 155516 13902 3946 3183 9956 141614 21706 17239 4467 71784 3620 1338 68164 40901 24200 9267 27263 3712 16701 23551 119908 63237 56671 2282 1724
cat_boundaries=0 1 2
cat_threshold=10240 4218880
is_linear=0
shrinkage=0.005


Tree=19
num_leaves=24
num_cat=3
split_feature=208 207 174 168 267 134 250 267 180 155 128 267 242 166 47 162 177 211 166 178 64 35 183
split_gain=53.7826 73.2573 45.4573 64.0167 59.6295 34.6746 31.651 35.7225 34.0491 30.5014 28.6426 25.3123 34.6439 21.9243 21.6103 19.3421 18.8452 18.6158 17.538 17.0737 21.866 14.6712 11.2233
threshold=-0.00029221124401921267 0.025903680422755423 -0.0019643909037431735 2.5766419056238319 0 1.7937574471433571 49.375945896306497 1 0.099923162314786929 0.082385261797026516 0.075870975083507472 2 0.00019451284726029833 0.066793220608564144 -1.0000000180025095e-35 0.36041666666667055 128.8136404154578 1.5873016691076056 -1.0000000180025095e-35 0.032610963860901516 -0.00018485713264618228 0.05669996345260421 -0.24462507607994696
decision_type=2 10 8 2 1 10 8 1 8 2 8 1 2 10 8 2 10 10 8 10 2 2 10
left_child=2 11 3 5 10 13 7 16 21 -7 -5 12 15 -1 -9 -2 -4 -10 -6 22 -21 -8 -13
right_child=1 -3 6 4 18 9 8 14 17 -11 -12 19 -14 -15 -16 -17 -18 -19 -20 20 -22 -23 -24
leaf_value=7.9894633283739838e-05 0.0003136020760502019 -0.0017005506022004736 2.7358130101927249e-05 -0.00071515057949749611 0.0023205274050363853 0.00067325150452473518 3.100412782250346e-05 0.00058310940092421576 -2.4520363222752981e-05 0.00016526329167837879 0.00072998356994712012 4.2802609218032244e-05 -0.0016586473968045871 -0.00025884518206446561 0.00010579685859914342 -0.00088346609914001755 -0.00029312934763029016 -0.00080621236869859449 0.0011540130051358199 -0.0011397809918102029 0 -0.00031640140718647785 0.00083615966960995207
leaf_weight=16753 729 977 9415 562 562 3828 3651 2498 85649 13161 871 1198 630 6678 48724 621 8896 768 833 573 1605 17395 723
leaf_count=16753 729 977 9415 562 562 3828 3651 2498 85649 13161 871 1198 630 6678 48724 621 8896 768 833 573 1605 17395 723
internal_value=0 -0.000429671 1.37636e-05 0.000159093 0.000886469 0.000108058 -2.17194e-05 6.13624e-05 -7.55233e-05 0.000280052 0.000158529 -0.00022435 -0.000686687 -1.64421e-05 0.000129158 -0.000233595 -0.000128008 -3.15345e-05 0.00161729 0 -0.000302228 -0.000255898 0.000344277
internal_weight=227300 7056 220244 43248 2828 40420 176996 69533 107463 16989 1433 6079 1980 23431 51222 1350 18311 86417 1395 4099 2178 21046 1921
internal_count=227300 7056 220244 43248 2828 40420 176996 69533 107463 16989 1433 6079 1980 23431 51222 1350 18311 86417 1395 4099 2178 21046 1921
cat_boundaries=0 1 2 3
cat_threshold=2099712 2099200 1536
is_linear=0
shrinkage=0.005


Tree=20
num_leaves=27
num_cat=3
split_feature=250 267 54 267 189 164 11 226 158 253 155 171 190 170 153 267 216 165 155 184 171 8 188 182 159 241
split_gain=45.629 28.3272 27.2809 27.3651 21.307 32.6358 19.8874 22.0819 31.6683 17.6831 17.5143 15.8657 15.2547 26.4557 68.5257 47.3022 17.1822 21.5564 96.0778 20.5512 13.4921 13.4807 16.2866 12.3748 12.0151 9.50283
threshold=50.389075496966562 0 0.00041771091351466486 1 0.002769993371671831 0.00046342951497618134 0.00044504664672157738 0.049475496899057454 0.00017111567920612166 0.40828480314553112 0.75032133676092549 -0.0020662033336810155 0.0053488247663913699 0.099791449850130554 0.14335125448028677 2 0.26905691859509512 0.0054280739159906092 0.32299510800857478 0.48011299435028254 0.00059489669024331848 12.500000000000002 0.43461349368014751 -0.34767759357586431 0.18823055028457772 -0.7688025406243536
decision_type=8 1 2 1 10 10 10 10 8 10 2 10 10 8 2 1 8 2 2 2 10 2 2 8 2 8
left_child=1 2 4 9 5 -1 7 8 -3 -4 24 -9 16 -14 -15 -16 17 19 -19 -2 -12 25 -23 -5 -8 -18
right_child=12 6 3 23 -6 -7 10 11 -10 -11 20 -13 13 14 15 -17 21 18 -20 -21 -22 22 -24 -25 -26 -27
leaf_value=-0.00035216274747752019 -0.00012751227285028865 0.00060546473886231497 -9.02473190396993e-05 0.00035566780667357564 -0.0010021566332226038 0.00038812495048234485 7.5227202288842066e-05 -0.00097103407628935565 0.00017140286974892438 -0.0010167191183610936 0.00012992480690846307 7.9314122516033946e-05 -0.001420310555868021 0.0013134174250630651 0.00010440050722656873 -0.0011077754869621001 0.00021857269950103267 0.0012831019909341486 -0.00015823464929913691 3.2690826763707192e-05 0.0005775790094422258 -0.0009949523050793406 -7.5878818189570058e-05 8.4820693903537905e-05 -0.00020330518445951988 -0.0001392715944261769
leaf_weight=6352 34086 6727 12404 6000 871 1938 24191 546 11322 538 4287 1027 513 617 1597 1601 1954 1683 3674 48427 2813 995 959 14448 4603 33127
leaf_count=6352 34086 6727 12404 6000 871 1938 24191 546 11322 538 4287 1027 513 617 1597 1601 1954 1683 3674 48427 2813 995 959 14448 4603 33127
internal_value=0 8.13197e-05 -1.56522e-05 5.05348e-05 -0.000257432 -0.000178473 0.000155709 0.000283837 0.000333483 -0.000129123 8.55636e-05 -0.000282478 -6.17146e-05 -0.000353709 -0.000208639 -0.000504176 -5.15542e-05 -1.34189e-05 0.00029381 -3.3429e-05 0.000308045 -0.000141897 -0.000546709 0.000164472 3.05219e-05 -0.000119192
internal_weight=227300 98067 42551 33390 9161 8290 55516 19622 18049 12942 35894 1573 129233 4328 3815 3198 124905 87870 5357 82513 7100 37035 1954 20448 28794 35081
internal_count=227300 98067 42551 33390 9161 8290 55516 19622 18049 12942 35894 1573 129233 4328 3815 3198 124905 87870 5357 82513 7100 37035 1954 20448 28794 35081
cat_boundaries=0 1 2 3
cat_threshold=2099712 2097152 3584
is_linear=0
shrinkage=0.005


Tree=21
num_leaves=26
num_cat=0
split_feature=239 67 163 161 8 29 0 129 200 182 12 152 48 25 183 42 169 54 19 12 12 202 153 260 5
split_gain=38.3849 18.873 18.3877 48.5005 56.9708 36.3867 29.2094 22.9412 38.1645 21.3213 20.5729 19.9694 19.2397 16.77 16.2269 13.3987 21.0916 20.1205 32.916 15.4202 15.0905 12.9755 10.4639 4.80747 3.99241
threshold=60.141113235640894 0.058074237774215325 -0.001103743728979145 -0.00029400169783472062 9.5000000000000018 -0.023378149423402741 -1.5953677379126854 0.15375336243137552 0.043907347197393677 -1.0000000180025095e-35 0.099927642878275921 -0.0053605816470201342 0.15000000000000005 -0.0002544151632580815 -0.11934799543557363 0.28033077603979389 -0.0015770909311514922 0.00050388873261753583 63.997905852385749 0.10034186336913181 0.099967518787093312 -0.00036623757662723738 0.38473193473193479 -0.00020366663356800448 -0.00031913784670950513
decision_type=8 8 2 2 2 2 8 2 10 10 2 2 2 2 8 2 8 2 10 2 2 10 2 10 10
left_child=2 13 5 7 14 9 11 8 -4 21 -9 -7 -8 -2 -5 17 20 18 -3 -18 -17 -1 -19 -11 -15
right_child=1 15 3 4 -6 6 12 10 -10 23 -12 -13 -14 24 -16 16 19 22 -20 -21 -22 -23 -24 -25 -26
leaf_value=-0.00017311117052323306 -0.0013334255664781702 -6.4616739249304776e-05 8.7085271031966182e-05 -0.00066216950305169903 -0.0016563701287245836 0.001055009221157201 0.00030518801612904175 -0.00013439010869397805 0.0005914726663871165 -0.00016696538586115882 8.0380868252839403e-05 0.00027773361823163923 -1.5169124781419254e-05 2.7338162172938135e-05 -3.9679387403133835e-05 -0.00012997075660845298 -0.00014056777533668339 -0.00024519824171333622 0.00026120854489774896 -0.00046674342585304568 0.00036117961526905304 -0.001147493085884432 -3.4764664029519773e-05 0.00041171047124191227 -0.0005525464772503342
leaf_weight=574 532 18864 46677 1467 794 1716 11135 22437 4083 820 22140 1637 8043 588 3719 2871 31929 10063 13138 4108 3406 896 14466 629 568
leaf_count=574 532 18864 46677 1467 794 1716 11135 22437 4083 820 22140 1637 8043 588 3719 2871 31929 10063 13138 4108 3406 896 14466 629 568
internal_value=0 -7.29656e-05 5.78593e-05 2.76192e-05 -0.000409043 0.000178044 0.000246225 5.50652e-05 0.000127766 -0.000346418 -2.76085e-05 0.000677215 0.00017058 -0.000597402 -0.000216825 -6.39531e-05 -0.000131252 -1.34895e-05 6.89943e-05 -0.0001779 0.000135754 -0.000770796 -0.000121305 8.08959e-05 -0.000253498
internal_weight=227300 100533 126767 101317 5980 25450 22531 95337 50760 2919 44577 3353 19178 1688 5186 98845 42314 56531 32002 36037 6277 1470 24529 1449 1156
internal_count=227300 100533 126767 101317 5980 25450 22531 95337 50760 2919 44577 3353 19178 1688 5186 98845 42314 56531 32002 36037 6277 1470 24529 1449 1156
is_linear=0
shrinkage=0.005


Tree=22
num_leaves=25
num_cat=1
split_feature=160 204 9 179 267 48 174 179 193 177 180 190 180 159 180 262 170 22 50 4 219 198 243 5
split_gain=45.1224 36.733 35.2046 37.5079 38.1929 30.5624 30.1868 28.5828 27.0338 60.8557 41.5072 32.2175 25.1783 22.5166 19.7893 18.1424 17.8385 21.4576 20.8872 17.8244 16.6834 15.4072 13.9926 8.05726
threshold=-0.0023976025538773311 0.00046859084862815842 -0.0010188913148905241 216.44012339108744 0 -0.14999999999999999 0.0019119059323800538 122.75066572073973 1.5842658320509193 148.67482156064366 0.10035362412922987 0.0015324990910158822 0.1001489953210271 0.039922777408940985 0.10005118073670215 -1.2982996815422494 0.099886645112691796 -0.1275749734803022 1058.3356451120344 -2.4999999999999996 0.00015255079945443198 -0.031132636721698109 0.013446495781683538 -0.00015708590089585914
decision_type=8 8 2 10 1 2 10 10 10 10 8 10 10 2 8 10 10 10 10 2 10 8 10 10
left_child=2 5 6 4 7 12 14 -4 9 21 23 -11 13 -2 15 -1 17 -7 -18 -6 -16 -3 -14 -10
right_child=1 8 3 -5 19 16 -8 -9 10 11 -12 -13 22 -15 20 -17 18 -19 -20 -21 -22 -23 -24 -25
leaf_value=-0.00029022036350757777 0.00018910186307618851 0.00013110803947443238 0.00048840730263034987 0.0013069309644273214 0.00044034495736381264 -0.0003261884508375306 -0.00098558771916820351 0.0015480919119773928 0.00012389313766644115 -0.00020132057614823004 -0.0018981977335705187 -0.0006830532204057185 0.00019825051247325011 -9.6488347806126742e-05 0.00048927423256762785 0.00049406130586487896 -0.00046489834933230608 -2.1010851763409445e-05 6.6905035161357696e-05 -5.2370986119411688e-05 -0.00014000504544236863 -5.7086178920147302e-05 0.00065825290047879115 -0.00064240959182493426
leaf_weight=4217 20890 12891 3091 1006 2720 8842 734 811 734 9915 514 5378 3291 10280 3359 889 1936 16634 38801 5598 1518 69215 3407 629
leaf_count=4217 20890 12891 3091 1006 2720 8842 734 811 734 9915 514 5378 3291 10280 3359 889 1936 16634 38801 5598 1518 69215 3407 629
internal_value=0 -2.41774e-05 0.000205299 0.000377882 0.000300889 4.14196e-05 -7.23532e-06 0.000708461 -9.29994e-05 -8.14833e-05 -0.000687555 -0.000371089 0.000154731 9.47525e-05 6.42887e-05 -0.000152621 -2.33102e-05 -0.000127134 4.14979e-05 0.000108051 0.000292393 -2.74767e-05 0.000433045 -0.000226288
internal_weight=227300 203357 23943 13226 12220 104081 10717 3902 99276 97399 1877 15293 37868 31170 9983 5106 66213 25476 40737 8318 4877 82106 6698 1363
internal_count=227300 203357 23943 13226 12220 104081 10717 3902 99276 97399 1877 15293 37868 31170 9983 5106 66213 25476 40737 8318 4877 82106 6698 1363
cat_boundaries=0 1
cat_threshold=4218880
is_linear=0
shrinkage=0.005


Tree=23
num_leaves=28
num_cat=2
split_feature=197 119 181 160 104 155 157 267 62 12 202 220 115 199 215 243 157 95 10 12 1 160 267 219 19 257 12
split_gain=41.9026 44.1783 36.1514 43.8227 67.4555 57.7355 120.078 44.4386 40.4607 26.6032 19.8214 24.9003 19.4965 19.0934 18.7249 20.621 20.7595 16.438 15.3466 14.7109 18.8008 14.2749 14.28 11.0646 9.12321 7.89809 4.96835
threshold=0.00018751010162405707 -368.49999999999994 0.41833001326705199 0.0042294426622921386 -0.00017688912009063091 0.10670411985018728 5.1500000000000012 0 0.074023694198690815 0.099927642878275921 -0.00036623757662723738 0.68546987969124962 0.23590051727912079 42.287820344226205 1.590667198579897 0.011350394690654119 6.0500000000000007 -3.9685797387909015e-05 -0.00041563826781521035 0.10006682064425475 -1.0000000180025095e-35 -0.00046437410919697436 1 0.0001401035327965075 16.001349457738034 0.00014353104878816087 0.10011081439089052
decision_type=2 2 2 10 2 2 2 1 10 2 8 8 10 8 10 10 2 8 10 2 8 10 1 10 8 2 2
left_child=1 9 14 5 -5 6 -4 -7 -6 10 18 -12 13 24 15 23 -17 -15 -1 25 -21 26 -23 -2 -3 -11 -14
right_child=2 12 3 4 8 7 -8 -9 -10 19 11 -13 21 17 -16 16 -18 -19 -20 20 -22 22 -24 -25 -26 -27 -28
leaf_value=-3.4664824379035575e-05 5.2558131550758711e-05 0.0001590112136115014 4.276817357568797e-05 -0.0022817128886164916 -0.0015059830404814604 -5.6594191017594507e-06 0.0021873832872072161 -0.00035828542720620278 0.00012096222971255207 0.00018784873184837504 1.1077127662763598e-05 -0.00050787742823132074 -5.1389916457545139e-05 0.00031689243352221274 -0.00081387197956402221 0.00011569073976636553 0.00067455341384501212 3.6852407563874745e-05 0.00028560309911222943 0.00047343250724710215 0.00016598261083765637 4.6836821594980726e-05 -0.00025459867353656135 -0.0001886772904824726 -0.00018920846933227555 -7.0267052718349241e-05 0.00019704799789852949
leaf_weight=5577 10155 2286 5468 606 538 14725 741 22851 1297 10598 20881 2596 4993 7107 641 12487 1924 20148 11197 10337 9712 4928 18904 8898 10277 4080 3348
leaf_count=5577 10155 2286 5468 606 538 14725 741 22851 1297 10598 20881 2596 4993 7107 641 12487 1924 20148 11197 10337 9712 4928 18904 8898 10277 4080 3348
internal_value=0 5.01858e-05 -9.18289e-05 -0.000182951 -0.000835264 -0.000146453 0.000299829 -0.000220335 -0.000353876 0.000135144 4.75052e-05 -4.61132e-05 -3.82285e-05 3.56359e-05 3.15339e-05 4.79009e-05 0.000190693 0.000110068 0.000178827 0.000236575 0.000324765 -0.000129798 -0.000192146 -5.98435e-05 -0.00012544 0.000115761 4.7743e-05
internal_weight=227300 146969 80331 46226 2441 43785 6209 37576 1835 74978 40251 23477 71991 39818 34105 33464 14411 27255 16774 34727 20049 32173 23832 19053 12563 14678 8341
internal_count=227300 146969 80331 46226 2441 43785 6209 37576 1835 74978 40251 23477 71991 39818 34105 33464 14411 27255 16774 34727 20049 32173 23832 19053 12563 14678 8341
cat_boundaries=0 1 2
cat_threshold=4194816 2097664
is_linear=0
shrinkage=0.005


Tree=24
num_leaves=26
num_cat=1
split_feature=239 267 163 8 48 157 166 41 144 265 180 255 134 185 206 170 173 34 165 260 173 199 173 188 201
split_gain=51.3021 32.3048 31.672 30.3101 29.1022 28.8494 34.0266 22.1204 26.8101 21.9401 26.6696 21.0902 17.232 17.6754 16.4799 16.3255 16.1627 13.8996 12.5728 18.9991 14.3799 12.171 8.54317 6.00817 5.8176
threshold=54.835964757078003 0 -0.0019880321517756201 18.500000000000004 1.0000000180025095e-35 4.5500000000000007 -0.1318347305068597 -0.043011345691885229 -99.499999999999986 -0.089898989898989881 0.1006563264333739 0.01590888121160702 6.155206924126964 45.228164760000745 0.0013396655286697647 0.10039416137664718 -0.222279136023322 0.12180552040038863 0.003293068633150023 -0.00021973789530415833 -0.10444858851280157 79.147454561528733 1.4063308398874046 0.4472135954999662 0.22865228914078017
decision_type=8 1 2 2 2 2 10 8 2 10 10 2 10 8 10 10 10 8 2 10 8 10 8 2 10
left_child=1 3 4 12 11 14 -7 8 -2 10 22 -3 13 -1 -4 16 -11 -17 20 -20 -10 -6 -9 -14 -5
right_child=7 2 5 24 21 6 -8 9 18 15 -12 -13 23 -15 -16 17 -18 -19 19 -21 -22 -23 -24 -25 -26
leaf_value=-0.00066913956841662585 -0.0014453788432788118 0.00043745960449597131 9.607493749838917e-05 -0.00049397121530274303 -4.0587719745703104e-05 0.00080420907921049749 0.00010261521220968405 -4.1815472839740735e-05 -0.0010844876909247966 -0.00012990255287762713 0.001087321193505546 0.0011776573875483974 0.00024151257945119884 -1.4001520419767432e-05 -0.00019260932804499958 -0.0010446728160474763 8.3094945125026423e-06 -0.00026228361867255918 -0.00062610756909587089 0.00023133338292038389 -0.00025580348439265189 0.00070980409634059812 0.00017020764916981436 0.00093885228941475096 -0.0012793425574160883
leaf_weight=1059 530 2423 49522 502 2709 3058 4017 9802 795 53751 654 1635 728 36772 5481 715 34770 2913 952 1999 1600 671 9168 572 502
leaf_count=1059 530 2423 49522 502 2709 3058 4017 9802 795 53751 654 1635 728 36772 5481 715 34770 2913 952 1999 1600 671 9168 572 502
internal_value=0 7.78038e-05 0.000143016 -3.505e-05 0.000451545 0.000105985 0.00040664 -7.25224e-05 -0.00037167 -5.67481e-05 9.49255e-05 0.00073714 -1.29086e-05 -3.24901e-05 6.72139e-05 -8.91033e-05 -7.55585e-05 -0.000418099 -0.000264037 -4.37038e-05 -0.000533303 0.000107068 6.03931e-05 0.000552671 -0.000892514
internal_weight=227300 109651 69516 40135 7438 62078 7075 117649 5876 111773 19624 4058 39131 37831 55003 92149 88521 3628 5346 2951 2395 3380 18970 1300 1004
internal_count=227300 109651 69516 40135 7438 62078 7075 117649 5876 111773 19624 4058 39131 37831 55003 92149 88521 3628 5346 2951 2395 3380 18970 1300 1004
cat_boundaries=0 1
cat_threshold=2107392
is_linear=0
shrinkage=0.005


Tree=25
num_leaves=29
num_cat=1
split_feature=174 199 5 153 25 180 1 157 217 51 163 267 168 1 164 262 4 61 191 239 156 164 3 10 176 10 191 176
split_gain=33.8458 37.354 39.6206 35.9425 28.1847 26.8074 36.3702 55.9364 69.2118 37.7314 52.8735 26.0254 31.1406 29.4473 27.5043 34.2266 22.0647 21.8451 21.0318 20.7927 18.6212 24.2632 21.2898 16.1929 15.9249 14.8493 12.2785 9.08826
threshold=-0.0016771797833798894 5.9932461036513187 -0.0032880067918815144 0.026893775013260044 -0.00051265620204116169 0.099923162314786929 0.0039112211365265334 5.1500000000000012 0.51744421906693727 0.40750732263695694 -1.0000000180025095e-35 0 1.9141246880618017 -0.0010710165632029087 0.00046342951497618134 -1.6776772330815073 5.166666666666667 -0.019653484809105951 0.0079755777937916706 60.141113235640894 10.166666666666517 0.00023781133555448135 -1.0000000180025095e-35 0.0033905046805926546 0.02735349979673005 0.0033905046805926546 -0.052544517436673016 0.056644859592407511
decision_type=8 8 10 2 2 8 8 2 2 8 2 1 2 8 10 10 2 8 10 8 2 10 10 10 10 10 10 10
left_child=1 3 20 24 18 11 9 16 -9 10 -7 14 23 -14 26 -16 -8 -11 -4 -6 22 -22 -3 -13 -1 27 -2 -5
right_child=5 2 4 25 19 6 7 8 -10 17 -12 12 13 -15 15 -17 -18 -19 -20 -21 21 -23 -24 -25 -26 -27 -28 -29
leaf_value=0.00066323439257334759 0.00018948165466156088 0.00013432229271201145 0.0013407153856214802 -0.00014146591633842949 0.00019024293631831186 0.00036360050572714289 -9.2790347922817358e-05 0.0003500260157229585 -0.001072113371148599 -0.00035377676775054444 -4.5607595594780755e-06 -1.0180004819072849e-05 0.00033879221529499633 -0.00053794951540402168 -0.00046730110072072027 0.0008863743827551314 0.00028687375370034784 1.7750407485495274e-06 0.0001490910539429345 -3.8264552215401944e-05 -0.00017847334818689437 -0.0016830721482159272 -0.00057201077477185894 0.00064673127468658619 0.0018215367602565345 0.00093798656405384435 -0.00058372188395472207 0.00043674740714678192
leaf_weight=588 545 2344 810 1554 24105 19077 42975 1194 2973 4782 19896 18726 1163 5256 1014 861 4195 44358 701 16905 556 532 1944 986 642 676 6746 1196
leaf_count=588 545 2344 810 1554 24105 19077 42975 1194 2973 4782 19896 18726 1163 5256 1014 861 4195 44358 701 16905 556 532 1944 986 642 676 6746 1196
internal_value=0 0.000111252 6.95648e-05 0.000538913 0.000120786 -3.34636e-05 -2.27012e-06 -0.000108092 -0.000663432 5.93283e-05 0.000175528 -0.000156557 -7.57771e-05 -0.000378294 -0.000385766 0.000151783 -5.89141e-05 -3.27298e-05 0.000791655 9.59278e-05 -0.000334585 -0.000919639 -0.000184793 2.24564e-05 0.00127286 0.000273657 -0.000525221 0.000108254
internal_weight=227300 52553 47897 4656 42521 174747 139450 51337 4167 88113 38973 35297 26131 6419 9166 1875 47170 49140 1511 41010 5376 1088 4288 19712 1230 3426 7291 2750
internal_count=227300 52553 47897 4656 42521 174747 139450 51337 4167 88113 38973 35297 26131 6419 9166 1875 47170 49140 1511 41010 5376 1088 4288 19712 1230 3426 7291 2750
cat_boundaries=0 1
cat_threshold=2560
is_linear=0
shrinkage=0.005


Tree=26
num_leaves=30
num_cat=2
split_feature=198 267 171 84 174 181 204 220 157 43 152 117 171 202 9 182 179 191 166 28 204 214 160 267 185 39 185 172 152
split_gain=39.8239 42.6774 33.1178 22.9755 21.665 20.2776 26.7588 19.0129 18.6087 37.1851 45.2268 17.2737 33.1156 16.966 15.2356 14.623 17.8314 16.2606 12.8943 13.3739 12.9564 12.7629 12.712 12.6922 14.1779 12.6393 10.4309 9.61684 8.96189
threshold=0.059968291734679186 0 -0.0043069645991588015 2.5052434649260944e-06 -0.0019643909037431735 0.44721359549996009 0.00073760635428811027 0.092537062950543522 3.3500000000000001 -0.00050702467877078981 -0.051798909428210242 0.63344735171099886 0.0027011895296845671 -0.00074397843105999939 -0.0062089522814350309 0.54915494645179741 80.599240322946471 -0.039261467968697589 0.57166581260460536 0.073978448365639202 0.00030028990305231936 0.00042753364555747636 -0.0012018558228138463 1 138.76358799807309 -0.28669398884364844 145.9925017798831 0.0015481562305122434 -0.023733877334229821
decision_type=8 1 8 2 8 2 10 8 2 2 2 8 10 8 2 8 10 10 10 2 10 10 10 1 10 10 8 10 2
left_child=1 2 3 25 15 8 18 21 23 -10 -11 12 -4 22 -9 17 -17 -3 20 -20 -7 -8 -6 24 -2 -1 -25 -15 -13
right_child=5 4 11 -5 13 6 7 14 9 10 -12 28 -14 27 -16 16 -18 -19 19 -21 -22 -23 -24 26 -26 -27 -28 -29 -30
leaf_value=-0.00035400350691020183 7.217526967336634e-05 0.00071930317723414253 -0.00024048577872514749 0.0011802598552546543 0.00035594118372086244 -3.4847346808876505e-05 -0.00046513856335878473 -0.00079467162873530595 -0.00098955392766408769 0.0010422309983339139 9.6742883107015578e-05 7.0962448073367298e-05 -0.0011523343639952902 -2.8243292174620118e-06 4.8369077023474205e-05 0.00029615646352056715 -0.00086612328973625907 0.0002344027806737465 -0.00084658465691660818 -0.00015773783622507418 -0.00027849965621676141 -0.0011166674794729041 8.653647703370293e-05 -0.0002068909636224996 -0.00051578826462357879 0.00053784034964634458 2.3768042304309422e-05 0.00016147849866093834 -0.00021367453789999819
leaf_weight=800 16514 1929 4461 691 7684 32462 2005 706 716 1374 16090 4272 1290 49358 2177 679 633 17802 1129 1936 6576 1248 10331 17178 1091 783 6806 10851 7728
leaf_count=800 16514 1929 4461 691 7684 32462 2005 706 716 1374 16090 4272 1290 49358 2177 679 633 17802 1129 1936 6576 1248 10331 17178 1091 783 6806 10851 7728
internal_value=0 6.29704e-05 -0.000147441 0.000419714 0.000105472 -6.95572e-05 -0.000145821 -0.000454501 -7.92053e-06 0.000125419 0.000171472 -0.000220481 -0.000446055 6.70816e-05 -0.000156548 0.000247985 -0.000261033 0.000282096 -0.000100706 -0.0004133 -7.6025e-05 -0.000716898 0.000201738 -6.63298e-05 3.54072e-05 8.40341e-05 -0.000141171 2.67058e-05 -0.00011193
internal_weight=227300 119292 20025 2274 99267 108008 48239 6136 59769 18180 17464 17751 5751 78224 2883 21043 1312 19731 42103 3065 39038 3253 18015 41589 17605 1583 23984 60209 12000
internal_count=227300 119292 20025 2274 99267 108008 48239 6136 59769 18180 17464 17751 5751 78224 2883 21043 1312 19731 42103 3065 39038 3253 18015 41589 17605 1583 23984 60209 12000
cat_boundaries=0 1 2
cat_threshold=2097152 25088
is_linear=0
shrinkage=0.005


Tree=27
num_leaves=27
num_cat=0
split_feature=198 197 25 120 180 1 54 240 265 207 217 185 168 124 64 48 176 157 48 163 160 258 152 22 183 123
split_gain=44.9651 28.7296 24.7739 22.1659 20.4066 22.3423 21.6127 20.2582 20.0162 18.7734 32.8138 35.3685 34.784 17.346 16.386 14.8156 21.5907 21.0386 14.1747 16.247 13.2083 11.7744 11.2731 14.5894 11.2092 7.86833
threshold=0.1130610403867464 0.00018751010162405707 -0.00039294660932764897 0.033000268214980387 0.099923162314786929 -0.0012819317742355783 0.00050388873261753583 -0.00033264172771458743 -0.076197387518142215 -0.0087659290487155771 0.11330480451274073 154.07062449730668 1.4010598220182342 -0.00018065310325537928 -5.2119207652481785e-05 -0.24999999999999997 -0.21672505771384995 5.1500000000000012 -1.0000000180025095e-35 -0.00077539613469929092 1.0000000180025095e-35 0.033185963782763402 -0.040881148225791801 -0.33988646239394676 0.72145405025646758 13.366071642851331
decision_type=8 2 2 8 8 10 2 10 8 10 2 10 2 2 2 2 8 2 2 2 8 10 2 10 8 10
left_child=1 2 15 7 5 13 8 -2 -6 22 12 -12 -11 -5 -8 16 -1 -17 19 -4 -20 -7 25 -24 -9 -3
right_child=3 9 18 4 6 21 14 24 -10 10 11 -13 -14 -15 -16 17 -18 -19 20 -21 -22 -23 23 -25 -26 -27
leaf_value=0.0012965046419915738 -0.0012334944006284314 0.0007023825087450979 0.00030730472211008266 0.00031462823449350102 0.00029725010873754793 -0.00052325474396801069 -0.00023329566261275553 -0.00057457635221223988 -5.0174913632554244e-06 3.2853457466277859e-06 6.1248795795870601e-05 -0.00035226762968923654 0.00075360711949284194 -0.00017898073940861189 -2.6511602572641785e-05 -9.2996561897657772e-05 0.00039175798733613479 0.00082427932910777654 0.00010404846451366259 8.7967652839953937e-05 -6.6914387045476388e-05 -0.00013480885447550783 -0.00059166257948290021 -0.0001644143556949424 0.00035706480294169364 -7.0670340079874349e-05
leaf_weight=896 778 501 11861 2416 7025 6151 16562 839 24703 3486 16493 7523 2792 6722 22875 2329 2608 850 23749 29676 21518 2915 2703 7884 517 928
leaf_count=896 778 501 11861 2416 7025 6151 16562 839 24703 3486 16493 7523 2792 6722 22875 2329 2608 850 23749 29676 21518 2915 2703 7884 517 928
internal_value=0 5.7723e-05 0.000106665 -8.5675e-05 -7.3582e-05 -0.000223015 -3.52841e-05 -0.000589497 6.17582e-05 -5.03005e-05 1.58791e-05 -6.80861e-05 0.000337837 -4.7908e-05 -0.000113483 0.000400186 0.000624839 0.000150874 8.40054e-05 0.000150726 2.26699e-05 -0.000398937 -0.000217552 -0.000274014 -0.000215685 0.000197163
internal_weight=227300 135797 93487 91503 89369 18204 71165 2134 31728 42310 30294 24016 6278 9138 39437 6683 3504 3179 86804 41537 45267 9066 12016 10587 1356 1429
internal_count=227300 135797 93487 91503 89369 18204 71165 2134 31728 42310 30294 24016 6278 9138 39437 6683 3504 3179 86804 41537 45267 9066 12016 10587 1356 1429
is_linear=0
shrinkage=0.005


Tree=28
num_leaves=22
num_cat=0
split_feature=216 161 233 160 196 9 206 253 204 3 163 212 5 205 204 263 221 224 8 117 259
split_gain=37.225 69.5072 55.5616 41.8196 36.9075 32.3731 46.1591 26.4843 22.5968 20.639 18.6385 17.7397 27.7752 18.4931 17.6822 14.6824 14.1623 13.6647 31.1138 11.1002 8.69193
threshold=0.0698020248232053 -0.00029151428604246515 3.8112081435330678e-05 -0.0019905927909481531 0.0071648378807033517 0.0014353856336946082 -0.0023611711986623591 0.33320322546900255 0.00018055874958439714 0.43576014984648226 -0.0025613023315320667 1.6383316819404286 -0.0059248825885478964 -0.035106948921823776 0.00025397536881151364 0.0097099295774690318 -0.00019794057475134251 -0.041811480468735444 18.500000000000004 0.66700779222591999 -1.4387189214436937
decision_type=8 2 10 8 10 2 10 10 8 10 2 8 10 10 10 2 8 8 2 8 10
left_child=1 3 9 5 -4 8 -7 10 -1 14 -5 12 13 20 -3 -9 -15 19 -19 -14 -2
right_child=11 2 4 7 -6 6 -8 15 -10 -11 -12 -13 17 16 -16 -17 -18 18 -20 -21 -22
leaf_value=0.00052163141653552292 -0.00055117761873812608 0.00019623070871450842 -0.00058597098635155946 0.00026407824867975534 -0.0022386029313775343 0.0017044276296814137 0.00040240628833305227 0.00042533237441456147 0 -0.0010644491382040206 -6.7657725388729079e-06 -0.00081665455284320805 0.00034087236200608872 -0.00052147241776681998 -0.00068316607814109963 4.4843651019154029e-05 -0.0015168562067618943 -6.6446973288380846e-05 -0.00079741390585030619 -4.0427617490319223e-05 0.00034735617838458022
leaf_weight=2665 516 2187 710 6773 664 753 7362 6317 9437 580 101611 819 3633 871 772 4288 635 70687 1487 3977 556
leaf_count=2665 516 2187 710 6773 664 753 7362 6317 9437 580 101611 819 3633 871 772 4288 635 70687 1487 3977 556
internal_value=0 4.86072e-05 -0.000535709 6.92692e-05 -0.00138931 0.000279542 0.000524034 3.34983e-05 0.000115156 -0.000202593 1.01156e-05 -8.42277e-05 -7.6874e-05 -0.000587796 -3.16671e-05 0.000271977 -0.000945219 -6.02951e-05 -8.15872e-05 0.000140968 -8.05978e-05
internal_weight=227300 144119 4913 139206 1374 20217 8115 118989 12102 3539 108384 83181 82362 2578 2959 10605 1506 79784 72174 7610 1072
internal_count=227300 144119 4913 139206 1374 20217 8115 118989 12102 3539 108384 83181 82362 2578 2959 10605 1506 79784 72174 7610 1072
is_linear=0
shrinkage=0.005


Tree=29
num_leaves=24
num_cat=3
split_feature=238 162 178 239 267 27 155 162 216 25 214 267 212 192 150 221 182 216 267 208 200 240 9
split_gain=54.8565 100.418 103.758 41.313 35.644 32.5827 27.9763 45.3218 26.1747 20.6389 17.6468 16.1367 14.2674 13.5448 13.3881 13.2698 12.3157 13.7785 12.7816 11.0721 9.42654 5.12605 4.48975
threshold=-0.00029221124401921267 0.55624999999999625 0.065844087637446522 53.180740344099384 0 -0.0036875074260466567 0.6672316384180792 0.27708333333333718 0.034095730764832445 -0.0002544151632580815 -0.00017881090889465542 1 1.6197827697123726 2.4452042372882312 -82.871146245059279 -0.00020792141290836819 -0.57002460149329759 -1.0000000180025095e-35 2 -0.00030358227287636603 0.01923420523615221 -0.00032595280899397122 0.0014353856336946082
decision_type=2 2 10 8 1 8 2 2 8 2 10 1 10 10 10 8 10 8 1 2 8 10 2
left_child=3 11 -3 4 6 9 19 -8 -7 -6 12 14 15 20 -2 -5 18 -18 -12 -1 -13 -15 -16
right_child=1 2 -4 10 5 8 7 -9 -10 -11 16 13 -14 21 22 -17 17 -19 -20 -21 -22 -23 -24
leaf_value=5.5828258803450988e-05 -0.00024076766842181849 -2.6619676385686592e-06 -0.002556361410961174 0.00016806101527715002 0.00064747232435022762 0.00016453411363226655 0.00018331071491777578 -0.00085035926890774608 -3.255794495953365e-05 3.1112548872827284e-05 -4.2458895307410815e-05 0.00035762145153723661 -0.00079025078438168682 -0.00035479854618347711 0.00085759220098736153 -2.0035173382227714e-05 7.5660854433050963e-06 -0.00013816429136970769 -0.00037717401014111904 -0.0004081238170622901 -0.00036935685602748267 -0.00096331014646246107 0.00024193887161765162
leaf_weight=10949 849 678 975 14061 4674 52745 1696 2797 24693 1939 4845 832 519 692 656 28032 31553 33242 7095 1456 956 773 593
leaf_count=10949 849 678 975 14061 4674 52745 1696 2797 24693 1939 4845 832 519 692 656 28032 31553 33242 7095 1456 956 773 593
internal_value=0 -0.000435599 -0.00151259 1.38465e-05 8.83138e-05 0.000130461 -0.000121033 -0.000459107 0.000101622 0.000467537 -4.90996e-05 -0.000101748 3.24009e-05 -0.00032232 0.000238263 4.26813e-05 -9.44229e-05 -6.71223e-05 -0.000242139 9.41724e-07 -2.82705e-05 -0.000679725 0.00056972
internal_weight=227300 7004 1653 220296 100949 84051 16898 4493 77438 6613 119347 5351 42612 3253 2098 42093 76735 64795 11940 12405 1788 1465 1249
internal_count=227300 7004 1653 220296 100949 84051 16898 4493 77438 6613 119347 5351 42612 3253 2098 42093 76735 64795 11940 12405 1788 1465 1249
cat_boundaries=0 1 2 3
cat_threshold=2097152 4204544 4203520
is_linear=0
shrinkage=0.005


Tree=30
num_leaves=27
num_cat=4
split_feature=198 267 171 255 165 155 48 159 164 69 267 176 18 77 100 91 262 152 267 133 26 97 267 53 99 157
split_gain=38.3733 33.7915 26.316 53.0185 26.8563 42.9637 20.8551 24.9833 33.2768 25.7408 16.9055 15.8514 15.0162 14.8154 14.4557 13.7807 12.2746 20.9356 35.5572 30.1058 17.4882 13.2613 11.8955 11.5226 12.9737 10.5108
threshold=0.093003858742831527 0 0.0027011895296845671 0.040480747272759833 0.0041999134327459697 0.46302510564255533 1.0000000180025095e-35 0.25351519911482329 0.00065685478843726232 0.12043386218196668 1 0.40606397912760078 0.25852893772904312 -0.51664772198771358 -0.0029675861301966008 0.2161503582989738 -1.8711663774899006 -0.037045507808934945 2 4.5306569717870842 0.19396731190486216 0.044481047732919769 3 0.080915233903968417 -4.9412018219545e-05 4.8500000000000005
decision_type=8 1 10 2 2 2 2 2 10 2 1 8 10 8 10 10 10 2 1 8 8 10 1 8 10 2
left_child=1 2 4 11 10 -6 7 8 -3 -9 -1 -4 16 -14 15 -8 20 19 -19 -18 22 -22 -2 -15 -25 -16
right_child=12 6 3 -5 5 -7 14 9 -10 -11 -12 -13 13 23 25 -17 17 18 -20 -21 21 -23 -24 24 -26 -27
