tree
version=v4
num_class=1
num_tree_per_iteration=1
label_index=0
max_feature_idx=217
objective=regression
feature_names=LR A_M_oi5_diff QST A_Y_oi5_diff P_A_closepctchg20_sub P_A_closepctchg5_sub FAC_MCIA_biddommean FAC_KDJ_askdommean FAC_OFI1_last P_A_cvcorr10_diff P_A_volumediv20_diff5 bar5_trend_corr FAC_PVcorrsub_a4b4_biddommean FAC_ask2_vmean_20_MADmean FAC_NR_biddommean FAC_PIR_min FAC_MCIA_min FAC_bid5_vmean_20_biddommean FAC_bid4_vmean_20_min FAC_fibonacci_retracement_first FAC_SPREAD_min FAC_BBI_last FAC_ask2_vmean_20_biddommean FAC_KDJ_min FAC_BIDDEPTH_askdommean FAC_ask2_vmean_20_max FAC_ASKDEPTH_vwap FAC_MPB_Volraiseap FAC_RKurt_min FAC_Bolling_first FAC_Imbalance_OI_first FAC_bid3_vmean_20_askdommean FAC_bid_amount_sub20_Volraiseap FAC_ILLIQ_askdommean FAC_OFI2_Volraiseap FAC_ask5_vmean_20_biddommean FAC_MPC_min FAC_BIDDEPTH_Volraiseap FAC_OI_CHG_askdommean FAC_ORDER_SLOPE_B_max FAC_bid5_vmean_20_min FAC_RTN_JUMP_downmean FAC_Depth_OI_Pressure_askdommean FAC_MPB_biddommean FAC_bid2_vmean_20_askdommean FAC_bid4_vmean_20_last FAC_OFI3_vwap FAC_RKurt_askdommean FAC_MOFI_kurtosis FAC_PVcorrsub_a5b5_TrendRevmean FAC_PVcorrsub_a5b5_min FAC_Bolling_min FAC_bid4_vmean_20_askdommean FAC_bid3_vmean_20_min FAC_ask3_vmean_20_upmean FAC_ask3_vmean_20_min FAC_bid5_vmean_20_askdommean FAC_ask5_vmean_20_askdommean FAC_NR_askdommean FAC_RUSHSTOPBID_min FAC_RTN_JUMP_MADmean FAC_PRICE_PRESSURE_askdommean FAC_ask5_vmean_20_min FAC_CORR_PVOL_RET_skewness FAC_OI_CHG_downmean FAC_ORDER_SLOPE_B_biddommean FAC_OIR_askdommean FAC_PRICE_VOL_CORR_A_biddommean FAC_PVcorrsub_a4b4_askdommean FAC_CMF_min FAC_RKurt_biddommean FAC_OFI1_min FAC_Bolling_last FAC_RTN_JUMP_biddommean FAC_AVGDEPTH_biddommean FAC_bid2_vmean_20_biddommean FAC_OI_CHG_min FAC_OI_CHG_corrBidwap FAC_ask4_vmean_20_askdommean FAC_RVar_down_rate_biddommean FAC_PVcorrsub_a5b5_biddommean FAC_PVcorrsub_a4b4_vwap FAC_MCIA_Volraiseap FAC_OI_GP_CH_upmean FAC_PVcorrsub_a5b5_corrAskwap FAC_OIR_min FAC_RKurt_vwap FAC_BBI_first FAC_OFI5_vwap FAC_AVGDEPTH_askdommean FAC_SOIR_askdommean FAC_OFI1_biddommean FAC_OFI1_upmean FAC_PVcorrsub_a4b4_corrAskwap FAC_bid4_vmean_20_biddommean FAC_RKurt_TrendRevmean FAC_OFI4_biddommean FAC_ILLIQ_min FAC_bid1_vmean_20_TrendRevmean FAC_RTN_JUMP_mean FAC_MPB_vwap FAC_bid_amount_sub20_askdommean FAC_Bolling_downmean FAC_fibonacci_retracement_min FAC_PVcorrsub_a3b3_Volraiseap FAC_MOFI_upmean FAC_fibonacci_retracement_askdommean FAC_bid1_vmean_20_MADmean FAC_BBI_askdommean FAC_sub_a4b4_vmean_20_askdommean FAC_ask1_vmean_20_biddommean FAC_sub_a3b3_vmean_20_askdommean FAC_Depth_Reversal_min FAC_OFI3_biddommean FAC_RUSHSTOPBID_TrendRevmean FAC_PRICE_VOL_CORR_B_TrendRevmean FAC_bid2_vmean_20_TrendRevmean FAC_MCIB_min FAC_ask4_vmean_20_biddommean FAC_ILLIQ_skewness FAC_Momentum_Decay_min FAC_STREN_kurtosis FAC_sub_a5b5_vmean_20_askdommean FAC_bid4_vmean_20_TrendRevmean FAC_CORR_PVOL_RET_askdommean FAC_PVcorrsub_a2b2_mean FAC_OFI3_Volraiseap FAC_DBCD_askdommean XSMOM1M RPP_22D day_first4redcorr P_A_vcorr10 VHF RPP_5D volatility_rg day_jump MAdiff_Vol_div CCI FAC_PIR_max A_M_closepctchg20_sub before_bot_price_diff day_first10rev A_M_volumediv5_diff5 A_Y_closepctchg20_sub down_shadow_5std up_shadow_5std A_M_cvcorr10_diff FAC_VWAP_Deviation_biddommean FAC_resiliency_biddommean FAC_resiliency_askdommean RPP_4H FAC_VWAP_Deviation_TrendRevmean P_A_oi5_diff FAC_resiliency_TrendRevmean A_M_volumediv20_diff5 term_rtn FAC_Bolling_biddommean A_M_closepctchg5_sub FAC_PRICE_STD_B_biddommean FAC_RVar_biddommean FAC_MAX_askdommean up_shadow_5mean RPP_2H FAC_MLQSweight_biddommean FAC_PIR_first RPP_30M A_Y_volumediv20_diff5 FAC_OI_V_DIV_upmean A_Y_closepctchg5_sub FAC_STREN_Volraiseap A_Y_vcorr10 FAC_OI_V_DIV_biddommean day_first10colarrate FAC_PRICE_STD_A_askdommean FAC_PRICE_STD_B_Volraiseap FAC_MPC_max FAC_BBI_biddommean FAC_ORDER_SLOPE_A_vwap FAC_Depth_Reversal_kurtosis FAC_OI_V_DIV_Mstdwap FAC_PRICE_STD_A_biddommean FAC_NR_std FAC_PIR_last PV_corr_std FAC_RSI_biddommean FAC_shortQUA_biddommean down_shadow_5mean FAC_STREN_corrBidwap FAC_CORR_PVOL_RET_MADmean FAC_CMF_biddommean FAC_STREN_upmean FAC_ADTMMA_biddommean FAC_MPB_max FAC_ORDER_SLOPE_A_biddommean FAC_MLQSweight_max FAC_SPREAD_biddommean FAC_OI_Price_Accel_downmean FAC_CORR_PVOL_RET_upmean FAC_PIR_std FAC_PRICE_STD_B_askdommean FAC_MAX_max FAC_sub_a5b5_vmean_20_biddommean FAC_MCIB_biddommean FAC_ORDER_SLOPE_A_std FAC_STREN_vwap FAC_RVar_askdommean FAC_RVar_std FAC_MLQSweight_min FAC_MLQSweight_corrAskwap FAC_MFI_biddommean FAC_sub_a5b5_vmean_20_min FAC_SOIR_max FAC_PVcorrsub_a2b2_biddommean FAC_MPB_std FAC_SPREAD_askdommean FAC_MPC_std FAC_MAX_std hour
feature_infos=[-7.5342872796940732:7.5528591528307647] [-0.050631715504797836:0.054523520927017399] [-169:5321] [-0.05366518348995386:0.050490208744931486] [-0.12747748967484296:0.079019567686530401] [-0.025500240582705613:0.033795139677492703] [9.5605179577046257e-05:0.001108224255334902] [-12.391688270806533:104.75353306714132] [-782:971] [-1.921037562169289:1.8888979594887796] [-134.41322091481607:80.851612482047258] [-1:1] [-2.0000152495113523:2.0000095449755069] [0.005927332414676547:13.094905680262778] [-0.040035219202129747:0] [-0.0032154340836013633:-0.00028224668360142102] [6.938957199160276e-05:0.0010133408415934318] [0.0032784124703777698:18.109022393048662] [0.0031482502585844863:5.3190173244376728] [-0.0012302646120020411:0.014164843411375694] [-0.00099353560580217474:-0.00015435671837616733] [-5.1158374999986336:2.5865499999999884] [0.0069355117461318058:3.7142157987487332] [-35.837503063781377:102.33306551510117] [87.24809127620891:44753.976972892662] [0.01099768200182887:13.846468348988648] [194.15892337525608:68731.731695400391] [-1.9385000000002037:2.1549503770739271] [-69.697141586147055:117.43551062560537] [-2.3094699466164159:3.1068425262444896] [-343.53535353535352:1767.9452054794519] [0.0045664811273921956:3.6491528117480549] [-2658785:3143440.1875] [-357.00819940530346:395.87500585501596] [-976.81818181818187:593.47619047619048] [0.0032671736286508644:9.9995625326922397] [-0.0062545104642771632:0.00057353543629656834] [222.49331943050842:79146.94998758944] [-0.0025510720056711989:0.01] [-0.72727272727272729:-0.00061340285232326327] [0.0031537293856813788:18.036269212330314] [-0.045898086954050149:0] [-11.337108233427539:-0.0047102247406366846] [-3.4472140186917386:2.5833333333330302] [0.0039978565353348599:4.8951209972384211] [0.0032634592788941099:13.672883383231472] [-1430.5386949924127:869.90104633781766] [1.2957374583018781:115.90194944661945] [-4.4881923780555013:206.63004728970691] [-2.0000141369704245:2.0000116630558913] [-2.0000263290157339:2.0000052436888374] [-3.6839902472485071:1.8266608010621586] [0.0032740905555390617:3.1347747057672932] [0.0031605219456609249:7.5444347881424836] [0:7.308408754020336] [0.0031420310232282067:8.8505135586574308] [0.003340980912063099:8.346523023432999] [0.0032667657582357602:12.319122557279757] [-0.04066920103638464:0] [-0.01:0.0013439739268691075] [-0.69947363701361764:0] [-4:4.201799999999821] [0.0031291223130691177:12.306040467294297] [-4.1406647946575852:12.186832082304244] [-0.00024944187728386013:0.00021740126305204929] [-0.66666666666666663:-0.00074803276854370126] [-0.94238205723124513:0.3812448039935778] [-0.99954026595892553:0.99999861834787451] [-2.0000072252514824:2.0000046073404452] [-46.791279664629705:26.855115808781527] [1.3360071238017819:353.17853272813034] [-4000:268] [-2.526341193630484:2.2926570037663025] [-1:0] [1:1869.0740740740741] [0.0064249080630190067:17.41779037536589] [-0.01:0.01] [-0.00063351046782889053:0.01] [0.003284696530705988:11.737139741528683] [0.00059755297568078573:0.99827078448841811] [-2.0000078559549266:2.0000166712464607] [-2.0000000081286569:2.0000000033795611] [0.00012622587892056805:0.0010291881038836644] [-0.023384485454144347:0.017746292768083274] [-2.000001844364526:1.9999999777682447] [-0.98549562960418324:0.90223735408560313] [1.3118555571829316:255.72535582200408] [-12.703787500000544:2.6378500000000713] [-2003.2999209173586:1443.2473424449506] [1:2219.6666666666665] [-0.50696032055809792:0.79314199570165789] [-587.5:268] [-142.32824427480915:12.882352941176471] [-1.9999999777690998:2.000000003311019] [0.003280279630172858:9.3543370779342645] [1.1436114598712697:353.94813002143212] [-905:1112] [-802.81017823233083:581.2276674831428] [0.0057797387902950928:9.2356486166898026] [-0.69947363701361764:0] [-7.4273314037630103:9.0720438144328241] [-9539822:1222401] [-0.52415577568784377:0.23016360156619109] [-0.0034218151187582757:0.00058951730861567242] [-2.0000006585746855:2.0000038080768543] [-68.168085106382989:58.600000000000001] [-0.0007854897171243909:0.0049520327178623411] [0.0044327562548714247:9.3209207653009383] [-1.8682333333335919:2.9046024999999647] [-11783.04054054054:69809.131868131866] [0.0069823041765946781:7.0695740856737732] [-16214.234042553191:70504.521126760563] [-0.19920814229761041:0.0083294213481920655] [-1000:504] [-0.0051681816481925907:0.0018541786545115185] [-1.0000005680994268:0.99797021320487544] [0.0041520309768624053:15.819541963345825] [-0.0040374231365915194:-9.8917818093814604e-05] [0.0032877060074210677:4.8681533311476635] [-7.0790037404683801:7.478996555824418] [-2.4951627212853857:0.76913918186495223] [-1.0815097151588429:209.99999999999986] [-29407:65320.209677419356] [0.0032782116136063607:13.522389850143842] [-7.2376958735530188:216.39999974758214] [-1.9999994011049544:1.999998541900637] [-537:896] [-0.00016742882757875337:0.00018377233138056878] [-0.11903246339910889:0.1489829576690489] [0:1] [-0.963961868689173:0.99974825251830302] [-0.92353598521458058:0.99880514159502309] [0.80000000000000004:41.299999999999997] [0:1] [0.01250000000000758:10.366666666666674] [-106:133.33333333333303] [-184.03575347476226:77.485077033323677] [-104.63759284593287:161.13186413023763] [-0.000874890638670105:-0.0002814234911862116] [-0.057518129746830793:0.13261009569078031] [-0.02012231526688546:0.016043606717170977] [0:5.2550495976769893] [-74.538408631732793:73.238963160383435] [-0.046717729882205794:0.075795891344482169] [0:7.5388807008880363] [0:10.126615325474669] [-1.8335656350875842:1.8571120309741755] [0.097581561157440586:0.10248370870713093] [20.777355930290014:1000] [22.115299783699697:1000] [0:1] [0.097596081837272919:0.10249831195875797] [-0.052770560756321805:0.051004168757557422] [20.768110429182222:1000.0000000000005] [-6.1497738939002264:7.3313922616406195] [-40:41] [-2.2019122999674585:1.8324104736891962] [-0.014071579222320607:0.022299997269907945] [1.5811388300841906:5.9267451088934919] [1.7519140590934527e-06:1] [-7.8442813333330195:54.430043877550744] [0:5.4421052631578952] [0:1] [9.1976084137387597e-05:0.00091540149885035148] [-0.0019314997687642109:-0.00028150991682656892] [0:1] [-1.9692489964617639:4.2905036245198138] [0:0.020052657063676559] [-0.016410773789470978:0.014489873996334057] [-1:1] [-0.93896460332074627:0.99971186971879888] [0:0.39454526038896881] [0:0.90000000000000002] [1.5811388300841906:6.3662594075328114] [1.5811388300841904:7.1738786817506366] [-0.00070928273783132934:0.028549382716049454] [-3.2625958333334588:2.4056375000000116] [0.00079808048126045722:0.80190458451197622] [-5.9998613596069434:83.825757932091932] [0:1] [1.5811388300841906:6.4328929834350737] [0:0.015293227931899059] [-0.0011103442067040509:-0.00028150991682656892] [0.001477658603374641:1.0474970233049099] [0.70062691787825315:99.546379398416391] [0:0.71999999999999997] [0:4.0285714285714382] [-1:1] [-12.174872615155964:232.42653956680547] [-22.756423285878483:36.874548584903366] [-0.1388888888888889:0.23563218390804597] [-3758.1201917993212:1338.92381510315] [-15.779332409400922:73.881607234970033] [0.0015938471083147905:0.72040247763931975] [9.5263048106081739e-05:0.0015570647841094576] [-0.00060648161966009903:-0.00015385798907608278] [-0.027184371595526249:0.027883747623324448] [-3.9230760879539468:9.8649224301370726] [0:0.00028933701481358696] [1.5811388300841906:6.5444383988046413] [-6.0277999999998428:61.62119999999959] [-79930.526315789481:59269] [-0.0013074969059732921:-0.00012978390789316675] [0:0.37255895243487674] [-0.953125:1] [1.117015203347693e-05:1] [0:0.48929701254280272] [8.590282924817511e-05:0.00081289634551549655] [9.2819013437277651e-05:0.00091676603623406681] [0:100] [-87120:52825] [-0.84700089629051389:0.95803560888340877] [-1.9999999395602746:2.0000044715385252] [0:10.055118979199731] [-0.0005672171866719952:-0.0001538751085900217] [0:0.0041017173024877436] [0:20.090216467174116] -1:14:9:22:21:10:11:13
tree_sizes=2812 3049 2999 3245 2989 3151 1721 3083 3173 2572 3024 3187 3161 2399 2204 2980

Tree=0
num_leaves=28
num_cat=2
split_feature=217 2 3 3 117 97 203 217 136 1 151 165 151 153 157 129 3 2 164 0 0 74 201 42 43 49 191
split_gain=38.9232 65.1295 157.586 96.5754 51.4999 36.7807 22.1893 37.1295 49.0951 39.186 25.3216 37.4503 27.5708 21.0765 18.8554 41.9305 31.4251 21.2158 17.1391 21.9524 15.8247 21.4717 14.0409 12.6845 12.5269 10.6293 2.09751
threshold=0 22.500000000000004 0.0015414908527325857 -0.0033661585764465647 -0.00067247111576034088 -101.1704544849313 0.015124768472497012 1 -0.049283885781749338 -0.0029090383997289466 0.09948487139798394 0.16760299625468167 0.09992481864771742 101.57926043683877 0.00074391067541013111 0.083542316808525294 0.0026372122133374591 22.500000000000004 -0.00032869456374295605 -1.901017004764725 -1.3396519879429147 22.81291666666667 -33.637218045112775 -1.7221912474296184 -0.044168860082054645 -1.0000000180025095e-35 -1.0000000180025095e-35
decision_type=1 8 10 8 2 10 8 1 10 8 8 10 8 10 10 10 10 10 2 10 10 10 10 8 8 10 8
left_child=14 6 3 5 -5 -3 10 9 -9 -8 11 -2 -12 -4 16 23 20 24 19 -18 21 -1 -22 -16 -17 -20 -25
right_child=1 2 13 4 -6 -7 7 8 -10 -11 12 -13 -14 -15 15 17 18 -19 25 -21 22 -23 -24 26 -26 -27 -28
leaf_value=0.0060709962255247598 0.006665648728501612 0.0091189391164270238 0.0046129294762895677 0.0078658454435161871 0.0060011880919162985 0.0074920019575865993 0.0041973272770074082 0.006552770815611223 0.0057729522737346543 0.005683982425141362 0.006005286900069305 0.0061060855600955349 0.0061499325966564806 0.0058351428809432851 0.0070472162526010089 0.0056262652756274845 0.007069771676052548 0.0050658291998206687 0.0063336454002546703 0.005967807455776783 0.006094533612989673 0.0056389029835401065 0.0058880190196966544 0.0060548513350330967 0.0059093233260996891 0.0069560096517911636 0.0064211634707094147
leaf_weight=5184 5057 701 566 521 1258 728 527 3263 5287 2881 50812 7364 93591 968 734 5612 530 973 1362 3014 30104 6521 11310 731 13227 1446 783
leaf_count=5184 5057 701 566 521 1258 728 527 3263 5287 2881 50812 7364 93591 968 734 5612 530 973 1362 3014 30104 6521 11310 731 13227 1446 783
internal_value=0.00607574 0.00611808 0.00669598 0.00732671 0.00654516 0.00829517 0.00610182 0.00589429 0.00607117 0.00545397 0.00611767 0.00633433 0.006099 0.00538027 0.00598564 0.00586073 0.00603205 0.00578715 0.00636422 0.00613143 0.00599223 0.00582983 0.00603825 0.00650685 0.00582472 0.00665612 0.0062411
internal_weight=255055 173524 4742 3208 1779 1429 168782 11958 8550 3408 156824 12421 144403 1534 81531 22060 59471 19812 6352 3544 53119 11705 41414 2248 18839 2808 1514
internal_count=255055 173524 4742 3208 1779 1429 168782 11958 8550 3408 156824 12421 144403 1534 81531 22060 59471 19812 6352 3544 53119 11705 41414 2248 18839 2808 1514
cat_boundaries=0 1 2
cat_threshold=6291456 1024
is_linear=0
shrinkage=1


Tree=1
num_leaves=30
num_cat=5
split_feature=25 159 136 217 42 195 209 137 217 170 138 35 2 0 217 217 138 169 137 67 151 129 149 110 217 0 47 205 89
split_gain=38.7129 42.2652 78.2163 49.9256 39.7739 35.1265 25.351 21.5211 20.3748 31.6193 33.0669 28.8554 30.232 22.824 18.4734 18.1528 17.2901 16.8981 15.7907 19.1698 13.39 11.1316 19.8617 10.5025 10.2801 10.1619 8.72229 7.91666 0.772421
threshold=0.11335952102579498 0.039259377786224382 -0.65393982983002319 0 -2.8253109378735446 -0.00021294435745002735 51.986595966710333 9.6374620674626943 1 -0.074407358150586592 -0.00032244117365487035 0.059617087508014456 -16.499999999999996 0.85544212347950055 2 3 -0.00031934041930659502 -0.08797729618163054 -19.733545914454428 0.36367447191397678 0.099572042612232389 0.83962457163316462 173.14487724713857 0.24345282400638654 4 0.46372155015110744 9.2465689196186887 0.016884301743336241 20.042933947772664
decision_type=2 10 10 1 8 10 8 8 1 10 2 10 10 10 1 1 2 8 8 8 10 10 10 10 1 8 10 8 10
left_child=8 6 3 28 -5 16 15 -7 11 10 26 12 -1 -14 -12 23 -4 27 19 -11 -17 22 -13 -2 -19 -20 -10 -8 -3
right_child=1 2 5 4 -6 7 17 -9 9 18 14 21 13 -15 -16 20 -18 24 25 -21 -22 -23 -24 -25 -26 -27 -28 -29 -30
leaf_value=-0.0014916069068363754 -5.1609557936966417e-05 -0.00033654712096410627 0.00062571745799410773 0.001782199866926048 0.00069105210798207949 1.413751884484558e-05 -2.7504811200465575e-06 -0.000527333977055242 0.00056492752919692435 0.0010174323457303454 -0.00091724585476675631 -7.109503867835217e-05 -0.00069675353382382731 -2.8209968555423974e-05 -0.00030777277669519042 0.00031277277289635239 0.00014989612541986948 1.3078001716418419e-05 -0.00014275713604232183 -0.00016436767664803912 9.130699487728385e-05 -0.00054497658266921612 0.00094211589634698837 0.00020646518007602464 -0.00010819416339046528 0.00012365066594857292 -0.00017501610673947065 0.00018948706058477836 -4.5222198745779378e-05
leaf_weight=770 31469 500 2682 1276 2497 5716 12920 2690 976 863 2069 2692 3192 2154 3282 8239 6777 23277 6789 558 40664 810 587 4502 69291 7568 658 9086 501
leaf_count=770 31469 500 2682 1276 2497 5716 12920 2690 976 863 2069 2692 3192 2154 3282 8239 6777 23277 6789 558 40664 810 587 4502 69291 7568 658 9086 501
internal_value=0 2.37338e-05 0.000228462 0.000797027 0.00105896 7.62098e-05 4.69419e-07 -0.000158586 -0.000159878 -7.62272e-05 -0.000356394 -0.000345539 -0.000563275 -0.000428376 -0.00054678 6.59889e-05 0.000285391 -4.80225e-05 4.74536e-05 0.000550056 0.0001287 -1.94305e-05 0.000108995 -1.91607e-05 -7.76557e-05 -1.97862e-06 0.000263975 7.63998e-05 -0.000193984
internal_weight=255055 222087 22639 4774 3773 17865 199448 8406 32968 22763 6985 10205 6116 5346 5351 84874 9459 114574 15778 1421 48903 4089 3279 35971 92568 14357 1634 22006 1001
internal_count=255055 222087 22639 4774 3773 17865 199448 8406 32968 22763 6985 10205 6116 5346 5351 84874 9459 114574 15778 1421 48903 4089 3279 35971 92568 14357 1634 22006 1001
cat_boundaries=0 1 2 3 4 5
cat_threshold=2097152 2098176 2560 6299648 8704
is_linear=0
shrinkage=0.005


Tree=2
num_leaves=29
num_cat=1
split_feature=217 215 109 139 154 162 128 168 22 144 138 140 59 162 128 190 151 141 152 131 128 139 153 71 36 3 78 148
split_gain=38.3169 37.9756 49.8888 69.5979 34.8426 33.4823 55.3617 44.4093 28.2714 21.9037 28.9432 20.3444 23.7697 22.681 34.2461 22.1631 17.6122 33.5021 16.8172 42.6286 15.6762 17.3139 14.6763 13.9471 8.63122 6.03371 5.20052 5.19401
threshold=0 0.00017922065052558136 183.18614718614722 -0.0040678523335311847 -0.0013691137098888054 0.049281521959117593 0.060942354751813872 -0.0017830476983163865 0.05100290269070714 0.43358966777340496 -0.00035007320031402774 0.0004137054142242525 -0.00042892892894366702 0.84224828375286054 -0.032832882440183779 0.026815675934803454 0.099695156680790292 1.9901503547232851 0.003441970278095952 0.099136528321919007 -0.014634538593697287 0.00573997337940474 151.5561528574116 -64.499999999999986 -0.0002148689324327768 -0.0013666079340559076 0.23851466854815961 121.98120466601397
decision_type=1 10 10 10 10 8 10 8 10 2 2 2 2 10 10 2 8 2 10 10 10 10 10 2 2 10 10 8
left_child=9 5 3 -3 -5 16 8 -8 -7 10 24 13 -13 15 -15 -11 17 -2 19 -4 22 -22 -12 -14 26 -18 -1 -26
right_child=1 2 18 4 -6 6 7 -9 -10 11 20 12 23 14 -16 -17 25 -19 -20 -21 21 -23 -24 -25 27 -27 -28 -29
leaf_value=0.00021321034539621052 0.00026759797730179424 -0.001314960259431519 -0.00012348967797518772 0.0011953909222706287 1.5534640045917519e-05 -6.474075353647239e-05 -0.0012279875552012323 -0.00021859747153650955 8.3649723035711081e-05 -1.9572196921334933e-05 0 -0.0010879231302177177 -0.00053023060010216352 0.0013112652601167099 4.5660523031558812e-05 -0.00030449731704054988 -0.00051179040335910028 0.0011604290257247504 0.0017224308161258219 0.0015280030678109452 5.5435677154296856e-05 -0.00083538857939600628 0.00046363393052347763 -0.00016276461867401816 -8.8054040837935688e-05 0.00011528075820609733 -0.00017189103516384734 -0.00032100626874813294
leaf_weight=1976 4024 717 733 969 1788 46497 1240 9172 103465 16322 2641 947 3605 662 2807 11780 511 1433 640 823 13581 567 4907 9349 3709 1512 1565 7113
leaf_count=1976 4024 717 733 969 1788 46497 1240 9172 103465 16322 2641 947 3605 662 2807 11780 511 1433 640 823 13581 567 4907 9349 3709 1512 1565 7113
internal_value=0 4.20069e-05 0.000444488 6.99796e-05 0.000432314 2.83815e-05 1.30972e-05 -0.000339396 3.76065e-05 -8.93995e-05 2.48411e-06 -0.000162391 -0.000321911 -9.19858e-05 0.000288929 -0.000139194 0.00035537 0.00050314 0.00103437 0.000747227 0.000117876 1.93248e-05 0.000301912 -0.000265447 -0.000171469 -4.08186e-05 4.15967e-05 -0.000241645
internal_weight=255055 173524 5670 3474 2757 167854 160374 10412 149962 81531 36059 45472 13901 31571 3469 28102 7480 5457 2196 1556 21696 14148 7548 12954 14363 2023 3541 10822
internal_count=255055 173524 5670 3474 2757 167854 160374 10412 149962 81531 36059 45472 13901 31571 3469 28102 7480 5457 2196 1556 21696 14148 7548 12954 14363 2023 3541 10822
cat_boundaries=0 1
cat_threshold=6291456
is_linear=0
shrinkage=0.005


Tree=3
num_leaves=32
num_cat=4
split_feature=25 217 136 4 28 170 4 136 131 131 133 0 83 133 180 104 131 149 75 217 138 176 42 3 217 217 61 67 58 20 152
split_gain=60.0747 35.6918 70.871 119.115 85.2529 73.4726 43.5537 46.5669 31.911 31.2561 30.9107 26.3722 26.0286 23.9041 24.919 22.3596 20.7568 36.2106 31.5638 15.2439 26.3372 20.6608 14.2709 11.0031 22.0127 12.0579 10.3899 10.0486 8.2186 8.18506 5.16405
threshold=0.078513388298971323 0 -1.9219257123942473 -0.0039472243910182439 5.6924002955855562 -0.1916068928541485 0.0027394186904426414 -1.0126494595996161 -0.15229012956617768 0.099136528321919007 0.28336707152496632 -0.79644060878246792 -2.1092905452922943e-05 0.68755776340110919 1.5901499633332223 -0.91726442450708812 0.6312531869730158 277.75759643763382 0.19863269156383093 1 -0.00029489035631200103 1.0000000180025095e-35 -1.3100530093257847 -0.0013666079340559076 2 3 0.060953299856572669 0.36367447191397678 -9.3066551475833972e-05 -0.00026504276333629381 -0.00020918233802136307
decision_type=2 1 10 10 2 10 10 10 10 8 10 8 2 8 10 10 10 10 8 1 2 8 8 10 1 1 10 8 10 2 10
left_child=9 6 3 4 -3 -5 16 8 -8 22 -9 12 27 15 -15 -4 17 -2 -18 21 -21 -13 26 24 -24 -25 28 -11 -1 -28 -14
right_child=1 2 13 5 -6 -7 7 10 -10 11 -12 19 30 14 -16 -17 18 -19 -20 20 -22 -23 23 25 -26 -27 29 -29 -30 -31 -32
leaf_value=-0.0016227563971884375 -9.4240181503127353e-05 0.0030840906020335613 -0.00022025291791521394 0.0014070283298718306 0.0007099009327836992 -0.00030705116389963759 -0.00021657944816073666 0.00034795040042255669 0.0012174138424117932 -0.0014359289361989495 -5.7134457205604552e-05 0.00027285370207016978 -0.00033428579826714165 0.00013347501732765738 0.00094430320176658701 3.5946475125575816e-05 0.00058131761006520758 -0.00066073693297286008 -7.2290958464212146e-05 2.9640756164962674e-05 0.00094131439788864462 -0.00075582831800390831 -0.0014016120511744226 0.00035716927118073727 -0.00017027803809353053 -0.0003574070021143539 -0.00094172786741667251 -0.00052313601083020858 -0.00081564486257838429 -0.00016485385956002574 0.0002864249917275264
leaf_weight=513 82153 717 9762 841 815 2420 507 7146 1574 690 13764 900 669 40069 972 66657 2791 2924 5427 3249 1052 1052 643 757 865 2500 596 578 954 831 667
leaf_count=513 82153 717 9762 841 815 2420 507 7146 1574 690 13764 900 669 40069 972 66657 2791 2924 5427 3249 1052 1052 643 757 865 2500 596 578 954 831 667
internal_value=0 2.01915e-05 7.98513e-05 0.000675845 0.00182561 0.000133767 -4.24901e-05 0.000152346 0.000865708 -0.000291617 8.10743e-05 -8.86511e-05 -0.000511617 5.54903e-05 0.000152823 3.15089e-06 -9.05636e-05 -0.000113776 0.000149123 8.6743e-05 0.000253371 -0.00027766 -0.000525636 -0.000355426 -0.000709621 -0.000189731 -0.00080394 -0.00102453 -0.00110221 -0.000493256 -2.06728e-05
internal_weight=255055 238539 122253 4793 1532 3261 116286 22991 2081 16516 20910 8857 2604 117460 41041 76419 93295 85077 8218 6253 4301 1952 7659 4765 1508 3257 2894 1268 1467 1427 1336
internal_count=255055 238539 122253 4793 1532 3261 116286 22991 2081 16516 20910 8857 2604 117460 41041 76419 93295 85077 8218 6253 4301 1952 7659 4765 1508 3257 2894 1268 1467 1427 1336
cat_boundaries=0 1 2 3 4
cat_threshold=6307840 2098176 2098688 9216
is_linear=0
shrinkage=0.005


Tree=4
num_leaves=29
num_cat=5
split_feature=156 138 167 217 217 133 128 59 68 59 128 198 162 24 152 162 133 133 217 129 61 217 2 0 150 217 38 72
split_gain=37.2243 41.8505 56.4797 33.6223 26.2697 30.7331 27.721 38.1468 26.3116 52.9678 37.2655 26.2831 24.2023 24.0229 21.8209 21.6663 54.8741 37.0301 40.2766 21.8369 18.9002 17.8313 16.5556 16.2103 15.5795 12.1136 10.39 7.83855
threshold=0.040006422654645206 -0.00029077451940718847 0.00013389467649310274 0 1 0.55378258105530842 -0.040922629167196405 -0.00019055610531847064 -1.3667607945685514 -0.0006104539276326203 -0.014634538593697287 2.3018285166614581e-05 0.81401192006544354 974.93465149256542 -0.00086074203736985478 0.049281521959117593 0.22372055830183196 0.73153056694435026 2 1.0000000180025095e-35 0.46855416666655103 3 -8.4999999999999982 -0.23289441993013457 0.32360045467462356 4 -1.2237833994575378e-06 -0.12579610414968681
decision_type=8 2 2 1 1 10 10 2 10 2 8 10 10 8 10 8 8 8 1 10 8 1 8 10 10 1 10 10
left_child=1 15 25 -4 8 6 7 -6 11 10 -10 27 23 -14 -13 16 20 19 -19 -17 -1 -18 -8 -7 -11 -3 -27 -2
right_child=4 2 3 -5 5 12 22 -9 9 24 -12 14 13 -15 -16 17 21 18 -20 -21 -22 -23 -24 -25 -26 26 -28 -29
leaf_value=0.001094482999569842 -0.00024183613363089291 0.00055961152447707723 -0.00032848992996031189 -0.0018030084831509585 0.00070390201112844946 -0.00027134109046765938 -0.00039910066885237843 1.1871623407406712e-06 0.0020169759496557736 -0.00015467342547391072 0.00043682040859836807 5.7723622119704001e-06 -0.0010843534578657921 -0.00031902754264408688 -0.00066034908903374659 0.00095216516034716625 -0.0005023484007013508 -0.00019757537766839546 0.00029484994679944957 -2.7996013119419989e-06 0.00044162102167186239 0.00017449003520547893 -4.7394687991171981e-05 -1.2397472641352888e-05 0.00010270652445080337 -0.00068434858247462744 0.00024970234377031915 0.00027850231039340745
leaf_weight=1631 1011 813 720 896 2852 10401 3750 6022 554 7333 1177 1864 1120 13011 3528 602 1792 4987 24368 81678 3617 2093 31591 14529 29451 611 569 2484
leaf_count=1631 1011 813 720 896 2852 10401 3750 6022 554 7333 1177 1864 1120 13011 3528 602 1792 4987 24368 81678 3617 2093 31591 14529 29451 611 569 2484
internal_value=0 6.19137e-05 -0.000468373 -0.00116293 -5.8931e-05 -0.000112422 -2.20268e-05 0.000227649 3.49539e-05 9.16381e-05 0.000946303 -0.000210088 -0.000214643 -0.000380112 -0.000429187 7.78058e-05 0.000312062 5.85936e-05 0.000211053 4.1381e-06 0.000645643 -0.000137315 -8.48656e-05 -0.000120638 5.12583e-05 9.25922e-05 -0.000227952 0.000126527
internal_weight=255055 124377 3609 1616 130678 83276 44215 8874 47402 38515 1731 8887 39061 14131 5392 120768 9133 111635 29355 82280 5248 3885 35341 24930 36784 1993 1180 3495
internal_count=255055 124377 3609 1616 130678 83276 44215 8874 47402 38515 1731 8887 39061 14131 5392 120768 9133 111635 29355 82280 5248 3885 35341 24930 36784 1993 1180 3495
cat_boundaries=0 1 2 3 4 5
cat_threshold=4196864 10752 2097152 2121728 4197376
is_linear=0
shrinkage=0.005


Tree=5
num_leaves=31
num_cat=0
split_feature=136 162 5 26 74 153 194 26 1 1 149 131 131 0 172 149 208 5 164 159 51 7 160 17 27 157 146 137 6 29
split_gain=29.4445 54.2695 51.2394 41.6166 40.7991 40.0915 89.6197 75.2837 70.536 38.665 30.5944 25.4743 17.8304 27.2289 45.2073 17.8216 14.8789 13.9613 18.5532 22.6925 20.6868 15.1334 29.103 21.1814 11.5259 18.3497 17.5983 9.53133 8.43562 0.190473
threshold=-0.32905776452590479 0.17407773386034259 0.001737341366113754 891.22685035494612 27.47028537805237 170.67994270907076 0.00021553640368301668 1043.1877102225515 -0.0037174621687342531 -0.0052496920378613523 162.69000110616045 0.52284737849716378 0.033290956814117 1.8788798451206585 0.55000000000000016 111.45120289441626 0.00014996976326135233 -0.00076485564398298667 -0.00029137529321530471 0.021878753348994803 -0.72475227850435753 48.450145465654508 6.9228203102453802 0.2753456550956101 0.015357065189690341 -0.00011249946122893205 -0.35071472891615751 -2.8082923118727989 0.00044995905061923411 -0.031473059899497356
decision_type=10 10 10 8 8 8 2 8 10 10 10 10 8 8 2 8 2 8 2 10 8 8 10 10 10 10 10 8 10 8
left_child=1 2 10 12 29 6 9 -7 -8 -3 15 -9 24 14 -14 -1 -12 18 20 -20 -5 23 -23 -19 25 -2 -26 -15 -6 -4
right_child=3 5 4 17 28 7 8 11 -10 -11 16 -13 13 27 -16 -17 -18 21 19 -21 -22 22 -24 -25 26 -27 -28 -29 -30 -31
leaf_value=0.00057270116904007307 -0.00032388376269483536 0.00058772451447432358 0.0016271800388950003 0.00018639956553086526 0.00079168699527412927 -0.0019703259546625745 0.0018849817626004238 -0.00031690217388780041 0.00038519699730339354 -0.00010711950848224699 0.00031922232888220345 0.00046837819644052219 -4.5074908799158292e-05 0.00081185873801516335 -0.00098727010624942327 -1.5725661718047516e-05 0.001391523037793174 -0.00016695312502796705 -2.8463259469716104e-05 -0.0011204947162606982 -3.8847901766089578e-06 -1.1794014725293141e-05 0.00057973956627692229 0.00011964234877991736 -0.00086136247152491434 -0.0010279633952261411 0.0001462204124339713 5.7650330561313475e-05 4.5941952901982004e-05 0.0019416474428805479
leaf_weight=1620 1952 2253 528 24181 1064 630 1076 5146 2932 17865 593 1287 5094 821 1702 6169 753 33996 1420 722 34771 92654 2126 7934 645 1810 1299 886 612 514
leaf_count=1620 1952 2253 528 24181 1064 630 1076 5146 2932 17865 593 1287 5094 821 1702 6169 753 33996 1420 722 34771 92654 2126 7934 645 1810 1299 886 612 514
internal_value=0 0.000119228 0.00040722 -2.42077e-05 0.00101031 9.6102e-06 0.000106762 -0.000321503 0.000789451 -2.90306e-05 0.00022714 -0.000158972 -0.000285576 -0.000139639 -0.000281886 0.000106075 0.000923405 -5.40605e-06 5.74003e-05 -0.000399237 7.40833e-05 -3.35102e-05 1.42783e-06 -0.000112603 -0.00050211 -0.000664147 -0.000185786 0.000423585 0.000522546 0.00178881
internal_weight=255055 43042 11853 212013 2718 31189 24126 7063 4008 20118 9135 6433 14209 8503 6796 7789 1346 197804 61094 2142 58952 136710 94780 41930 5706 3762 1944 1707 1676 1042
internal_count=255055 43042 11853 212013 2718 31189 24126 7063 4008 20118 9135 6433 14209 8503 6796 7789 1346 197804 61094 2142 58952 136710 94780 41930 5706 3762 1944 1707 1676 1042
is_linear=0
shrinkage=0.005


Tree=6
num_leaves=16
num_cat=2
split_feature=174 128 217 41 54 128 99 2 201 35 217 167 44 24 137
split_gain=34.3715 40.5353 85.8957 46.403 52.7653 101.949 40.2259 38.2511 27.2035 22.0198 20.7792 20.7472 15.9997 15.8519 15.557
threshold=1.9013222163044923 0.073407215066793832 0 -0.0013270365673040856 0.027083365905337529 -0.052724645812956709 -0.0030362456769325013 -4.4999999999999991 -221.33171521035595 0.029830898970779184 1 0.00018574991660774755 0.1527852771062119 2445.1732909365596 5.7924072905414468
decision_type=10 10 1 2 2 10 2 10 8 8 1 2 10 8 10
left_child=1 3 6 4 10 -6 -3 13 11 -10 -1 -5 -8 -4 -9
right_child=-2 2 7 8 5 -7 12 14 9 -11 -12 -13 -14 -15 -16
leaf_value=-0.000521711048769292 -0.00092702348351298108 -0.0020181567463766698 -0.00029009639359234523 0.00011905070720453817 0.00089837929491358979 0.00013792274428748547 -0.00098000880411177878 0.00056803855398294262 -0.00050284108310728946 -5.3429313673283134e-05 -1.5107094846530846e-05 -5.1157103809926975e-05 6.4802131135394285e-05 -0.0013495925348176883 -4.8964263820615149e-05
leaf_weight=2927 995 823 1064 48486 5141 31061 1214 2044 2791 120516 6591 28335 512 541 2014
leaf_count=2927 995 823 1064 48486 5141 31061 1214 2044 2791 120516 6591 28335 512 541 2014
internal_value=0 3.63285e-06 -0.000341883 1.51957e-05 0.000158923 0.000246074 -0.00110173 1.32958e-06 -1.76149e-05 -6.36461e-05 -0.000172027 5.62056e-05 -0.000667323 -0.000650954 0.000260649
internal_weight=255055 254060 8212 245848 45720 36202 2549 5663 200128 123307 9518 76821 1726 1605 4058
internal_count=255055 254060 8212 245848 45720 36202 2549 5663 200128 123307 9518 76821 1726 1605 4058
cat_boundaries=0 1 2
cat_threshold=2098176 2098176
is_linear=0
shrinkage=0.005


Tree=7
num_leaves=30
num_cat=3
split_feature=217 137 134 128 217 116 217 115 136 139 62 128 164 134 151 72 137 131 153 129 140 48 153 176 145 39 25 58 210
split_gain=31.4599 31.0821 53.0277 55.0217 32.6181 38.4284 27.761 27.6826 101.273 102.559 75.4002 71.6404 58.6361 39.3568 37.7752 32.1417 29.9701 26.3675 26.0813 64.1753 24.7296 24.6874 20.5348 19.5823 18.999 13.754 11.0245 6.27022 4.39601
threshold=0 8.2004237014813128 0.84166666666667822 0.036766621717989507 1 0.07170652115078209 2 -0.88466516047109667 -1.0126494595996161 0.0029604704132488173 0.057996269446496232 0.060942354751813872 -0.00030787254180289454 0.51875000000001148 0.10072295441623358 0.50038023821668942 -13.37971140759241 0.033290956814117 183.52507754625177 0.24105405541119024 0.0030927204723569805 3.4279942969301893 58.907141669365117 0.050122043497494669 0.63403469936577894 -0.012364789970569123 0.29160735520282105 -2.9926842579065604e-06 232.50000000000003
decision_type=1 8 2 10 1 8 1 10 10 8 2 10 2 2 10 8 10 10 10 10 2 10 8 8 2 2 2 8 2
left_child=1 6 4 17 20 -6 21 15 9 12 -11 14 -9 -13 -10 25 -17 -4 24 -20 -3 22 -1 -23 -8 27 -18 -2 -27
right_child=7 2 3 -5 5 -7 18 8 11 10 -12 13 -14 -15 -16 16 26 -19 19 -21 -22 23 -24 -25 -26 28 -28 -29 -30
leaf_value=-0.00043368598810595091 -2.9220597683589854e-06 -0.00029688401023295703 -0.0010254783856870498 -0.001859908752463754 0.00059479656311803807 -9.294234025545408e-05 -8.4814383091482302e-05 0.00042149049191748207 5.6007603547986844e-05 0.0021175023704477461 0.0004800528421801517 -0.00013316672364723607 -0.00099110896699336221 -0.00086566057380942313 0.00057545609909241224 -0.0013364234283291562 -0.00048745824260467731 2.4890599325994856e-05 0.00050073429204787576 -0.00012891456660512766 -0.0012968974773322564 0.00013659921482035166 0.00056321709844580096 -0.00014546367873163695 -0.00033161258178820372 0.00019070831903183379 0.00025003106659943501 -0.00029159676491187974 -0.00017775417553052956
leaf_weight=584 3311 7678 1007 890 2365 14347 34062 5391 92910 1555 1301 4618 848 3063 3639 923 1771 1445 6110 11961 676 19441 4124 8989 10152 5804 699 4465 926
leaf_count=584 3311 7678 1007 890 2365 14347 34062 5391 92910 1555 1301 4618 848 3063 3639 923 1771 1445 6110 11961 676 19441 4124 8989 10152 5804 699 4465 926
internal_value=0 -5.71637e-05 -0.000202362 -0.000794158 -0.000123231 4.11122e-06 -1.38893e-05 5.39392e-05 8.28317e-05 0.00058884 0.00137377 3.86248e-05 0.000228562 -0.000425993 7.56435e-05 -0.000128675 -0.000566768 -0.000404684 -7.61362e-05 8.37158e-05 -0.000378096 0.000102948 0.000438429 4.72387e-05 -0.000141601 -2.58265e-05 -0.000276712 -0.000169339 0.000139249
internal_weight=255055 123831 28408 3342 25066 16712 95423 131224 113325 9095 2856 104230 6239 7681 96549 17899 3393 2452 62285 18071 8354 33138 4708 28430 44214 14506 2470 7776 6730
internal_count=255055 123831 28408 3342 25066 16712 95423 131224 113325 9095 2856 104230 6239 7681 96549 17899 3393 2452 62285 18071 8354 33138 4708 28430 44214 14506 2470 7776 6730
cat_boundaries=0 1 2 3
cat_threshold=6307840 16384 16384
is_linear=0
shrinkage=0.005


Tree=8
num_leaves=31
num_cat=0
split_feature=128 132 179 54 133 3 143 139 150 172 153 156 148 149 142 133 151 65 3 188 54 11 39 104 75 178 128 133 151 214
split_gain=31.3215 123.379 38.0395 36.8061 52.2464 45.3425 44.6312 36.3538 35.6433 33.804 31.384 27.3355 27.1796 24.1321 22.7999 20.5475 17.3067 12.9092 17.9902 12.5354 18.7175 12.3005 11.4924 11.3282 10.5916 9.41412 9.21738 39.5029 37.2599 5.36324
threshold=-0.040922629167196405 5.8500000000000005 0.00045346761662783103 0.035723315611103361 0.28336707152496632 0.0001613959053992087 -0.00048889894264936274 -0.00064628776185965398 0.043907846539425498 0.25000000000000006 200.94116557550402 0.072806807542423024 173.91624897869568 111.45120289441626 -0.0040703386174495513 0.22372055830183196 0.099779992912216578 -0.021475117420444893 0.005680794618199537 -1.3640444757674099 0.11435043431235163 -1.0000000180025095e-35 -0.027701043585021481 -0.15613881721789502 0.092514552325031793 0.86780864806271796 0.017126845701651797 0.80305361305361311 0.10053432068674763 -0.00019981265034258152
decision_type=10 2 2 2 10 10 8 8 10 2 10 8 10 10 8 10 8 8 10 10 2 2 2 8 10 8 8 10 10 8
left_child=1 10 11 5 6 7 -5 -3 14 16 26 21 -11 -6 25 -16 -10 22 -19 -12 -21 24 -13 -23 -2 -4 28 -28 -1 -7
right_child=2 3 8 4 13 29 -8 -9 9 12 19 17 -14 -15 15 -17 -18 18 -20 20 -22 23 -24 -25 -26 -27 27 -29 -30 -31
leaf_value=-5.899977414855013e-05 -7.3875418068546179e-05 -0.0011466639117793105 -0.00060329054142438019 0.0024291593225336532 0.0011976606916507019 0.0011982673332202882 0.00092743020411580805 0.00046426692420047609 0.00071565307536008418 -0.00012397960471510758 -3.7814665394600598e-05 -0.00040453035565319852 -0.00037593649441926085 0.00014222654849705479 0.00099304310494346222 2.5254076636654632e-05 6.717801103153323e-05 -6.2062709758203663e-06 -0.00068272799710809655 0.00039094892301239228 0.0014266198557650507 -7.8823593445157057e-05 -8.112461264929736e-05 9.4291063329652675e-05 0.0001810055779266824 0.0002707027419562253 0.00067553754860026573 -0.00050295195428777745 -0.0012601803778267483 0.0005245841070953271
leaf_weight=24160 4602 721 649 899 827 777 1139 674 1262 46549 932 4358 13948 1605 1541 868 5683 54924 1000 1867 579 15799 7571 23462 33927 576 1777 1180 663 536
leaf_count=24160 4602 721 649 899 827 777 1139 674 1262 46549 932 4358 13948 1605 1541 868 5683 54924 1000 1867 579 15799 7571 23462 33927 576 1777 1180 663 536
internal_value=0 0.000131736 -2.33069e-05 0.000722668 0.0010017 0.000260038 0.00159319 -0.000364979 -0.000118142 -0.000144188 -4.25825e-06 2.29404e-05 -0.000182158 0.000503526 0.000363762 0.000646564 0.000185821 -5.03568e-05 -1.84048e-05 0.000450563 0.000638632 8.69387e-05 -0.000199717 2.45005e-05 0.000150431 -0.000188371 -5.97579e-05 0.000203556 -9.13331e-05 0.000927666
internal_weight=255055 38336 216719 7178 4470 2708 2038 1395 71076 67442 31158 145643 60497 2432 3634 2409 6945 67853 55924 3378 2446 77790 11929 39261 38529 1225 27780 2957 24823 1313
internal_count=255055 38336 216719 7178 4470 2708 2038 1395 71076 67442 31158 145643 60497 2432 3634 2409 6945 67853 55924 3378 2446 77790 11929 39261 38529 1225 27780 2957 24823 1313
is_linear=0
shrinkage=0.005


Tree=9
num_leaves=25
num_cat=0
split_feature=130 2 141 207 201 138 170 205 133 97 134 124 143 22 157 15 199 133 157 51 147 128 148 128
split_gain=49.7691 32.3724 64.0865 36.2197 29.039 29.0732 70.0703 46.2933 44.1796 30.182 29.6979 22.8399 22.1091 30.7336 23.5624 19.4785 12.2259 46.8203 30.4606 19.229 9.61121 27.7129 15.5373 9.47487
threshold=0.9694481674545562 9.5000000000000018 2.1588642946210679 0.00014189534652722953 -544.55429808286942 -0.00029077451940718847 -0.1916068928541485 0.052165636363124393 0.034199280251911844 -84.561864822098826 0.51875000000001148 -0.2742157733272661 -0.0015646431472753906 0.05100290269070714 -0.0016247573781894562 -0.00042487047086777862 1.5837828816705193 0.31456143530264596 -0.0016247573781894562 -1.1209411318363294 0.099943636866602181 -0.059987959069504042 173.91624897869568 0.017126845701651797
decision_type=10 10 2 2 8 2 10 10 10 8 2 10 10 8 8 2 10 8 8 10 10 10 10 10
left_child=4 12 3 15 16 8 10 -8 9 -6 -7 -10 13 -2 -15 -3 17 18 -1 -19 21 -14 -22 -4
right_child=1 2 23 -5 5 6 7 -9 11 -11 -12 -13 20 14 -16 -17 -18 19 -20 -21 22 -23 -24 -25
leaf_value=0.00066383473390114621 -0.00069218809857037348 0.00049189536595078943 0.0021353990468622221 0.0013580430545786159 0.0010184858912325072 -0.00078601969155361179 8.5751809746483203e-05 -0.001485564664788453 -0.00012041028680761045 0.00012500297538438424 -0.0024030904462556454 -2.6857299924079636e-06 -0.001047677365257764 0.0013505215465313028 0.00038976585878232431 -0.00059853399681368069 0.00069395494844597604 -0.00052607736078065688 0.0001432963988683555 -5.1223440703014989e-05 0.00031241972320290748 1.3458527793571687e-05 -0.00049560280609366072 0.0011856483190931613
leaf_weight=3126 559 676 546 506 1572 672 3706 535 72495 2407 510 95647 673 763 4113 1027 795 2374 28492 21263 4354 6971 684 589
leaf_count=3126 559 676 546 506 1572 672 3706 535 72495 2407 510 95647 673 763 4113 1027 795 2374 28492 21263 4354 6971 684 589
internal_value=0 0.000230422 0.000682763 0.000183823 -2.11731e-05 -5.2513e-05 -0.000413044 -0.000111594 -4.11224e-05 0.000479418 -0.00148941 -5.34732e-05 0.00014662 0.000413479 0.000541377 -0.000162723 7.80092e-05 6.90442e-05 0.000194938 -9.91475e-05 3.18378e-05 -7.94378e-05 0.000201647 0.00164841
internal_weight=255055 21461 3344 2209 233594 177544 5423 4241 172121 3979 1182 168142 18117 5435 4876 1703 56050 55255 31618 23637 12682 7644 5038 1135
internal_count=255055 21461 3344 2209 233594 177544 5423 4241 172121 3979 1182 168142 18117 5435 4876 1703 56050 55255 31618 23637 12682 7644 5038 1135
is_linear=0
shrinkage=0.005


Tree=10
num_leaves=29
num_cat=3
split_feature=129 217 175 149 1 53 136 164 170 144 143 147 208 217 205 217 129 140 157 128 151 139 6 1 157 2 202 127
split_gain=58.501 58.9369 42.958 76.1684 42.5698 30.8876 54.9806 77.243 33.9047 26.4786 68.3581 25.4795 26.3052 23.1783 30.4288 22.1705 20.6801 14.428 29.352 23.6461 20.9964 15.3086 14.5123 13.1587 22.5864 12.8228 11.4345 9.81263
threshold=0.10622234513274338 0 0.00033550010543381697 173.14487724713857 0.00042730452095673949 0.11079919051709737 -0.32905776452590479 -0.00029413337800905729 1.0000000180025095e-35 0.69346152661045102 0.0066065441656507637 0.10003523106725933 0.00013486281839704468 1 0.044844472997317662 2 0.032688643123007614 0.0006645566517915481 -0.00087183379833466457 0.0086760054933660031 0.09948487139798394 -0.0023115372360121285 0.00044995905061923411 -0.0016567580613657815 0.0011813458151445635 8.5000000000000018 -0.00041168692609562779 -1.0000000180025095e-35
decision_type=10 1 2 10 10 2 10 2 10 2 10 10 2 1 10 1 8 2 8 8 8 8 8 10 10 10 8 8
left_child=2 9 17 13 -5 6 7 -3 -8 23 15 26 -13 16 -15 -11 -4 19 22 20 -1 -20 -19 25 -25 -2 -7 -21
right_child=1 5 3 4 -6 11 8 -9 -10 10 -12 12 -14 14 -16 -17 -18 18 21 27 -22 -23 -24 24 -26 -27 -28 -29
leaf_value=0.00068390543717464073 -0.00016542022728526225 0.00036527672490842142 -0.00088181002151429958 0.00058283182887631179 0.0023432139770325246 0.00010600544529448702 -0.00025129588546380369 -0.00099343008042735012 -1.4035065462572263e-05 -4.5378953432896556e-05 -0.0018001375057455152 -3.6697717824054318e-05 0.0003561134037456435 0.00025044837059957659 0.0012410887740181462 -0.00041783939066342287 0.00015777053738836761 0.00078879338489784871 0.00035380873484585463 0.0013406760076294902 7.4064555316963665e-05 -0.00029773124952215199 3.8686634682798967e-05 -2.1804920289417655e-06 -0.00031731378969693296 -0.00059780318353301837 -4.7746263056325163e-05 0.00044871259228356907
leaf_weight=1543 9180 12150 593 632 778 27386 24498 1142 39197 7166 749 5892 15197 2651 1106 9146 2446 1253 1032 541 16909 6794 1358 34391 6819 2128 21601 777
leaf_count=1543 9180 12150 593 632 778 27386 24498 1142 39197 7166 749 5892 15197 2651 1106 9146 2446 1253 1032 541 16909 6794 1358 34391 6819 2128 21601 777
internal_value=0 -3.18885e-05 0.000179827 0.000500748 0.00155868 2.4811e-05 -4.42752e-05 0.0002481 -0.00010537 -0.000151781 -0.000323054 0.000100785 0.000246133 0.000280321 0.000542217 -0.000254818 -4.35182e-05 9.24672e-05 -5.75663e-05 0.000171925 0.000125366 -0.000211141 0.000400736 -9.60703e-05 -5.44532e-05 -0.000247276 3.81064e-05 0.000819367
internal_weight=255055 216642 38413 8206 1410 147063 76987 13292 63695 69579 17061 70076 21089 6796 3757 16312 3039 30207 10437 19770 18452 7826 2611 52518 41210 11308 48987 1318
internal_count=255055 216642 38413 8206 1410 147063 76987 13292 63695 69579 17061 70076 21089 6796 3757 16312 3039 30207 10437 19770 18452 7826 2611 52518 41210 11308 48987 1318
cat_boundaries=0 1 2 3
cat_threshold=6291456 4211712 4194304
is_linear=0
shrinkage=0.005


Tree=11
num_leaves=31
num_cat=0
split_feature=140 210 2 4 144 182 143 171 11 10 133 167 37 4 0 146 77 116 131 129 129 13 202 200 7 208 19 129 47 38
split_gain=38.5438 38.9072 50.6332 44.7859 30.3735 43.4654 59.3375 32.5309 26.5336 27.2347 25.3416 38.0192 24.9726 22.1395 17.6079 28.1084 14.55 16.7852 19.1752 13.8898 21.3963 13.682 13.606 12.5477 43.6585 12.3597 8.96668 8.94837 8.09139 3.09908
threshold=-0.0015443785021087562 -160.49999999999997 6.5000000000000009 -0.0027768128373423791 0.44721359549997647 -0.00029137529321530471 0.0018779885274894383 0.00023206049298660672 -0.14999999999999999 0.64104202430954482 0.11127403062886936 0.00018574991660774755 2157.9742659704521 0.0019992613971854816 -1.3396519879429147 0.25011733879947146 4.5797976523229433e-06 0.14034484417364626 1.0000000180025095e-35 0.83962457163316462 0.47443557969784422 0.13255968689207007 -0.0004999673932979447 7.7601500000000678 25.982927120619369 0.00015318614298336685 -4.8594877578855826e-05 0.38099497401822985 9.2465689196186887 1.8347769125711116e-06
decision_type=2 2 10 10 2 2 10 8 2 10 10 2 10 8 10 10 2 8 10 8 10 2 10 2 10 2 2 10 8 8
left_child=1 2 8 21 16 10 7 -7 9 -1 13 -12 -5 -6 19 28 23 18 -18 20 -3 -4 -10 26 -25 -17 -2 -19 -16 -21
right_child=4 14 3 12 5 6 -8 -9 22 -11 11 -13 -14 -15 15 25 17 27 -20 29 -22 -23 -24 24 -26 -27 -28 -29 -30 -31
leaf_value=0.0001435971410991069 -9.9487902268431726e-05 0.00047156418047126369 0.0016590034722122602 0.00072622685680242909 -2.0732277811070675e-05 0.00068380974593953037 -0.0018247137864321988 -0.00062744833733658408 0.00013362992139485447 0.00068835386623222695 -1.3849343970193055e-05 -0.00024101985651844092 -0.00013359802903255459 0.00042175346871189338 -0.00012299782588334662 -9.4057769155021776e-05 6.8809646580460457e-06 0.00018111549652528606 0.00062550469518317473 0.00040532067142896053 -0.00044253202671207167 0.00085892378871610462 -0.00020113073500030549 -0.00056303838017519631 0.00053183272592156644 0.00049535916742053556 1.4963185778093142e-05 -8.8240887101602566e-05 -0.00050682111272792212 0.00096874312679480566
leaf_weight=6962 21944 1288 998 1710 8045 650 825 1709 6651 3446 43653 31923 1651 4341 2052 1995 2040 6589 3314 526 1270 1251 5576 1218 3565 1588 77563 5767 4403 542
leaf_count=6962 21944 1288 998 1710 8045 650 825 1709 6651 3446 43653 31923 1651 4341 2052 1995 2040 6589 3314 526 1270 1251 5576 1218 3565 1588 77563 5767 4403 542
internal_value=0 0.000138613 0.000244616 0.000670039 -2.72571e-05 -9.63218e-05 -0.000670327 -0.000263888 0.00013893 0.000324491 -7.54801e-05 -0.000109873 0.00030246 0.000133966 -8.01426e-05 -0.000188283 2.43005e-05 0.000156805 0.000390774 0.000217816 1.57827e-05 0.00121676 -1.86294e-05 1.75005e-06 0.000251917 0.000165844 -1.02269e-05 5.49954e-05 -0.000385619 0.000696568
internal_weight=255055 41909 28245 5610 213146 91146 3184 2359 22635 10408 87962 75576 3361 12386 13664 10038 122000 17710 5354 3626 2558 2249 12227 104290 4783 3583 99507 12356 6455 1068
internal_count=255055 41909 28245 5610 213146 91146 3184 2359 22635 10408 87962 75576 3361 12386 13664 10038 122000 17710 5354 3626 2558 2249 12227 104290 4783 3583 99507 12356 6455 1068
is_linear=0
shrinkage=0.005


Tree=12
num_leaves=31
num_cat=5
split_feature=156 128 132 217 217 135 6 151 165 51 217 147 136 1 54 53 188 75 138 68 131 55 135 217 183 204 10 217 76 163
split_gain=36.1563 31.7942 93.1302 40.8363 34.836 33.4382 42.5008 33.1457 29.8946 29.1005 28.0742 50.8204 40.9027 49.4525 29.4657 24.2581 21.7231 21.5624 31.6442 18.4194 17.2363 16.5877 16.0754 20.403 15.2626 14.6789 17.7926 13.5686 11.9349 8.22523
threshold=0.040006422654645206 -0.046391334520614329 5.8500000000000005 0 1 34.500000000000007 0.00044362799029061783 0.10014457791732252 0.551981471950592 1.0000000180025095e-35 2 0.099530752632536454 -1.0126494595996161 -0.0052496920378613523 0.022361855256633322 0.034419766890595831 -0.68635743547728045 0.080284101470027971 -0.00029489035631200103 -0.0088188328594161237 0.57485804858206768 0.033777116529658625 12.833333333333487 3 0.29386485799615258 0.051553385835583103 -0.84847503638317778 4 -0.00010106644535745611 0.00017556424091071072
decision_type=8 10 2 1 1 10 8 10 10 8 1 10 10 8 2 2 10 10 2 8 10 2 10 1 8 8 8 1 2 10
left_child=10 2 22 19 7 15 -7 9 -5 -3 14 25 13 -13 24 -6 -9 20 -19 -4 -16 -14 29 -24 -1 26 -12 -27 -26 -2
right_child=1 4 3 8 5 6 -8 16 -10 -11 11 12 21 -15 17 -17 -18 18 -20 -21 -22 -23 23 -25 28 27 -28 -29 -30 -31
leaf_value=-6.2794111075057012e-05 -6.8761883313805307e-05 -3.7600453819191067e-05 0.0007389866506726713 0.00062099677301465236 -0.00038320854515770978 -0.0018177599785969645 -0.00015555333230130285 0.00013345484809606289 0.0018271227043851689 -0.00068566018224511596 0.00098665981569540161 0.0017694637799053454 -0.00015293106970919694 0.00029850240322988597 0.00020851573196987904 -0.00010131418725033877 0.00068592512118986011 -1.6049393131419761e-05 -0.00068759033560192794 -0.00052770707315474711 0.0012453647818563241 6.682539303801286e-05 0.0011783973949742329 1.6331032168603054e-06 -0.0012394061585600752 -0.00025771281280554829 0.00041374510801427166 0.00043138597284141637 -0.00032750215089092776 -0.00046872530591058644
leaf_weight=887 7935 23420 598 914 8692 677 906 14962 1225 1872 1831 699 9818 3192 1936 63689 2027 25763 1883 547 511 67932 546 1123 957 1239 5481 1645 603 1545
leaf_count=887 7935 23420 598 914 8692 677 906 14962 1225 1872 1831 699 9818 3192 1936 63689 2027 25763 1883 547 511 67932 546 1123 957 1239 5481 1645 603 1545
internal_value=0 -5.80797e-05 0.000163129 0.000903115 -8.55892e-05 -0.00015103 -0.000870283 2.88012e-05 0.0013085 -8.57898e-05 6.10187e-05 0.000105748 6.41185e-05 0.000564425 -6.50769e-05 -0.00013524 0.000199702 -2.20109e-05 -6.19929e-05 0.000128434 0.000427501 3.90094e-05 -5.44506e-05 0.000397137 -0.000592698 0.000438653 0.000558008 0.000134223 -0.000890559 -0.000134516
internal_weight=255055 130678 14433 3284 116245 73964 1583 42281 2139 25292 124377 91837 81641 3891 32540 72381 16989 30093 27646 1145 2447 77750 11149 1669 2447 10196 7312 2884 1560 9480
internal_count=255055 130678 14433 3284 116245 73964 1583 42281 2139 25292 124377 91837 81641 3891 32540 72381 16989 30093 27646 1145 2447 77750 11149 1669 2447 10196 7312 2884 1560 9480
cat_boundaries=0 1 2 3 4 5
cat_threshold=4194816 10752 2105344 2113536 1536
is_linear=0
shrinkage=0.005


Tree=13
num_leaves=23
num_cat=1
split_feature=133 217 130 59 129 134 129 13 200 97 134 202 134 75 151 122 128 9 189 130 148 168
split_gain=53.1189 32.4892 42.1941 53.8987 35.4965 41.1061 125.052 32.4618 27.3045 24.1185 29.7077 30.131 23.3404 21.8588 20.8309 17.5689 19.083 16.4599 13.5801 11.4366 8.03696 2.93166
threshold=0.034199280251911844 0 0.95525333821860126 -0.0006104539276326203 1.0000000180025095e-35 0.74791666666667822 0.42543323467593192 0.036118250914980672 7.7601500000000678 -84.561864822098826 0.41458333333334479 -0.00048514003473267437 0.58958333333333723 0.16229890605929423 0.10021040318857914 371.94338768115944 -1.0000000180025095e-35 1.0000000180025095e-35 -1.1371287146993294 -1.0000000180025095e-35 103.54387197144469 -0.0002531887789593012
decision_type=10 1 10 2 10 2 10 2 2 8 2 10 2 8 10 10 10 10 8 10 8 10
left_child=9 4 7 -4 17 14 -7 12 -9 10 19 21 -3 -5 -6 16 18 -2 -11 -1 -18 -12
right_child=1 2 3 13 5 6 -8 8 -10 15 11 -13 -14 -15 -16 -17 20 -19 -20 -21 -22 -23
leaf_value=-0.00032017842213084743 0.0013210396023798519 -0.00015852268214460491 0.0015574576112926861 0.00046634704276881083 -0.0001022460198757213 0.00026887582273664142 -0.00096853662450203915 -7.6705098259392317e-06 0.0002788750350964353 0.00047352127180528371 0.00035341853458157338 0.0018299634419520344 -0.00088282790402683699 8.3324722418989108e-05 0.0001711436831323691 0.001052787218810572 0.00030623596399643175 0.00012283686774211344 -0.0001696476991920317 0.0005955151357780157 0.001116373793987852 0.0008704639663965017
leaf_weight=696 623 3430 752 5203 61673 3541 4804 132652 8867 1035 700 813 1662 13271 7842 533 768 549 3929 661 537 514
leaf_count=696 623 3430 752 5203 61673 3541 4804 132652 8867 1035 700 813 1662 13271 7842 533 768 549 3929 661 537 514
internal_value=0 -1.47187e-05 2.50171e-05 0.000245255 -9.81518e-05 -0.000111225 -0.000442902 -3.82974e-06 1.02498e-05 0.000353768 0.000699171 0.00108266 -0.00039604 0.000191489 -7.13309e-05 0.000181118 0.000106054 0.000764611 -3.44708e-05 0.000122288 0.000644031 0.000576984
internal_weight=255055 244869 165837 19226 79032 77860 8345 146611 141519 10186 3384 2027 5092 18474 69515 6802 6269 1172 4964 1357 1305 1214
internal_count=255055 244869 165837 19226 79032 77860 8345 146611 141519 10186 3384 2027 5092 18474 69515 6802 6269 1172 4964 1357 1305 1214
cat_boundaries=0 1
cat_threshold=6291456
is_linear=0
shrinkage=0.005


Tree=14
num_leaves=21
num_cat=2
split_feature=129 0 136 217 128 36 47 129 142 177 134 0 217 141 151 79 70 170 78 158
split_gain=32.8243 86.9015 58.2976 70.6329 69.7067 58.4777 52.7318 46.5313 41.2723 28.9598 30.8192 52.3782 30.4884 35.8401 26.4305 26.2307 20.549 17.8738 16.9021 15.205
threshold=1.0000000180025095e-35 -1.0836906020818897 -0.65393982983002319 0 -0.052724645812956709 -0.00032197045973186839 9.7667261273783428 0.10622234513274338 0.017688069684872822 0.037800955876191492 0.98124999999998874 -1.0000000180025095e-35 1 2.0849630062437421 0.10035396352181526 0.44685279490606439 12.803218511386762 -0.15088058875741031 0.096201491356112903 1.5903894758723607
decision_type=10 8 10 1 10 2 8 10 10 8 2 8 1 2 10 10 10 8 10 10
left_child=1 8 3 4 -2 6 -5 -6 -1 12 14 -12 19 -14 -11 -7 17 -3 -19 -4
right_child=2 16 9 5 7 15 -8 -9 -10 10 11 -13 13 -15 -16 -17 -18 18 -20 -21
leaf_value=0.00072144351752285736 0.00114712935940445 0.0005854667946052041 -9.1719122024931589e-05 0.0012214455684898154 0.00052158280959734721 -9.4810574234266279e-05 0.00036123927620317542 -0.000508019439564679 0.0023980507291857249 -7.513121262877278e-05 -0.0011693536824935362 0.00024127292140745376 -3.2724285930837992e-06 0.00021730812608304842 -0.00056314446723983007 0.00042925937777083542 0.00070904583844827039 -0.00013329641761234158 -0.0010769488934099301 -0.00080066444561452952
leaf_weight=959 908 514 60258 3233 1337 5101 4020 6011 608 30041 1829 1019 105761 22286 3062 4468 708 1449 716 767
leaf_count=959 908 514 60258 3233 1337 5101 4020 6011 608 30041 1829 1019 105761 22286 3062 4468 708 1449 716 767
internal_value=0 0.000402982 -7.98413e-06 0.000220652 -0.000157687 0.000406483 0.000745478 -0.000319953 0.00137627 -3.34879e-05 -0.000163574 -0.000662976 -8.72555e-06 3.50782e-05 -0.000120439 0.000149387 -4.61108e-05 -0.000247738 -0.000448039 -0.000100708
internal_weight=255055 4954 250101 25078 8256 16822 7253 7348 1567 225023 35951 2848 189072 128047 33103 9569 3387 2679 2165 61025
internal_count=255055 4954 250101 25078 8256 16822 7253 7348 1567 225023 35951 2848 189072 128047 33103 9569 3387 2679 2165 61025
cat_boundaries=0 1 2
cat_threshold=2105344 6291456
is_linear=0
shrinkage=0.005


Tree=15
num_leaves=29
num_cat=4
split_feature=136 73 129 141 217 139 97 217 106 167 106 157 133 186 156 53 128 2 133 15 210 217 136 217 150 178 138 2
split_gain=72.6926 68.7677 64.357 60.4068 58.8975 75.6154 52.4622 44.9931 41.2269 34.5884 28.6668 26.8485 25.4907 27.1465 24.036 23.7545 21.2712 43.2962 18.5694 37.8965 26.1599 17.4004 15.0328 15.0226 15.5752 14.6888 14.0623 11.6887
threshold=-1.0126494595996161 -0.0042839765470951714 0.30308309576602266 1.3063081002518522 0 0.00019484925112056575 -101.1704544849313 1 3.0274999309457658e-06 0.00022133095515486785 -5.3190555747039721e-05 0.0013776313090209105 0.25375388916444969 0.7000000000000105 0.19924467208781527 0.068908461125975207 -0.02617844977327621 18.500000000000004 0.7688307127033015 -0.00045966830606837414 -1519.4999999999998 2 -0.098679061366099455 3 0.93002057613168743 4.2414192827104751 -0.00031934041930659502 11.500000000000002
decision_type=10 8 10 2 1 8 8 1 10 2 10 10 8 2 8 2 10 10 8 2 2 1 10 1 8 8 2 10
left_child=1 3 6 -1 5 -5 15 21 -6 14 12 -9 22 -14 18 -3 17 -12 20 -20 -2 -4 -11 24 -16 -8 -25 -18
right_child=9 2 7 4 8 -7 25 11 -10 10 16 -13 13 -15 23 -17 27 -19 19 -21 -22 -23 -24 26 -26 -27 -28 -29
leaf_value=-0.00057613620015229349 0.00016332972403802309 0.0016728815685257631 -6.4113285540619823e-05 -0.0010012855798620648 0.0024485248675013695 0.0016310589938744397 0.00038706809458876549 -5.7458676392692701e-05 0.0009334869829147062 -0.0003602209049710868 5.0415177724400061e-05 0.0010115699816821895 -0.0002852462118542644 -0.00084403017613568824 -0.00011930076322104484 0.00059645812924258865 -6.5811184520755172e-05 0.0011818171739956154 0.00052186636599686569 6.8467964557178439e-05 -2.9755734410603541e-05 -0.00088654221588896701 7.4746892381237284e-05 -8.5067543054046031e-05 -0.00051972923530151484 -0.00017099417524492122 0.00013678036868992283 -0.00030389784626822533
leaf_weight=548 24347 1052 943 554 1023 534 3617 2395 828 2872 10897 774 10531 2759 19255 1040 33123 917 6094 19048 62670 2188 6403 18254 2792 1734 11733 6130
leaf_count=548 24347 1052 943 554 1023 534 3617 2395 828 2872 10897 774 10531 2759 19255 1040 33123 917 6094 19048 62670 2188 6403 18254 2792 1734 11733 6130
internal_value=0 0.000313596 0.000154018 0.00094087 0.00122553 0.000283806 0.000468994 -0.000217327 0.00176485 -2.27208e-05 -0.000112772 0.000201665 -0.000261232 -0.000401681 1.76326e-05 0.00114069 -4.70705e-05 0.00013875 5.88619e-05 0.000178579 2.42126e-05 -0.000641525 -5.9426e-05 -7.11403e-05 -0.000170181 0.000205295 1.5692e-06 -0.000103126
internal_weight=255055 17230 13743 3487 2939 1088 7443 6300 1851 237825 73632 3169 22565 13290 164193 2092 51067 11814 112159 25142 87017 3131 9275 52034 22047 5351 29987 39253
internal_count=255055 17230 13743 3487 2939 1088 7443 6300 1851 237825 73632 3169 22565 13290 164193 2092 51067 11814 112159 25142 87017 3131 9275 52034 22047 5351 29987 39253
cat_boundaries=0 1 2 3 4
cat_threshold=2098176 2106368 1024 17408
is_linear=0
shrinkage=0.005


end of trees

feature_importances:
hour=37
XSMOM1M=18
RPP_22D=14
RPP_5D=14
MAdiff_Vol_div=11
FAC_VWAP_Deviation_TrendRevmean=11
LR=10
QST=10
P_A_vcorr10=9
FAC_PIR_max=8
A_Y_oi5_diff=7
volatility_rg=7
A_M_closepctchg5_sub=7
A_M_oi5_diff=6
CCI=6
A_M_closepctchg20_sub=6
FAC_resiliency_askdommean=6
FAC_resiliency_TrendRevmean=6
RPP_2H=5
A_Y_vcorr10=5
P_A_closepctchg20_sub=4
FAC_ask3_vmean_20_upmean=4
FAC_RUSHSTOPBID_min=4
FAC_bid2_vmean_20_biddommean=4
FAC_ILLIQ_min=4
before_bot_price_diff=4
day_first10rev=4
A_Y_closepctchg20_sub=4
FAC_resiliency_biddommean=4
FAC_Bolling_biddommean=4
FAC_PIR_first=4
FAC_OI_V_DIV_upmean=4
FAC_MCIA_biddommean=3
FAC_ask2_vmean_20_max=3
FAC_Depth_OI_Pressure_askdommean=3
FAC_RKurt_askdommean=3
FAC_Bolling_min=3
FAC_bid3_vmean_20_min=3
day_first4redcorr=3
down_shadow_5std=3
FAC_VWAP_Deviation_biddommean=3
RPP_4H=3
P_A_oi5_diff=3
FAC_sub_a5b5_vmean_20_biddommean=3
FAC_MCIB_biddommean=3
FAC_RVar_askdommean=3
FAC_MLQSweight_corrAskwap=3
FAC_sub_a5b5_vmean_20_min=3
P_A_closepctchg5_sub=2
FAC_KDJ_askdommean=2
P_A_volumediv20_diff5=2
bar5_trend_corr=2
FAC_ask2_vmean_20_MADmean=2
FAC_PIR_min=2
FAC_ask2_vmean_20_biddommean=2
FAC_BIDDEPTH_askdommean=2
FAC_ASKDEPTH_vwap=2
FAC_ask5_vmean_20_biddommean=2
FAC_MPC_min=2
FAC_OI_CHG_askdommean=2
FAC_ORDER_SLOPE_B_max=2
FAC_NR_askdommean=2
FAC_PRICE_PRESSURE_askdommean=2
FAC_PRICE_VOL_CORR_A_biddommean=2
FAC_PVcorrsub_a4b4_askdommean=2
FAC_Bolling_last=2
FAC_AVGDEPTH_biddommean=2
FAC_ask4_vmean_20_askdommean=2
FAC_PVcorrsub_a3b3_Volraiseap=2
FAC_fibonacci_retracement_askdommean=2
FAC_bid2_vmean_20_TrendRevmean=2
VHF=2
day_jump=2
A_M_volumediv5_diff5=2
A_M_cvcorr10_diff=2
FAC_RVar_biddommean=2
RPP_30M=2
A_Y_closepctchg5_sub=2
day_first10colarrate=2
FAC_BBI_biddommean=2
FAC_Depth_Reversal_kurtosis=2
FAC_CORR_PVOL_RET_MADmean=2
FAC_MAX_max=2
P_A_cvcorr10_diff=1
FAC_bid5_vmean_20_biddommean=1
FAC_fibonacci_retracement_first=1
FAC_SPREAD_min=1
FAC_MPB_Volraiseap=1
FAC_RKurt_min=1
FAC_Bolling_first=1
FAC_BIDDEPTH_Volraiseap=1
FAC_RTN_JUMP_downmean=1
FAC_MPB_biddommean=1
FAC_bid2_vmean_20_askdommean=1
FAC_MOFI_kurtosis=1
FAC_PVcorrsub_a5b5_TrendRevmean=1
FAC_ask3_vmean_20_min=1
FAC_ask5_vmean_20_min=1
FAC_ORDER_SLOPE_B_biddommean=1
FAC_RKurt_biddommean=1
FAC_OFI1_min=1
FAC_RTN_JUMP_biddommean=1
FAC_OI_CHG_min=1
FAC_OI_CHG_corrBidwap=1
FAC_RVar_down_rate_biddommean=1
FAC_OI_GP_CH_upmean=1
FAC_AVGDEPTH_askdommean=1
FAC_RTN_JUMP_mean=1
FAC_sub_a4b4_vmean_20_askdommean=1
FAC_ask1_vmean_20_biddommean=1
FAC_PRICE_VOL_CORR_B_TrendRevmean=1
FAC_MCIB_min=1
FAC_sub_a5b5_vmean_20_askdommean=1
FAC_CORR_PVOL_RET_askdommean=1
FAC_DBCD_askdommean=1
up_shadow_5std=1
A_M_volumediv20_diff5=1
FAC_PRICE_STD_B_biddommean=1
FAC_MAX_askdommean=1
FAC_MLQSweight_biddommean=1
FAC_STREN_Volraiseap=1
FAC_OI_V_DIV_biddommean=1
FAC_PRICE_STD_B_Volraiseap=1
FAC_MPC_max=1
FAC_ORDER_SLOPE_A_vwap=1
FAC_OI_V_DIV_Mstdwap=1
FAC_PRICE_STD_A_biddommean=1
FAC_PIR_last=1
PV_corr_std=1
down_shadow_5mean=1
FAC_CMF_biddommean=1
FAC_STREN_upmean=1
FAC_ADTMMA_biddommean=1
FAC_MLQSweight_max=1
FAC_SPREAD_biddommean=1
FAC_PIR_std=1
FAC_PRICE_STD_B_askdommean=1
FAC_ORDER_SLOPE_A_std=1
FAC_STREN_vwap=1
FAC_MLQSweight_min=1
FAC_MFI_biddommean=1
FAC_SPREAD_askdommean=1
FAC_MPC_std=1

parameters:
[boosting: gbdt]
[objective: regression]
[metric: rmse]
[tree_learner: serial]
[device_type: cpu]
[data_sample_strategy: bagging]
[data: ]
[valid: ]
[num_iterations: 10000]
[learning_rate: 0.005]
[num_leaves: 32]
[num_threads: 20]
[seed: 142]
[deterministic: 1]
[force_col_wise: 0]
[force_row_wise: 0]
[histogram_pool_size: -1]
[max_depth: 5]
[min_data_in_leaf: 500]
[min_sum_hessian_in_leaf: 0.001]
[bagging_fraction: 1]
[pos_bagging_fraction: 1]
[neg_bagging_fraction: 1]
[bagging_freq: 10]
[bagging_seed: 26665]
[bagging_by_query: 0]
[feature_fraction: 0.7]
[feature_fraction_bynode: 1]
[feature_fraction_seed: 11555]
[extra_trees: 1]
[extra_seed: 12336]
[early_stopping_round: 0]
[early_stopping_min_delta: 0]
[first_metric_only: 0]
[max_delta_step: 0]
[lambda_l1: 1]
[lambda_l2: 1]
[linear_lambda: 0]
[min_gain_to_split: 0]
[drop_rate: 0.1]
[max_drop: 50]
[skip_drop: 0.5]
[xgboost_dart_mode: 0]
[uniform_drop: 0]
[drop_seed: 2046]
[top_rate: 0.2]
[other_rate: 0.1]
[min_data_per_group: 100]
[max_cat_threshold: 32]
[cat_l2: 10]
[cat_smooth: 10]
[max_cat_to_onehot: 4]
[top_k: 20]
[monotone_constraints: ]
[monotone_constraints_method: basic]
[monotone_penalty: 0]
[feature_contri: ]
[forcedsplits_filename: ]
[refit_decay_rate: 0.9]
[cegb_tradeoff: 1]
[cegb_penalty_split: 0]
[cegb_penalty_feature_lazy: ]
[cegb_penalty_feature_coupled: ]
[path_smooth: 0]
[interaction_constraints: ]
[verbosity: -1]
[saved_feature_importance_type: 0]
[use_quantized_grad: 0]
[num_grad_quant_bins: 4]
[quant_train_renew_leaf: 0]
[stochastic_rounding: 1]
[linear_tree: 0]
[max_bin: 32]
[max_bin_by_feature: ]
[min_data_in_bin: 3]
[bin_construct_sample_cnt: 200000]
[data_random_seed: 502]
[is_enable_sparse: 1]
[enable_bundle: 1]
[use_missing: 1]
[zero_as_missing: 0]
[feature_pre_filter: 1]
[pre_partition: 0]
[two_round: 0]
[header: 0]
[label_column: ]
[weight_column: ]
[group_column: ]
[ignore_column: ]
[categorical_feature: 217]
[forcedbins_filename: ]
[precise_float_parser: 0]
[parser_config_file: ]
[objective_seed: 31732]
[num_class: 1]
[is_unbalance: 0]
[scale_pos_weight: 1]
[sigmoid: 1]
[boost_from_average: 1]
[reg_sqrt: 0]
[alpha: 0.9]
[fair_c: 1]
[poisson_max_delta_step: 0.7]
[tweedie_variance_power: 1.5]
[lambdarank_truncation_level: 30]
[lambdarank_norm: 1]
[label_gain: ]
[lambdarank_position_bias_regularization: 0]
[eval_at: ]
[multi_error_top_k: 1]
[auc_mu_weights: ]
[num_machines: 1]
[local_listen_port: 12400]
[time_out: 120]
[machine_list_filename: ]
[machines: ]
[gpu_platform_id: -1]
[gpu_device_id: -1]
[gpu_use_dp: 0]
[num_gpu: 1]

end of parameters

pandas_categorical:null
