tree
version=v4
num_class=1
num_tree_per_iteration=1
label_index=0
max_feature_idx=266
objective=regression
feature_names=LR day_first4greencorr day_jump zigzag RPP_22D XSMOM1M day_first3power P_LH_closepctchg20_sub VR QST RPP_5D FAC_ask_amount_sub20_MADmean M_P_volumediv20_diff5 P_LH_oi5_diff P_LH_cvcorr10_diff P_LH_closepctchg5_sub Y_P_volumediv20_diff5 Y_P_cvcorr10_diff C_P_volumediv5_diff5 FAC_VWAP_Deviation_askdommean FAC_Bolling_first A_P_volumediv20_diff5 FAC_Bolling_last FAC_PRICE_STD_B_biddommean CS_P_volumediv20_diff5 FAC_VWAP_Deviation_biddommean B_P_volumediv20_diff5 C_P_volumediv20_diff5 FAC_VWAP_Deviation_TrendRevmean FAC_VWAP_Deviation_min FAC_MCIA_min FAC_KDJ_askdommean FAC_ask3_vmean_20_min FAC_KDJ_biddommean RPP_4H FAC_ILLIQ_downmean A_P_volumediv5_diff5 FAC_MAX_kurtosis FAC_bid3_vmean_20_first bar5_trend_corr FAC_Bolling_kurtosis FAC_PRICE_STD_A_biddommean FAC_ask2_vmean_20_min FAC_KDJ_min FAC_KDJ_Mstdwap FAC_bid3_vmean_20_askdommean FAC_PRICE_STD_A_corrAskwap FAC_PVcorrsub_a4b4_biddommean FAC_OI_CHG_upmean Y_P_volumediv5_diff5 FAC_OI_Price_Accel_upmean FAC_bid3_vmean_20_vwap FAC_MPB_corrBidwap FAC_MPB_mean FAC_RSI_first FAC_bid1_vmean_20_askdommean CS_P_volumediv5_diff5 FAC_bid2_vmean_20_askdommean FAC_MCIA_corrAskwap FAC_OI_CHG_MADmean FAC_tsi_last FAC_MACD_downmean FAC_OI_V_DIV_vwap FAC_RKurt_askdommean RPP_30M FAC_PIR_std FAC_PRICE_VOL_CORR_A_mean FAC_BIDDEPTH_biddommean FAC_MCIA_Volraiseap RPP_2H FAC_ASKDEPTH_askdommean FAC_tsi_first FAC_STREN_askdommean FAC_PVcorrsub_a4b4_MADmean FAC_RSI_last FAC_ADTMMA_first FAC_ADTM_last FAC_bid1_vmean_20_min FAC_CMF_min FAC_ORDER_SLOPE_B_min FAC_MPB_askdommean FAC_ask1_vmean_20_min FAC_ask4_vmean_20_min FAC_ask2_vmean_20_biddommean FAC_ORDER_SLOPE_B_askdommean FAC_OI_V_DIV_std FAC_RKurt_biddommean FAC_bid4_vmean_20_askdommean FAC_ask3_vmean_20_biddommean FAC_BIDDEPTH_min FAC_VOI_max FAC_ASKDEPTH_min FAC_NR_min FAC_Depth_Reversal_first FAC_OI_V_DIV_askdommean FAC_bid2_vmean_20_biddommean B_P_volumediv5_diff5 FAC_LVC_MADmean FAC_ask4_vmean_20_askdommean FAC_AVGDEPTH_askdommean FAC_RKurt_min M_P_volumediv5_diff5 FAC_LVC_Mstdwap FAC_RTN_JUMP_biddommean FAC_ask2_vmean_20_vwap FAC_Depth_Reversal_min FAC_CORR_PVOL_RET_biddommean FAC_bid2_vmean_20_min FAC_ask5_vmean_20_min FAC_MOFI_kurtosis FAC_PVcorrsub_a4b4_last FAC_RTN_JUMP_Volraiseap FAC_PRICE_VOL_CORR_A_MADmean FAC_PRICE_VOL_CORR_A_max FAC_MFI_max FAC_VOI_biddommean FAC_PVcorrsub_a4b4_Mstdwap FAC_CORR_PVOL_RET_Volraiseap FAC_AVGDEPTH_min FAC_ask1_vmean_20_askdommean FAC_RKurt_vwap FAC_PVcorrsub_a5b5_askdommean FAC_ASKDEPTH_biddommean FAC_ask3_vmean_20_Volraiseap FAC_ORDER_SLOPE_B_max FAC_OI_Price_Accel_askdommean FAC_ask_amount_sub20_askdommean FAC_OFI4_max FAC_PVcorrsub_a1b1_max FAC_Depth_Reversal_TrendRevmean FAC_ORDER_SLOPE_B_Volraiseap FAC_PVcorrsub_a5b5_Volraiseap FAC_OFI2_vwap FAC_PRICE_VOL_CORR_A_biddommean FAC_Momentum_Decay_vwap FAC_STREN_downmean FAC_bid4_vmean_20_biddommean FAC_ask5_vmean_20_biddommean FAC_Momentum_Decay_TrendRevmean FAC_PVcorrsub_a3b3_askdommean FAC_ORDER_SLOPE_B_biddommean FAC_SOIR_vwap FAC_ask5_vmean_20_askdommean FAC_LVC_TrendRevmean FAC_NR_askdommean FAC_Depth_OI_Pressure_askdommean FAC_ask1_vmean_20_biddommean FAC_RTN_JUMP_downmean FAC_CORR_PVOL_RET_kurtosis FAC_RTN_JUMP_mean FAC_LVC_std FAC_bid5_vmean_20_biddommean FAC_bid5_vmean_20_askdommean FAC_VOL_FLU_min FAC_PVcorrsub_a5b5_TrendRevmean FAC_CORR_PVOL_RET_vwap FAC_OI_V_DIV_max FAC_PRICE_VOL_CORR_A_last FAC_bid2_vmean_20_max FAC_ask1_vmean_20_MADmean FAC_fibonacci_retracement_first FAC_PVcorrsub_a1b1_mean FAC_ask1_vmean_20_corrAskwap FAC_Bolling_Volraiseap FAC_PRICE_VOL_CORR_B_Mstdwap FAC_money_flow_power_MADmean day_first4redcorr TS day_first10rev VHF TMB Y_P_vcorr10 before_bot_price_diff CR P_LH_vcorr10 CS_P_cvcorr10_diff M_P_vcorr10 A_P_cvcorr10_diff MAdiff_Vol_div P_LH_volumediv20_diff5 M_P_closepctchg20_sub FAC_MLQSweight_askdommean volatility_rg C_P_cvcorr10_diff B_P_closepctchg20_sub FAC_resiliency_askdommean B_P_cvcorr10_diff Y_P_closepctchg20_sub A_P_vcorr10 FAC_SPREAD_max FAC_PIR_MADmean M_P_oi5_diff P_LH_volumediv5_diff5 B_P_oi5_diff CS_P_vcorr10 M_P_cvcorr10_diff up_shadow_5mean CS_P_oi5_diff PV_corr_std down_shadow_5mean FAC_SPREAD_biddommean A_P_oi5_diff C_P_vcorr10 C_P_oi5_diff A_P_closepctchg20_sub B_P_vcorr10 Y_P_oi5_diff CS_P_closepctchg20_sub FAC_OFI1_first FAC_DBCD_first M_P_closepctchg5_sub FAC_OFI4_MADmean FAC_PRICE_STD_A_TrendRevmean FAC_MPB_MADmean FAC_MAX_skewness FAC_MPB_biddommean A_P_closepctchg5_sub Y_P_closepctchg5_sub FAC_ADTM_first C_P_closepctchg5_sub FAC_Depth_Reversal_std FAC_Bolling_std B_P_closepctchg5_sub FAC_MPC_std FAC_OI_GP_CH_MADmean FAC_RVar_mean FAC_Depth_OI_Pressure_max FAC_RUSHSTOPBID_upmean FAC_CMF_corrBidwap FAC_OFI2_MADmean lastprice_bias1 FAC_Bolling_max FAC_DBCD_last FAC_ADTMMA_last FAC_Depth_Reversal_max FAC_OI_V_DIV_biddommean FAC_OFI2_skewness FAC_CMF_vwap FAC_CMF_Mstdwap FAC_RVar_min FAC_ask_amount_sub20_first FAC_MAX_TrendRevmean FAC_Depth_Reversal_skewness FAC_VOI_first FAC_STREN_std FAC_PVcorrsub_a3b3_biddommean FAC_ORDER_SLOPE_B_last FAC_ORDER_SLOPE_A_max FAC_STREN_upmean FAC_Depth_Reversal_kurtosis FAC_SOIR_askdommean FAC_OI_V_DIV_Volraiseap FAC_CMF_downmean FAC_Momentum_Decay_max FAC_OFI3_askdommean FAC_PRICE_STD_A_Mstdwap FAC_ORDER_SLOPE_A_askdommean FAC_MAX_vwap FAC_MPB_TrendRevmean FAC_OI_GP_CH_biddommean FAC_PRICE_VOL_CORR_B_MADmean FAC_PRICE_VOL_CORR_B_min FAC_MACD_first FAC_MCIB_biddommean FAC_OFI3_MADmean FAC_MCIA_max hour
feature_infos=[-5.6522501768958229:7.4894047912126567] [-0.99965333516236232:0.99926870372085452] [-393.33333333333394:638] [-38.831460674157299:42.442505947660464] [0:1] [-0.31325088339222618:0.28767399636877133] [-78.666666666666671:82.666666666666671] [-0.36042330151769009:0.12310233390471637] [-6.3101013749972186:6.6865213499094942] [-358:514] [0:1] [-6885440:7643758] [-6.6909306667523634:7.4867949226115744] [-0.06230600281674481:0.039340614449550504] [-1.9743409350752517:1.9184915536176799] [-0.031541489603649553:0.042123936698435283] [-2.8086667557937628:1.9184919311314381] [-1.7823482223031044:1.7990999499563343] [-17.115682459191994:18.567016871758348] [0:0.10490201854519321] [-4.197612849114237:4.0991118447204959] [-1.4060429996695556:1.6297636709935102] [-3.5400169448789613:3.7141592911247652] [3.1622776601683813:4253.2338231440435] [-1.5265463270907806:1.4760409738640996] [0:0.104805955135527] [-0.52543109774065:0.4947958337636772] [-5.0832542931832476:12.714129700650588] [0.095384620168577058:0.1048850791542178] [0:0.10477590260224037] [8.3880285823265301e-05:0.01] [-1355.2699843812213:104.95508732809091] [0:5.071720141410113] [-1681.4949738175894:431.58445636787815] [0:1] [-3529.7843552508989:30.931905988501615] [-4.63033389926429:4.8673565189525334] [-2.0290905601527172:239.95078652714091] [0:10.123715130410853] [-1:1] [-1.4912742810190964:140.56833478426697] [0:592.92601003048958] [0:7.0327662162089206] [-3844.4742582459289:99.103824421296338] [-1737.0365016242035:654.58617582014585] [0:5.8857282080275501] [0:3386.9027953829077] [-2.0000026355654739:2.0000055822418976] [-3.3987900086954499e-05:6.063639418322574e-05] [-12.531022143993706:12.322219853314031] [-0.010010616389006216:0.014007952882901473] [0:7.5388853608924169] [-5.1343545454546984:11275.347984220776] [-5.1343545454546984:9622.8823529411766] [0:99.96578569142217] [0:4.3278759442514287] [-4.9502637609720228:7.4607543842888715] [0:4.2549724478208848] [0:0.01] [-0.00039084320734783518:0.00071896344227195819] [-100:100] [-39.987370754748333:21.694991084893292] [9.497719450936847e-06:0.085542525605743033] [0:118.88452313289461] [0:1] [0:0.45682550562682461] [-0.99326736601130572:0.99995140220775325] [962.86073449097637:127525.14235558276] [0:0.010000000000000002] [0:1] [834.09847965417293:87288.571666024276] [-99.999358134441337:100] [-1:1] [-2.0000034528066029:2.0000017871497473] [0:99.966578085469408] [-6761.5676672203672:9345.7721529900118] [-2178.9486035293357:603.54545571921381] [0.0022617145634120732:3.0898684710904432] [-3427.9849284558804:26.808672013292068] [-431.33333333333331:-0.0004979459728619445] [-3.2812291338577779:6817.9821259335777] [0.0020873709837687993:10.781532453286358] [0:3.9980748823408834] [0:4.3797623440027422] [-21.917915404565761:0] [3.8384267094045639e-06:0.084211180830228854] [0:119.99999621458579] [0:3.8548630709909282] [0:3.8368255457703784] [0:93880.679469980852] [-548.66666666666663:2080.5999999999999] [0:72739.21173469942] [-0.11929147686123105:0] [-0.06137228691851776:0.15033476247009361] [0:0.022326554532360592] [0.0053316792068608173:7.6455180421409077] [-2.0315601390351081:2.0902586788579014] [0:4073.1945661432405] [0.0044092667537070831:6.8261000044284392] [1.5:5891.0970149253735] [1.9730135280729759:119.99996587577098] [-32.055621429520393:29.955413446609146] [0:4073.194566143241] [-1:0] [0:7.5040594019105393] [-1.6840056944208897:0.0069167379156946903] [-3.4225589438256718:115.36348890725333] [0:5.1094629607834294] [0:9.0519007671921461] [-1.0029860080614941:234.96499198781595] [-2.0000267602379438:2.0000378844240547] [-0.37297760247763107:0] [-0.99922567243006843:0.99997341716280019] [-0.99326736601130572:1.0000087873504298] [0:100] [-409.26666666666671:1239.2] [-1.9998108671193686:1.9980724962900214] [0.0070101196632955535:18.948141152421414] [1:7974] [0.0060236676181837203:4.0628991542179573] [0:115.85354965045173] [-2.0000057132910487:2.0000068728656055] [0:49179.967332125088] [0:8.1606446840900766] [-38.455445544554458:-0.00043859649122807018] [-1:0.50249889693946015] [-3340310:12994290] [-1473:6550] [-1.6766533727409167:1.9999151708113359] [-0.0064179979418498056:0.007005829365241978] [-31.106575457570127:0] [-1.9999848961953339:1.9982097929174325] [-1564.3340729001584:1349.2151898734178] [-0.99654847645280253:0.99999680547349157] [-0.46322445853788474:0.42262366231683285] [-0.99163179916317989:0.027027027027027029] [0:6.8461150460970153] [0:8.6787504061871363] [-0.55318142893558453:0.5535772349825312] [-1.9999857375129726:2.0000052277715761] [-16.916558991965708:-0.00048612780803870901] [-1:1] [0.0061224769976859928:9.0543495504619784] [0.05882242475030737:5753.4309658302454] [-0.064306480640366703:0] [-12.841959507337473:-0.004013101159179985] [0:55.253482791224592] [-0.086205945528399067:0] [-0.76749671109527462:194.09781237141135] [-1:-1.4407069947486355e-08] [0:3737.1704125660835] [0:9.2707838138257426] [0:6.5059537398362117] [0:0.6385706784376346] [-2.0000017580427158:1.9999949509436397] [-0.14558884279484272:46.667268977991853] [0:1] [-0.99993767204650841:1.0000000019347635] [0:10.455373548430927] [0.0053977482797177394:70.700083871347147] [-0.016568300988622608:1] [-1.8677920538488215:1.9982825594962843] [0:34.928072726102975] [-1.251686423050838:1.2466650783071223] [-0.99937980625955181:0.92280205466857645] [-1:1] [-0.99349129787651058:0.99976131133531621] [-14:14] [0:4.6958265831975599] [0.80000000000000004:104.2] [-63.451592342590395:119.61766172087235] [-0.8733233024591357:0.99978445389789983] [-0.043062399033544585:0.025396011268945751] [0.87228109314000202:1.1198606271777058] [-0.94254856380449348:0.9915336789762722] [-1.9383330557994096:1.9194971361843045] [-0.94523250684687632:0.99959934631869407] [-1.8888979690646721:1.9210375619413644] [-624.47311970339035:249.25390503661083] [-270.64863726239162:244.5122962621667] [-0.13948597440741395:0.12631542038573618] [9.4034342552089492e-05:0.00041501272162760563] [0.083333333333333329:32.441666666666684] [-1.9247762891548699:1.8680956824350319] [-0.0836017388846646:0.12778914875380853] [43.115238002158172:1000] [-1.8469101801763461:1.8761362590653581] [-0.078509767708137335:0.12510524274098] [-0.9235359852095758:0.9988672968774911] [-2:2] [-1:1] [-0.041027412632996696:0.027161838213751954] [-1904.7807308970098:1588.0017754981259] [-0.06774880296819763:0.04448232280377451] [-0.91925649914807639:0.9989677222846719] [-1.8902902145509215:1.8639649914526681] [0:11.200000000000063] [-0.04026643449749312:0.050981407102057119] [0.0028231610490257117:1.0776318367596289] [0:10.061538461538516] [-1.450070816556682:2] [-0.051004168757557422:0.040081852107555882] [-0.95549566585876966:0.99767807434556943] [-0.037779858519953136:0.027154578782165317] [-0.082521820050267758:0.12747748967484296] [-0.89514799116120192:0.99901301831459899] [-0.037671667471308234:0.03108958336901857] [-0.081850876555109697:0.12987158251662212] [-2109:1586] [-0.37749395811964565:0.00061213467780765664] [-0.041373872933843758:0.024609178025582601] [-1473:2330] [3.1622776601683813:3737.0638499656848] [-5.1343545454546984:12718] [-15.489561228069801:11.862048956703246] [-5.1343545454546984:12053.998392392166] [-0.035022106729232449:0.025500240582705613] [-0.020289584131761851:0.012738145191766193] [-3709.2148721561898:3749.4878083161525] [-0.03808585113747176:0.024916406441152228] [0:0.23912710145811397] [0:1.2408012172407044] [-0.031313723444089225:0.031069680102380981] [0:0.30292484294527178] [-0.31329463043393646:0.79335476706678831] [1.4017372000850678e-05:1] [-12.841471532422917:13.059877148872872] [-0.0017004784407018763:0.004424085223462903] [-3427.1390943843667:3961.6654149701794] [-664:1612] [0:0.82251082251082253] [-2.6366678819005056:4.2469527628539874] [-0.23546305085117125:0.00044221523746412777] [-6760.0462499509658:10207.440911434302] [-0.0073807811894058594:0.47617149809120485] [0:0.021127239035109505] [-15.186612376183673:15.088778625472845] [-2403.5182940502514:2174.3141611162914] [-3427.0490552548249:4799.8706011754366] [2.1839081308122885e-06:1] [-28191216:23438678] [-51.305258099679882:12051.673948667787] [-8.1734871576907544:8.1321712767684833] [-1117.0000000000002:1361.0000000000002] [0:0.8091935996592089] [-2.0000052840343492:2.0000022198409479] [-431.33333333333331:-0.00043871675349602411] [0.00067744940299771365:4] [-0.99047619047619051:0.32500000000000001] [-5.9997576725360711:76.529657708264168] [-0.5667402261747313:1] [8.8160448098519502e-06:0.015416604738620512] [-1817.4058544028333:1499.3749275392063] [-0.76757164513770804:0.9280689891670838] [-1803:1492.5] [0:4482.4315818389241] [-7.1763813465668926:0.22707382341009472] [-68.880027351485367:9412.9182166690516] [-2.2884764581602921:5.2027868719471604] [-1:0.79335476706678831] [-0.99999270221914127:0.99878725874924512] [-1.0000017805173733:0.97605330661245615] [-442.02618063627733:115.02597777777777] [-0.0014590632732676162:0] [-843:960] [0.00028714277029199376:0.01] -1:14:9:22:21:10:11:13
tree_sizes=2670 2967 2594 2883 2802 3053 2997 2763 3272 2802 3070 2937 2677 3099 2968 2944 2893 2605 2794 3224 3171 2989 3274 3056 3081 3299 2280 2881 2673 3017 2773 2661 2685 2963 3317 3003 3168 3064 2958 2733 2864 2969 2964 3042 2092 2860 1707 2876 3062 2365 2385 2399 3079 2581 2982 1910 2577 2856 2777 2772 3193 2888 2591 3195 2563 2196 2381 2784 2687 2705 2865 2373 2797 2785 2869 2491 2753 3272 2801 2598 2684 2370 2688 3180 2288 3090 2792 3030 2379 3163 2894 2941 2681 2978 2563 3167 2796 2296 3179 2205 2974 2858 3184 3192 2640 2779 2964 3106 2934 2370 2806 2387 2789 2774 2666 1825 2384 3094 2796 2974 2466 2974 2983 2486 2678 2407 2975 3177 2741 2414 3141 2279 1783 2552 2558 3162 2658 2863 2557 2791 2605 2680 3007 3190 2787 2312 2772 2776 2692 2390 2688 2914 3068 2868 2586 2290 2268 2196 2399 3190 3058 2406 2268 3205 1817 2592 2750 3246 2667 2493 2640 2972 2572 2752 3083 2296 3202 2805 2888 3179 2667 2623 2364 3093 2457 2595 2963 2461 2880 2592 2587 2475 3162 2503 2485 2332 2785 2869 2634 2997 2026 3071 2318 1817 2353 3165 2870 2589 2873 2313 3277 2971 2547 3282 1810 2773 3199 2983 2863 2597 2773 2160 2402 2057 3103 2981 2688 1909 2505 2806 2775 2673 2310 2772 2368 2706 2191 3126 2431 2389 3068 2682 2012 3059 2905 3185 2662 2860 2652 2866 2681 3060 2589 2489 3172 3010 2881 2890 2964 3153 2978 2680 3180 2942 3296 1878 2470 3048 3180 2872 2964 1901 2462 1919 2481 2796 2261 2876 2769 2670 3063 2676 2775 2476 3289 2117 2854 3184 2188 2868 2494 2297 2572 3082 2570 2864 2864 1911 2803 2563 2887 2656 2695 3120 3193 2387 2482 2502 1727 1913 3056 3064 2763 2789 2564 2957 3275 2873 2887 2002 2561 2435 2710 3177 3161 2297 2379 3053 2467 2595 2581 2603 2286 2271 2780 2997 2895 3068 2484 2969 2315 2863 3281 2106 2488 3102 2849 2409 2159 3202 2575 2695 2783 2570 3068 2712 2493 2590 2866 2476 2901 2994 2503 3203 2987 2790 2968 2169 2664 2342 3056 2784 2178 3000 2881 3082 2979 3074 2111 2520 2574 3191 2606 2604 2909

Tree=0
num_leaves=26
num_cat=0
split_feature=0 28 162 169 23 193 166 110 202 9 25 55 168 44 7 59 26 173 22 13 173 172 249 144 259
split_gain=45.6663 50.8176 85.3583 74.1912 35.047 31.1687 47.126 28.899 24.6651 23.5918 39.9869 26.6411 43.0728 63.5823 26.0578 21.2934 20.6223 20.172 21.6077 19.5241 18.4286 14.3301 8.04332 3.61002 1.84565
threshold=1.2368838907733701 0.099453972164867843 0.14437479412524976 13.700000000000001 3.175446874633109 0.0073642342790307689 0.6269850088206228 0.0032559718151826682 0.37486274960099264 39.000000000000007 0.10080959728701806 0.052219832308105826 3.2736480759809381 46.385205986008827 -0.0069754340304736253 -2.1360929631874054e-07 -0.0025349148548203071 0.98958333333334447 -0.59223551231957738 0.0012529429873110456 1.0396539293439033 0.0040685460769132051 -2.349733163669907 -5.696940302105151e-06 7.2757556643288952e-05
decision_type=10 8 8 10 10 10 8 10 10 10 10 8 10 10 10 2 10 10 10 8 10 10 10 10 8
left_child=1 2 3 22 5 15 -7 -5 16 11 19 12 14 -14 -2 -3 -4 18 -13 23 -10 -19 -1 -11 -21
right_child=9 4 8 7 -6 6 -8 -9 20 10 -12 17 13 -15 -16 -17 -18 21 -20 24 -22 -23 -24 -25 -26
leaf_value=-0.0015322497956862498 -0.00034958900496674314 -0.0013728482538601624 -0.00093835272240164105 -0.0018052094778203784 -0.0023077322412460512 -0.0020452995573881283 -0.0010278177137155308 -0.0024722702867387876 -0.0013913766906382208 -0.00020224160355799127 0.00033315136767578094 -0.001741186029757233 -0.0010726725077174701 0.0012899055052943626 -0.0013971564009886803 -0.0011718542603545699 -0.0013200655200142385 -0.0011167654436165749 -0.0012131715135352118 -0.0012335327027277177 -0.0021266829865592288 -0.0008435673671204813 -0.0009296247028361931 -0.00081556545803983813 -0.0016524425016634196
leaf_weight=807 870 14909 6148 3422 730 2671 1970 3170 3329 500 752 2135 584 564 1850 113077 8313 30104 21068 512 1157 5736 1734 538 604
leaf_count=807 870 14909 6148 3422 730 2671 1970 3170 3329 500 752 2135 584 564 1850 113077 8313 30104 21068 512 1157 5736 1734 538 604
internal_value=-0.00121141 -0.00125667 -0.00144999 -0.00184707 -0.00121592 -0.00120994 -0.00161238 -0.00212689 -0.0012583 -0.00110041 -0.000659695 -0.00112085 -0.000718716 9.35549e-05 -0.00106373 -0.00119531 -0.00115812 -0.00114729 -0.00126199 -0.00100919 -0.0015823 -0.00107289 -0.00112303 -0.000514631 -0.00146492
internal_weight=227254 161437 28080 9133 133357 132627 4641 6592 18947 65817 2906 62911 3868 1148 2720 127986 14461 59043 23203 2154 4486 35840 2541 1038 1116
internal_count=227254 161437 28080 9133 133357 132627 4641 6592 18947 65817 2906 62911 3868 1148 2720 127986 14461 59043 23203 2154 4486 35840 2541 1038 1116
is_linear=0
shrinkage=1


Tree=1
num_leaves=29
num_cat=0
split_feature=3 187 7 169 194 37 7 146 112 6 251 229 3 107 150 6 200 25 174 53 25 154 22 259 161 95 12 221
split_gain=40.8568 62.5795 79.029 75.7331 45.6722 22.8041 29.9688 24.7969 16.1532 15.9297 14.5177 16.4403 14.4395 41.2018 19.9664 14.1486 16.1636 19.1785 12.3645 11.8091 11.8119 11.2573 10.3719 10.1254 12.1539 8.42645 7.34253 6.1759
threshold=-7.1017053396701142 0.00036499423471308973 0.0012515940429542185 16.900000000000002 0.063653929146712876 -1.3043362981090125 -0.0094746033414830327 0.064630149178065213 0.4784950342842304 -4.333333333333333 0.00055334636701299727 -0.19466056898497355 -3.3791459345300923 0.057157625817558191 90.923564450211259 -0.99999999999999989 -0.00023102815310840243 0.099722796993307675 0.17479671506821456 0.14045325053683463 0.10140851440682991 0.01960055658060459 0.018125120136301218 0.00012856163541388112 0.82287483703525299 0.29021945894010787 -0.46731634997787286 0.56382271740306489
decision_type=8 10 8 10 10 8 8 10 10 10 10 2 10 10 8 10 10 10 10 2 10 10 10 10 10 10 10 10
left_child=1 15 3 9 -5 8 7 -7 10 -3 11 -2 13 -8 -14 23 17 -17 -9 20 -10 25 -12 24 -1 -4 -21 -23
right_child=5 2 21 4 -6 6 12 18 19 -11 22 -13 14 -15 -16 16 -18 -19 -20 26 -22 27 -24 -25 -26 -27 -28 -29
leaf_value=-0.00055965403369083986 -0.00078372953675579339 2.0689484826584815e-05 0.00093528728849716499 -0.00062992146569906923 -0.0020947965047093285 0.0015379407417802011 -0.00058508371669479923 0.00067821621987025832 8.7641230495415858e-06 -0.00049993760703317036 -0.00015951451207718383 -0.0002231740222338965 0.00027163607768117178 1.2117760171339786e-05 5.1086821409440139e-05 0.00061394915492210371 -0.00031586882740289513 -0.00032172448600406676 -0.00025665011491979371 0.00033518330491682179 0.00058709834061323519 0.00020150899960954296 0.00047690901685796768 -0.00059903066726002595 0.00024690396648651157 0.00025442752947578249 -0.00021514959248193993 -0.00040727684591189628
leaf_weight=609 1586 1810 690 984 1193 575 3192 888 32898 7405 1550 7791 11427 30108 102046 3336 797 647 577 644 907 930 1082 763 1977 1423 8672 747
leaf_count=609 1586 1810 690 984 1193 575 3192 888 32898 7405 1550 7791 11427 30108 102046 3336 797 647 577 644 907 930 1082 763 1977 1423 8672 747
internal_value=0 -0.000198295 -0.000387946 -0.000596132 -0.00143556 2.2666e-05 5.48647e-05 0.000656759 -6.41572e-05 -0.000397143 -0.000226367 -0.000318591 4.64605e-05 -4.49932e-05 7.33429e-05 0.000155293 0.0003301 0.00046066 0.000306678 -1.88624e-05 2.44458e-05 0.000236494 0.000100298 -9.2738e-05 5.48848e-05 0.000479465 -0.000176537 -6.67689e-05
internal_weight=227254 23311 15182 11392 2177 203943 148813 2040 55130 9215 12009 9377 146773 33300 113473 8129 4780 3983 1465 43121 33805 3790 2632 3349 2586 2113 9316 1677
internal_count=227254 23311 15182 11392 2177 203943 148813 2040 55130 9215 12009 9377 146773 33300 113473 8129 4780 3983 1465 43121 33805 3790 2632 3349 2586 2113 9316 1677
is_linear=0
shrinkage=0.005


Tree=2
num_leaves=25
num_cat=1
split_feature=3 266 91 6 34 6 2 183 6 20 20 39 224 6 1 159 32 264 84 17 43 23 124 158
split_gain=47.0857 51.1563 60.7835 66.7497 83.5091 54.0283 33.6663 32.1974 26.6565 26.1677 29.1441 24.9876 20.6962 24.3178 23.7614 39.1892 22.1332 21.0027 19.7856 19.8021 17.2202 16.7422 10.2199 9.58883
threshold=6.006012024048097 0 3681.468101967298 2.3333333333333335 0.34250359494437305 -12.33333333333333 -105.66666666666696 0.6380905340539742 1.0000000000000002 -0.53473999316408494 0.020931671315572713 0.55000000000000016 2.5944680549098568e-06 -4.333333333333333 0.76142127168038065 0.20298255527198097 0.28373358159512657 -0.035346173867777192 -0.021690102334046869 0.10377568561635682 31.892015877376959 3.1660927268292665 -0.0042632563644976265 0.68502789817414211
decision_type=10 1 2 10 10 8 10 10 10 10 8 10 8 10 10 10 10 2 8 10 10 10 8 10
left_child=1 2 3 5 -5 -1 8 11 -2 10 -4 21 14 -14 15 -8 -16 -15 19 -9 -13 -3 -20 -11
right_child=6 7 9 4 -6 -7 12 18 -10 23 -12 20 13 17 16 -17 -18 -19 22 -21 -22 -23 -24 -25
leaf_value=-0.00083045700269841467 0.0014717198393103528 6.250168389022344e-05 -0.00025552893692504236 -0.0014091529092198094 -0.00023936305902589353 0.00011419009683923249 -0.00021933792919107923 0.00090632231253519552 7.5330930139773104e-05 5.6060380985221488e-05 -0.0014521881638101472 3.8725092140974388e-05 0.00044819020380613457 -0.001370900374573075 0.00062552685255907851 0.00022114772316339949 0.00012575980500721139 -0.0001999155888712556 7.8710216385642203e-05 0.00018675893177219787 -0.00018407012803709429 -0.0005229520035255963 0.00041563585622684613 -9.0195088740886289e-05
leaf_weight=2043 862 64927 6240 3079 3048 5811 7339 1847 579 21129 556 13073 712 631 4654 16136 4285 1004 13940 2027 25573 1242 2700 23817
leaf_count=2043 862 64927 6240 3079 3048 5811 7339 1847 579 21129 556 13073 712 631 4654 16136 4285 1004 13940 2027 25573 1242 2700 23817
internal_value=0 -3.13295e-05 -0.000144311 -0.000436904 -0.000828167 -0.000130972 0.000165334 2.78883e-05 0.000914554 -6.51747e-05 -0.000354366 -7.51829e-06 0.000134106 -0.000318469 0.000167039 8.3222e-05 0.000386559 -0.000655455 0.000209045 0.00053126 -0.000108576 5.14293e-05 0.000133702 -2.13298e-05
internal_weight=227254 191052 65723 13981 6127 7854 36202 125329 1441 51742 6796 104815 34761 2347 32414 23475 8939 1635 20514 3874 38646 66169 16640 44946
internal_count=227254 191052 65723 13981 6127 7854 36202 125329 1441 51742 6796 104815 34761 2347 32414 23475 8939 1635 20514 3874 38646 66169 16640 44946
cat_boundaries=0 1
cat_threshold=11264
is_linear=0
shrinkage=0.005


Tree=3
num_leaves=28
num_cat=0
split_feature=226 0 182 189 26 3 167 215 0 94 60 169 8 166 19 69 166 12 1 172 29 19 166 22 80 187 215
split_gain=36.1012 52.2943 70.4487 57.9911 62.225 47.382 26.6844 23.3388 23.6739 21.0922 19.8469 29.9555 18.9276 20.1394 18.4069 17.7082 32.0224 17.3133 15.4607 15.0622 14.3654 12.7744 22.0327 12.2443 9.24066 8.38287 6.05482
threshold=6.1872738297421561 1.4861962974178236 1.7124999999999775 -0.00025696041741090275 1.0000000180025095e-35 6.9350761569788375 9.0000000000000018 -1.0000000180025095e-35 0.79689646201047915 0.0002130629094427686 -25.842081744050212 18.100000000000005 0.76954486780729314 0.69875442967589274 0.099932910684210507 0.38010416666666674 -0.16915836265387676 -0.065275249319707837 -0.53862548034898572 0.00039933781685796982 0.10037218674430134 0.099354632634902684 1.0000000180025095e-35 -0.95906969305653644 1.0000000180025095e-35 0.0013384207274920736 -0.16475318797320412
decision_type=2 8 10 2 10 10 10 8 8 8 10 10 10 10 10 10 8 10 8 10 2 8 10 10 8 10 10
left_child=5 2 15 9 -5 7 12 21 17 -4 24 25 18 -14 -10 16 -2 -9 -7 -13 -17 22 -1 -23 -3 -12 -26
right_child=1 10 3 4 -6 6 -8 8 14 -11 11 19 13 -15 -16 20 -18 -19 -20 -21 -22 23 -24 -25 26 -27 -28
leaf_value=0.00012970471030501488 0.00042741655931122832 -0.00065575850781663292 0.0011079675284233295 -0.00038077523261187841 -0.0012129520424226205 0.00082997091014845137 0.0010434349767831006 -5.2672834858745773e-06 0.00016075675376744811 -0.00024116121620114652 5.0896184339463604e-05 0.00056108117680524628 0.00019815302630677171 -0.00020878516194738274 -6.2587642505536285e-05 -0.00042350795520703385 -0.00013049972247520907 -0.00019506723575585149 0.00028040723088697316 0.0016825063309539689 4.1726589346689628e-05 -0.00023631556178447787 -0.00038231035133811471 9.8352697232856367e-05 0.00048238102825890573 0.00057511440623358534 -0.00018374903724666141
leaf_weight=4243 4085 683 637 6207 3545 1539 966 18836 16804 521 3084 686 10911 4204 20414 4324 6922 33449 8039 560 2662 2845 4142 64418 518 1024 986
leaf_count=4243 4085 683 637 6207 3545 1539 966 18836 16804 521 3084 686 10911 4204 20414 4324 6922 33449 8039 560 2662 2845 4142 64418 518 1024 986
internal_value=0 -0.000144197 -0.000241024 -0.000558059 -0.00068389 2.75419e-05 0.000227433 -3.48555e-06 -5.81586e-05 0.000496978 0.000226241 0.000390449 0.000195267 8.46325e-05 3.81201e-05 -4.84928e-05 7.61241e-05 -0.000126788 0.000369311 0.00107005 -0.000245535 6.11348e-05 -0.000122638 8.41197e-05 -0.000173466 0.000182893 4.25219e-05
internal_weight=227254 36444 28903 10910 9752 190810 25659 165151 89503 1158 7541 5354 24693 15115 37218 17993 11007 52285 9578 1246 6986 75648 8385 67263 2187 4108 1504
internal_count=227254 36444 28903 10910 9752 190810 25659 165151 89503 1158 7541 5354 24693 15115 37218 17993 11007 52285 9578 1246 6986 75648 8385 67263 2187 4108 1504
is_linear=0
shrinkage=0.005


Tree=4
num_leaves=27
num_cat=1
split_feature=3 266 2 194 196 0 25 123 25 180 166 176 168 32 0 122 1 193 88 3 123 111 7 181 189 64
split_gain=39.5794 49.7521 95.8222 60.0568 34.0379 26.8353 32.7008 26.5197 23.5705 22.312 50.4189 25.6452 68.2112 73.4769 20.4613 19.2126 76.3446 18.2028 42.9785 27.2002 18.0905 15.8176 16.3315 14.5944 13.0395 10.4099
threshold=-3.7773406361696087 0 -74.333333333333016 0.23292164817992941 1.5674458874459403 -1.4152238169378939 0.099119818283784231 0.15026722396013895 0.099404085145006149 0.0046569228321010634 0.97210636694562558 -1.0000000180025095e-35 2.5969602643335894 0.028493121498029898 1.4861962974178236 7338.5733406567269 0.89266235020205154 0.0014004035505278403 0.23377211526327765 8.0772172753304776 0.069220644676915591 -0.016659555357171139 -0.003178534359783491 0.00014139252987245969 -0.00023721838030282049 0.28614982578397213
decision_type=8 1 10 8 10 10 8 8 10 10 8 8 10 8 10 8 8 10 10 10 10 10 8 8 2 10
left_child=1 2 3 -1 5 6 -3 8 -6 11 21 12 20 -14 -7 16 -4 19 -19 -13 -2 25 -23 -9 -17 -11
right_child=9 4 15 -5 7 14 -8 23 -10 10 -12 17 13 -15 -16 24 -18 18 -20 -21 -22 22 -24 -25 -26 -27
leaf_value=-0.0022271912119226824 -0.00088500816896975828 -0.000673057421048948 -0.00081265555886618046 -0.00015760151374030089 -0.0014548279606551035 3.7583355797499247e-05 -1.2560781224622653e-05 -0.00057423767329208486 -0.00015041809553235358 -0.00078965419935685317 0.0014314831694712824 -1.3886417513723688e-05 0.0017684011375184963 0.00035534876492162139 0.00034929358826446598 -0.00016547467686952336 0.00066038992255270214 -0.00036098992360192246 3.3396807509668592e-05 0.00026512632291115379 5.4375984147197533e-05 -0.00019295811903080403 0.00042993304465119037 2.5067467922781362e-05 0.00035361828993240614 0.00011997528557876343
leaf_weight=1021 517 2590 3844 542 902 22050 6830 1526 577 648 878 66064 1073 6559 6935 9917 1136 11528 17184 10061 44373 1397 4145 2991 1372 594
leaf_count=1021 517 2590 3844 542 902 22050 6830 1526 577 648 878 66064 1073 6559 6935 9917 1136 11528 17184 10061 44373 1397 4145 2991 1372 594
internal_value=0 -0.000107449 -0.00033045 -0.00151328 -1.76924e-05 3.68889e-05 -0.000194745 -0.000368102 -0.000949764 4.05224e-05 0.000304048 2.76574e-05 0.000117849 0.000554874 0.000112346 -0.000216623 -0.000475567 -1.74806e-05 -0.000124784 2.29264e-05 4.34262e-05 0.000157207 0.000272009 -0.000176374 -0.000101919 -0.000350845
internal_weight=227254 62233 17832 1563 44401 38405 9420 5996 1479 165021 7662 157359 52522 7632 28985 16269 4980 104837 28712 76125 44890 6784 5542 4517 11289 1242
internal_count=227254 62233 17832 1563 44401 38405 9420 5996 1479 165021 7662 157359 52522 7632 28985 16269 4980 104837 28712 76125 44890 6784 5542 4517 11289 1242
cat_boundaries=0 1
cat_threshold=3072
is_linear=0
shrinkage=0.005


Tree=5
num_leaves=30
num_cat=2
split_feature=3 7 169 266 0 30 29 192 51 21 6 27 149 2 9 124 47 175 2 0 20 15 201 186 266 184 181 35 91
split_gain=39.7759 89.8138 64.8712 54.3642 30.9598 52.4407 89.4186 29.7386 26.4809 36.51 85.952 23.0778 22.6244 21.308 21.1436 26.3751 19.1046 18.0838 17.5236 15.4212 14.9477 13.3996 17.4114 14.6369 12.7362 25.9214 10.3749 8.35954 5.77333
threshold=-7.1017053396701142 0.0015830597460760878 14.300000000000002 0 -0.22737639332436008 0.00034124629059685199 0.10004143475446083 -2.0710221923345427 0.096686652330034747 -0.0086753400221330022 -2.9999999999999996 -0.078170819708346245 -0.0037379841197474812 -42.999999999999993 21.000000000000004 -0.0087479523143331999 -0.3543594526756409 0.050871461712462721 1.0000000180025095e-35 1.4861962974178236 -0.80447173693677831 -0.0013277837517328137 0.0001802781989901914 -0.19389985551322544 1 0.0039782188532311311 0.00016578803282281071 -3.7235929811736388 6246.9416618054011
decision_type=8 8 10 1 10 10 2 8 8 10 10 8 10 10 10 10 8 10 10 10 10 10 10 10 1 10 10 10 2
left_child=1 2 24 18 5 6 12 26 9 10 -6 -8 -2 -5 20 -16 -11 -9 -4 21 -10 23 -23 -3 27 -26 -7 -1 -21
right_child=4 19 3 13 8 7 11 17 14 16 -12 -13 -14 -15 15 -17 -18 -19 -20 28 -22 22 -24 -25 25 -27 -28 -29 -30
leaf_value=-0.00011325417109726446 -0.0016307699199883373 -0.00020326727670457243 -0.0022059289321793049 0.00011957767581636757 0.0017452884313720429 -0.00014513056667310841 0.0008553716405113736 -3.5945252657279581e-05 -0.00021375533007842102 -0.00056673851452752476 -2.1956315039977297e-06 -0.00017067314429537072 -0.00069316269748281607 -0.00080157766778556115 0.00040550623791515825 0 0.00023610163381479528 0.0001349239872744596 -0.0010750959021034166 0.0011919498103441799 4.2381465743846572e-05 0.00031388155763289782 -0.00069398394542223379 0.00049486570468743388 -0.00013090530327672235 -0.00072767420302168517 -0.00054762559774371763 0.00044455257697019912 0.00045644768627244053
leaf_weight=1956 1377 973 823 894 1312 19209 727 35607 6108 866 1504 2203 1260 2038 8832 7372 5014 27358 633 543 83435 837 868 3154 6434 2553 1759 1016 589
leaf_count=1956 1377 973 823 894 1312 19209 727 35607 6108 866 1504 2203 1260 2038 8832 7372 5014 27358 633 543 83435 837 868 3154 6434 2553 1759 1016 589
internal_value=0 -0.000195653 -0.000398341 -0.00091859 2.23647e-05 -4.72628e-05 -0.000517193 -1.60285e-05 7.68603e-05 0.000342181 0.000810529 8.24111e-05 -0.00118509 -0.000517294 5.49916e-05 0.000221225 0.000116934 3.82182e-05 -0.00170709 0.000279398 2.48516e-05 0.000174572 -0.000196389 0.00032905 -0.000206972 -0.000300717 -0.000179159 7.55855e-05 0.000814409
internal_weight=227254 23311 16347 4388 203943 89500 5567 83933 114443 8696 2816 2930 2637 2932 105747 16204 5880 62965 1456 6964 89543 5832 1705 4127 11959 8987 20968 2972 1132
internal_count=227254 23311 16347 4388 203943 89500 5567 83933 114443 8696 2816 2930 2637 2932 105747 16204 5880 62965 1456 6964 89543 5832 1705 4127 11959 8987 20968 2972 1132
cat_boundaries=0 1 2
cat_threshold=10240 16384
is_linear=0
shrinkage=0.005


Tree=6
num_leaves=30
num_cat=6
split_feature=1 42 9 266 3 24 168 0 117 14 12 3 27 266 152 266 238 128 266 172 230 122 172 226 195 13 266 44 266
split_gain=36.037 45.577 73.4465 66.0832 54.1021 75.3986 44.0904 38.2393 36.2812 89.9158 51.092 33.7033 26.1843 25.0875 26.2717 22.2182 14.6176 14.4516 25.224 20.8914 12.4734 12.3726 12.1717 12.0868 8.24524 5.98161 5.68753 4.58297 4.05702
threshold=0.81260235827274174 0.18504159029233011 -12.999999999999998 0 -3.3791459345300923 -0.029460161787405594 2.9913779279524753 0.79689646201047915 2.4899399577000594 0.28441024433563394 0.085503001723191599 6.006012024048097 -0.13866739751694707 1 0.27648197678101771 2 -2.4947245371953151 1.7914052094799382 3 0.0023454418946867732 0.27695919104369815 4427.731459009613 -0.0012174227736853058 4.1929978809341071 0.048817403710633082 -0.0011565255617738133 4 73.111027060229148 5
decision_type=10 8 8 1 10 10 10 10 8 10 10 10 8 1 8 1 8 10 1 10 10 10 10 2 8 10 1 10 1
left_child=1 2 4 7 5 -1 11 -4 9 10 -8 17 -5 21 -15 -6 25 18 -2 -19 24 -13 -10 -22 -18 26 -3 -24 -27
right_child=6 16 3 12 15 -7 8 -9 22 -11 -12 13 -14 14 -16 -17 20 19 -20 -21 23 -23 27 -25 -26 28 -28 -29 -30
leaf_value=0.0001839881355361785 -0.00097393791333371521 0.00083491821806432292 -4.0575083998526625e-06 0.00029188318011392009 0.00031072154899919671 -0.00079503991603360096 -0.00016503632487196627 0.00050134213006367587 0.0005655525215037796 0.00237813372421183 0.0014832548624703807 -0.00073505004422157508 -0.00026379812423939051 0.0010460238145275345 0.00031237148534243972 -0.000251312795093652 -0.00010339150725285299 -2.0124474968760678e-05 -5.7024996479756798e-05 0.00027482653727136578 0.00010633410811791267 0.00012580017455125737 -0.00064426852544936678 -4.9931377497910949e-05 1.9362461636329679e-05 0.00043449626004757699 0.00030213989319214925 0 -6.4386031547190102e-05
leaf_weight=2446 957 684 7783 2391 2557 9865 1398 7174 644 778 704 537 18163 1795 3911 5547 28752 27880 3417 7642 41480 1843 512 17585 25985 552 2219 621 1432
leaf_count=2446 957 684 7783 2391 2557 9865 1398 7174 644 778 704 537 18163 1795 3911 5547 28752 27880 3417 7642 41480 1843 512 17585 25985 552 2219 621 1432
internal_value=0 -3.45705e-05 -0.000152259 -1.47246e-05 -0.000391238 -0.000600117 0.000114675 0.000237877 0.000579256 0.00092585 0.000385073 6.9469e-05 -0.000198806 0.000363815 0.000543232 -7.32713e-05 2.08429e-05 9.6788e-06 -0.000261315 4.31948e-05 9.29755e-06 -6.62825e-05 1.45108e-05 5.97256e-05 -4.50265e-05 0.000288615 0.000433554 -0.000294516 7.39105e-05
internal_weight=227254 174615 55926 35511 20415 12311 52639 14957 4657 2880 2102 47982 20554 8086 5706 8104 118689 39896 4374 35522 113802 2380 1777 59065 54737 4887 2903 1133 1984
internal_count=227254 174615 55926 35511 20415 12311 52639 14957 4657 2880 2102 47982 20554 8086 5706 8104 118689 39896 4374 35522 113802 2380 1777 59065 54737 4887 2903 1133 1984
cat_boundaries=0 1 2 3 4 5 6
cat_threshold=4203008 9216 16896 10240 1536 24576
is_linear=0
shrinkage=0.005


Tree=7
num_leaves=27
num_cat=4
split_feature=7 19 266 266 168 159 2 1 266 2 263 176 257 200 44 173 19 184 266 166 4 169 28 170 20 230
split_gain=37.0843 38.008 43.7324 49.5849 51.8499 38.7837 73.6641 28.7274 28.457 37.2109 20.2428 19.6701 29.9734 40.1226 25.4716 20.7479 24.5634 38.3446 24.4616 25.4326 18.3176 24.0989 15.497 14.2538 14.0695 11.2982
threshold=-0.0021885907855987425 0.098964454621276191 0 1 1.245789481550599 0.038404730867331212 1.0000000180025095e-35 0.20016863933194937 2 -25.666666666666512 -0.00063268989707656632 0.14499401428560918 15.188697264186507 -0.00026828177780590718 76.412453841382487 0.99933687002653937 0.10072432728549237 -0.0032373102994863174 3 0.93981333422298274 0.61581151187672234 19.700000000000006 0.10047770097756771 -0.0012166437128858154 -0.53473999316408494 0.36749562351971998
decision_type=8 8 1 1 10 10 10 8 1 10 8 8 10 10 10 10 10 10 1 10 8 10 8 10 10 10
left_child=1 2 10 7 -5 6 -3 -4 9 -7 -1 15 20 -14 -15 18 24 -18 19 -2 22 -22 -13 -10 -17 -20
right_child=11 5 3 4 -6 8 -8 -9 23 -11 -12 12 13 14 -16 16 17 -19 25 -21 21 -23 -24 -25 -26 -27
leaf_value=0.00076269007836700527 -0.00039509632370343824 0.0018616215028043732 -0.00054028119234832616 0.00024154010062890408 -0.0012913533765905444 -0.00074048501934933207 -0.00036568543877886392 0.00093083331298399316 0.00015005335103566523 -0.00013025638428276629 -0.00034069770894110189 -0.00010650655942067238 0.00056661602890988884 -0.001168057505289773 -0.00019400743576927147 -9.6115646616721888e-05 0.0016455397037890599 0.00016476778615724501 5.8376330081065442e-06 0.0004759974043628714 9.1343655587076321e-05 -0.00059085734447738084 0.00013728837050993475 -0.00011066376658296802 0.0001833133299585782 0.00018445113202763893
leaf_weight=853 5653 725 742 668 3022 3339 753 597 9907 10035 802 41326 729 1568 1198 5232 711 1156 28589 978 44169 1331 7722 11124 31460 12865
leaf_count=853 5653 725 742 668 3022 3339 753 597 9907 10035 802 41326 729 1568 1198 5232 711 1156 28589 978 44169 1331 7722 11124 31460 12865
internal_value=0 -0.000133041 -0.000479313 -0.000710707 -0.00100977 -6.83889e-05 0.00072401 0.000111266 -0.000102595 -0.000282815 0.000223744 3.06643e-05 -1.78018e-05 -0.000472445 -0.00074821 8.55639e-05 0.000171979 0.000731938 1.61621e-05 -0.000265413 -9.38045e-07 7.1265e-05 -6.80201e-05 1.19092e-05 0.000143331 6.13782e-05
internal_weight=227254 42567 6684 5029 3690 35883 1478 1339 34405 13374 1655 184687 98043 3495 2766 86644 38559 1867 48085 6631 94548 45500 49048 21031 36692 41454
internal_count=227254 42567 6684 5029 3690 35883 1478 1339 34405 13374 1655 184687 98043 3495 2766 86644 38559 1867 48085 6631 94548 45500 49048 21031 36692 41454
cat_boundaries=0 1 2 3 4
cat_threshold=16384 1024 3072 1024
is_linear=0
shrinkage=0.005


Tree=8
num_leaves=32
num_cat=4
split_feature=3 187 266 173 266 58 266 266 161 12 152 205 215 172 2 70 192 187 192 12 195 235 17 125 48 1 28 193 214 20 172
split_gain=36.5265 69.7922 64.8484 42.0311 37.3739 34.1601 45.4612 28.9427 27.3499 24.9719 35.0161 26.9553 20.4154 26.0771 25.2223 20.1033 33.1368 19.8104 17.9646 19.6976 19.686 17.1834 17.0351 15.7141 7.55894 13.5843 16.4306 12.8248 12.3191 10.8882 10.1113
threshold=-1.3607370715592231 0.0028715585739006459 0 1.0396539293439033 1 0.00061206511637372605 2 3 0.53288585860474991 -0.12926803430895331 0.099565689735215693 0.7024738901885258 -0.046444876465378114 0.0065246744590720116 -12.666666666666513 7063.5980658414755 -6.5108224857071884 0.00036499423471308973 -23.214696335331286 0.19961231107739544 0.44739435922927795 1.7908606304452643e-05 -0.024741669556797238 -3.0728257966904756e-05 4.9052445512768406e-07 0.31496371072028934 0.10067622172918167 -0.0043982090436059376 -0.78986487685622231 0.80901483732579416 -0.0012174227736853058
decision_type=8 10 1 10 1 10 1 1 10 8 8 10 8 10 10 8 10 10 8 10 10 8 10 8 2 10 10 8 10 8 10
left_child=1 4 3 8 15 7 -7 -4 -3 10 -6 -11 13 18 17 16 -1 -15 19 -2 -20 -17 -16 -5 27 29 -27 30 -29 -26 -14
right_child=12 2 5 23 9 6 -8 -9 -10 11 -12 -13 24 14 22 21 -18 -19 20 -21 -22 -23 -24 -25 25 26 -28 28 -30 -31 -32
leaf_value=7.3012794497498334e-05 -0.0003506969303984787 -0.001629271605368444 0.00025911017646347708 -0.0023143791334374066 0.0010190452263590056 -0.00059461124780814324 0.00066038371997763172 -0.00078687955385859406 -0.00044610921615698454 2.0822540245497082e-05 0.00013577974550638047 -0.00034032000908370267 0.00077664041659917637 0.0013291885751741787 -0.00033393730443206921 0.00023414014137066431 -0.00095372716753370373 0.00014352994201090042 8.1453950488114425e-05 0.00065414412854839237 0.00035473839421507134 -0.0001961602485927822 0.00060973158294961389 -0.0011000600954471989 1.7140981641657187e-05 8.3603610243425852e-05 0.00051096105946738641 4.2499934742223112e-05 -0.00013406707261550335 -0.00042207188432405218 9.8905093800959258e-05
leaf_weight=1264 3573 573 936 559 1204 1051 2233 2181 3497 42853 16861 5872 772 1211 939 2680 2039 511 36418 561 8071 16839 966 559 17330 8343 3099 16728 24007 1534 1990
leaf_count=1264 3573 573 936 559 1204 1051 2233 2181 3497 42853 16861 5872 772 1211 939 2680 2039 511 36418 561 8071 16839 966 559 17330 8343 3099 16728 24007 1534 1990
internal_value=0 -7.07453e-05 -0.000435877 -0.000850698 -2.34648e-05 -9.73236e-05 0.000257359 -0.000472887 -0.00061427 3.61686e-05 0.000194978 -2.26033e-05 5.67983e-05 0.000132425 0.000541668 -0.000198128 -0.000559395 0.000980536 0.000101784 -0.000213002 0.000131151 -0.000136814 0.00014203 -0.00171321 3.18845e-06 6.38716e-05 0.000199822 -3.89774e-05 -6.14371e-05 -1.83308e-05 0.000290359
internal_weight=227254 101201 11589 5188 89612 6401 3284 3117 4070 66790 18065 48725 126053 52250 3627 22822 3303 1722 48623 4134 44489 19519 1905 1118 73803 30306 11442 43497 40735 18864 2762
internal_count=227254 101201 11589 5188 89612 6401 3284 3117 4070 66790 18065 48725 126053 52250 3627 22822 3303 1722 48623 4134 44489 19519 1905 1118 73803 30306 11442 43497 40735 18864 2762
cat_boundaries=0 1 2 3 4
cat_threshold=10752 9216 1024 1024
is_linear=0
shrinkage=0.005


Tree=9
num_leaves=27
num_cat=1
split_feature=9 200 194 187 3 13 3 266 176 192 2 176 2 169 91 214 8 52 190 72 39 3 169 85 35 202
split_gain=64.2381 46.6648 71.6116 43.7368 40.548 39.3284 38.4002 46.1781 42.0804 31.0205 28.3711 27.0733 28.9775 44.6817 32.1145 18.4826 23.2741 18.247 17.8956 16.4132 13.5791 21.2093 12.6622 8.59934 7.99791 6.80045
threshold=-38.999999999999993 -0.00025768509387755922 0.44044278150650279 0.00050800300992454039 -7.1017053396701142 -0.00094293664539024647 -3.7773406361696087 0 0.32647852578924869 -6.5108224857071884 -5.6666666666669689 0.037587701148434384 -36.666666666666508 22.100000000000005 1823.0809683050936 -0.37188860560420522 -1.124244812076834 -0.013758728115827257 -0.00047415799447109787 0.016985214569058785 -0.54999999999999993 6.006012024048097 18.100000000000005 4.3896949906938028e-05 5.1703945856049085 -0.03368796967743929
decision_type=8 10 10 10 10 10 10 1 10 10 10 8 10 10 2 10 8 8 2 10 10 10 10 10 8 8
left_child=1 3 6 -1 -4 18 8 -8 -3 -6 -7 12 13 14 -2 16 24 23 -5 -18 22 -22 -17 -14 -13 -19
right_child=11 2 4 5 9 10 7 -9 -10 -11 -12 15 17 -15 -16 20 19 25 -20 -21 21 -23 -24 -25 -26 -27
leaf_value=0.0010618393579249377 -0.0010972416766282687 -0.00083485826718351854 -0.0022484553393820944 0.00089531087228942056 -0.001440903778842944 -0.0011375038684619105 -0.0004958434652830374 0.00095462428203163801 4.9455482845438843e-05 0.00015470737952958134 -2.4714753060358193e-05 0.00033156337541599034 -1.5504999302195435e-05 0.0011649327614096207 -0.00011574086074472822 8.6627874637072846e-05 5.639083899132793e-05 -9.2714896795232822e-06 -7.4953455320941526e-05 -0.00011441110015734599 -0.00017824195726060381 0.00010544385872766587 -0.00058556228967718098 0.00025997278128490035 0.00010693533335434198 0.00012799020498512284
leaf_weight=917 901 3682 782 911 738 1149 1034 1142 2103 509 1160 6593 3134 640 11314 13078 33106 17061 974 24437 37514 7968 738 26485 10181 19003
leaf_count=917 901 3682 782 911 738 1149 1034 1142 2103 509 1160 6593 3134 640 11314 13078 33106 17061 974 24437 37514 7968 738 26485 10181 19003
internal_value=0 -0.000315076 -0.00051393 7.26505e-05 -0.00135294 -0.000142641 -0.000299322 0.000265285 -0.00051257 -0.000785999 -0.000580876 2.24294e-05 9.61124e-05 -0.000120768 -0.000188631 -2.0844e-05 3.16356e-05 0.000138636 0.00039154 -1.60581e-05 -8.66994e-05 -0.000128432 5.03203e-05 0.000230656 0.000195538 6.29179e-05
internal_weight=227254 15101 9990 5111 2029 4194 7961 2176 5785 1247 2309 212153 78538 12855 12215 133615 74317 65683 1885 57543 59298 45482 13816 29619 16774 36064
internal_count=227254 15101 9990 5111 2029 4194 7961 2176 5785 1247 2309 212153 78538 12855 12215 133615 74317 65683 1885 57543 59298 45482 13816 29619 16774 36064
cat_boundaries=0 1
cat_threshold=2106368
is_linear=0
shrinkage=0.005


Tree=10
num_leaves=30
num_cat=3
split_feature=169 28 266 266 56 26 205 172 183 148 209 178 209 7 20 266 128 9 22 12 204 143 52 182 195 70 170 70 72
split_gain=59.0961 112.19 86.7134 68.3187 63.3395 55.8137 47.7925 44.4498 43.442 34.5076 33.4177 23.8604 37.76 31.9669 23.4412 19.3651 21.4178 34.4764 18.8525 17.7693 26.3936 23.5459 14.1946 13.9995 10.5789 9.39059 8.86551 14.3343 11.0921
threshold=15.900000000000002 0.099331621020129227 0 1 0.098448763671192763 -0.0089886430724234381 0.3333813300717508 -0.0012174227736853058 -0.11339160140378991 6.6697583605841926 1.0022874480688439e-05 -2.3521630436459735 5.4001976170652839e-06 -0.0026507256408000997 -0.17770976727823487 2 1.6332600508075441 -10.999999999999998 -0.2411481627957977 -0.28306504080965017 0.0027603611722102355 201.5810631056865 -0.087472762472587159 0.90833333333335997 0.25974940770199278 10862.753648011758 0.011442398913096482 4927.1802023570008 0.0087912512558930376
decision_type=10 10 1 1 10 10 10 8 10 8 8 10 10 8 10 1 10 8 10 8 10 8 8 10 10 10 10 8 8
left_child=14 3 4 11 7 8 -7 -3 -4 -5 -11 13 -13 -2 15 16 17 -1 -18 20 23 24 -23 -16 -21 -22 27 -17 -28
right_child=1 2 5 9 -6 6 -8 -9 -10 10 -12 12 -14 -15 19 26 18 -19 -20 21 25 22 -24 -25 -26 -27 28 -29 -30
leaf_value=-0.0016567314474752385 -0.0029036845514924816 -0.00082678813435658463 0.0022797269753141447 0.00058364448172232384 -0.0017490135730726035 -0.00026080422462808594 0.00053697870371285114 1.4192845939596337e-05 0.00036605864853805138 -0.00020210885201272732 -0.0011293223614530594 -0.000313118601880581 -0.00187557824123464 -0.0011235779559251018 -7.1498175290614439e-06 0.00079666405905273339 -0.00034645967190114694 -0.00018499386087967386 -3.2808881336516986e-05 0.00010180066616603428 0.00089607841688014317 0.00010352372356450708 -3.3893610512368716e-05 0.00028794841002630387 0.00031236579260494066 0.00035958082444092842 -0.00037993741678969944 5.913430250398814e-05 -5.2196081160275787e-06
leaf_weight=605 502 2230 608 765 762 3395 4183 5275 593 2474 1618 889 697 536 9366 680 6592 1187 17690 18929 1534 25739 69599 6997 8791 1844 2549 21742 8883
leaf_count=605 502 2230 608 765 762 3395 4183 5275 593 2474 1618 889 697 536 9366 680 6592 1187 17690 18929 1534 25739 69599 6997 8791 1844 2549 21742 8883
internal_value=0 -0.000231801 -7.4711e-06 -0.000742217 -0.000374992 0.000338091 0.000178919 -0.000235103 0.00134009 -0.000386508 -0.000570142 -0.00139155 -0.00100367 -0.00199126 2.80465e-05 -5.49034e-05 -0.000157308 -0.000685305 -0.000118174 6.28929e-05 0.000202208 4.05018e-05 3.15406e-06 0.000118742 0.000168768 0.000604885 2.38616e-05 8.17591e-05 -8.92339e-05
internal_weight=227254 24527 17046 7481 8267 8779 7578 7505 1201 4857 4092 2624 1586 1038 202727 59928 26074 1792 24282 142799 19741 123058 95338 16363 27720 3378 33854 22422 11432
internal_count=227254 24527 17046 7481 8267 8779 7578 7505 1201 4857 4092 2624 1586 1038 202727 59928 26074 1792 24282 142799 19741 123058 95338 16363 27720 3378 33854 22422 11432
cat_boundaries=0 1 2 3
cat_threshold=2106368 2107392 3584
is_linear=0
shrinkage=0.005


Tree=11
num_leaves=29
num_cat=5
split_feature=0 42 266 18 266 35 130 266 169 266 233 10 21 40 19 14 171 19 42 266 207 65 4 140 14 96 195 150
split_gain=52.2542 57.5557 64.2258 43.2131 54.5287 38.9499 30.6968 23.6374 44.8288 42.7174 23.617 34.75 84.1157 30.6638 23.0022 19.7496 19.2481 17.1677 28.0204 36.356 23.6769 15.8056 15.7049 13.7296 12.1178 11.5442 15.9586 12.6065
threshold=1.0000000180025095e-35 0.073078742503524044 0 0.059145802250060935 1 -6.8545666461904142 -0.0303454886719642 2 15.100000000000001 3 -7.8498485794324226 0.58934484389782416 -0.030935076990145079 -0.38647371697346927 0.099842392388221388 -0.31220881494300895 0.70294886094204412 0.10145726145711807 0.056879311895199798 4 0.0032407910477733064 2.2542369823944484e-05 0.33347303716121829 -0.016030660337151895 0.28441024433563394 -0.0079087869147750622 1.0000000180025095e-35 107.10031009197284
decision_type=8 10 1 10 1 10 8 1 10 1 2 10 10 10 10 8 10 10 8 1 10 10 10 10 8 10 10 10
left_child=1 2 14 4 -4 -5 10 25 22 -10 15 12 -12 -13 21 -2 -16 18 19 -8 -20 -1 -9 -19 -17 26 -3 -27
right_child=6 7 3 5 -6 -7 17 8 9 -11 11 13 -14 -15 16 24 -18 23 20 -21 -22 -23 -24 -25 -26 27 -28 -29
leaf_value=-0.00081194312996238089 -0.0010254566096521628 -0.0001920622812118757 -0.0013788066139426261 -0.00038863627719989762 -0.00012331282116398291 -0.001582177584164298 0.00015131991212550289 -0.00018794189640500809 -0.0017067224285815337 -0.00035391254257327728 0.002258878067269582 -0.00041833933585062308 0.00043035424347926418 0.00041257553948130993 -0.00010917216553680854 0.00068310156881048437 0.00068604995307300831 0.00098067194986258812 8.0391095759557737e-05 -0.00092503778727572126 -0.0001501021735308584 0 -5.912492672520175e-06 0.00010586262417530452 -0.00022312761800410985 0.0007016700018838911 0.0001294839903792188 0.00011486922244416075
leaf_weight=987 519 8056 1087 1096 4162 1877 1446 17069 734 2863 710 1911 5605 2642 1374 567 1678 869 86838 1687 12768 1514 38942 956 1042 963 7391 19901
leaf_count=987 519 8056 1087 1096 4162 1877 1446 17069 734 2863 710 1911 5605 2642 1374 567 1678 869 86838 1687 12768 1514 38942 956 1042 963 7391 19901
internal_value=0 -7.84893e-05 -0.000380738 -0.000660899 -0.000387336 -0.00114414 7.32379e-05 -3.50275e-05 -9.63128e-05 -0.00063748 0.000302473 0.000396927 0.000637053 6.2708e-05 3.43515e-05 -0.000177528 0.000326487 4.46964e-05 3.61027e-05 -0.000429241 5.07939e-05 -0.000319998 -6.14764e-05 0.000525463 9.33414e-05 6.5449e-05 -3.78884e-05 0.000142226
internal_weight=227254 109694 13775 8222 5249 2973 117560 95919 59608 3597 12996 10868 6315 4553 5553 2128 3052 104564 102739 3133 99606 2501 56011 1825 1609 36311 15447 20864
internal_count=227254 109694 13775 8222 5249 2973 117560 95919 59608 3597 12996 10868 6315 4553 5553 2128 3052 104564 102739 3133 99606 2501 56011 1825 1609 36311 15447 20864
cat_boundaries=0 1 2 3 4 5
cat_threshold=4211200 2048 6291456 8192 4218880
is_linear=0
shrinkage=0.005


Tree=12
num_leaves=26
num_cat=2
split_feature=0 23 266 10 130 266 166 172 3 200 192 256 9 193 198 29 179 58 183 179 64 201 4 117 9
split_gain=44.1088 61.6504 55.2039 103.82 70.0044 30.0299 33.8115 47.8855 41.4428 34.5269 46.3606 30.3971 34.7646 30.1316 22.0711 19.5614 19.2298 19.2162 31.2339 18.6652 18.2332 17.5573 14.9603 14.129 7.69124
threshold=0.61980942932210781 3.1740890657611218 0 0.8098725432442565 -0.019658423501772871 1 -0.091004102991694105 0.005038570492405193 1.343596934351633 -0.00020171757050312271 -3.3146177085506934 0.0075154525297329413 13.000000000000002 0.0041583950592126726 0.59981328770991216 0.099799137327198126 -0.95022617925918451 0.00045364107524079581 -0.2927991771089683 4.4553725243489604 0.15815528921313185 -0.0047412596742528726 0.37377335411996243 2.3726296290662892 25.000000000000004
decision_type=10 10 1 10 10 1 10 10 10 10 10 8 10 10 10 2 10 10 8 10 10 10 8 8 10
left_child=1 2 3 4 -1 6 7 13 -9 14 -11 15 23 -2 -8 20 -3 18 -4 -14 -7 -5 -19 -13 -17
right_child=5 16 17 21 -6 11 9 8 -10 10 -12 12 19 -15 -16 24 -18 22 -20 -21 -22 -23 -24 -25 -26
leaf_value=-0.0010120031436977376 7.3826710437368257e-05 -0.00060594907185167971 -0.0011661496523099413 0.00087107568179345396 -0.00028428773692220927 0.00087500006760147717 -0.00025701841012984092 0 0.0015736561680586561 -0.00019624097708331102 -0.0021886838020632126 0.0003190298346240852 0.00034711017387055866 -0.00091269037853712511 0.00039368555340575022 -6.5916500872063087e-05 -0.0019386352617843086 -6.9152370580359806e-05 -5.6143763783753265e-05 0.00086616480121149201 0.00011004106427256166 0.0001557345289378743 5.8759348441670026e-05 7.9540929498614078e-05 -0.00041572975136909774
leaf_weight=4238 8746 601 906 997 15176 930 9464 733 970 682 518 7823 9181 848 1505 15347 517 34825 2139 2160 4926 6370 66447 29445 1760
leaf_count=4238 8746 601 906 997 15176 930 9464 733 970 682 518 7823 9181 848 1505 15347 517 34825 2139 2160 4926 6370 66447 29445 1760
internal_value=0 -5.90597e-05 -4.90446e-05 -0.000251493 -0.000443447 8.21601e-05 -7.29136e-05 0.000123735 0.000896167 -0.000255937 -0.00106158 0.000133065 0.000203913 -1.29351e-05 -0.000167255 -1.66343e-05 -0.00122788 2.90713e-06 -0.000388327 0.000446477 0.000232508 0.000253328 1.4724e-05 0.000129954 -0.00010222
internal_weight=227254 132216 131098 26781 19414 95038 23466 11297 1703 12169 1200 71572 48609 9594 10969 22963 1118 104317 3045 11341 5856 7367 101272 37268 17107
internal_count=227254 132216 131098 26781 19414 95038 23466 11297 1703 12169 1200 71572 48609 9594 10969 22963 1118 104317 3045 11341 5856 7367 101272 37268 17107
cat_boundaries=0 1 2
cat_threshold=10240 2098176
is_linear=0
shrinkage=0.005


Tree=13
num_leaves=30
num_cat=1
split_feature=29 266 200 55 138 2 2 207 77 174 21 89 182 196 191 10 21 4 191 11 168 189 5 131 200 207 39 51 14
split_gain=37.4111 76.0296 80.3101 60.9882 48.2026 88.617 47.5359 32.7136 32.5559 38.354 72.1789 24.1765 24.0781 47.203 22.8201 21.8531 20.801 20.6652 20.2713 19.7469 16.0149 78.1737 14.014 13.1706 18.3136 12.5242 12.5086 10.3918 10.2918
threshold=0.099569594741504133 0 -0.00025944780071049351 0.12106356023626559 1.0000000180025095e-35 -42.999999999999993 -36.666666666666508 0.0023292781864991956 0.015797639875315354 0.067119011986878974 -0.030935076990145079 3039.8903083335722 1.7124999999999775 1.2038095238095605 -0.00015414052776391293 0.46672651107121493 -0.0015373588111536848 0.49483173076923087 -0.00064292845699875912 1543.3953779599274 3.2736480759809381 -0.00025696041741090275 -0.030645015295853169 -0.72373241774925856 -0.00020897401878177009 -0.0032519056196442793 -0.34999999999999992 0.28194338538193969 0.28441024433563394
decision_type=2 1 8 8 8 10 8 10 10 8 8 2 10 10 10 10 10 10 10 2 10 2 8 10 10 8 10 8 10
left_child=1 3 11 4 5 -1 7 -5 9 15 -11 18 26 -14 -6 -2 -12 -13 -3 20 22 -22 -10 27 -25 -8 -4 -21 -17
right_child=8 2 12 6 14 -7 25 -9 19 10 16 17 13 -15 -16 28 -18 -19 -20 23 21 -23 -24 24 -26 -27 -28 -29 -30
leaf_value=-0.0026154981477165473 0.0017738643955603481 0.00033229573561282264 0.00019880441009373216 -0.00023996193765473184 0.00014694976854933984 -0.00066436491424121894 -0.00065603117749490913 -0.001265808668148922 -0.00014363942828429194 0.0017827610846845299 0.0003436915243309404 0.00015444972167441459 -0.00014509733290345671 -0.0011690085186683292 -0.00073644462700653474 9.6107365924442623e-05 -0.00053063463620026867 0.00065169622577807289 0.0016115086686042241 -0.00058475308461008047 0.001126158519725603 -0.00018568995776697749 -1.5547076593189906e-06 8.2529194738869895e-05 0.00036237450235761725 -2.4446584545183551e-05 -0.00016049322045953417 -3.4517834962888409e-05 0.0010939446261292057
leaf_weight=834 641 592 3711 1611 1347 1960 834 1528 22304 548 1095 7839 3893 1591 1577 537 1775 2870 678 1055 1708 3371 78522 52528 6596 13530 6949 4710 520
leaf_count=834 641 592 3711 1611 1347 1960 834 1528 22304 548 1095 7839 3893 1591 1577 537 1775 2870 678 1055 1708 3371 78522 52528 6596 13530 6949 4710 520
internal_value=0 -0.000118745 5.59691e-05 -0.000330432 -0.000779119 -0.00124929 -0.000183719 -0.000741159 3.46575e-05 0.000427689 0.0001208 0.000366291 -0.000173957 -0.000443222 -0.000327871 0.00104207 -0.000195305 0.000288226 0.00101988 2.28528e-05 -1.91915e-05 0.000254618 -3.30364e-05 9.15495e-05 0.00011384 -6.15087e-05 -3.49372e-05 -0.000136162 0.000592298
internal_weight=227254 51344 28123 23221 5718 2794 17503 3139 175910 5116 3418 11979 16144 5484 2924 1698 2870 10709 1270 170794 105905 5079 100826 64889 59124 14364 10660 5765 1057
internal_count=227254 51344 28123 23221 5718 2794 17503 3139 175910 5116 3418 11979 16144 5484 2924 1698 2870 10709 1270 170794 105905 5079 100826 64889 59124 14364 10660 5765 1057
cat_boundaries=0 1
cat_threshold=11264
is_linear=0
shrinkage=0.005


Tree=14
num_leaves=29
num_cat=2
split_feature=169 25 266 58 8 6 0 197 197 27 2 70 168 266 8 29 52 172 14 190 2 16 12 146 208 83 0 256
split_gain=67.4205 68.324 100.916 102.313 54.902 46.1737 65.6643 44.0846 43.7134 108.708 37.8039 35.6347 26.995 42.0788 51.2606 44.7849 26.605 26.1723 26.0277 23.6244 21.1573 20.7712 18.8536 17.8854 12.1583 13.4415 9.51632 8.75035
threshold=15.100000000000001 0.10011049040418257 0 0.00060058953220298579 -1.5420056553978065 -2.9999999999999996 -0.43851373045631653 0.00074284951762865214 0.0034255315985566308 -0.053422297722853916 39.666666666666977 7063.5980658414755 2.9913779279524753 1 -0.99600341988766217 0.099569594741504133 0.012256138830860757 0.0010726480940105312 0.84418184148041653 -0.00039594304737984083 31.666666666666519 0.0052413391762753401 -0.46731634997787286 0.14851348483268006 16.500000000000004 0.32729061013094413 2.2301418256453061 0.0056557866807176701
decision_type=10 8 1 10 10 10 10 10 10 10 10 10 10 1 10 2 8 10 8 2 10 10 8 10 2 8 10 10
left_child=12 2 5 4 -4 6 -2 -5 9 11 -11 -3 16 15 23 -14 24 -17 -16 22 -7 -10 -18 -15 26 -26 -1 -21
right_child=1 8 3 7 -6 20 -8 -9 21 10 -12 -13 13 14 18 17 19 -19 -20 27 -22 -23 -24 -25 25 -27 -28 -29
leaf_value=8.8306564484142837e-05 -0.0013945776303150943 0.0013825776636783181 0.00031018751444694432 0.00013076868650050468 -0.00073294296621879073 -0.0015705374404680239 0.00034199184426572356 0.0013077891245549286 -0.00028972172829161674 4.8633073075503643e-05 -0.00072944832930273672 0.00033615857328862716 -0.001366242398408715 0.0016448064812865071 -2.4176347852037722e-05 0.00077743657914223151 0.00019850745152340089 -0.00035397291019310858 0.00068625429835692008 -0.00023396790991744038 -0.00073268246403651051 -0.0015160512826680914 -9.5663395892930033e-05 0.00066034889622847083 -0.00025305308862192549 4.6041972288659783e-05 0.00030717001588616939 0.00021774313226933988
leaf_weight=74373 944 1836 1636 2204 5416 2511 1276 1254 937 5741 2138 1489 671 1014 3510 874 5877 1223 2025 1187 1119 559 72693 892 5263 13061 5346 10185
leaf_count=74373 944 1836 1636 2204 5416 2511 1276 1254 937 5741 2138 1489 671 1014 3510 874 5877 1223 2025 1187 1119 559 72693 892 5263 13061 5346 10185
internal_value=0 -0.000224907 -0.000438537 -0.000144279 -0.000490228 -0.000964331 -0.000394485 0.0005593 4.99083e-05 0.000157486 -0.000161934 0.000915716 3.29758e-05 0.0002834 0.000479017 -0.000241497 1.93479e-05 0.000115345 0.000234911 -4.27198e-05 -0.00131391 -0.000752002 -7.35937e-05 0.00118729 7.6338e-05 -3.96001e-05 0.00010305 0.000170138
internal_weight=227254 29060 16360 10510 7052 5850 2220 3458 12700 11204 7879 3325 198194 10209 7441 2768 187985 2097 5535 89942 3630 1496 78570 1906 98043 18324 79719 11372
internal_count=227254 29060 16360 10510 7052 5850 2220 3458 12700 11204 7879 3325 198194 10209 7441 2768 187985 2097 5535 89942 3630 1496 78570 1906 98043 18324 79719 11372
cat_boundaries=0 1 2
cat_threshold=11264 3072
is_linear=0
shrinkage=0.005


Tree=15
num_leaves=29
num_cat=3
split_feature=19 266 187 153 263 214 112 266 15 168 5 205 11 22 203 193 155 5 58 168 15 2 266 0 238 12 130 86
split_gain=48.7511 76.683 34.2036 36.0023 24.6279 24.0538 26.1742 30.4184 23.51 22.1539 56.2164 21.0212 20.8424 20.4288 17.3706 27.8961 16.9035 16.872 32.1341 18.0019 15.778 14.3561 11.9782 11.7446 15.5421 13.278 6.83522 6.34244
threshold=0.098964454621276191 0 -0.00012954652892860349 0.00040468496732470291 -0.00062093443986057414 -0.78986487685622231 0.37833486171931213 1 1.0000000180025095e-35 3.6358055045938134 -0.03851503416378959 0.22909194841535682 -976.3682692307691 0.15103707902582139 0.0011640124509459395 -0.0030695239753516508 2.7931435544002698 -0.12506640054837634 0.00070919112523975549 3.2736480759809381 -0.0015780365627860447 -1.0000000180025095e-35 2 1.7386096159871096 -1.6498773018849939 -0.23099276128653737 -0.011972741656412452 14.274488236538986
decision_type=8 1 10 2 10 8 10 1 8 10 10 10 2 8 10 8 8 8 10 10 10 10 1 10 10 10 10 8
left_child=1 2 11 26 14 9 7 16 13 23 -11 -1 -5 -6 15 -3 -7 18 -8 -19 -12 -10 -9 25 -25 -2 -4 -16
right_child=5 4 3 12 8 6 17 22 21 10 20 -13 -14 -15 27 -17 -18 19 -20 -21 -22 -23 -24 24 -26 -27 -28 -29
leaf_value=0.00061605232418295627 0.00020015257505119261 0.00079135763164162401 0.00011286585763340971 -0.0016014418415404206 -0.0012269675409799306 -0.00084096477232328479 -0.00077125914617884794 9.1765475253751148e-05 0.00072963113027451373 0.0016613006166981952 -0.00058543136815468856 -0.00054903173910078769 -0.00077622866474893093 0 0.0012000097539571993 -0.0002199614119252249 -0.00028311763551256168 3.1836027189432379e-06 0.00065911058441200151 0.00033434671369958794 0.00047675927936329838 -0.00033024011700758882 -0.00018803925567085288 0.00070909992023076977 0.00014855560681915412 1.1934607411524662e-05 -0.00056081446462173407 0.00044739343240543717
leaf_weight=663 11331 1002 636 1678 870 2173 1647 6727 622 777 649 925 1474 569 573 2119 3736 104525 511 4272 755 648 8797 1384 12151 54547 885 608
leaf_count=663 11331 1002 636 1678 870 2173 1647 6727 622 777 649 925 1474 569 573 2119 3736 104525 511 4272 755 648 8797 1384 12151 54547 885 608
internal_value=0 -0.000294043 -0.000695646 -0.000912226 6.4832e-05 1.82376e-05 -2.33504e-05 -0.000183316 -0.000307539 8.57759e-05 0.000583131 -5.93736e-05 -0.00121749 -0.000745601 0.000300646 0.000103271 -0.00048839 7.50624e-06 -0.000430093 1.62359e-05 -1.07476e-05 0.000185078 -6.64908e-05 7.20464e-05 0.000206291 4.43865e-05 -0.000275944 0.000817486
internal_weight=227254 13272 6261 4673 7011 213982 132388 21433 2709 81594 2181 1588 3152 1439 4302 3121 5909 110955 2158 108797 1404 1270 15524 79413 13535 65878 1521 1181
internal_count=227254 13272 6261 4673 7011 213982 132388 21433 2709 81594 2181 1588 3152 1439 4302 3121 5909 110955 2158 108797 1404 1270 15524 79413 13535 65878 1521 1181
cat_boundaries=0 1 2 3
cat_threshold=10752 3072 16896
is_linear=0
shrinkage=0.005


Tree=16
num_leaves=28
num_cat=0
split_feature=25 256 7 206 166 177 189 87 197 27 9 25 129 226 147 61 7 77 215 209 168 13 69 80 72 101 264
split_gain=30.658 61.7834 32.9939 47.0469 46.8101 42.3393 36.1414 27.9203 44.4146 40.0354 60.4403 34.1039 28.6459 25.5061 22.4313 22.2559 20.6791 21.3355 19.3574 15.9668 14.0539 12.9531 12.6016 9.74707 8.5509 6.89005 6.19739
threshold=0.099662846943241692 0.015565766351862754 -0.0010214794314460927 0.00056915004768243193 0.86573026654287699 0.65455163580731446 -0.00025550127545246687 0.095740042517994686 0.0014109299264804533 -0.034623159721865589 33.000000000000007 0.10044736471852005 3.6552568327824938e-05 6.1872738297421561 -0.0039178853998639565 0.0056970375083658601 0.00092534141328393116 0.080817709341606606 -0.062201895201275011 -2.3306862843894028e-05 3.6358055045938134 -0.00094293664539024647 0.82931668602400321 0.13839668980732414 0.051768804716812583 0.49786292463780629 -0.071233411397345806
decision_type=8 10 8 10 10 10 2 8 8 10 10 10 10 2 8 2 8 10 8 10 10 8 10 10 10 10 2
left_child=1 14 4 6 20 -5 -4 8 9 10 -2 -11 22 18 -1 21 17 -16 26 -17 -3 -15 -10 -20 -6 -18 -9
right_child=7 2 3 5 24 -7 -8 13 12 11 -12 -13 -14 15 16 19 25 -19 23 -21 -22 -23 -24 -25 -26 -27 -28
leaf_value=0.00085445224472500763 0.00037142809614825899 -0.00033414353662411875 0.0006520140263952932 5.5265401620817529e-05 -0.0011265555774294916 0.0015660912294674304 -0.0005973847508080189 -2.1975771389261995e-05 -0.0002268941817160561 0.00050714572777323748 0.0017400716440607348 -0.00020433283062243311 -0.0012468739994100401 -0.0003460682529015808 -0.0004294760732171167 9.7026171625152027e-05 8.770073003648213e-05 -3.0418319141449144e-05 2.7111764239475606e-05 -0.00074397885986912866 -0.0011300844527116628 1.5783902129539349e-05 0.00061404406432411635 -8.09907197715355e-05 -0.0019719832108080482 0.00037067675474752437 0.00013858640233607445
leaf_weight=763 2430 5300 656 2632 868 564 4678 6961 1967 3647 1217 3116 605 3392 4079 719 10202 18907 66559 2459 627 9037 574 30351 511 2755 41678
leaf_count=763 2430 5300 656 2632 868 564 4678 6961 1967 3647 1217 3116 605 3392 4079 719 10202 18907 66559 2459 627 9037 574 30351 511 2755 41678
internal_value=0 -0.000105899 -0.000366929 -0.000154898 -0.000613743 0.000323852 -0.000442697 3.18468e-05 0.000249794 0.000407311 0.000829865 0.000178617 -0.000269799 1.34812e-05 6.5869e-06 -0.000178555 -1.12958e-05 -0.000101467 3.41084e-05 -0.000552164 -0.000419364 -8.25869e-05 -3.47964e-05 -6.69347e-06 -0.00144466 0.000148279 0.000115505
internal_weight=227254 52542 15836 8530 7306 3196 5334 174712 13556 10410 3647 6763 3146 161156 36706 15607 35943 22986 145549 3178 5927 12429 2541 96910 1379 12957 48639
internal_count=227254 52542 15836 8530 7306 3196 5334 174712 13556 10410 3647 6763 3146 161156 36706 15607 35943 22986 145549 3178 5927 12429 2541 96910 1379 12957 48639
is_linear=0
shrinkage=0.005


Tree=17
num_leaves=25
num_cat=0
split_feature=3 182 169 183 174 0 4 181 121 12 89 13 180 191 37 224 5 135 192 187 184 177 174 31
split_gain=34.9636 47.7319 74.2458 54.4906 58.9862 58.0894 50.1533 37.7641 55.8993 37.5267 25.2615 24.3471 24.0418 22.6608 20.2179 28.3442 17.0857 18.9729 16.2842 15.7789 15.3102 15.2741 13.4473 10.8699
threshold=-1.3607370715592231 1.4874999999999925 15.900000000000002 -0.11339160140378991 -0.14152239035364952 -1.0000000180025095e-35 0.10779129813766963 0.00017757659474481168 0.0036315550361802769 -0.28306504080965017 1440.3035140512773 0.0043056766827438428 -0.001668938150680088 0.00015156144587386014 -1.528440889492763 4.4903945930027152e-06 -0.12506640054837634 -0.054911551862771364 10.368007653039705 0.0018830574889830423 -0.0047575569569400225 0.050165475914704556 -0.071180623971147675 87.228440176029423
decision_type=8 10 10 10 10 10 10 10 8 10 2 8 8 8 8 10 8 2 10 10 8 10 10 8
left_child=1 10 6 5 -5 -4 11 14 12 -8 -1 -3 -9 18 15 23 17 -16 -12 -15 -18 22 -10 -2
right_child=7 2 3 4 -6 -7 9 8 21 -11 13 -13 -14 19 16 -17 20 -19 -20 -21 -22 -23 -24 -25
leaf_value=0.00092954511138245083 -0.00015655020735566913 -0.0012100257866365762 -0.0016836132165290413 8.7020043874642421e-05 -0.00079842942594507101 -0.00030034273988902618 0.00071626865430457595 0.0021293824877599318 -0.00011609304613431719 -2.1237697367568887e-05 -5.6720039367297114e-05 -0.00012880203407690747 0.00075627310455311087 0.00011122900660671272 -0.00075830516461170602 -0.0012304180660159404 0.00026562803079525996 0.00025861078536802045 -0.00033841405983740049 -0.00020774831920366112 5.8899621400721176e-05 -0.00056670277239582328 0.00095593525613972303 8.789998373744485e-05
leaf_weight=710 12956 1157 1886 3873 3639 1287 2120 595 621 9173 33803 967 724 32122 1263 541 9962 710 6065 4399 90489 674 540 6978
leaf_count=710 12956 1157 1886 3873 3639 1287 2120 595 621 9173 33803 967 724 32122 1263 541 9962 710 6065 4399 90489 674 540 6978
internal_value=0 -6.92167e-05 -0.000263432 -0.000574395 -0.000341297 -0.00112439 -1.53912e-05 5.55685e-05 0.000595828 0.000116821 -8.43529e-06 -0.000720419 0.00138061 -1.72309e-05 4.16583e-05 -0.000101673 7.03603e-05 -0.000389881 -9.97061e-05 7.26662e-05 7.94537e-05 2.85549e-05 0.000378615 -7.07282e-05
internal_weight=227254 101201 24102 10685 7512 3173 13417 126053 3154 11293 77099 2124 1319 76389 122899 20475 102424 1973 39868 36521 100451 1835 1161 19934
internal_count=227254 101201 24102 10685 7512 3173 13417 126053 3154 11293 77099 2124 1319 76389 122899 20475 102424 1973 39868 36521 100451 1835 1161 19934
is_linear=0
shrinkage=0.005


Tree=18
num_leaves=27
num_cat=2
split_feature=9 0 194 190 266 6 77 188 266 5 7 163 223 0 114 163 25 162 187 137 162 205 182 23 166 220
split_gain=60.9032 74.7065 52.6023 52.5288 45.5538 81.7611 45.4366 30.6431 26.4501 100.301 21.704 20.9212 19.9593 17.9604 23.1642 18.0248 17.5293 16.7607 16.7167 16.1639 15.8539 13.891 30.7543 21.1702 13.4846 10.5589
threshold=-38.999999999999993 -1.2783692997895388 0.44044278150650279 -0.00044298232469268818 0 -1.0000000180025095e-35 0.066166143574746594 0.20736838840043659 1 -0.12506640054837634 -0.0094746033414830327 -1.0000000180025095e-35 0.00016766870984541061 0.21929839591651254 98.969062892337746 1.0000000180025095e-35 0.09977454046869573 0.20520863885145188 -0.0038503256272346405 0.43712881855816482 0.1598214128715307 0.29891069367613082 1.8624999999999925 3.1656263312974553 -0.22292376659910643 0.00095937544112576541
decision_type=8 10 10 2 1 10 10 8 1 8 8 10 10 10 10 10 8 10 8 10 10 8 10 10 10 10
left_child=1 2 3 19 5 11 -7 10 9 -9 24 -3 -4 15 -15 -10 17 -6 -11 -1 -18 23 -23 -12 -2 -5
right_child=7 4 12 25 16 6 -8 8 13 18 21 -13 -14 14 -16 -17 20 -19 -20 -21 -22 22 -24 -25 -26 -27
leaf_value=0.00043991471925541496 0.0012523828116140603 -7.4066083159982419e-05 -0.00099820488164343874 -0.0008071467888626485 -0.00014981322022141342 -0.0017625202192843271 -0.00032480417433152284 -0.0017613032732196813 5.7127816446607828e-05 -0.00075008193220113919 2.7435276727470082e-05 0.00098750565137273078 -0.0023273730034390288 0.00030168076834519413 -1.5950421045716387e-05 -0.00018870706675147138 0.0010352841277666692 0.0005582570690741824 -9.5127428543630851e-05 -0.00055153239217355316 -2.2375402259485479e-05 8.2406017872019155e-05 0.00046464907427190994 -0.00074757179186427287 0.00024511236432385355 -0.0015860359480331322
leaf_weight=1241 609 1351 548 1711 2638 1191 1039 957 14849 1010 70540 700 631 9973 13456 14931 1095 1219 29061 611 510 49209 5902 891 765 616
leaf_count=1241 609 1351 548 1711 2638 1191 1039 957 14849 1010 70540 700 631 9973 13456 14931 1095 1219 29061 611 510 49209 5902 891 765 616
internal_value=0 -0.000306791 -0.000781022 -0.000515929 -4.54292e-05 -0.000431411 -0.00109535 2.18372e-05 -5.21779e-05 -0.000168184 7.06178e-05 0.000286113 -0.00171518 1.54057e-05 0.000119049 -6.59624e-05 0.000256524 7.27622e-05 -0.000117316 0.000110003 0.000696287 6.37847e-05 0.00012344 1.76878e-05 0.000695789 -0.00101607
internal_weight=227254 15101 5358 4179 9743 4281 2230 212153 84237 31028 127916 2051 1179 53209 23429 29780 5462 3857 30071 1852 1605 126542 55111 71431 1374 2327
internal_count=227254 15101 5358 4179 9743 4281 2230 212153 84237 31028 127916 2051 1179 53209 23429 29780 5462 3857 30071 1852 1605 126542 55111 71431 1374 2327
cat_boundaries=0 1 2
cat_threshold=11264 11264
is_linear=0
shrinkage=0.005


Tree=19
num_leaves=31
num_cat=1
split_feature=266 169 198 79 19 173 203 225 18 181 171 200 52 175 177 37 175 207 59 256 8 201 57 11 166 181 197 184 220 197
split_gain=34.362 111.434 71.9305 90.8505 52.6455 71.6541 64.4998 39.4028 44.2403 41.2596 60.2243 37.4665 32.9164 30.6101 26.3047 22.7912 18.8526 15.0412 22.0829 16.3029 18.1864 16.8145 14.2552 11.4376 11.1691 9.74854 9.21654 12.4717 10.9504 7.73823
threshold=0 13.700000000000001 0.59981328770991216 -0.10230245944531657 0.099842392388221388 1.0133520730850323 0.00061760210957928507 0.052659185687918462 -0.020063004016209082 0.00016244365297511651 0.78248334411447928 -0.00025944780071049351 0.10624454339913963 -0.23300917987884859 0.050165475914704556 -1.528440889492763 0.1014685096975398 -0.0045845810555762969 6.6208365736474362e-08 0.026016413768502548 -1.0000000180025095e-35 1.0000000180025095e-35 0.24093104543841551 746.24096774193561 0.86573026654287699 0.00015967726169580562 1.0000000180025095e-35 -0.0047575569569400225 0.00034065899305523101 -1.0000000180025095e-35
decision_type=1 10 8 8 10 10 10 10 10 10 10 10 8 10 10 10 8 8 2 10 8 10 10 2 8 8 10 8 10 10
left_child=7 17 4 -4 5 -3 -6 12 9 15 -11 13 22 -10 -5 -9 -13 18 25 21 -21 -19 23 -1 -20 -2 28 -28 -14 -24
right_child=1 2 3 14 6 -7 -8 8 11 10 -12 16 26 -15 -16 -17 -18 19 24 20 -22 -23 29 -25 -26 -27 27 -29 -30 -31
leaf_value=7.6909441218773206e-05 7.9594196641319273e-05 -0.00026463358810216534 0.0020450228707547527 0.00041411470074386141 3.3186773142329906e-05 -0.0011992724832694274 -0.00084660235557389011 -0.000626126596319197 -0.00020739406335334748 0.00047182419073914922 0.0021130787207981915 -0.00067867911614506065 -0.00016250418694023803 0.001180715053109482 -0.00059864986930746112 0.00049257994714036585 0.00011347511219160619 4.813332691768757e-05 0.00031656654013246675 0.00096393763386277184 -8.4949240881469745e-06 -9.3038016956260315e-05 -3.1038927745720548e-05 0.00028150325062164145 0.00091209742178375642 -0.0005320018797579936 0.00067370096872302915 -5.9750812194892317e-05 -0.00063090741127214015 9.630458207741931e-05
leaf_weight=14071 3112 3596 605 1240 6325 4823 3098 552 662 1314 986 1676 11642 971 1321 2505 1343 45797 3010 905 1003 39071 23306 13438 1091 821 606 12605 1409 24350
leaf_count=14071 3112 3596 605 1240 6325 4823 3098 552 662 1314 986 1676 11642 971 1321 2505 1343 45797 3010 905 1003 39071 23306 13438 1091 821 606 12605 1409 24350
internal_value=0 -6.03077e-05 -0.000389789 0.00030369 -0.000513134 -0.000800734 -0.00025559 6.26748e-05 0.000362011 0.000671746 0.00117821 4.19481e-06 3.30893e-05 0.000615149 -0.000106362 0.000288802 -0.000324713 1.26429e-05 0.000219622 -6.46453e-06 0.000450392 -1.67997e-05 8.63699e-05 0.000177041 0.0004764 -4.69062e-05 -0.000119213 -2.56799e-05 -0.000213501 3.39234e-05
internal_weight=227254 115818 21008 3166 17842 8419 9423 111436 10009 5357 2300 4652 101427 1633 2561 3057 3019 94810 8034 86776 1908 84868 75165 27509 4101 3933 26262 13211 13051 47656
internal_count=227254 115818 21008 3166 17842 8419 9423 111436 10009 5357 2300 4652 101427 1633 2561 3057 3019 94810 8034 86776 1908 84868 75165 27509 4101 3933 26262 13211 13051 47656
cat_boundaries=0 1
cat_threshold=4211200
is_linear=0
shrinkage=0.005


Tree=20
num_leaves=31
num_cat=3
split_feature=0 266 122 69 166 190 164 5 205 178 6 124 2 266 182 99 1 10 187 147 5 266 169 10 180 1 3 169 25 152
split_gain=43.0289 65.8682 68.1645 37.5095 36.111 53.5487 34.3712 90.9161 30.2913 27.3847 27.2704 48.8187 36.9058 28.1976 60.0083 52.2288 25.5044 23.7818 23.349 20.6752 20.2833 37.2862 21.8803 18.7763 15.9894 15.7314 32.52 26.3827 14.1506 10.3969
threshold=0.61980942932210781 0 5945.2221743823966 0.77005747126436785 -0.79751771072561051 -0.00034983573628769011 -0.27142873574789378 -0.085392540627452482 0.36720996848803983 0.11947270463330757 -2.3333333333333326 -0.021136100291773111 -54.666666666666508 1 1.5916666666666781 111.31595071446144 0.31496371072028934 0.83724370441722862 -0.00012954652892860349 -0.0016065021921373086 0.084472194120502678 2 14.300000000000002 0.58934484389782416 0.00026309756569342651 0.76142127168038065 -11.457675474144917 13.700000000000001 0.099905092335041759 0.16818462408843052
decision_type=10 1 8 8 10 2 8 8 10 8 10 10 10 1 10 8 8 10 10 10 10 1 8 10 10 10 10 10 10 10
left_child=1 2 6 17 5 16 7 -1 -5 -8 11 12 -2 14 28 -16 -3 -4 -14 23 22 -22 -13 -15 -7 26 -6 -27 -12 -21
right_child=10 4 3 8 25 24 9 -9 -10 -11 13 20 18 19 15 -17 -18 -19 -20 29 21 -23 -24 -25 -26 27 -28 -29 -30 -31
leaf_value=-0.0016428423798163388 0.0017918971691925725 -0.00073927172939975186 -0.0002953373853728853 -0.00011252491655989007 -0.00056064078611492592 -0.00061178283313504886 -0.0016040556289158372 -0.00012601199673578669 0.00044024938994911876 -0.00054931092689313539 0.00014798222489234352 0.00012500998759050193 0.0009393461269067262 0.00056483841328813127 -0.0012259934748620315 0.0004377242134347644 -1.633309595314189e-05 0.00017277343187784811 6.6492431480163808e-06 0.00017374291348321586 0.0010370433557500621 7.6006335155875455e-05 -0.0003790001562906563 8.1699260103705282e-06 -0.0018099774404050962 9.2447595610088855e-05 3.7777642826851598e-05 0.00058941141392501609 -0.00019087876218178921 -9.4653741144295973e-06
leaf_weight=1221 697 1454 19420 5448 2358 526 1323 5207 4530 1188 6130 23195 1420 3837 2072 605 7651 3139 1292 10415 1649 2626 2369 2533 636 14775 60070 3270 6184 30014
leaf_count=1221 697 1454 19420 5448 2358 526 1323 5207 4530 1188 6130 23195 1420 3837 2072 605 7651 3139 1292 10415 1649 2626 2369 2533 636 14775 60070 3270 6184 30014
internal_value=0 -5.83327e-05 -0.000223379 -0.00011699 1.70772e-05 -0.000262075 -0.00061026 -0.000415123 0.000137952 -0.00110744 8.11477e-05 0.000196625 0.000763681 1.89287e-05 -0.000169613 -0.000848104 -0.000132399 -0.000229975 0.000497017 7.94522e-05 0.00013165 0.000450636 7.80951e-05 0.000344303 -0.00127288 5.27594e-05 1.50858e-05 0.000182809 -2.17869e-05 3.76108e-05
internal_weight=227254 132216 41476 32537 90740 10267 8939 6428 9978 2511 95038 33248 3409 61790 14991 2677 9105 22559 2712 46799 29839 4275 25564 6370 1162 80473 62428 18045 12314 40429
internal_count=227254 132216 41476 32537 90740 10267 8939 6428 9978 2511 95038 33248 3409 61790 14991 2677 9105 22559 2712 46799 29839 4275 25564 6370 1162 80473 62428 18045 12314 40429
cat_boundaries=0 1 2 3
cat_threshold=11264 2098176 26624
is_linear=0
shrinkage=0.005


Tree=21
num_leaves=29
num_cat=0
split_feature=28 107 189 16 183 18 176 130 27 199 203 4 174 68 174 166 178 201 24 15 58 15 166 200 244 31 6 172
split_gain=33.475 52.9939 37.7756 45.3796 51.9039 25.3699 22.3086 29.8651 22.7556 37.0229 25.9955 22.7216 28.7065 23.9641 18.2774 19.0325 18.694 16.6652 16.3483 15.2767 14.8459 21.3032 14.1912 12.6937 54.3971 25.3581 11.4962 10.231
threshold=0.09917536464828379 0.11445790960667537 -0.00025230066789892221 -0.10072553890505102 -0.35906453410827316 -1.0000000180025095e-35 0.073937325009201874 -0.0303454886719642 0.074287415124641556 0.93333333333336765 0.0019382281178064178 0.49483173076923087 0.60933223005755666 0.00057827907229103873 -0.035838425982125229 -0.091004102991694105 -1.2644411498273327 -0.002565584635320139 -0.016605267043280147 -0.00089881533366104039 0.0007634672327385192 -0.0043383518381449595 -0.29528434806014564 -0.00026631724517984997 0.37717292350583898 87.228440176029423 -3.6666666666666665 -0.004562293213621226
decision_type=8 10 2 10 10 10 8 10 10 10 10 8 10 10 10 8 10 10 10 10 8 8 10 8 10 10 8 10
left_child=1 2 5 -4 -5 -1 7 8 10 -10 -2 23 26 -14 16 17 22 -16 -17 -18 21 -9 -3 24 -8 -25 -13 -22
right_child=6 14 3 4 -6 -7 11 20 9 -11 -12 12 13 -15 15 18 19 -19 -20 -21 27 -23 -24 25 -26 -27 -28 -29
leaf_value=0.0010317758708771952 0.00039493456624260711 -0.0006530841182782629 -0.0019663744581806721 -0.0014093867448329188 -0.00028759626051163114 -0.00044147924095648799 -8.5749974472527189e-05 -0.00067201883469467994 0.00031849091278181795 0.0020232333020602281 -0.00056367930683910402 0.00016630122368189955 -0.00092757415694785014 -0.00013192468745300761 0.00089042152602675413 0.0001398272578304526 0.00076088826739333874 -3.3152794584674686e-05 -0.0004924952460899168 0.00013559961366046709 0.00082912244762734291 4.09976515681776e-05 0.00013605415008139437 -0.00022979622085772354 0.00084517906990114178 0.00019184973445246441 2.0933158604264529e-05 0.00019851852342901862
leaf_weight=605 4857 889 600 1309 4941 558 19168 1063 838 522 823 19082 1243 4047 629 1351 1724 2133 4057 2309 708 65511 1564 25415 1708 4134 47701 7765
leaf_count=605 4857 889 600 1309 4941 558 19168 1063 838 522 823 19082 1243 4047 629 1351 1724 2133 4057 2309 708 65511 1564 25415 1708 4134 47701 7765
internal_value=0 -0.000182301 -0.000509224 -0.000650911 -0.000523532 0.00032085 2.01991e-05 8.39933e-05 0.000395467 0.000977491 0.000255082 -2.25095e-05 3.43972e-05 -0.000319965 -3.19537e-06 -0.000160847 0.000194612 0.000175613 -0.000333611 0.000404256 5.4703e-05 2.95278e-05 -0.000148052 -0.000103945 -9.30834e-06 -0.000170633 6.25461e-05 0.000251893
internal_weight=227254 22669 8013 6850 6250 1163 204585 82087 7040 1360 5680 122498 72073 5290 14656 8170 6486 2762 5408 4033 75047 66574 2453 50425 20876 29549 66783 8473
internal_count=227254 22669 8013 6850 6250 1163 204585 82087 7040 1360 5680 122498 72073 5290 14656 8170 6486 2762 5408 4033 75047 66574 2453 50425 20876 29549 66783 8473
is_linear=0
shrinkage=0.005


Tree=22
num_leaves=32
num_cat=0
split_feature=0 99 10 169 192 202 1 5 164 1 169 140 180 1 7 187 5 59 181 20 227 36 83 226 220 168 55 215 16 45 213
split_gain=43.5526 39.913 40.7829 50.4037 43.4675 32.1858 30.8196 22.3274 27.9493 47.1528 29.106 28.6723 21.1748 20.7116 19.6074 18.9687 17.0255 32.3397 32.8417 21.817 14.7303 10.5632 11.5846 11.4363 9.62892 25.8202 14.5704 9.06396 10.0412 8.02293 4.59768
threshold=-0.22737639332436008 69.857583774250458 0.54841835458864729 15.900000000000002 -30.461578730728927 0.5933675553317429 1.0000000180025095e-35 0.056657579625796657 -0.17051738744466197 0.66382301541515776 9.1000000000000014 -0.040005849477487913 0.0057680599382656248 -0.16107769526350293 0.0036599263209921577 0.00036499423471308973 0.040797239507244017 -5.5512333209773619e-07 0.00017757659474481168 -0.22785974248392257 8.7032454759516431e-06 -0.040441345732737534 0.37706640079370196 3.7221553400545715 0.00073218573673893288 3.2736480759809381 0.29862755106273914 0.063925562334146466 -0.050029287311595109 0.4441005635365553 0.037403898345181055
decision_type=8 8 10 10 8 10 10 10 10 10 10 8 10 10 8 10 10 2 10 10 10 10 8 2 10 10 10 10 10 10 2
left_child=1 2 3 12 -5 6 -4 16 9 15 30 -11 -1 -7 24 -9 17 18 -2 -19 -12 23 -23 -18 25 -3 -26 29 -29 -16 -10
right_child=7 14 5 4 -6 13 -8 8 10 11 20 -13 -14 -15 27 -17 21 19 -20 -21 -22 22 -24 -25 26 -27 -28 28 -30 -31 -32
leaf_value=-0.0002536584754474893 0.00030821984809810312 -0.00010147095270613608 -0.00017188427162231326 -0.0019778841529605336 -0.00062197378364774311 -0.00017061266385448668 0.00038746326386686054 0.00010157451962222035 0.00028150589045627494 0.0014590879337856677 0.000440883649944722 0.00035103826877312054 0.00059386730290106077 -0.0014958973008534187 0.00019175347986259003 -0.00022386688661708953 -0.00021982528658897249 -0.00011401439053538379 0.0016757177563773613 7.1202813285386573e-05 0.001286980864116196 -0.00064155993960693738 -0.00015396913511535974 0.00048458591938273021 -0.00068565793290224959 0.00088454184818120135 0.00028092406004351139 0.00022001209834716893 -0.00015069192209506832 2.397552559175972e-05 -0.00021940083158492721
leaf_weight=6991 3574 34762 5758 668 5427 636 4295 12170 1906 639 879 7174 820 565 13676 7078 1337 21604 503 60107 1325 1853 3671 1006 1513 675 516 2345 8153 15037 591
leaf_count=6991 3574 34762 5758 668 5427 636 4295 12170 1906 639 879 7174 820 565 13676 7078 1337 21604 503 60107 1325 1853 3671 1006 1513 675 516 2345 8153 15037 591
internal_value=0 -7.68157e-05 -0.000249632 -0.000430739 -0.000771699 -2.5384e-05 6.66064e-05 6.23717e-05 0.000176951 0.000114885 0.000533063 0.000442477 -0.00016398 -0.000798967 -2.00419e-05 -1.78446e-05 2.34587e-05 4.3922e-05 0.000478531 2.21703e-05 0.000952161 -0.000199031 -0.000318521 8.05682e-05 -0.000101885 -8.2524e-05 -0.000437364 5.80323e-05 -6.73963e-05 0.000104066 0.000160907
internal_weight=227254 101837 25160 13906 6095 11254 10053 125417 31762 27061 4701 7813 7811 1201 76677 19248 93655 85788 4077 81711 2204 7867 5524 2343 37466 35437 2029 39211 10498 28713 2497
internal_count=227254 101837 25160 13906 6095 11254 10053 125417 31762 27061 4701 7813 7811 1201 76677 19248 93655 85788 4077 81711 2204 7867 5524 2343 37466 35437 2029 39211 10498 28713 2497
is_linear=0
shrinkage=0.005


Tree=23
num_leaves=30
num_cat=4
split_feature=28 266 189 0 169 122 39 189 90 170 226 266 108 183 142 201 266 174 0 90 266 43 41 208 105 53 151 108 265
split_gain=32.9594 77.1692 76.4531 51.9457 62.5687 44.4395 38.7084 32.7515 31.7214 28.2598 30.8047 26.7313 44.6705 24.7071 20.7174 20.6621 18.7253 18.4155 16.553 16.0313 20.9309 15.1533 15.1377 12.7192 18.8351 12.206 9.54572 9.07923 8.61319
threshold=0.09917536464828379 0 -0.00023721838030282049 -1.1368770951439779 15.100000000000001 4955.9602558685301 0.35000000000000003 -0.00025416029233102491 92.366666666666717 -0.049443837698934588 5.8247815918979926 1 0.27640874851313219 -0.2927991771089683 0.37725979813260074 -0.00079665414659052514 2 -0.21317492056871876 -0.43851373045631653 66.299999999999983 3 14.736479482301847 3.167898530100691 -1.0000000180025095e-35 -0.0011652737444517349 0.024645189798667987 0.11948575544571066 0.041811598625163572 0.0007661637437024161
decision_type=8 1 2 10 10 8 10 2 2 8 2 1 10 10 10 10 1 10 10 2 1 10 10 2 8 2 10 10 8
left_child=1 2 5 7 21 -1 -6 14 -9 16 19 28 -13 -4 -3 -15 23 -7 27 20 -11 -5 -20 26 -25 -21 -2 -18 -12
right_child=9 3 13 4 6 17 -8 8 -10 10 11 12 -14 15 -16 -17 18 -19 22 25 -22 -23 -24 24 -26 -27 -28 -29 -30
leaf_value=0.001876026126209692 0.0007337921516957336 0.00013389904698144297 -0.0013156634186843139 0.00019658311072158309 -0.0010939496039855273 0.00096627470690697831 0.00015131824829520715 -0.0021370233581971456 -0.00086139470001612376 0.00047624147173029266 0.000533529605405109 -0.00036215203414359396 0.0001469903825434389 -0.00092991916401332492 -0.00079157099239659861 0.00015229113689266553 -0.00033974394797051322 0.00021951571911132394 0.00031057104347845526 5.6671687375859967e-05 1.5381239932563286e-05 -0.00048891851530881501 0.001187182426449041 -0.0010984161062343625 -9.5238493467033605e-05 -3.6273882448294209e-05 -3.2228968942308404e-05 0.00012962894129277646 2.6091921147260812e-05
leaf_weight=614 522 1155 614 5816 2277 1159 850 628 2325 4375 1480 16298 5839 628 1250 1459 1157 2962 12341 70602 5688 932 517 660 1648 70640 1781 9065 1972
leaf_count=614 522 1155 614 5816 2277 1159 850 628 2325 4375 1480 16298 5839 628 1250 1459 1157 2962 12341 70602 5688 932 517 660 1648 70640 1781 9065 1972
internal_value=0 -0.000180891 0.000236116 -0.000384685 -0.000169186 0.000619734 -0.000753915 -0.000781538 -0.001135 2.00435e-05 -3.17948e-06 -0.000163644 -0.000227528 -0.000433644 -0.000345165 -0.000171252 0.000168571 0.000430932 0.000226704 2.39265e-05 0.000216758 0.000101106 0.000346297 -0.00012154 -0.000384626 1.01511e-05 0.000139471 7.59848e-05 0.000244481
internal_weight=227254 22669 7436 15233 9875 4735 3127 5358 2953 204585 176894 25589 22137 2701 2405 2087 27691 4121 23080 151305 10063 6748 12858 4611 2308 141242 2303 10222 3452
internal_count=227254 22669 7436 15233 9875 4735 3127 5358 2953 204585 176894 25589 22137 2701 2405 2087 27691 4121 23080 151305 10063 6748 12858 4611 2308 141242 2303 10222 3452
cat_boundaries=0 1 2 3 4
cat_threshold=4210688 16384 1024 2098688
is_linear=0
shrinkage=0.005


Tree=24
num_leaves=30
num_cat=0
split_feature=0 5 189 187 23 164 210 99 166 150 233 71 2 2 164 175 207 104 174 33 3 183 173 167 176 28 127 260 184
split_gain=49.6203 62.7755 97.3754 53.5366 36.0541 41.388 30.4998 28.012 27.1334 25.7011 36.1071 22.2556 20.6701 20.3935 27.5939 22.5576 20.2951 27.808 45.6163 19.3793 19.1415 21.475 17.7119 19.4585 18.0763 14.7043 12.7018 11.2672 8.98031
threshold=1.0000000180025095e-35 -0.085392540627452482 -0.00025550127545246687 -0.00025586602057281466 3.1656263312974553 -0.28800228709455594 0.0018091994763825838 64.354006410256417 -0.46599038660211622 90.923564450211259 -6.0505240055991028 -3.9946777887638327 -2.9999999999999996 -25.666666666666512 -0.47815748533793884 1.0000000180025095e-35 0.0027461772981886572 0.31427677751138011 0.10122665942337912 27.520993637929546 5.2917552891335085 0.5601182443588969 0.99450549450548664 1.0000000180025095e-35 0.28916354445080161 0.099941763320497659 529.50000000000011 -0.48364789883388232 -0.0020188372313121867
decision_type=8 10 2 10 10 10 10 8 10 8 2 10 10 10 10 8 10 8 10 10 10 10 10 10 8 10 2 10 8
left_child=1 2 6 19 20 12 8 -5 -1 10 11 25 -6 14 -12 -15 22 18 -18 -4 21 -3 23 -11 -24 -2 -19 -22 -13
right_child=9 4 3 7 5 -7 -8 -9 -10 16 13 28 -14 15 -16 -17 17 26 -20 -21 27 -23 24 -25 -26 -27 -28 -29 -30
leaf_value=0.00072135674559447585 -0.0010778544429581479 -0.00011016718966261037 0.0003287790040617651 -0.0018098494869888038 0.00062853345338087215 -0.0015764792966675649 0.00092617129195908391 -0.00061782499422871075 -0.00042335656304380342 -6.895390171413835e-05 -4.2841077740004625e-05 0.00071314289098775802 -0.00076698136520829386 -7.0109899086035252e-05 0.00097473461082778104 0.00058930297893817953 -6.3922066982839064e-05 -0.00012338763325763524 -0.0009234972761289293 -0.00075147433326678203 4.0810133965170904e-05 9.5843986920410504e-05 0.00022841370979289423 0.00016089257436142319 2.2837491671602288e-05 -0.00013899814780823864 0.00022385170438028704 0.00031744821573672353 9.6866327158786323e-06
leaf_weight=672 733 61154 660 1830 523 815 839 696 2220 29166 854 643 535 2619 2885 2545 4550 5219 2346 1095 18092 15923 26755 13454 17908 1000 5297 4640 1586
leaf_count=672 733 61154 660 1830 523 815 839 696 2220 29166 854 643 535 2619 2885 2545 4550 5219 2346 1095 18092 15923 26755 13454 17908 1000 5297 4640 1586
internal_value=0 -7.6486e-05 -0.000502629 -0.00101722 -4.28543e-05 -0.000730073 8.65975e-05 -0.00148376 -0.000155479 7.13679e-05 0.000282332 -0.000113713 -7.24745e-05 0.000459134 0.000741031 0.000253955 4.53942e-05 -0.000110347 -0.000357164 -0.000342422 -2.99008e-05 -6.75427e-05 7.65211e-05 3.48727e-06 0.000146101 -0.000539378 5.10491e-05 9.75082e-05 0.000215084
internal_weight=227254 109694 8012 4281 101682 1873 3731 2526 2892 117560 12865 3962 1058 8903 3739 5164 104695 17412 6896 1755 99809 77077 87283 42620 44663 1733 10516 22732 2229
internal_count=227254 109694 8012 4281 101682 1873 3731 2526 2892 117560 12865 3962 1058 8903 3739 5164 104695 17412 6896 1755 99809 77077 87283 42620 44663 1733 10516 22732 2229
is_linear=0
shrinkage=0.005


Tree=25
num_leaves=32
num_cat=2
split_feature=266 42 193 19 185 5 215 166 5 219 230 65 189 191 119 2 223 103 261 22 264 90 33 183 16 181 179 10 194 166 266
split_gain=33.3216 66.0727 59.1565 66.9394 47.6259 44.376 36.7346 35.7552 49.2111 36.5786 22.9828 21.9395 17.7002 15.9438 19.8414 17.9367 17.5064 15.1274 14.8324 12.9985 12.6423 11.9039 11.7886 11.0314 23.9508 17.6336 9.40954 8.48992 7.99058 14.7758 8.08296
threshold=0 0.219433208760898 0.0034106320624758273 0.099191926111885251 202.12022639539347 0.023736493395250528 -0.11022381110198683 -0.16915836265387676 1.0000000180025095e-35 -0.00067368748508589416 0.326039072974526 3.0585242480418149e-05 -0.00023721838030282049 0.00030619329350822794 0.092026402495659979 -2.9999999999999996 0.00018754499971674189 -0.0038042525366555929 -0.99343008740139394 0.15103707902582139 -0.058363746958637462 164.36666666666667 85.583795934890858 0.49049326034117041 -0.17000555124359579 0.00016578803282281071 0.81866598857654893 0.91002645502645507 0.39463023161978783 0.95790211943003334 1
decision_type=1 8 10 10 10 8 8 8 10 10 10 10 2 10 8 10 10 10 10 8 2 2 10 10 10 8 8 10 10 8 1
left_child=6 2 3 4 -2 -5 13 8 -4 -9 28 23 18 14 15 -1 22 -16 -13 -14 -18 26 -15 25 -25 -8 -12 -23 29 -3 -30
right_child=1 10 7 5 -6 -7 11 9 -10 -11 21 12 19 16 17 -17 20 -19 -20 -21 -22 27 -24 24 -26 -27 -28 -29 30 -31 -32
leaf_value=0.00082733857783341236 -0.00029626942597563529 -0.00011805757355786812 -0.0018852293990720699 -0.0002068392007302545 -0.0011312260066165527 0.00017261671503802537 -8.5705171714855788e-05 -0.00098111249606696064 -0.00050559296473888288 -9.5023159110753566e-06 6.3297789136318791e-05 0.00012076577529703226 -0.00022984473900230926 0.00021083908901316657 -0.00036977804061535198 5.8178163416158587e-05 0.00030152732547542661 9.2314580515915378e-05 0.001164034355446197 0.00051699254021289902 0.001218992649210102 7.691744202591943e-05 0.00069123344787251086 0.00095894537407984382 5.6358033242045921e-05 0.00014935479544780293 0.00069727509719724897 0.0003309607382445911 0.00042190660971142045 0.00015840473726630037 2.9473373657882102e-05
leaf_weight=1642 6918 27265 1117 15464 2280 15349 49215 1480 1567 2831 921 543 1318 11347 2045 1435 678 13105 969 1037 894 19551 1453 772 15474 9509 1698 3980 1570 5860 7967
leaf_count=1642 6918 27265 1117 15464 2280 15349 49215 1480 1567 2831 921 543 1318 11347 2045 1435 678 13105 969 1037 894 19551 1453 772 15474 9509 1698 3980 1570 5860 7967
internal_value=0 -5.93859e-05 -0.0002039 -0.000129569 -0.000503882 -1.76576e-05 6.17203e-05 -0.000628272 -0.00108211 -0.000344373 3.92528e-05 3.28505e-06 0.000370549 0.000202901 0.000104299 0.00047039 0.000327586 2.95894e-05 0.000793001 9.6975e-05 0.000826914 0.000155997 0.000265812 -1.55966e-05 9.96126e-05 -4.75556e-05 0.000476348 0.000120111 -3.21912e-05 -6.89956e-05 9.51114e-05
internal_weight=227254 115818 47006 40011 9198 30813 111436 6995 2684 4311 68812 78837 3867 32599 18227 3077 14372 15150 1512 2355 1572 26150 12800 74970 16246 58724 2619 23531 42662 33125 9537
internal_count=227254 115818 47006 40011 9198 30813 111436 6995 2684 4311 68812 78837 3867 32599 18227 3077 14372 15150 1512 2355 1572 26150 12800 74970 16246 58724 2619 23531 42662 33125 9537
cat_boundaries=0 1 2
cat_threshold=4211200 2048
is_linear=0
shrinkage=0.005


Tree=26
num_leaves=22
num_cat=0
split_feature=30 198 44 27 90 0 184 169 6 166 73 10 23 231 193 264 184 21 20 96 216
split_gain=51.4773 117.199 43.291 46.0036 25.8628 30.1833 27.0494 30.7353 32.6314 31.6579 23.5348 33.194 21.2316 19.4117 24.4377 17.7243 17.0845 34.917 18.7877 12.518 9.37456
threshold=0.00030229833177673157 0.63570913912881466 50.502308127620665 0.074287415124641556 79.900000000000034 -1.0000000180025095e-35 0.0065683042007648193 15.900000000000002 7.0000000000000009 -0.33946460464140055 -1.9936165759210669 0.46672651107121493 3.1718817943143107 1.3222242468459038 0.000212607244325036 0.022792207792207798 -0.0047575569569400225 -0.052388098381304801 -0.43732387819718938 1.0000000180025095e-35 0.000661920565125096
decision_type=10 10 10 10 2 10 10 10 10 8 10 8 10 10 10 2 8 10 10 10 8
left_child=1 2 12 15 5 10 16 8 -8 -9 -2 -12 20 19 -15 -4 17 -6 -18 -7 -1
right_child=4 -3 3 -5 6 13 7 9 -10 -11 11 -13 -14 14 -16 -17 18 -19 -20 -21 -22
leaf_value=-0.0012020436936012457 0.00075107626247400839 0.0012212235087593968 0.00041433980902653902 -0.0014593829581300009 0.0010695451173998085 -0.00020634989885317712 0.00012761552816267305 -0.0017373715964310755 -0.0010655242992600753 -0.00039984162422191614 -0.00053800077690450976 0.00014522480035053322 -0.001981030145838599 0.00075944505798080709 0.0001739527801768031 -0.00041003882154819221 -0.00012014938948353477 0.00010620126935367922 1.7286712208767168e-05 0.00032132814612036479 -0.00061063767528963316
leaf_weight=1227 823 964 1497 617 1024 1998 3338 655 690 1406 3051 4240 517 4138 3177 1151 29760 11730 151090 2550 1611
leaf_count=1227 823 964 1497 617 1024 1998 3338 655 690 1406 3051 4240 517 4138 3177 1151 29760 11730 151090 2550 1611
internal_value=0 -0.000404975 -0.000642684 -0.000230736 1.39843e-05 0.000185513 -3.15097e-06 -0.000331275 -7.57431e-05 -0.000827979 -4.89456e-05 -0.000140027 -0.0010419 0.00034629 0.0005059 5.4102e-05 7.14461e-06 0.000184017 -5.30215e-06 8.84183e-05 -0.000868425
internal_weight=227254 7584 6620 3265 219670 19977 199693 6089 4028 2061 8114 7291 3355 11863 7315 2648 193604 12754 180850 4548 2838
internal_count=227254 7584 6620 3265 219670 19977 199693 6089 4028 2061 8114 7291 3355 11863 7315 2648 193604 12754 180850 4548 2838
is_linear=0
shrinkage=0.005


Tree=27
num_leaves=28
num_cat=3
split_feature=3 266 247 28 7 172 6 8 135 266 144 114 6 266 2 149 185 28 151 126 56 186 203 69 174 170 1
split_gain=40.07 32.5412 52.5743 61.9302 55.7939 31.7136 28.5587 42.5546 25.248 23.628 28.8777 22.299 19.0684 19.0655 35.3996 22.9139 15.2251 13.3266 15.7761 12.7316 11.393 10.6315 18.8321 8.80073 13.516 7.77537 5.68913
threshold=6.9350761569788375 0 0.024577630957999062 0.09917536464828379 -0.0021885907855987425 -0.00067350149675260418 5.666666666666667 -0.46188439276871712 -0.04067404046133484 1 -0.00027866266624091638 99.264724691438957 5.0000000000000009 2 14.333333333333032 -0.0078596057723943676 202.12022639539347 0.099554712465708586 0.40325812547276713 14834.208820512822 -0.10209092920731509 0.21625554159766378 -0.0018020298154116652 0.49271827500883708 -0.38697888925817819 0.087838049958047351 0.4786018502151172
decision_type=10 1 10 10 10 10 10 10 2 1 10 8 10 1 10 10 10 8 8 10 10 10 10 10 10 10 8
left_child=1 2 17 4 -4 -5 7 8 -2 21 -11 13 16 14 -3 -15 -9 19 -19 -1 -12 22 -8 24 -13 -25 -10
right_child=6 11 3 5 -6 -7 9 12 26 10 20 23 -14 15 -16 -17 -18 18 -20 -21 -22 -23 -24 25 -26 -27 -28
leaf_value=1.0388918125290497e-05 0.0014831089870557851 -0.00030108528291605954 -0.0016089629443607359 -0.00062788989204004835 -0.00028594575727008004 3.2066332724730655e-05 -0.00097904689271420715 0.00011418078215463867 0.00076849841913953054 -0.00087288673790873132 0.00086713495720656941 9.6163527151558076e-05 -0.00071466896881978233 0.0005301407857658606 0.00020550941754305077 8.180691940621572e-05 0.00045216060582296927 0.00027709521073521226 -4.9980249371264326e-05 -0.00038763153791427848 0.00014988661698423411 -0.0010021288874436131 7.4170609277730999e-05 -8.7252397739697701e-05 -8.6027637625192048e-05 -0.00038095405246072481 0.00026714675197963384
leaf_weight=3608 944 8633 1816 2836 1439 5043 635 13033 1123 643 660 19141 584 2993 5730 61544 4508 4923 14624 4466 3616 709 1253 37371 21740 2411 1228
leaf_count=3608 944 8633 1816 2836 1439 5043 635 13033 1123 643 660 19141 584 2993 5730 61544 4508 4923 14624 4466 3616 709 1253 37371 21740 2411 1228
internal_value=0 -2.53601e-05 -0.000155302 -0.000445427 -0.00102587 -0.000204896 0.000173812 0.000266915 0.000789943 -9.08605e-05 0.000112206 6.17914e-06 0.000171518 6.59719e-05 -9.85666e-05 0.000102669 0.000201347 -3.82159e-05 3.21494e-05 -0.000209171 0.00026194 -0.000475911 -0.000277747 -5.22442e-05 -6.00867e-07 -0.000105187 0.000508978
internal_weight=227254 198318 38755 11134 3255 7879 28936 21420 3295 7516 4919 159563 18125 78900 14363 64537 17541 27621 19547 8074 4276 2597 1888 80663 40881 39782 2351
internal_count=227254 198318 38755 11134 3255 7879 28936 21420 3295 7516 4919 159563 18125 78900 14363 64537 17541 27621 19547 8074 4276 2597 1888 80663 40881 39782 2351
cat_boundaries=0 1 2 3
cat_threshold=10240 17408 1024
is_linear=0
shrinkage=0.005


Tree=28
num_leaves=26
num_cat=0
split_feature=19 55 194 184 169 170 255 227 196 194 146 49 8 13 14 41 188 221 1 213 206 114 74 215 66
split_gain=32.9608 78.897 43.29 37.997 31.9639 29.406 27.5881 51.18 24.5128 23.3801 27.5342 19.9947 37.8488 15.52 15.1413 14.1073 32.9103 27.63 18.6512 14.0317 10.1058 9.15939 12.8863 6.03172 5.20606
threshold=0.099354632634902684 0.092457095316900731 0.54369400566663184 0.0024305903217327622 13.700000000000001 -0.0063830917403651958 3.1639871458242026 1.5424041739861005e-05 1.3244444444444767 0.27025230617951623 0.16194540663592444 0.053915230006915234 -1.7205629600706456 -0.0063000014382707517 -0.057063535205850634 3.1830669842220627 0.28357383669471375 0.70910395656567904 -0.24915823170139537 0.010604921456976035 0.0001365603786775971 98.113231626286009 42.660045998292212 0.015173600522869432 0.46989352435920151
decision_type=8 10 10 10 10 8 10 10 10 10 8 10 10 8 10 10 10 10 8 2 10 10 2 8 8
left_child=1 4 9 14 20 6 21 8 -8 13 -11 12 -6 -3 -4 16 18 -18 -7 -13 -1 22 -2 -23 -5
right_child=5 2 3 24 11 15 7 -9 -10 10 -12 19 -14 -15 -16 -17 17 -19 -20 -21 -22 23 -24 -25 -26
