tree
version=v4
num_class=1
num_tree_per_iteration=1
label_index=0
max_feature_idx=299
objective=regression
feature_names=KVO day_first4redcorr RPP_22D zigzag day_jump CV LR day_first3power CMFmin before_bot_price_diff B_C_closepctchg20_sub FAC_MPB_Volraiseap RPP_5D FAC_PIR_max RPP_30M B_LH_closepctchg20_sub B_CS_closepctchg20_sub FAC_VWAP_Deviation_askdommean FAC_PIR_TrendRevmean FAC_ADTM_first B_M_volumediv5_diff5 RPP_2H FAC_MCIB_biddommean B_CS_oi5_diff RPP_4H FAC_VWAP_Deviation_corrAskwap FAC_PIR_askdommean FAC_PRICE_STD_A_biddommean A_B_closepctchg5_sub FAC_BIDDEPTH_askdommean FAC_ILLIQ_max FAC_MCIB_TrendRevmean FAC_MCIB_min FAC_SPREAD_corrBidwap A_B_volumediv5_diff5 FAC_Momentum_Decay_last FAC_ASKDEPTH_askdommean FAC_RTN_JUMP_biddommean FAC_bid_amount_sub20_biddommean bar5_trend_corr FAC_PRICE_STD_A_max FAC_BIDDEPTH_TrendRevmean A_B_volumediv20_diff5 FAC_PRICE_STD_A_askdommean FAC_ask2_vmean_20_biddommean FAC_PRICE_VOL_CORR_A_upmean FAC_PRICE_STD_A_std A_B_cvcorr10_diff FAC_MCIB_askdommean FAC_MCIB_Volraiseap FAC_KDJ_askdommean FAC_ILLIQ_min FAC_PVcorrsub_a5b5_downmean FAC_RUSHSTOPBID_TrendRevmean FAC_RTN_JUMP_askdommean FAC_KDJ_TrendRevmean FAC_ILLIQ_std FAC_bid_amount_sub20_downmean FAC_OFI3_upmean FAC_PVcorrsub_a4b4_askdommean FAC_ADTM_Volraiseap FAC_ADTMMA_first FAC_PVcorrsub_a1b1_upmean FAC_PVcorrsub_a5b5_upmean FAC_bid4_vmean_20_askdommean FAC_KDJ_corrAskwap FAC_bid3_vmean_20_biddommean FAC_RTN_JUMP_TrendRevmean FAC_bid2_vmean_20_TrendRevmean FAC_ASKDEPTH_biddommean FAC_bid2_vmean_20_askdommean FAC_ask2_vmean_20_askdommean FAC_NR_askdommean FAC_bid_amount_sub20_std FAC_bid5_vmean_20_askdommean FAC_ADTM_last FAC_bid4_vmean_20_biddommean FAC_ask1_vmean_20_biddommean FAC_ORDER_SLOPE_B_askdommean FAC_Momentum_Decay_askdommean FAC_PVcorrsub_a2b2_downmean FAC_ASKDEPTH_max FAC_ask5_vmean_20_min FAC_CORR_PVOL_RET_std FAC_ask3_vmean_20_biddommean FAC_bid2_vmean_20_biddommean FAC_ask5_vmean_20_askdommean FAC_bid2_vmean_20_min FAC_NR_biddommean FAC_bid3_vmean_20_askdommean FAC_STREN_downmean FAC_MPC_std FAC_AVGDEPTH_upmean FAC_money_flow_power_last FAC_OFI4_MADmean FAC_KDJ_skewness FAC_money_flow_power_askdommean FAC_bid5_vmean_20_min FAC_bid5_vmean_20_biddommean FAC_ORDER_SLOPE_B_biddommean FAC_ASKDEPTH_TrendRevmean FAC_MCIA_min FAC_AVGDEPTH_askdommean FAC_sub_a4b4_vmean_20_askdommean FAC_ORDER_SLOPE_B_TrendRevmean FAC_ask2_vmean_20_min FAC_AVGDEPTH_corrBidwap FAC_ILLIQ_last FAC_ORDER_SLOPE_B_skewness FAC_RTN_JUMP_Mstdwap FAC_Depth_Reversal_min FAC_PVcorrsub_a1b1_downmean FAC_ILLIQ_kurtosis FAC_MLQSweight_kurtosis FAC_bid4_vmean_20_TrendRevmean FAC_bid4_vmean_20_min FAC_Depth_OI_Pressure_askdommean FAC_RKurt_askdommean FAC_RKurt_biddommean FAC_OI_CHG_biddommean FAC_MACD_max FAC_VOI_biddommean FAC_ask4_vmean_20_min FAC_RTN_JUMP_MADmean FAC_MPB_MADmean FAC_ask1_vmean_20_TrendRevmean FAC_SOIR_TrendRevmean bar3_trend_corr FAC_money_flow_power_TrendRevmean FAC_sub_a5b5_vmean_20_askdommean FAC_ask4_vmean_20_biddommean FAC_NR_TrendRevmean FAC_Depth_OI_Pressure_MADmean FAC_VOI_vwap FAC_OFI5_Volraiseap FAC_ask_amount_sub20_askdommean FAC_ADTMMA_biddommean FAC_bid1_vmean_20_upmean FAC_ORDER_SLOPE_A_std FAC_ask4_vmean_20_askdommean FAC_PRICE_VOL_CORR_A_downmean FAC_bid3_vmean_20_TrendRevmean FAC_ask3_vmean_20_askdommean FAC_bid5_vmean_20_TrendRevmean FAC_RUSHSTOPASK_TrendRevmean FAC_bid1_vmean_20_askdommean FAC_RKurt_min FAC_ask5_vmean_20_biddommean FAC_OIR_askdommean FAC_ask3_vmean_20_TrendRevmean FAC_fibonacci_retracement_max FAC_PVcorrsub_a5b5_biddommean FAC_PVcorrsub_a2b2_upmean FAC_PVcorrsub_a2b2_askdommean FAC_MAX_biddommean FAC_DBCD_vwap FAC_ADTM_downmean FAC_bid1_vmean_20_last FAC_Imbalance_OI_biddommean FAC_ask_amount_sub20_min FAC_OFI2_biddommean FAC_ask_amount_sub20_biddommean FAC_LVC_askdommean FAC_bid3_vmean_20_min FAC_BBI_askdommean FAC_SOIR_biddommean FAC_OI_CHG_Mstdwap FAC_bid5_vmean_20_last FAC_bid1_vmean_20_min FAC_MPB_biddommean FAC_Depth_OI_Pressure_last FAC_ask1_vmean_20_mean FAC_Momentum_Decay_first FAC_MPB_kurtosis FAC_OI_Price_Accel_biddommean FAC_PRICE_PRESSURE_biddommean FAC_PVcorrsub_a1b1_biddommean FAC_MAX_last FAC_CMF_std FAC_bid_amount_sub20_skewness FAC_VOI_Volraiseap B_Y_closepctchg20_sub B_M_closepctchg5_sub XSMOM1M B_P_closepctchg20_sub day_first4greencorr SNR B_M_closepctchg20_sub B_Y_cvcorr10_diff PVcorr VHF B_LH_vcorr10 down_shadow_5mean CR B_Y_closepctchg5_sub B_P_volumediv20_diff5 B_LH_oi5_diff B_CS_vcorr10 B_CS_volumediv20_diff5 B_LH_volumediv20_diff5 B_M_cvcorr10_diff B_P_closepctchg5_sub day_first10rev B_C_volumediv20_diff5 volatility_rg B_LH_volumediv5_diff5 B_C_volumediv5_diff5 A_B_vcorr10 FAC_resiliency_askdommean B_Y_vcorr10 B_M_vcorr10 B_M_volumediv20_diff5 FAC_resiliency_biddommean FAC_VWAP_Deviation_biddommean B_LH_cvcorr10_diff B_M_oi5_diff A_B_closepctchg20_sub up_shadow_5std B_LH_closepctchg5_sub B_C_oi5_diff FAC_MLQSweight_TrendRevmean B_C_cvcorr10_diff down_shadow_5std A_B_oi5_diff B_P_oi5_diff FAC_MLQSweight_min FAC_MLQSweight_askdommean up_shadow_5mean MAdiff_Vol_div B_P_vcorr10 B_CS_volumediv5_diff5 B_C_vcorr10 B_Y_oi5_diff B_CS_cvcorr10_diff FAC_MLQSweight_biddommean B_CS_closepctchg5_sub FAC_BIDDEPTH_skewness FAC_OI_V_DIV_MADmean B_P_volumediv5_diff5 FAC_RVar_biddommean B_C_closepctchg5_sub FAC_MCIA_biddommean B_Y_volumediv20_diff5 B_P_cvcorr10_diff FAC_KDJ_biddommean B_Y_volumediv5_diff5 FAC_MCIA_vwap FAC_PVcorrsub_a3b3_upmean FAC_ORDER_SLOPE_A_askdommean FAC_SPREAD_TrendRevmean FAC_RVar_min PV_corr_std FAC_PVcorrsub_a4b4_max FAC_ask1_vmean_20_kurtosis FAC_Depth_Reversal_std FAC_MCIB_std FAC_MPC_vwap FAC_PVcorrsub_a3b3_downmean FAC_DBCD_skewness FAC_PRICE_STD_B_askdommean FAC_PRICE_STD_B_biddommean FAC_OI_V_DIV_downmean RPP_10M FAC_OI_V_DIV_biddommean FAC_ORDER_SLOPE_A_max FAC_OI_V_DIV_Volraiseap FAC_QUA_biddommean FAC_PVcorrsub_a3b3_biddommean FAC_MCIB_max FAC_ask1_vmean_20_skewness FAC_OI_CHG_std FAC_STREN_std FAC_ORDER_SLOPE_A_biddommean FAC_KDJ_min FAC_OFI3_std FAC_NR_std FAC_KDJ_Volraiseap FAC_ask_amount_sub20_std FAC_SOIR_askdommean FAC_PVcorrsub_a4b4_downmean FAC_CMF_biddommean FAC_ILLIQ_skewness FAC_MFI_vwap FAC_midQUA_biddommean FAC_SOIR_MADmean FAC_OFI4_std FAC_RSkew_biddommean FAC_ILLIQ_biddommean FAC_Depth_OI_Pressure_biddommean FAC_RUSHSTOPASK_askdommean FAC_sub_a4b4_vmean_20_max FAC_sub_a4b4_vmean_20_Mstdwap FAC_bid_amount_sub20_TrendRevmean FAC_RSkew_askdommean FAC_RUSHSTOPBID_first FAC_MCIA_askdommean FAC_tsi_last FAC_PRICE_VOL_CORR_B_downmean FAC_CORR_PVOL_RET_MADmean hour
feature_infos=[-81.262485461671531:161.76191547908729] [-0.99461613090087619:0.99944129379004476] [0:1] [-35.865168539325843:47.957931638913081] [-211.33333333333303:277.66666666666697] [1.5778164861702655:334.15742250884387] [-7.5318170825574171:7.5474810167484261] [-25.333333333333332:33.666666666666664] [-25.770000000009265:31.235294117650721] [-0.030097472347879961:0.029432576832363777] [-0.072683015193714118:0.071506031352874255] [-6.1580000000001744:4870] [0:1] [-0.00083490193697256278:1] [0:1] [-0.35856681542446367:0.12624097014971536] [-0.071821743161100238:0.077006628056093374] [0.096879986637662396:0.10366949151327942] [-0.0016343375980189061:0.49982026395522006] [-2393.6666835923634:33119.354344022737] [-1.6413979898185618:2.2476035753220938] [0:1] [-0.0026130743329169448:0] [-0.092821850543065798:0.062917439936968078] [0:1] [0:0.10366620612655744] [-0.0013917730219479487:0.49982026395522006] [0:2667.135017204791] [-0.030184580932379079:0.020642359213758121] [64.089730622746302:8952.6847805437319] [-2499963.4291581111:972281.40078476758] [-0.0031012725153557971:-0.00016971152205730311] [-0.01:0] [-0.0011426694260340887:2] [-207.96548672566371:210.67560975609754] [-0.85798387616332705:0.84296070317767047] [92.743805670751854:14525.643894488518] [-1:0] [-321143:2053873] [-1:1] [0:3079.2962994814252] [58.233068292441324:45677.683335325841] [-48.204066811909946:181.477399435509] [1.5811388300841906:2667.1350172047905] [0:4.4168959099720446] [-0.57618946404664417:0.77135417395978301] [0:1193.1216724511273] [-1.8953539241471011:1.8511123261777565] [-0.0019907863141494907:-0.00016253236669819314] [-0.0021530007924778671:0] [-3166.9581325947252:4755.6310494882637] [-3133323.4017796027:173802.85805314762] [-1.4794575103199104:1.6204198778285761] [-0.0049281711761383325:0.0027200876060618421] [-1:0] [-6582.708213892668:2621.5527220608355] [0:1113238.5165758571] [-327162.01801801805:277385.9298245614] [-69.756756756756758:29.71551724137931] [-2.0000019153913651:2.0000048023258712] [-724.04761892052693:1231.4782795316894] [-5592.3669202517667:8587.3798294856733] [-0.72654909080008034:1.5730013299013963] [-1.4536418249420908:1.4259674935750957] [0.0037284809378508375:2.9855306705430129] [-9320.0119805710492:3824.63176602762] [0:3.9613411223038248] [-0.66338286860624995:0] [0.0037191319966885989:6.6102169036105076] [0:8104.0456696792135] [0.0046235660895529579:2.366240064705281] [0:4.9020930754538377] [-0.11230464593044164:0] [954.03341426701331:2376711.1815409935] [0.0037091170535270323:3.8710085440627595] [-1867.5468749375655:2290.2307654036263] [0:5.2874916078059799] [0:3.0830441857786832] [-1.1672923430735931:-0.0050377833753148613] [-0.78889782461790425:0.80285547876976071] [-1.4468480008287528:1.4142438323498063] [0:27494.531583904532] [0:2.7067937441397336] [0:130.88505104308814] [0:2.8309066938227985] [0:6.0728853590922123] [0:4.0930691847984555] [0.0035595075296394026:4.2943728292918752] [-0.17942422854411499:0] [0.0044923778475029156:4.4144240497913669] [-0.25:0.16666666666666666] [0:0.6547623610053962] [0:568.57926829268297] [-1:1] [-19.80952380952381:9.5921052631578956] [-3.8555672672619838:4.8982576742664232] [-0.99970610476867883:1] [0.0035311941016939442:2.5947873770935299] [0:4.4350514490303823] [-0.7561864061864062:-0.00091560419723152515] [52.806752639267827:14655.505468625039] [1.9096545707390924e-06:0.0010742174050763409] [1:771.94827586206895] [-11723.6:15581.908602150537] [-2:-0.00091081527946466976] [0:2.5633942505894565] [1.3891723075279687:936.41259006791984] [-2624951.5662217652:833308.0753405455] [-12.425300125166668:7.0827089817077127] [-0.19848563832841223:0] [-0.17208266836926356:0.011007601038192164] [-0.81084943889678018:1.5730013299013963] [-5.9999999999999973:32.607978883971931] [-2.3614801855809757:161.59045716133173] [0.0035763947244039926:5.2874873768218302] [0.0035320541713055563:5.2873194965372372] [-8.4323455298627916:-0.009496038768059302] [1.3015569513911098:114.6382111444467] [0:113.52663689796475] [-0.0030118155842150385:0.0035936244873799872] [-14.801650724912916:589.25827063311169] [-139.59999999999999:231.19999999999999] [0:2.3501037117951444] [-0.068177739352969835:0] [-1.7857000000003609:4870] [0.0039376134235626341:4.2154678304904767] [-0.93209876543209857:0.79670710446310633] [-1:1] [-1:1] [-14292.916666666666:14895.416216216216] [0:2.7441852905895061] [-0.088835164588402071:0] [-8.9563469888234248:10.008883067581468] [-211.0724894514768:271.01810699588481] [-187:220.41666666666666] [-420886.66666666669:2786139] [-8509.5509810166295:121212125.32334451] [0:3.6262313125060186] [0:1896.3735204556453] [0:4.7101865792177051] [-0.57706988502462375:0.78113821499968195] [0.0035763186727228451:5.1495302723379055] [0:4.2707633241655456] [0.0036253501210632491:4.4866187494469161] [-0.0047203210818305107:0.01] [0.0044957103364759365:2.8787337133887911] [1.0086566078865458:113.31067857274972] [0:3.6587072103507658] [-0.89581689062933156:0.46916696718355583] [0:4.9805813453084031] [-1:1] [-2.0000028146516389:2.0000020140156201] [-1.3367093014937779:1.2297432649433269] [-1.9998786909853934:1.9999999150959624] [-12.954499999999825:4869.9907000000003] [-0.029068288969850472:0.0840377344473211] [-81.930721188598099:29219.362136820495] [0.0038546050751939107:9.088358951821041] [-57.446808510638299:60.622641509433961] [-10456629:8] [-867:425] [-3809355:259892] [0:980.56950596598801] [0.0035387849360394175:3.4496311887552267] [-1.925660714285836:1082.0373958333334] [-1:0.49496763600770427] [-0.00064492174039897945:0.00042105424405000197] [0.0035540794310577042:5.426761417593065] [0.0036356559856723014:4.1230641252413296] [-3.5122448979592655:4870] [-9.2500835183776715:10.008973060382106] [0.0041354144604957193:4.2069838544361273] [-0.83988804774884396:0.88988656655502563] [-5.9290069084119832:225.00000000000045] [-1:1] [-4.3666999999995824:859.0882324326609] [-1.9198207962083027:1.9956742744450853] [-14.862700000000586:4869.9907000000003] [0:2318.8938122552281] [-12.022444090570453:12.778792336742473] [-152.66666666666669:368.38888888888886] [-0.082136348906546197:0.080692960748213638] [-0.01968896356713945:0.029732418205585587] [-0.18227800674409889:0.26781712236665167] [-0.0836017388846646:0.12778914875380853] [-0.97271990719972601:0.9997771333785147] [0:0.056122541783675345] [-0.066082651126087133:0.12785352852202048] [-1.8502671481019815:1.8209091281480512] [-0.064253054912034882:0.039171360803654902] [0:43.100000000000001] [-0.94618722012675105:0.99226517032557726] [0:4.8427586206896596] [0.84370725034200189:1.1564281190626804] [-0.019397012747107922:0.031261930154853568] [-0.57992459405953323:1.7603156365532662] [-0.091499862998870585:0.05904632138991639] [-0.9345787329220534:0.99821107250531194] [-8.3371586803529354:10.831102973498009] [-76.078626799557028:107.75146198830409] [-1.7697144976940449:1.8766881676128655] [-0.031313723444089225:0.031069680102380981] [0:4.7451543667956573] [-2.2301947752570159:2.0016582958977356] [0:13.520833333333334] [-657.33333333333337:440.6875] [-13.950150800730642:18.921064393027816] [-0.93412220101679089:0.99738030972475333] [14.997448108821834:1000] [-0.91380494172965587:0.99901664491504116] [-0.87212193944303984:0.99962728367573128] [-0.43411807787063744:1.7749527176248563] [14.994587689736575:1000] [0:0.10365282210843293] [-1.9655769955054558:1.9046209620417809] [-0.091391016742572884:0.066249634249239353] [-0.051028631057178364:0.10400176643511205] [0:8.8227011484893669] [-0.034490572251629881:0.031040510246806319] [-0.092191598474454794:0.066830822945251889] [0:0.001657575449968806] [-1.8059584257490882:1.8539654543486956] [0:6.0485071526377681] [-0.067235582672899641:0.089164629300777842] [-0.091601913953450964:0.070398994444201057] [0.00011102345099222418:0.00087546502930751135] [0:0.0011665853981779376] [0:4.6000000000000032] [-58.584916666666778:83.46020684560439] [-0.89723878691006942:0.99901301831459899] [-53.232944810444266:47.338832155014401] [-0.93461118070509708:0.99783698380155128] [-0.089703453714129244:0.06448174323875544] [-1.8188832075550678:1.8499469068408612] [0:0.0014083647186802298] [-0.01864241067585537:0.029017582197436331] [-6.8394893758783697:10.149652460049928] [0:0.041467489988151432] [-3.7612933021416914:4.0049883055617954] [0:1] [-0.01993677172295738:0.02998047192686859] [0:0.0022355553685705527] [-0.91155448655935922:2.5181883388239545] [-1.8346693631843576:1.8761362590653581] [-9320.0119805710456:4477.8526088545677] [-7.4049416578033433:6.803900614480364] [0:0.0036054869031433858] [-1.3584968399330666:1.3850548777937703] [-246.98408521303259:0.83720468026744854] [-0.0016172527411010026:1.3001194879685494] [2.1171301751899098e-07:1] [0.0026445245138038503:1.0523072984015411] [-2.0000017587156229:2.0000142015863522] [-3.0246438119726893:54.524366962276076] [0:0.033530734973706393] [0:0.0010569998797773288] [-0.24996148711237329:0.82589500983260888] [-1.5600175522675228:1.4519225050353963] [-6.4598882812253215:4.8156580171527921] [1.5811388300841906:5.8482277105636937] [1.5811388300841906:9.465320708469946] [0:0.067391855661900979] [0:1] [0:0.84314874341992829] [-2435:7.2222222222222223] [0.00011230615535055003:1] [0:0.34162210338680932] [-2.0000006629667473:2.0000005064639819] [-0.0015175068050905416:0] [-6.6380304994581447:6.811694057441283] [0:0.0021320873130535136] [0:1] [-1049.8725475240365:2.2000000000000002] [-11298.549835831749:250.30936289350575] [0:509.85365922300548] [0:0.11158068419343085] [-8360.5516071908642:3904.6831926661353] [0:2819596.8078485639] [-0.47400611620795102:0.72240340835607164] [-1.5799143778236613:1.5323784667247871] [-3358.2870298911344:4224.1273346075777] [-5.3684967610037884:5.4395251754973453] [0:123.80870314264234] [0:0.48888888888888893] [-1:0.80927490242424649] [0:457.15957069610755] [-10.497470279503762:10.505694484785181] [-1161520.564487627:162735.20238176902] [0.011726720331324729:10.008915208012029] [-0.0050000000000000001:0.01] [-19438:19766] [-19475.554133594887:15620.08971386214] [-1684399.819710189:1387174] [-10.590585802249667:9.7467234381626877] [-0.01:0.01] [0.00016499231339269955:0.0024000454647736332] [-99.999999999999986:100] [-0.86722505979265163:0.78784106335509207] [-7.7963267161230903:3.7438029093465621] -1:14:9:22:21:10:11:13
tree_sizes=2929 3272 3105 3110 3317 2983 3072 3204 3151 2815 3187 3304 3183 3265 2993 3280 3212

Tree=0
num_leaves=29
num_cat=4
split_feature=3 188 181 40 239 182 299 41 299 194 299 106 195 231 231 196 182 147 299 204 249 210 18 273 145 235 200 235
split_gain=49.7268 56.9594 52.7 47.7319 42.5743 36.7909 39.5655 36.656 36.5045 26.0293 24.9161 22.7823 22.764 22.6975 20.4422 19.2501 18.1809 17.4088 17.1787 16.2888 15.9237 15.5386 21.3191 16.0563 14.9218 13.7588 12.6198 10.7475
threshold=-2.6644706768312378 -0.51121651288314107 0.00052687129032596991 3.0820362184374352 0.097412458835430829 0.00032542166352977914 0 515.66082821027726 1 -0.0017901086324592639 2 8.1717571725040532 -0.0013290556456473088 -0.034523563114450095 0.49130363723960874 -0.00044135632002917363 -0.00058944782129427542 0.026943590612613359 3 0.51458333333332973 -0.00038181853054067804 0.55695625953885841 -0.00048524612469372995 13.539877234178983 0.083756061796190509 -0.0001304742247469903 -0.037325398058710539 0.00053991255621571599
decision_type=10 8 8 2 10 2 1 8 1 2 1 8 10 10 10 10 2 8 1 2 8 10 10 2 10 2 10 2
left_child=2 4 9 21 10 7 19 8 -3 13 24 -12 27 17 -8 -14 26 -1 -15 -7 -18 22 -4 -23 -2 -9 -11 -6
right_child=1 5 3 -5 12 6 14 25 -10 16 11 -13 15 18 -16 -17 20 -19 -20 -21 -22 23 -24 -25 -26 -27 -28 -29
leaf_value=0.0069848109511672675 0.0056840962655847664 0.0063690816822220882 0.0056301315588247703 0.0038879460684191915 0.0064884678507575134 0.0055825440294998419 0.0054350163626807552 0.0056627099709523412 0.0057217904041700759 0.0058213786806932495 0.0063195429228369206 0.0057795536426259548 0.0056328307073660582 0.0062664515352773183 0.0051153372264457634 0.0067268323883949719 0.0050214317510700653 0.0059832370673740375 0.0054476411567848234 0.0060752453529214975 0.0054778044888149999 0.0049290558213118648 0.0052735207693765957 0.0053272262868633413 0.005195351899778735 0.0055135653602147216 0.0055095472570131244 0.0074387716251101323
leaf_weight=591 4274 2987 6541 600 742 3933 29715 29707 8148 6681 2421 10414 1166 794 6036 622 2017 1731 3105 2955 37908 4396 11573 6112 2455 32181 6260 544
leaf_count=591 4274 2987 6541 600 742 3933 29715 29707 8148 6681 2421 10414 1166 794 6036 622 2017 1731 3105 2955 37908 4396 11573 6112 2455 32181 6260 544
internal_value=0.00555026 0.00560944 0.00545757 0.00528388 0.00583881 0.00556451 0.00544786 0.00563269 0.00589682 0.00554355 0.0057525 0.00588159 0.00638626 0.00584935 0.00538094 0.00601665 0.00550747 0.00624082 0.00561482 0.00579433 0.00545461 0.00531338 0.00540257 0.00516013 0.00550657 0.00558508 0.00567016 0.0068955
internal_weight=226609 138300 88309 29222 22638 115662 42639 73023 11135 59087 19564 12835 3074 6221 35751 1788 52866 2322 3899 6888 39925 28622 18114 10508 6729 61888 12941 1286
internal_count=226609 138300 88309 29222 22638 115662 42639 73023 11135 59087 19564 12835 3074 6221 35751 1788 52866 2322 3899 6888 39925 28622 18114 10508 6729 61888 12941 1286
cat_boundaries=0 1 2 3 4
cat_threshold=512 2560 2113536 4196352
is_linear=0
shrinkage=1


Tree=1
num_leaves=32
num_cat=4
split_feature=182 181 105 186 8 21 299 3 225 37 47 1 226 299 115 65 4 299 245 231 22 199 42 228 187 42 299 159 42 1 22
split_gain=84.3138 47.5647 44.7803 51.3705 43.4181 42.5352 31.6436 30.3922 28.3091 26.8212 26.5877 26.2814 25.7367 25.1405 22.9775 21.1681 20.5591 37.4654 36.3624 39.7837 19.7927 30.2531 19.0815 17.4439 14.8831 13.7254 13.173 12.8512 12.0446 11.4637 11.1444
threshold=-0.00092753079710217168 -1.0000000180025095e-35 0.045764556478155992 0.004094595079506407 1.0427922077919021 0.80052356020942417 0 1.0000000180025095e-35 0.00022050276195079944 -0.012463435084925542 0.1898573469238555 -0.77049077907611307 0.00031112438554535012 1 0.014967678501333867 28.276335359216485 -6.1666666666665142 2 -0.0050554820263136709 0.065196265290962396 -0.00057274449362685774 -1.0000000180025095e-35 -0.47141469235515976 -0.086164100980007444 0.00059702243573439573 0.095726705210517973 3 -152775.99999999997 -0.095851970677113915 0.77331414784533659 -0.00051121611140855794
decision_type=2 8 8 2 10 8 1 10 10 8 10 10 10 1 10 10 10 1 10 10 8 10 10 10 10 10 1 2 10 8 10
left_child=7 2 4 23 9 6 10 16 24 -2 -3 14 -5 -13 -7 -8 17 29 25 -20 21 -10 -19 -4 30 -18 -6 -26 -22 -1 -9
right_child=1 5 3 12 26 11 15 8 20 -11 -12 13 -14 -15 -16 -17 18 22 19 -21 28 -23 -24 -25 27 -27 -28 -29 -30 -31 -32
leaf_value=0.00024145862471704229 0.00051919528206280461 -0.00063424182449486649 -0.0001165047687838174 -0.00022592049142236765 0.0015355528964486897 0.001462930606990103 -0.0002634713607930785 0.00042311175702342484 0.00057904484979537385 8.7009998281463292e-05 -0.00010073957771712173 -0.00021652477521985646 0.00015147746972514725 0.0001177505401328353 0.00029181095827858901 -6.6671782115393892e-05 0.00010347062064599748 -0.00080035732041182166 0.00091859451375451821 9.7320875892400584e-05 0.00077186916664296126 0.0017317436408636731 -0.0001186543350120531 0.00015456638194671392 -0.00079035883137314493 -0.00050895544227145173 0.00060663673595969891 0.0002441369521130218 0.00017909434337626097 0.0011141957620880247 -0.000188163812650551
leaf_weight=1007 4285 6460 7382 29023 655 505 21445 4467 1462 22428 3696 8858 5333 15363 2561 37929 2659 1364 2962 2966 1569 954 4243 29909 625 1387 1093 566 1951 620 882
leaf_count=1007 4285 6460 7382 29023 655 505 21445 4467 1462 22428 3696 8858 5333 15363 2561 37929 2659 1364 2962 2966 1569 954 4243 29909 625 1387 1093 566 1951 620 882
internal_value=0 -3.74441e-05 3.89377e-05 -2.7652e-05 0.00020674 -0.000116474 -0.000182142 0.000248407 0.000436432 0.00015654 -0.000440176 5.06743e-05 -0.00016719 -4.33744e-06 0.00048675 -0.000137817 0.000111779 -9.06359e-05 0.000259083 0.00050861 0.000686775 0.00103681 -0.000284987 0.00010077 0.000208374 -0.000105312 0.0009705 -0.000294747 0.000444881 0.000574057 0.000321367
internal_weight=226609 196925 100108 71647 28461 96817 69530 29684 12476 26713 10156 27287 34356 24221 3066 59374 17208 7234 9974 5928 5936 2416 5607 37291 6540 4046 1748 1191 3520 1627 5349
internal_count=226609 196925 100108 71647 28461 96817 69530 29684 12476 26713 10156 27287 34356 24221 3066 59374 17208 7234 9974 5928 5936 2416 5607 37291 6540 4046 1748 1191 3520 1627 5349
cat_boundaries=0 1 2 3 4
cat_threshold=2097152 26624 4202496 1536
is_linear=0
shrinkage=0.005


Tree=2
num_leaves=30
num_cat=3
split_feature=182 194 137 181 249 49 14 17 241 299 11 293 187 216 181 220 276 48 43 299 288 3 235 176 52 299 97 217 12
split_gain=98.5785 50.2158 35.3328 34.2936 29.6197 31.237 29.9415 24.8076 24.5151 22.903 22.8691 24.0757 21.6024 20.6991 20.5308 19.8738 18.0265 20.9347 17.1943 16.452 15.1376 13.6951 13.1188 10.2604 15.9896 9.76512 16.3652 10.583 4.91557
threshold=-0.00058944782129427542 0.00074090431969292558 0.015329630565557041 0.00052687129032596991 -0.00029682587988970945 -0.00060798108999915782 0.12571839080459773 0.10021881135739659 0.00065735017299214992 0 0.014149820472158162 -1.1792065691726967 0.00073259525901425715 -0.003071805479137268 -0.0018538063109189149 0.0003554480848579455 68.79002204794125 -0.0005680494411273632 1.9504991345702847 1 2.7809456427266466 -5.6288851665736024 -0.0001304742247469903 0.13579175118596973 -0.056216060762676552 2 0.011856059461552078 0.14677176197465197 0.21253742514970062
decision_type=2 2 8 8 10 10 10 10 10 1 8 8 10 8 10 10 10 10 10 1 10 10 2 8 8 1 10 2 8
left_child=4 2 3 8 5 10 15 -5 -2 13 22 -12 -8 -4 -11 -7 18 20 21 -19 -18 -3 -1 24 -6 26 -25 -27 -26
right_child=1 16 9 7 23 6 12 -9 -10 14 11 -13 -14 -15 -16 -17 17 19 -20 -21 -22 -23 -24 25 28 27 -28 -29 -30
leaf_value=0.00050545945495186772 0.00020933316396851289 -0.00049637272385615581 0.00050859217494063347 -0.0003437249802675671 -0.00099499505171172348 -1.1249497507580499e-05 0.00041855660204020826 0.00021579040532721951 0.00078124430111364818 5.8452877582134148e-05 -9.6621820855824673e-05 0.0010317878274556554 -0.00017996518273455104 4.0001042763047103e-05 -0.00012128631783963936 -0.00093499875064362249 1.2729889728769375e-05 -6.7693314508830772e-07 -0.00098963161869030118 -0.0004759403293758294 0.00071137169194759712 -0.0002056205426032512 -2.2501271839474257e-05 0.00086877512319455386 -0.00040844517266873571 -0.00038695005192681517 0.00017851824017801166 8.5933834078162581e-05 0.00016772858898701209
leaf_weight=3991 15698 5283 2846 4801 526 2000 7699 3361 2138 20420 548 3104 1861 13872 71065 827 8049 3169 871 4357 859 17964 1643 979 525 1261 7320 18324 1248
leaf_count=3991 15698 5283 2846 4801 526 2000 7699 3361 2138 20420 548 3104 1861 13872 71065 827 8049 3169 871 4357 859 17964 1643 979 525 1261 7320 18324 1248
internal_value=0 -5.68057e-05 -1.01746e-05 0.000155288 0.000191442 0.000332544 0.00016759 -0.000112713 0.000278208 -4.99776e-05 0.000552004 0.000861116 0.000301516 0.000120025 -8.11037e-05 -0.000283483 -0.000210997 -8.286e-05 -0.000298095 -0.000277144 8.07336e-05 -0.000271929 0.00035063 8.99492e-05 -0.000230309 0.000116541 0.000260329 5.51851e-05 -1.96817e-07
internal_weight=226609 174753 134201 25998 51856 21673 12387 8162 17836 108203 9286 3652 9560 16718 91485 2827 40552 16434 24118 7526 8908 23247 5634 30183 2299 27884 8299 19585 1773
internal_count=226609 174753 134201 25998 51856 21673 12387 8162 17836 108203 9286 3652 9560 16718 91485 2827 40552 16434 24118 7526 8908 23247 5634 30183 2299 27884 8299 19585 1773
cat_boundaries=0 1 2 3
cat_threshold=512 4203008 4210688
is_linear=0
shrinkage=0.005


Tree=3
num_leaves=30
num_cat=2
split_feature=181 182 0 239 21 0 234 21 181 223 207 190 49 36 299 245 215 297 223 195 279 7 1 297 299 183 4 176 187
split_gain=74.2134 76.4119 53.7927 50.1483 41.2291 37.1875 30.6876 32.7711 29.8141 28.1447 25.808 39.5842 28.052 23.8656 23.6018 27.8324 22.5221 20.5269 18.7055 14.9824 22.9352 16.3084 14.5416 14.087 13.5805 20.4636 16.2039 11.3855 10.1879
threshold=-0.0021684290207875652 1.0000000180025095e-35 -6.062395699073476 0.072445236328913962 0.73813852813852832 -0.76632716604717632 0.00022645831206701095 0.16399846311475411 0.0025628062362956787 -0.0037364683719725007 -0.070838929610981108 6.8500000000000005 -0.00062941370118766641 905.58363130742498 0 -0.014290887532650514 0.00070302520714260474 -0.18455419803866321 0.0060865071301563498 0.0026900127337868801 -0.21502543427288567 -3.8333333333333326 -0.33961397260067999 -0.18455419803866321 1 -0.084595250304381184 -30.166666666666512 0.36716549118127434 -0.00040213289864271523
decision_type=8 2 10 10 8 10 8 10 10 2 10 2 8 8 1 10 2 8 2 10 10 2 10 10 1 10 10 8 10
left_child=3 5 14 13 8 24 28 -8 -4 -6 11 22 16 18 15 -3 -12 -14 23 21 -21 -15 -5 -1 25 -2 -26 -16 -7
right_child=1 2 4 10 9 6 7 -9 -10 -11 12 -13 17 19 27 -17 -18 -19 -20 20 -22 -23 -24 -25 26 -27 -28 -29 -30
leaf_value=0.00011576750387346292 -0.00066267245881860269 -0.00019743397912159154 -0.00015345771406958674 0.0011276479085883431 -0.00025985270368645338 0.00012790593362474424 -0.00030369483956122346 0.00029008279558119152 -0.00052333916091848703 0.00010917268709139401 0.00035431156622377745 0.0019317230344341333 0.00052199846505328264 0.00052740006418882312 -0.00090889468714481657 -0.0013567953905686846 0.0013041781775387424 -0.00010744473397512572 0.0011886767209014241 -0.00026950472708458297 0.00078305514973185718 2.1039982317230142e-05 0.00031883127408408241 0.00066279205850288704 0.00034543986400681229 9.4384359757823164e-05 -0.00016582729050438862 -0.00020400038652469587 -8.0811202100316879e-05
leaf_weight=4713 943 773 47585 817 6523 10027 2515 29292 6170 24782 1509 677 2046 1881 719 1638 1089 3503 589 6687 558 10416 1825 1583 1655 16097 23003 2981 14013
leaf_count=4713 943 773 47585 817 6523 10027 2515 29292 6170 24782 1509 677 2046 1881 719 1638 1089 3503 589 6687 558 10416 1825 1583 1655 16097 23003 2981 14013
internal_value=0 -4.05438e-05 -0.000144627 0.000201928 -0.000111997 5.66876e-05 0.00014107 0.000242967 -0.000196015 3.21136e-05 0.000478148 0.000850696 0.000325676 8.18802e-05 -0.000597895 -0.00098332 0.000754738 0.000123792 0.000335015 -7.0603e-06 -0.000187651 9.89381e-05 0.00057117 0.000254183 -5.62077e-05 5.21281e-05 -0.000131243 -0.000341615 6.03771e-06
internal_weight=226609 188716 91171 37893 85060 97545 55847 31807 53755 31305 11466 3319 8147 26427 6111 2411 2598 5549 6885 19542 7245 12297 2642 6296 41698 17040 24658 3700 24040
internal_count=226609 188716 91171 37893 85060 97545 55847 31807 53755 31305 11466 3319 8147 26427 6111 2411 2598 5549 6885 19542 7245 12297 2642 6296 41698 17040 24658 3700 24040
cat_boundaries=0 1 2
cat_threshold=6291456 2121728
is_linear=0
shrinkage=0.005


Tree=4
num_leaves=32
num_cat=0
split_feature=182 220 22 14 181 194 191 70 181 217 21 232 0 9 241 19 260 111 239 255 268 243 216 15 210 207 239 269 28 282 21
split_gain=68.3926 61.857 43.8659 38.7991 47.1855 31.1337 28.7333 27.8993 43.092 26.876 24.5357 38.6004 22.7364 20.7448 18.5171 17.7229 17.3895 17.1566 16.5251 16.2574 16.2047 15.5868 14.0185 13.7322 11.8732 11.5407 11.3587 10.3009 9.24722 8.17062 7.93082
threshold=7.506422258596325e-05 0.00026959797933232243 -0.00066688420916997037 0.25308830257739828 0.002188428474013016 0.0005211026309237533 0.10051465129305957 0.094324393938440679 -0.0047774461972319151 1.114612495025703 0.80052356020942417 0.0049038315513482708 1.7180692891261062 -0.00080690625917934067 0.00051805602289898146 -0.98064031578336752 1.6596053996031983 0.31809876653601626 0.056311217743486186 8.5804875478563662e-05 -0.00045330077647029709 0.23006915133522074 0.0026074933892428214 -0.00059770553341692556 0.49434182610095068 0.35505445589356321 0.079343196005779867 0.15184783070096605 0.00060449837506243453 47.531357217461348 0.47930936073059366
decision_type=2 8 8 10 10 2 8 8 10 2 10 2 10 2 8 8 8 10 8 10 2 10 10 10 10 8 10 10 2 10 8
left_child=1 15 12 9 -5 6 18 8 -8 -4 16 13 24 -12 -9 19 23 28 30 29 -14 -20 -18 -7 -3 -13 -19 -21 -17 -1 -2
right_child=5 2 3 4 -6 10 7 14 -10 -11 11 25 20 -15 -16 17 22 26 21 27 -22 -23 -24 -25 -26 -27 -28 -29 -30 -31 -32
leaf_value=-5.7680323393362189e-05 -0.00013628209457910314 0.00068362166416708107 1.5837440288777643e-05 0.00040665292990402512 -0.00011435578819713775 -0.00037108441921586855 0.0010025827547394382 -0.00041528517369813069 -2.0869081974421608e-05 -0.00082123743597675377 0.00042332811839230946 -0.00096133561205985767 0.00059401610500677796 -9.1708957637414121e-05 -0.00013189031325571682 -4.2650364462580436e-05 -0.00077580292436975253 0.00015945358866146215 0.00034074168958696423 -0.00017882913101808544 0.0016751707657953342 -5.9648194175246786e-05 1.5263160318152895e-06 -7.6836559745768407e-05 7.8673221453562177e-05 -7.5194389041600786e-05 0.00060629639844182422 0.00057728663917437618 0.00010511364644235952 -0.0002470951793138349 8.2465775352240288e-05
leaf_weight=11923 7531 2193 10836 19267 5593 10256 1100 7988 15515 1050 3383 1220 636 4603 21044 29685 3113 7348 8576 669 817 3364 697 6544 1319 544 1782 1324 16446 11050 9193
leaf_count=11923 7531 2193 10836 19267 5593 10256 1100 7988 15515 1050 3383 1220 636 4603 21044 29685 3113 7348 8576 669 817 3364 697 6544 1319 544 1782 1324 16446 11050 9193
internal_value=0 8.04811e-05 0.000236661 0.000176863 0.000289235 -9.37511e-05 -3.85505e-05 -0.000116507 4.66441e-05 -5.77513e-05 -0.000228693 -2.14806e-05 0.00067809 0.000125869 -0.000210049 -6.58167e-07 -0.000326471 4.92298e-05 8.54191e-05 -0.00011128 0.00120611 0.000227521 -0.000632324 -0.000256777 0.000457932 -0.000691089 0.000247273 0.000321008 9.92121e-06 -0.000149013 -1.57421e-05
internal_weight=226609 121938 41711 36746 24860 104671 74311 45647 16615 11886 30360 9750 4965 7986 29032 80227 20610 55261 28664 24966 1453 11940 3810 16800 3512 1764 9130 1993 46131 22973 16724
internal_count=226609 121938 41711 36746 24860 104671 74311 45647 16615 11886 30360 9750 4965 7986 29032 80227 20610 55261 28664 24966 1453 11940 3810 16800 3512 1764 9130 1993 46131 22973 16724
is_linear=0
shrinkage=0.005


Tree=5
num_leaves=29
num_cat=3
split_feature=181 92 181 14 5 187 299 201 67 86 214 22 202 3 190 212 252 211 23 167 299 185 299 118 131 54 37 293
split_gain=47.8026 62.9172 70.4784 51.5636 51.1877 44.5682 41.8179 39.263 36.5028 30.8746 30.5502 28.8101 39.5108 25.304 29.2176 24.8817 22.6031 16.6445 16.4374 17.1357 16.3967 15.597 15.5655 18.5851 14.5122 13.8885 8.96437 4.64158
threshold=0.0037312766850438055 4.9723748473748488 -0.0025292613150630357 0.42933947772657455 13.079650197981822 1.0000000180025095e-35 0 -0.0023855660936298313 -0.0045699239614235979 0.024732576164274409 0.056015285140329919 -0.00063356969953604493 2.2198612840329459 3.2821480178235651 6.3500000000000005 123.01376242761414 1.3619771852397797 1.0000000180025095e-35 0.00062342306351231846 0.092788763032674429 1 -1.0000000180025095e-35 2 8.9897442479700391 -7.6620967077929139e-05 -0.007900493853262339 -0.012463435084925542 -0.30055876970838974
decision_type=8 2 8 8 8 10 1 2 10 8 8 8 2 8 2 10 10 10 2 10 1 8 1 8 10 10 10 10
left_child=1 2 11 10 16 -5 24 9 -8 17 -4 12 -1 14 -9 -15 22 -3 19 -18 -13 -20 26 -24 -6 -11 -2 -10
right_child=4 7 3 5 6 -7 8 13 27 25 -12 20 -14 15 -16 -17 18 -19 21 -21 -22 -23 23 -25 -26 -27 -28 -29
leaf_value=0.00027245788621182618 -0.0012625264347434495 0.00036313134532261332 0.00012171384822308618 0.00043426972708365569 -0.00070988951996364767 5.2836009319680214e-05 -0.0020002346730694336 -9.473592183750636e-05 -0.00030538614185915452 0.00054496460051535077 -0.00024016158956073719 0.00093697964571048964 0.0014465991457928377 -1.8151938993903649e-06 -0.00071515704010927442 0.00039331296370292035 9.9133960117331804e-05 0.001582716668620863 -0.00061247614816538397 0.00092726604020810447 0.00026518944675323216 0.00017859735786625753 -0.00036866891708703029 0.00035418622466551713 0.00023428044957803814 3.9915030850922138e-05 -0.00047537325665796302 -0.00094621286945900716
leaf_weight=1281 511 514 9574 12863 712 19012 914 88854 536 1838 14871 1053 1662 40845 1941 4411 1702 650 1067 1001 6901 1481 2778 1301 937 5340 1381 678
leaf_count=1281 511 514 9574 12863 712 19012 914 88854 536 1838 14871 1053 1662 40845 1941 4411 1702 650 1067 1001 6901 1481 2778 1301 937 5340 1381 678
internal_value=0 1.93372e-05 0.000145715 7.43904e-05 -0.000272756 0.000206927 -0.000776358 -3.94594e-05 -0.00123735 0.000293388 -9.82276e-05 0.000513849 0.000937495 -5.99068e-05 -0.000108062 3.65944e-05 -0.000102758 0.00104924 0.000135853 0.000407894 0.000356372 -0.000150821 -0.000313423 -0.000136523 -0.000169516 0.000169992 -0.000687535 -0.000667877
internal_weight=226609 211610 67217 56320 14999 31875 3777 144393 2128 8342 24445 10897 2943 136051 90795 45256 11222 1164 5251 2703 7954 2548 5971 4079 1649 7178 1892 1214
internal_count=226609 211610 67217 56320 14999 31875 3777 144393 2128 8342 24445 10897 2943 136051 90795 45256 11222 1164 5251 2703 7954 2548 5971 4079 1649 7178 1892 1214
cat_boundaries=0 1 2 3
cat_threshold=25088 4194304 19456
is_linear=0
shrinkage=0.005


Tree=6
num_leaves=30
num_cat=5
split_feature=184 123 3 182 182 186 299 14 88 299 223 87 185 4 299 12 227 234 271 221 220 299 231 231 299 214 249 1 212
split_gain=67.5807 58.5306 58.3463 56.9054 45.5613 55.7201 35.6155 54.1197 47.3944 33.768 41.4631 39.5139 30.6422 27.5299 20.6886 21.4319 20.5381 19.5188 18.1953 15.6909 15.3829 16.3125 16.8249 12.9539 12.7336 10.0186 8.76758 7.68504 4.2975
threshold=-0.0041412420955140297 -0.00052240639710733681 3.6302893044323423 -0.00058944782129427542 -7.828825142874861e-05 0.0045000868972392841 0 0.25308830257739828 -0.00078431317427812429 1 -0.0046338466098281841 0.030782413070048351 -0.23592632364801319 -40.499999999999993 2 0.44694853563568654 0.60023809523809979 0.00019765009268494181 0.40050162322232136 0.400178420305835 0.00031812835683553854 3 -0.10475651407909342 0.20217645997614228 4 0.41241390538292338 -0.00027631973290015698 0.91114072056858408 54.278363869261099
decision_type=8 10 10 2 2 2 1 10 10 1 2 8 10 8 1 8 2 8 10 8 8 1 8 10 1 8 10 8 10
left_child=1 6 4 17 14 24 8 16 -1 11 -11 -5 -7 -9 18 -16 -8 27 -2 -19 21 22 -3 28 -6 -10 -23 -4 -22
right_child=2 20 3 9 5 12 7 13 25 10 -12 -13 -14 -15 15 -17 -18 19 -20 -21 23 26 -24 -25 -26 -27 -28 -29 -30
leaf_value=0.002254148822299443 0.00012617761458080226 -0.00020380656610641086 -0.00026229018270704381 0.00066254044601084781 -0.00019072865777442039 -0.00051863949214145323 -7.6766085325831571e-06 0.0017352030357815913 0.00025243377568461023 -0.00052404709400540202 -1.1671803364349995e-06 7.9793328766021853e-05 -0.00019026413758415305 0.00051767463662383772 -0.00013071863726569314 6.225545551037228e-05 -0.0011910037292043017 0.00061432073613759664 0.00074428991071557454 0.0001715997123052529 0.00037271778817892751 4.4481461746221963e-05 0.00046284366754880757 -3.4091640493562934e-05 -1.4756577515886861e-06 0.00098221442501136239 -0.00028555402059702347 0.00041394380219679635 0.00097511090084571633
leaf_weight=644 9811 1394 1352 3687 12827 13556 1213 539 815 4336 30292 13906 15072 3576 28485 29035 530 7344 1361 2800 510 3622 2891 835 29075 1189 4463 606 843
leaf_count=644 9811 1394 1352 3687 12827 13556 1213 539 815 4336 30292 13906 15072 3576 28485 29035 530 7344 1361 2800 510 3622 2891 835 29075 1189 4463 606 843
internal_value=0 0.000256508 -2.90625e-05 9.54419e-05 -8.66219e-05 -0.000175888 0.000586075 0.000364967 0.0010676 2.37445e-05 -6.67788e-05 0.000202121 -0.000345945 0.000678749 4.96085e-06 -3.32169e-05 -0.000370839 0.000404381 0.000201804 0.00049264 6.35778e-05 -4.39116e-06 0.000244235 0.000449955 -5.9578e-05 0.00068819 -0.000136926 -5.03393e-05 0.00075218
internal_weight=226609 23064 203545 64323 139222 70530 8506 5858 2648 52221 34628 17593 28628 4115 68692 57520 1743 12102 11172 10144 14558 12370 4285 2188 41902 2004 8085 1958 1353
internal_count=226609 23064 203545 64323 139222 70530 8506 5858 2648 52221 34628 17593 28628 4115 68692 57520 1743 12102 11172 10144 14558 12370 4285 2188 41902 2004 8085 1958 1353
cat_boundaries=0 1 2 3 4 5
cat_threshold=4204544 1536 16384 4197376 6291456
is_linear=0
shrinkage=0.005


Tree=7
num_leaves=31
num_cat=0
split_feature=182 181 21 298 214 33 0 17 92 115 290 245 9 223 181 41 199 104 228 198 38 215 292 183 134 197 218 226 61 209
split_gain=67.3613 52.1758 62.0585 45.263 40.7239 35.9487 35.2998 34.4048 32.4736 29.7781 29.6217 28.4833 26.6758 22.4496 22.1617 21.5377 20.0547 17.4428 17.2751 16.9115 14.3682 13.556 13.3662 8.8938 8.45424 8.3509 14.1312 13.1423 6.4219 4.08583
threshold=7.506422258596325e-05 -0.0021684290207875652 0.73813852813852832 -1.0584366411761466 -1.1642876023261619 -0.00028212614168895739 0.66188432816966281 0.10072671657459825 4.3439529220779232 0.022428481272236903 511.50000000000006 0.028703922206641006 0.00096350376219533917 -0.0037364683719725007 -0.0018538063109189149 515.66082821027726 -0.048665106727671568 -0.068478372297541085 -0.93666454721968806 0.32833668875362348 8989.5056593095669 -0.0021702429828449605 -1397.5270995459196 0.04457460474570752 3.336879432624114 -0.34640515529550481 1.0000000180025095e-35 0.00025126909298985668 -1.312302714361689 0.37257301602796378
decision_type=2 10 8 10 10 8 10 10 2 10 2 10 2 2 8 10 8 8 10 10 10 2 8 8 10 10 8 10 2 10
left_child=3 7 4 15 9 6 14 8 20 -3 -8 -10 13 -4 -5 22 -14 -9 -6 24 -2 -21 28 -24 -17 26 -7 -27 -1 -19
right_child=1 2 12 5 18 25 10 17 11 -11 -12 -13 16 -15 -16 19 -18 29 -20 21 -22 -23 23 -25 -26 27 -28 -29 -30 -31
leaf_value=0.00073465391354023287 0.00041817113191738696 -0.00077190692900779402 -0.00017468575469076347 0.00049480504185691731 -0.00083880820485529627 0.00028369924481746773 0.00064551312577159129 0.00015627182384647813 0.00019035782709772388 -0.00031758476067996584 -0.00019910723959940313 -0.00039653001999591348 0.00019231806212469896 0.0002227855135067296 5.9287876541944629e-05 -4.5818827142220243e-05 -0.00033432304446358302 -0.0012157532678224359 -0.00012581120098686957 -0.00076449428867682453 0.0011141512906858025 -0.00016448438863595142 8.5432487161477064e-06 0.0003303600407687879 9.0389248462539651e-05 -6.8997334425286631e-06 -0.00058568490055575968 0.00028342010051629949 0.00025076395613059542 -0.00058214490835074525
leaf_weight=1408 3989 4767 4531 3967 873 737 9315 579 10335 15177 1158 2580 2481 16256 11204 41480 6563 561 34498 1221 928 4265 7264 3067 15696 12925 1249 5561 1421 553
leaf_count=1408 3989 4767 4531 3967 873 737 9315 579 10335 15177 1158 2580 2481 16256 11204 41480 6563 561 34498 1221 928 4265 7264 3067 15696 12925 1249 5561 1421 553
internal_value=0 -9.30404e-05 -0.000146526 7.98732e-05 -0.000245665 0.000203396 0.000328155 0.000139943 0.000204825 -0.00042646 0.000551636 7.27078e-05 3.71408e-05 0.000135903 0.000173524 4.67737e-06 -0.000189294 -0.000540215 -0.000143573 -3.38744e-05 0.000550742 -0.000299053 0.000188612 0.000104589 -8.33851e-06 4.68647e-05 -0.000260562 8.01751e-05 0.000493538 -0.000906513
internal_weight=226609 104671 85146 121938 55315 46116 25644 19525 17832 19944 10473 12915 29831 20787 15171 75822 9044 1693 35371 62662 4917 5486 13160 10331 57176 20472 1986 18486 2829 1114
internal_count=226609 104671 85146 121938 55315 46116 25644 19525 17832 19944 10473 12915 29831 20787 15171 75822 9044 1693 35371 62662 4917 5486 13160 10331 57176 20472 1986 18486 2829 1114
is_linear=0
shrinkage=0.005


Tree=8
num_leaves=31
num_cat=4
split_feature=181 21 204 2 202 46 89 157 299 223 22 202 197 197 81 187 66 23 193 299 9 285 235 299 187 221 299 1 212 254
split_gain=72.001 54.0684 53.8192 151.42 64.4895 54.2974 44.7711 42.1837 36.1365 36.893 34.9491 60.4765 47.9226 24.6856 24.296 29.4194 23.7956 23.2914 18.7737 34.6754 23.1756 21.8766 17.008 25.9356 15.7867 15.0992 14.2928 25.2832 13.6417 5.67603
threshold=-0.0021684290207875652 0.76987638713302442 1.0083333333333353 0.66902979763728776 1.8064384685787496 0.17053281880931739 0.053343004016399 0.056455683249652257 0 -0.00092356469709953249 -0.00064440527274826399 1.7137126832114573 0.13299269241245462 0.1681117618840999 2665.122305152564 0.0010301182372886022 0.21588169621618472 0.0060578128875249391 1.0106968698572842 1 -0.0019712039398736554 27.011939741268826 0.0002271700301932911 2 0.001611391415947683 -0.27195727939012476 3 0.91114072056858408 107.7480854132811 0.00034844869355540073
decision_type=8 8 2 8 2 10 10 8 1 2 8 2 8 10 2 10 10 2 8 1 2 10 2 1 10 8 1 10 8 8
left_child=7 2 14 4 -4 -5 8 10 13 -10 11 29 -13 -3 15 -2 17 -12 26 21 -21 -20 24 -24 -8 -16 28 -28 -9 -1
right_child=1 6 3 5 -6 -7 22 18 9 -11 16 12 -14 -15 25 -17 -18 -19 19 20 -22 -23 23 -25 -26 -27 27 -29 -30 -31
leaf_value=0.00012453547987117012 -1.6151979798323602e-05 0.0009496445593722919 0.0012577320825174524 -0.0010596335128688816 -0.00038372482917809625 -0.0028203973613634696 0.00020501836182668605 -0.00028681908958053505 -0.00018704305511524965 0.00041375205409892774 0.00025894642646134798 0.00047993503828232926 0.0018100228491943868 0.00026213689222531782 -3.9188015613033705e-05 -0.0002221347146675524 0.0010552562678084625 -0.00053623489515570218 1.3332526636906188e-05 0.00029189565232947269 -0.00058993209756665619 0.001063748026565093 -0.00039254790086700999 1.2437599814990856e-05 -0.00020018835355097662 -0.00041999047595321203 0.00043355714419936978 -0.00029737186722758331 0.00049449612728730058 -0.00059324296195207638
leaf_weight=578 100055 3060 871 1246 1901 689 12347 2566 4585 5749 14424 1301 1443 2321 3977 20984 879 979 1809 912 3901 687 5361 14892 2972 7706 5711 1483 710 510
leaf_count=578 100055 3060 871 1246 1901 689 12347 2566 4585 5749 14424 1301 1443 2321 3977 20984 879 979 1809 912 3901 687 5361 14892 2972 7706 5711 1483 710 510
internal_value=0 -3.99331e-05 -9.16532e-05 -0.000617149 0.000130508 -0.00169031 9.85579e-05 0.000198897 0.000320809 0.000146573 0.000355751 0.00078594 0.00118162 0.00065292 -7.29742e-05 -5.19052e-05 0.000254156 0.000208049 2.11517e-05 -0.000172972 -0.000420898 0.000303546 2.24805e-07 -9.47176e-05 0.000126071 -0.000290804 0.000157148 0.000281774 -0.000115509 -0.000207568
internal_weight=226609 188716 137429 4707 2772 1935 51287 37893 15715 10334 20114 3832 2744 5381 132722 121039 16282 15403 17779 7309 4813 2496 35572 20253 15319 11683 10470 7194 3276 1088
internal_count=226609 188716 137429 4707 2772 1935 51287 37893 15715 10334 20114 3832 2744 5381 132722 121039 16282 15403 17779 7309 4813 2496 35572 20253 15319 11683 10470 7194 3276 1088
cat_boundaries=0 1 2 3 4
cat_threshold=1536 4194816 18432 4194816
is_linear=0
shrinkage=0.005


Tree=9
num_leaves=27
num_cat=3
split_feature=181 3 220 187 299 4 299 40 182 29 182 200 91 227 299 192 182 91 241 62 241 186 190 49 185 219
split_gain=68.3717 100.442 74.2472 43.4374 37.7527 37.642 31.4939 63.8535 31.3127 26.7234 25.0219 22.7139 22.3286 19.3663 18.431 19.5291 18.3989 18.0352 17.8527 16.4521 15.3014 15.2668 14.4289 22.7885 7.12079 6.27206
threshold=-0.00053203595183887165 2.5865166219285571 0.00026022399520300965 -0.0020459242912175819 0 -40.499999999999993 1 2.9409776711304585 -0.00034576441898415128 463.81112332816787 -0.00034576441898415128 -0.70310408083329834 0.00020771044318248689 0.20000000000000204 2 0.33333333333333887 0.00026143790849669784 0.00017898510184891582 0.0005916510833104833 0.3000799795495287 0.00049473174674701263 0.0034537464205371469 3.1500000000000008 -0.00073332998053156383 0.53569681071535113 0.00034468047385666228
decision_type=8 10 8 8 1 10 1 2 2 8 2 10 8 2 1 2 2 10 10 8 10 2 2 8 8 2
left_child=2 6 5 13 9 17 7 8 -2 -5 -6 19 16 -3 21 -16 -13 -1 -14 -4 -15 -7 24 -24 -8 -21
right_child=1 3 11 4 10 14 22 -9 -10 -11 -12 12 18 20 15 -17 -18 -19 -20 25 -22 -23 23 -25 -26 -27
leaf_value=0.00021335623804402486 -7.8786667525314606e-05 -0.00019351008571954768 0.0014996944566503529 0.00085621406304713999 0.00017272497009005689 0.00027621965928284801 8.8086256125217481e-05 -0.0020330731843648704 -0.00040049327229012391 0.00019625172723468677 -8.4541567196261654e-05 0.00029664249085412184 0.00033640498053073473 0.00023513003773200259 -0.00025350376570496469 -2.4565459588937759e-08 2.7812778326966175e-05 0.0013989059826770396 0.00090691648669903916 0.00027675494209853844 0.00096861302508776141 -5.2615384043210013e-06 0.00038554556670711472 -0.00023239038833456935 -0.00010858221274772162 0.00083428305172935139
leaf_weight=633 12041 662 555 1913 12943 6881 10338 529 20542 7922 34995 15057 4605 1064 13212 17976 11101 675 1985 1188 2277 15944 1601 20746 8294 930
leaf_count=633 12041 662 555 1913 12943 6881 10338 529 20542 7922 34995 15057 4605 1064 13212 17976 11101 675 1985 1188 2277 15944 1601 20746 8294 930
internal_value=0 -7.09725e-05 0.000106276 7.78518e-05 4.28537e-05 -8.08015e-06 -0.000195127 -0.000309864 -0.000281767 0.000324873 -1.49714e-05 0.000285016 0.000248595 0.000581573 -2.8473e-05 -0.000107535 0.000182752 0.000829586 0.000509121 0.000729098 0.000736659 7.93505e-05 -0.000102189 -0.000187881 2.70184e-07 0.0005242
internal_weight=226609 135867 90742 61776 57773 55321 74091 33112 32583 9835 47938 35421 32748 4003 54013 31188 26158 1308 6590 2673 3341 22825 40979 22347 18632 2118
internal_count=226609 135867 90742 61776 57773 55321 74091 33112 32583 9835 47938 35421 32748 4003 54013 31188 26158 1308 6590 2673 3341 22825 40979 22347 18632 2118
cat_boundaries=0 1 2 3
cat_threshold=512 6293504 4196864
is_linear=0
shrinkage=0.005


Tree=10
num_leaves=31
num_cat=0
split_feature=181 3 226 194 92 238 1 200 183 207 0 226 213 223 89 214 185 187 52 144 185 68 186 285 233 241 194 6 1 200
split_gain=57.7451 66.4027 56.6282 43.986 27.2698 25.1122 24.0561 31.5358 30.1653 23.986 34.5566 22.6037 18.5713 43.5792 27.6209 25.6288 24.1217 22.4428 17.4212 17.4026 16.2634 16.0695 33.9309 14.6258 13.4397 19.8891 13.2021 12.297 7.38125 7.24562
threshold=-1.0000000180025095e-35 8.2196046093366792 0.00025921320246981007 -0.0023175698615082725 4.3439529220779232 -1.0000000180025095e-35 -0.079578926026471083 0.21413203411285023 -0.0083712940725911827 -0.22491951341097727 -0.76632716604717632 0.00031112438554535012 0.10016079717200783 -0.0037364683719725007 0.01681854402269339 -0.059474710074524297 -0.58249943734157494 -0.0006922017757451936 -0.39302693129072269 -2.3804613509171958e-06 -0.42933014808777231 0.04983994437035557 0.0039634302786031262 17.093616301840431 0.253903680814135 0.00063473301085127947 -0.00037851381346892804 -1.8529666595393322 -0.20441842309235639 0.30090084314560045
decision_type=8 10 8 2 2 8 10 8 8 10 10 10 10 2 8 8 8 8 8 10 10 10 2 10 8 8 2 10 10 8
left_child=2 12 18 9 26 11 7 -7 -8 -4 -11 20 14 23 15 -2 -15 -16 24 -13 -3 29 -23 -14 25 -1 -5 -6 -26 -20
right_child=1 5 3 4 27 6 8 -9 -10 10 -12 19 13 16 17 -17 -18 -19 21 -21 -22 22 -24 -25 28 -27 -28 -29 -30 -31
leaf_value=0.00012210578180874696 0.00016842527977660568 0.00068667006707670303 0.0017040195105428046 0.00047261576253446993 0.00025732611140540996 0.00067562041839567188 0.0003539422675803041 -0.00037504409905976484 -0.00058043458060841433 7.1272144195447606e-05 0.0011405548531834583 0.00053133136970580765 -0.00021863119887947054 0.00046597514736719764 -4.554619912422745e-05 -0.0011432153187651529 2.3399287564556058e-06 -0.00023146964117737889 0.00027739890005965223 0.0017929238888584648 0.0001146181474243171 6.3231774685462309e-05 -0.00019292780470854081 -0.00076899146839915237 0.00034923711643986515 0.00092802136605242948 0.00018954965041166245 1.5878934025834187e-05 -0.00037963303643188273 -7.2140687304883509e-05
leaf_weight=1858 509 2046 549 8021 6905 2311 1364 1026 2332 1661 1402 607 2939 3203 28018 1324 22731 38835 5205 522 3230 24265 27615 2092 539 1322 8645 22533 956 2044
leaf_count=1858 509 2046 549 8021 6905 2311 1364 1026 2332 1661 1402 607 2939 3203 28018 1324 22731 38835 5205 522 3230 24265 27615 2092 539 1322 8645 22533 956 2044
internal_value=0 -7.99623e-05 7.96689e-05 0.000206186 0.000164409 0.000249835 4.27696e-05 0.000351068 -0.00023425 0.000737853 0.00056255 0.000476381 -0.000124488 -2.26409e-05 -0.000170329 -0.00077637 5.98101e-05 -0.000153626 -1.88364e-05 0.00112013 0.000337492 -4.21428e-05 -7.30231e-05 -0.000448584 0.000274817 0.000458902 0.000326104 7.26896e-05 -0.00011345 0.000178153
internal_weight=226609 113089 113520 49716 46104 13438 7033 3337 3696 3612 3063 6405 99651 30965 68686 1833 25934 66853 63804 1129 5276 59129 51880 5031 4675 3180 16666 29438 1495 7249
internal_count=226609 113089 113520 49716 46104 13438 7033 3337 3696 3612 3063 6405 99651 30965 68686 1833 25934 66853 63804 1129 5276 59129 51880 5031 4675 3180 16666 29438 1495 7249
is_linear=0
shrinkage=0.005


Tree=11
num_leaves=32
num_cat=0
split_feature=182 181 25 106 220 24 115 195 201 187 202 213 190 38 194 101 218 175 201 143 14 197 208 273 52 2 88 21 183 162 214
split_gain=82.7489 39.8058 46.0947 43.5128 36.1913 40.7423 31.887 31.0214 29.6668 26.6745 40.0936 21.8815 21.445 20.2038 18.2635 25.0336 17.6114 16.2429 15.7594 17.3953 16.2754 14.9822 12.7429 25.0016 11.8545 10.4884 10.4364 11.0799 9.75106 9.1477 8.2892
threshold=-0.0002776973239804747 1.0000000180025095e-35 0.10016632098875901 8.1717571725040532 0.00023262303184948119 0.28175416133162617 0.025224165062458306 -0.013404329845928048 0.00046437818942957071 0.00087559218772964586 2.3324607625849052 0.09969906931128604 5.6500000000000012 18814.481370192312 -0.00025733401955735363 0.0003748016268506472 0.001642891010021186 -0.13548950039032071 -0.0014293540637518862 0.042770025737345806 0.12571839080459773 0.13299269241245462 107.91562782312531 36.18732059363964 1.0000000180025095e-35 0.91893372013853958 -0.00012997389678328134 0.85756551141166537 -0.068005862466049991 38.445164217729172 0.28626915796550162
decision_type=2 8 8 8 8 10 8 10 2 10 2 8 2 10 2 8 10 8 2 10 10 10 10 2 10 8 10 10 10 8 8
left_child=4 3 6 8 21 7 12 30 13 10 -7 -9 -3 -2 24 -16 -8 -10 19 -5 -20 26 29 -24 -4 -11 28 -28 -1 -23 -6
right_child=1 2 14 18 5 9 16 11 17 25 -12 -13 -14 -15 15 -17 -18 -19 20 -21 -22 22 23 -25 -26 -27 27 -29 -30 -31 -32
leaf_value=-0.00036123853983840515 0.00028945647571777643 -0.0004119088225883129 0.00013306168739126776 0.00032884383221284155 -0.00026645425960537789 0.00028590859893773234 -0.00023649575924584646 0.00021424075781336778 -0.00064712652950114013 0.00013796867324721002 0.00075982017892595437 -0.00023296394173246432 -0.0010405441931923738 0.0010688726367342818 -0.00035165317883241497 2.0798335463228556e-05 0.00012120951830896301 4.8538540473796674e-05 -0.00037124191907252394 -4.4686293328426468e-05 -6.9129379448201153e-05 -0.00037952024413129981 0.00076358621213732845 -0.0002179428109604974 0.00076898494786151932 -0.00039962252013807809 6.9352661943987196e-05 -0.00038931182418911093 0.00028687577788611383 -8.0739335185492115e-05 -0.0010680814792820234
leaf_weight=618 12381 8209 6533 4917 612 16577 25477 9693 1138 4149 6142 3801 1644 897 6204 16452 3958 3146 5033 8461 39844 3296 1197 1403 831 1159 10733 1499 8042 11829 734
leaf_count=618 12381 8209 6533 4917 612 16577 25477 9693 1138 4149 6142 3801 1644 897 6204 16452 3958 3146 5033 8461 39844 3296 1197 1403 831 1159 10733 1499 8042 11829 734
internal_value=0 -7.15877e-05 -0.000158199 7.52325e-06 0.000127516 0.000227539 -0.000270916 1.53456e-05 0.000225734 0.000339709 0.000414277 8.78934e-05 -0.000517401 0.000342563 -1.05124e-05 -8.09822e-05 -0.000188224 -0.000135199 -5.81772e-05 9.2243e-05 -0.000103131 1.6354e-05 -9.04118e-05 0.000232136 0.000205597 1.95909e-05 0.000107175 1.27086e-05 0.000240011 -0.0001462 -0.000707778
internal_weight=226609 145125 69308 75817 81484 42867 39288 14840 17562 28027 22719 13494 9853 13278 30020 22656 29435 4284 58255 13378 44877 38617 17725 2600 7364 5308 20892 12232 8660 15125 1346
internal_count=226609 145125 69308 75817 81484 42867 39288 14840 17562 28027 22719 13494 9853 13278 30020 22656 29435 4284 58255 13378 44877 38617 17725 2600 7364 5308 20892 12232 8660 15125 1346
is_linear=0
shrinkage=0.005


Tree=12
num_leaves=31
num_cat=0
split_feature=182 3 36 184 0 4 38 184 6 226 246 18 200 185 247 214 2 185 187 245 71 224 51 8 191 4 134 8 165 201
split_gain=91.7919 42.0493 41.8944 46.8601 36.6934 32.1188 27.0121 35.4783 28.3841 26.9584 26.8979 23.9226 22.823 21.8368 21.1328 20.8525 18.8619 18.5885 18.2169 18.0316 21.2774 15.3168 13.3229 12.8916 11.7191 11.3845 8.85882 5.87413 5.77327 5.61837
threshold=-0.00068419827521604127 -2.1488529007331842 658.42044243623889 -0.0066577066315657287 -2.4847615774219771 -16.333333333333254 18814.481370192312 0.00072840159396392334 -1.5323760104541617 0.00021280358422656094 0.00065444029212600563 -0.00049163250524128705 -0.24975725178341193 0.53569681071535113 -1.0000000180025095e-35 1.0000000180025095e-35 0.22799548532731381 0.53569681071535113 0.0027256167769854627 -0.01081213769870289 0.14701251618340908 0.00022160122039072141 -50.719036343619315 0.63333333333351238 -1.0000000180025095e-35 -16.333333333333254 -3.2434343434343429 -0.66521739130446766 -0.18235781914279475 -0.0012329580737889254
decision_type=2 10 8 8 10 8 8 8 10 8 8 10 10 10 10 8 10 10 10 10 8 2 10 10 8 8 10 10 10 2
left_child=1 11 6 5 14 -4 7 8 -2 26 -7 19 13 -11 -5 -9 17 -13 -6 21 -21 -1 -18 29 -14 -25 28 -28 -3 -8
right_child=2 9 3 4 18 10 23 15 -10 12 -12 16 24 -15 -16 -17 22 -19 -20 20 -22 -23 -24 25 -26 -27 27 -29 -30 -31
leaf_value=-0.00043110766588329774 0.0005873011726659251 0.00017351366237550005 0.001333434255730072 -0.00027918620132976542 -3.8798904408148663e-05 0.0004591575330221926 0.00059812108400955567 0.00015593092993199434 9.0115837435757323e-05 0.00049003182463794542 -0.00057298935101278263 -0.00010609718947348682 0.00057326458151680203 0.0011236433014551309 0.00016394510205418103 -0.00029235569875839474 0.00012364415572928416 -0.00083499817533654768 -0.00029800798074666848 0.0010392861902170016 0.0002736655684914163 0.00033029122817687613 -0.00032079280947549491 0.0013571005884474691 0.00019652471422614535 0.00051385244310419393 0.00049671746274455202 7.8049330762837446e-05 -0.00043540796516227471 9.6819618772942277e-05
leaf_weight=1341 3560 576 795 32500 99029 2714 763 3671 15012 3974 818 2520 3068 2110 2918 8746 9189 1355 7285 1190 3957 1296 2061 561 6524 1535 1183 3003 1140 2215
leaf_count=1341 3560 576 795 32500 99029 2714 763 3671 15012 3974 818 2520 3068 2110 2918 8746 9189 1355 7285 1190 3957 1296 2061 561 6524 1535 1183 3003 1140 2215
internal_value=0 0.000203613 -4.97299e-05 -8.74303e-05 -0.000103108 0.000424849 0.00010282 4.72614e-05 0.000185715 0.00036204 0.000218606 5.41635e-05 0.000470534 0.000710746 -0.000242533 -0.000159418 -6.14778e-05 -0.000362417 -5.66105e-05 0.000279486 0.000451818 -5.50261e-05 4.17576e-05 0.000441081 0.000317593 0.000742474 7.29952e-05 0.000197653 -0.000228121 0.000227095
internal_weight=226609 44487 182122 146059 141732 4327 36063 30989 18572 21578 3532 22909 15676 6084 35418 12417 15125 3875 106314 7784 5147 2637 11250 5074 9592 2096 5902 4186 1716 2978
internal_count=226609 44487 182122 146059 141732 4327 36063 30989 18572 21578 3532 22909 15676 6084 35418 12417 15125 3875 106314 7784 5147 2637 11250 5074 9592 2096 5902 4186 1716 2978
is_linear=0
shrinkage=0.005


Tree=13
num_leaves=32
num_cat=4
split_feature=3 78 194 187 299 18 222 235 188 299 250 250 14 182 136 299 184 200 87 194 202 292 189 214 213 48 139 299 228 182 5
split_gain=63.0631 53.552 47.7908 44.132 31.8905 36.0471 31.6992 29.3063 28.2734 27.2999 49.29 32.6109 30.8516 24.7468 24.5052 24.0493 23.2265 22.7904 25.8745 21.9821 21.821 17.9148 17.1935 15.2215 16.848 13.8625 15.0335 13.2626 12.8924 12.8265 10.9646
threshold=2.5865166219285571 -0.075987401839597443 -7.4387947070042579e-05 -0.00013642031642357996 0 -0.00044547332581029654 0.83666002653408933 -0.00069395632493907111 0.041166964923961817 1 0.021052651725124241 0.035208137316103526 0.42933947772657455 -0.001090683166268813 -1.4739854333409264 2 0.0025742322106157016 0.2552600739550191 0.030782413070048351 -0.00021239025935315678 1.5811949443442346 -5095.7177895880986 0.0002681898423804325 0.48178731782762718 0.10016079717200783 -0.00053967928623091055 0.01960033600704808 3 0.40419436864109004 -0.0002776973239804747 4.4788321670159803
decision_type=10 8 2 10 1 8 2 2 10 1 10 10 10 2 10 1 10 10 8 2 2 10 10 8 10 8 10 1 8 2 10
left_child=2 3 9 6 5 -5 15 17 -6 11 30 20 -12 21 25 -2 -13 18 -3 -8 -1 -9 -15 28 -25 26 -4 -19 -16 -27 -11
right_child=1 7 14 4 8 -7 19 13 -10 10 12 16 -14 22 23 -17 -18 27 -20 -21 -22 -23 -24 24 -26 29 -28 -29 -30 -31 -32
leaf_value=-0.00015558385023374787 0.00090928176195896452 0.0012249409307947645 -0.00076788569586153739 0.0012070414268859461 0.00024438196852827814 0.00019344734140217735 0.0020866663644139136 -0.00026477901287241676 -0.00031888484949401649 -0.00039709774270156871 9.4713998992967884e-05 -0.0003312628701218264 0.00043080972473425025 4.1949867633748397e-05 -0.00010374472550451247 0.00021714524354548071 -0.0012352311324015455 -0.00059351740723165888 0.00028733040176633968 0.00082839887754709743 0.00043681240219762391 0.00070987957343242401 -0.000136299051710221 -0.00027224304381229312 -0.00066457554832238602 0 9.9705923664364905e-05 7.3662639531669959e-05 -0.00056211416641853667 -0.00030290988925279854 -6.1092043254189121e-05
leaf_weight=4615 1976 799 517 1313 4933 2687 552 617 4060 2790 20840 4625 10195 30571 18732 3542 847 938 9871 1000 2340 1906 24229 17336 3280 6727 13190 3423 1678 7252 19228
leaf_count=4615 1976 799 517 1313 4933 2687 552 617 4060 2790 20840 4625 10195 30571 18732 3542 847 938 9871 1000 2340 1906 24229 17336 3280 6727 13190 3423 1678 7252 19228
internal_value=0 0.000100516 -6.92124e-05 0.000329109 0.000155597 0.000526312 0.000647209 3.7057e-05 -9.35259e-06 2.7381e-05 7.68587e-05 -0.000183349 0.000205293 -1.43906e-05 -0.000161334 0.000468067 -0.0004723 0.000233581 0.000358118 0.0012802 4.30424e-05 0.000469535 -3.677e-05 -0.00023893 -0.000334935 -4.61647e-05 6.65638e-05 -6.99887e-05 -0.0001417 -0.000157054 -0.000103912
internal_weight=226609 92417 134192 20063 12993 4000 7070 72354 8993 65480 53053 12427 31035 57323 68712 5518 5472 15031 10670 1552 6955 2523 54800 41026 20616 27686 13707 4361 20410 13979 22018
internal_count=226609 92417 134192 20063 12993 4000 7070 72354 8993 65480 53053 12427 31035 57323 68712 5518 5472 15031 10670 1552 6955 2523 54800 41026 20616 27686 13707 4361 20410 13979 22018
cat_boundaries=0 1 2 3 4
cat_threshold=2560 2097152 1536 2105344
is_linear=0
shrinkage=0.005


Tree=14
num_leaves=29
num_cat=0
split_feature=182 181 3 234 3 29 260 275 32 194 124 31 3 181 0 191 241 201 188 184 205 201 188 280 265 194 56 173
split_gain=72.2044 54.8492 44.1588 47.1328 32.6616 35.8598 32.3059 33.9612 28.1929 24.6902 21.0016 23.7885 20.9848 20.8325 37.0741 26.45 20.7093 20.7021 19.9983 19.8807 19.7342 18.9083 17.9358 16.4271 11.5516 11.2258 11.1141 8.00228
threshold=-0.00021252656057890726 -0.0036601772750159962 -2.1488529007331842 0.00021701002490878812 -2.6644706768312378 463.81112332816787 1.5917178769992895 0.00024121255196208916 -0.00090471745539453944 0.0013168746885202089 -0.020930552463410308 -0.00054608148080452599 5.4863515666489651 0.0030430812902129127 -10.140217217991447 0.25280897607168251 0.00065735017299214992 -0.0012329580737889254 -0.12765920909654624 -0.0012550031009139759 -0.2709979565344493 -0.0023855660936298313 -0.32261677010383061 -0.8050799521613784 0.018410950589692582 0.0005211026309237533 105.46705027097408 3.1964073297539737
decision_type=2 8 10 10 10 10 10 10 2 2 2 8 10 8 8 10 8 2 10 10 10 2 10 10 8 2 10 10
left_child=2 6 10 23 16 9 12 17 19 -6 11 -1 21 15 -15 -12 20 -8 -7 -5 -3 -2 -10 26 -25 -18 -4 -14
right_child=1 4 3 8 5 18 7 -9 22 -11 13 -13 27 14 -16 -17 25 -19 -20 -21 -22 -23 -24 24 -26 -27 -28 -29
leaf_value=0.0011932183371903128 0.00075826587280746762 -0.00038447583113984408 0.00014148054766506448 0.001263855664589241 0.00018965466405966054 4.961134881981067e-06 0.00097338720948543045 0.0018500147451549914 0.0005446644107654034 -0.0002630932573546196 7.98378724060271e-05 -0.00017926346899536355 -0.00091679378446682348 0.00086831440307284541 -0.00053955805108845485 -0.00025330126326327619 4.330520916620977e-05 -0.00017805261911289387 -0.00018080409600445391 0.00050392703168493239 -0.00012852086160847792 0.00010168972348032874 0.00020656770777775034 -4.6950694282286165e-05 -0.00067863483004546238 -0.00030425210765206958 0.00080918442646785171 -8.029139596238092e-05
leaf_weight=757 1423 18326 9875 1292 20353 24114 838 595 5273 3525 29836 531 549 533 3650 7442 9713 718 36099 2702 12909 4882 15716 9833 783 3047 669 626
leaf_count=757 1423 18326 9875 1292 20353 24114 838 595 5273 3525 29836 531 549 533 3650 7442 9713 718 36099 2702 12909 4882 15716 9833 783 3047 669 626
internal_value=0 -7.16973e-05 0.000111097 0.000218362 -9.9089e-05 -4.12623e-05 0.000292048 0.00083237 0.000365452 0.0001226 -4.56968e-06 0.00062381 0.00013591 -2.42257e-05 -0.000358807 1.31924e-05 -0.000209501 0.000439083 -0.000106327 0.000751259 -0.000278861 0.000250765 0.000291767 4.44522e-05 -9.4072e-05 -3.93146e-05 0.000184392 -0.000475833
internal_weight=226609 137717 88892 46143 128086 84091 9631 2151 24983 23878 42749 1288 7480 41461 4183 37278 43995 1556 60213 3994 31235 6305 20989 21160 10616 12760 10544 1175
internal_count=226609 137717 88892 46143 128086 84091 9631 2151 24983 23878 42749 1288 7480 41461 4183 37278 43995 1556 60213 3994 31235 6305 20989 21160 10616 12760 10544 1175
is_linear=0
shrinkage=0.005


Tree=15
num_leaves=32
num_cat=0
split_feature=182 239 181 194 3 226 181 0 214 183 209 181 238 3 14 214 185 187 208 250 131 201 55 114 0 181 53 54 100 250 42
split_gain=60.475 50.5056 72.0721 41.5863 31.1407 32.2669 30.561 28.4099 24.6907 35.0994 33.7332 23.709 30.8424 38.4467 29.6807 34.1054 21.6933 19.1126 18.8869 18.4809 15.7108 22.2289 18.5917 17.4033 14.2155 13.67 13.2168 13.203 11.2616 9.97877 9.6157
threshold=0.00019900635716973983 0.087531283028418047 0.0011329999002134274 -0.00021239025935315678 3.2821480178235651 0.00025921320246981007 0.0025628062362956787 -1.1691477479021157 0.62737342440155086 0.10513009532707197 0.64996984948508518 -0.0036601772750159962 0.017855263265336929 6.1550068189072311 0.46709956709956718 -1.1642876023261619 0.98635347309146904 0.001611391415947683 84.074593943193946 0.042230041137389283 -0.0001134349132127791 -0.0014293540637518862 82.350316787433982 0.10298087269935283 4.0244874295308373 0.00020460388313092717 -9.311351018821462e-07 -0.0062901862433740454 1418.2689141115554 0.046127751760944101 -1.1890002111242832
decision_type=2 10 8 2 10 10 8 10 8 8 10 10 10 10 10 10 8 10 8 10 8 2 10 10 10 10 8 8 8 10 10
left_child=1 4 7 11 6 30 25 17 9 -4 -10 12 13 -2 15 -13 -9 -3 -14 -16 22 29 23 -5 -23 -1 -8 -24 -7 -22 -6
right_child=3 2 8 20 5 28 26 16 10 -11 -12 14 18 -15 19 -17 -18 -19 -20 -21 21 24 27 -25 -26 -27 -28 -29 -30 -31 -32
leaf_value=5.5086630779469863e-05 0.00069299767111656845 0.00035379424470727289 -1.4118837594653583e-05 -0.00065036665158008241 0.00057259658023729179 0.00053066264332369596 -0.00010272559897010377 0.0008203962869090983 -0.00060960536167555186 0.0012236486271280248 0.00053137247204106109 -0.00051132309684301836 -0.0011460366290748426 -0.00055016815184086082 -2.4894245992436648e-05 -1.7208094508518374e-05 -0.00010814091228825998 -0.00060186644223124267 0.00021297907010032176 0.00028022796196728895 0.00010296162242443761 -0.00023106451671278867 -0.00051108256426801301 -0.00014143697912071581 -1.6041945548388533e-06 -8.9042429957428404e-05 -0.00051143947869864283 0.00031597127918954124 0.00012287904703766031 0.00095735699899390108 4.2504128561628044e-05
leaf_weight=44257 3861 6989 3929 5344 887 6091 3703 6229 3136 668 811 5571 511 736 13163 9416 689 561 500 7940 853 28624 728 2491 8890 26182 4337 1422 2394 587 25109
leaf_count=44257 3861 6989 3929 5344 887 6091 3703 6229 3136 668 811 5571 511 736 13163 9416 689 561 500 7940 853 28624 728 2491 8890 26182 4337 1422 2394 587 25109
internal_value=0 6.66959e-05 0.000280211 -0.000100035 2.31526e-05 0.000148421 -3.18233e-05 0.000495281 -8.34083e-05 0.000164883 -0.000373824 1.58818e-05 0.000318384 0.000492798 -3.09927e-05 -0.000201237 0.000727193 0.000282052 -0.000469435 8.96788e-05 -0.000198902 -0.000153321 -0.000376189 -0.000489238 -0.000176822 1.44273e-06 -0.000323855 3.34951e-05 0.000416226 0.000455139 6.08049e-05
internal_weight=226609 135972 23012 90637 112960 34481 78479 14468 8544 4597 3947 41698 5608 4597 36090 14987 6918 7550 1011 21103 48939 38954 9985 7835 37514 70439 8040 2150 8485 1440 25996
internal_count=226609 135972 23012 90637 112960 34481 78479 14468 8544 4597 3947 41698 5608 4597 36090 14987 6918 7550 1011 21103 48939 38954 9985 7835 37514 70439 8040 2150 8485 1440 25996
is_linear=0
shrinkage=0.005


Tree=16
num_leaves=31
num_cat=0
split_feature=182 194 3 102 3 181 200 131 0 194 67 181 200 3 277 213 181 22 186 186 194 121 8 54 200 211 236 226 209 79
split_gain=86.5942 52.2595 37.9011 37.4997 27.2182 28.871 22.5576 22.1504 21.9452 22.8885 20.9127 22.7804 20.1315 20.0657 19.851 18.4853 18.0788 17.7101 16.7529 15.7826 15.734 14.1909 12.5495 15.9154 12.5369 12.4067 12.0309 8.51569 11.5883 4.10883
threshold=-0.00050177571228998674 -0.00037851381346892804 -1.0000000180025095e-35 8.3286692759295509 2.1058405751075484 1.0000000180025095e-35 -0.20202401655707347 -0.0024488083232133136 -5.0312446337802603 -0.0023175698615082725 -0.0024495282004035552 -0.0025292613150630357 -0.58727400031620391 4.9092503055097989 38484.549695921924 0.099957928087510875 0.002188428474013016 -0.00062315383604365086 0.0038430626286203268 0.0057612342241834154 0.0013168746885202089 2.0267700258397943 0.72272727272717596 -0.0026303641776255007 0.30090084314560045 -0.0102626105449361 0.051244116397347321 0.00020127257399223041 0.57693757213371033 0.011898464584296975
decision_type=2 2 10 8 10 8 10 8 10 2 10 10 10 10 10 8 8 10 2 2 2 8 8 10 10 10 10 10 10 8
left_child=2 3 6 15 5 18 7 -1 25 -10 11 19 -13 20 -15 17 -9 -2 -3 -4 -6 -7 24 -24 -8 -5 -17 29 -29 -12
right_child=1 4 10 8 13 21 22 16 9 -11 27 12 -14 14 -16 26 -18 -19 -20 -21 -22 -23 23 -25 -26 -27 -28 28 -30 -31
leaf_value=0.001055682523184344 0.00044306561637941862 6.41988758840274e-05 0.00053065851491242849 -0.00074878203698998326 -8.8633174280417344e-05 -0.00038407197368449809 -3.6085248106870588e-06 0.00025572511245391895 0.00048501345866193912 -8.9982296937465468e-07 -0.00014275988050072093 0.00083316613523971633 0.00028214984320293937 0.00017988201588272577 -9.467312244731957e-05 0.000212075674972773 -0.00021648072184578138 -0.0001188703226824028 -0.00019251518444854171 0.0016097461185611947 -0.00042955773795695456 -0.00014147642864781426 0.00075711663326710147 -0.00032182088789221424 -0.00028677665285117029 -0.00017871071402192563 0.00058812872579605167 0.00038123854457531258 -6.78372248184642e-05 0.00013542194675789579
leaf_weight=731 2097 11193 736 1190 20796 20245 12053 9895 2589 37383 2505 1984 10533 14275 12193 3850 2537 4207 14636 661 4059 8694 977 517 5810 5044 4908 5582 1910 2819
leaf_count=731 2097 11193 736 1190 20796 20245 12053 9895 2589 37383 2505 1984 10533 14275 12193 3850 2537 4207 14636 661 4059 8694 977 517 5810 5044 4908 5582 1910 2819
internal_value=0 -5.81483e-05 0.000164276 5.80607e-05 -0.000125307 -0.000202857 4.94384e-05 0.000209206 -1.24624e-05 3.04592e-05 0.000303793 0.000438214 0.000369947 -4.2451e-05 5.32151e-05 0.000274724 0.00015895 6.7303e-05 -8.10764e-05 0.0010456 -0.000144525 -0.00031137 -5.89523e-05 0.000380439 -9.60007e-05 -0.000288435 0.00042343 0.000157443 0.000266091 3.59317e-06
internal_weight=226609 167359 59250 61268 106091 54768 32520 13163 46206 39972 26730 13914 12517 51323 26468 15062 12432 6304 25829 1397 24855 28939 19357 1494 17863 6234 8758 12816 7492 5324
internal_count=226609 167359 59250 61268 106091 54768 32520 13163 46206 39972 26730 13914 12517 51323 26468 15062 12432 6304 25829 1397 24855 28939 19357 1494 17863 6234 8758 12816 7492 5324
is_linear=0
shrinkage=0.005


end of trees

feature_importances:
hour=32
B_Y_closepctchg20_sub=25
B_M_closepctchg5_sub=19
zigzag=17
B_Y_closepctchg5_sub=14
B_M_closepctchg20_sub=12
KVO=10
B_M_cvcorr10_diff=9
B_LH_cvcorr10_diff=9
RPP_2H=8
day_first4greencorr=8
day_first4redcorr=7
RPP_30M=7
B_P_closepctchg5_sub=7
FAC_MLQSweight_askdommean=7
day_jump=6
FAC_MCIB_biddommean=6
SNR=6
A_B_oi5_diff=6
FAC_MCIA_biddommean=6
XSMOM1M=5
B_P_closepctchg20_sub=5
day_first10rev=5
FAC_MLQSweight_TrendRevmean=5
B_C_vcorr10=5
B_CS_closepctchg5_sub=5
FAC_RVar_biddommean=5
CMFmin=4
A_B_volumediv20_diff5=4
B_Y_cvcorr10_diff=4
VHF=4
B_CS_vcorr10=4
FAC_VWAP_Deviation_biddommean=4
B_Y_volumediv5_diff5=4
FAC_RVar_min=4
RPP_22D=3
before_bot_price_diff=3
FAC_PIR_TrendRevmean=3
FAC_bid_amount_sub20_biddommean=3
FAC_MCIB_Volraiseap=3
FAC_PVcorrsub_a5b5_downmean=3
FAC_RTN_JUMP_askdommean=3
FAC_AVGDEPTH_upmean=3
FAC_bid4_vmean_20_min=3
FAC_NR_TrendRevmean=3
B_LH_vcorr10=3
B_P_volumediv20_diff5=3
A_B_vcorr10=3
B_Y_vcorr10=3
FAC_resiliency_biddommean=3
MAdiff_Vol_div=3
FAC_MLQSweight_biddommean=3
FAC_SPREAD_TrendRevmean=3
CV=2
LR=2
RPP_5D=2
FAC_VWAP_Deviation_askdommean=2
B_CS_oi5_diff=2
FAC_BIDDEPTH_askdommean=2
FAC_ASKDEPTH_askdommean=2
FAC_RTN_JUMP_biddommean=2
FAC_PRICE_STD_A_max=2
FAC_BIDDEPTH_TrendRevmean=2
FAC_MCIB_askdommean=2
FAC_RTN_JUMP_TrendRevmean=2
FAC_bid2_vmean_20_min=2
FAC_NR_biddommean=2
FAC_bid3_vmean_20_askdommean=2
FAC_MPC_std=2
FAC_AVGDEPTH_corrBidwap=2
FAC_OFI5_Volraiseap=2
FAC_PVcorrsub_a1b1_biddommean=2
B_LH_volumediv20_diff5=2
volatility_rg=2
FAC_resiliency_askdommean=2
B_M_vcorr10=2
B_M_volumediv20_diff5=2
B_M_oi5_diff=2
A_B_closepctchg20_sub=2
up_shadow_5std=2
B_LH_closepctchg5_sub=2
B_C_cvcorr10_diff=2
up_shadow_5mean=2
B_P_volumediv5_diff5=2
FAC_PRICE_STD_B_biddommean=2
FAC_KDJ_min=2
FAC_OFI4_std=2
FAC_bid_amount_sub20_TrendRevmean=2
FAC_RSkew_askdommean=2
FAC_PRICE_VOL_CORR_B_downmean=2
day_first3power=1
FAC_MPB_Volraiseap=1
B_LH_closepctchg20_sub=1
FAC_ADTM_first=1
RPP_4H=1
FAC_VWAP_Deviation_corrAskwap=1
A_B_closepctchg5_sub=1
FAC_MCIB_TrendRevmean=1
FAC_MCIB_min=1
FAC_SPREAD_corrBidwap=1
FAC_PRICE_STD_A_askdommean=1
FAC_PRICE_STD_A_std=1
A_B_cvcorr10_diff=1
FAC_ILLIQ_min=1
FAC_RUSHSTOPBID_TrendRevmean=1
FAC_KDJ_TrendRevmean=1
FAC_ILLIQ_std=1
FAC_ADTMMA_first=1
FAC_PVcorrsub_a1b1_upmean=1
FAC_KDJ_corrAskwap=1
FAC_bid3_vmean_20_biddommean=1
FAC_bid2_vmean_20_TrendRevmean=1
FAC_bid2_vmean_20_askdommean=1
FAC_ask2_vmean_20_askdommean=1
FAC_ORDER_SLOPE_B_askdommean=1
FAC_Momentum_Decay_askdommean=1
FAC_ASKDEPTH_max=1
FAC_ask5_vmean_20_askdommean=1
FAC_bid5_vmean_20_min=1
FAC_ASKDEPTH_TrendRevmean=1
FAC_MCIA_min=1
FAC_AVGDEPTH_askdommean=1
FAC_ORDER_SLOPE_B_TrendRevmean=1
FAC_ask2_vmean_20_min=1
FAC_PVcorrsub_a1b1_downmean=1
FAC_bid4_vmean_20_TrendRevmean=1
FAC_RKurt_biddommean=1
FAC_VOI_biddommean=1
FAC_RTN_JUMP_MADmean=1
FAC_MPB_MADmean=1
FAC_ADTMMA_biddommean=1
FAC_bid1_vmean_20_upmean=1
FAC_ask4_vmean_20_askdommean=1
FAC_bid5_vmean_20_TrendRevmean=1
FAC_RUSHSTOPASK_TrendRevmean=1
FAC_bid1_vmean_20_askdommean=1
FAC_ask5_vmean_20_biddommean=1
FAC_bid1_vmean_20_last=1
FAC_ask_amount_sub20_min=1
FAC_LVC_askdommean=1
FAC_SOIR_biddommean=1
FAC_bid5_vmean_20_last=1
FAC_MPB_kurtosis=1
FAC_PRICE_PRESSURE_biddommean=1
PVcorr=1
down_shadow_5mean=1
CR=1
B_LH_oi5_diff=1
B_CS_volumediv20_diff5=1
B_LH_volumediv5_diff5=1
B_C_oi5_diff=1
down_shadow_5std=1
B_P_oi5_diff=1
FAC_MLQSweight_min=1
B_Y_oi5_diff=1
B_CS_cvcorr10_diff=1
FAC_BIDDEPTH_skewness=1
B_P_cvcorr10_diff=1
FAC_MCIA_vwap=1
FAC_PVcorrsub_a3b3_upmean=1
FAC_PVcorrsub_a4b4_max=1
FAC_Depth_Reversal_std=1
FAC_MCIB_std=1
FAC_OI_V_DIV_Volraiseap=1
FAC_MCIB_max=1
FAC_ask1_vmean_20_skewness=1
FAC_STREN_std=1
FAC_NR_std=1
FAC_KDJ_Volraiseap=1
FAC_ask_amount_sub20_std=1
FAC_PVcorrsub_a4b4_downmean=1
FAC_CMF_biddommean=1
FAC_MFI_vwap=1
FAC_Depth_OI_Pressure_biddommean=1
FAC_sub_a4b4_vmean_20_max=1
FAC_CORR_PVOL_RET_MADmean=1

parameters:
[boosting: gbdt]
[objective: regression]
[metric: rmse]
[tree_learner: serial]
[device_type: cpu]
[data_sample_strategy: bagging]
[data: ]
[valid: ]
[num_iterations: 10000]
[learning_rate: 0.005]
[num_leaves: 32]
[num_threads: 20]
[seed: 142]
[deterministic: 1]
[force_col_wise: 0]
[force_row_wise: 0]
[histogram_pool_size: -1]
[max_depth: 5]
[min_data_in_leaf: 500]
[min_sum_hessian_in_leaf: 0.001]
[bagging_fraction: 1]
[pos_bagging_fraction: 1]
[neg_bagging_fraction: 1]
[bagging_freq: 10]
[bagging_seed: 26665]
[bagging_by_query: 0]
[feature_fraction: 0.7]
[feature_fraction_bynode: 1]
[feature_fraction_seed: 11555]
[extra_trees: 1]
[extra_seed: 12336]
[early_stopping_round: 0]
[early_stopping_min_delta: 0]
[first_metric_only: 0]
[max_delta_step: 0]
[lambda_l1: 1]
[lambda_l2: 1]
[linear_lambda: 0]
[min_gain_to_split: 0]
[drop_rate: 0.1]
[max_drop: 50]
[skip_drop: 0.5]
[xgboost_dart_mode: 0]
[uniform_drop: 0]
[drop_seed: 2046]
[top_rate: 0.2]
[other_rate: 0.1]
[min_data_per_group: 100]
[max_cat_threshold: 32]
[cat_l2: 10]
[cat_smooth: 10]
[max_cat_to_onehot: 4]
[top_k: 20]
[monotone_constraints: ]
[monotone_constraints_method: basic]
[monotone_penalty: 0]
[feature_contri: ]
[forcedsplits_filename: ]
[refit_decay_rate: 0.9]
[cegb_tradeoff: 1]
[cegb_penalty_split: 0]
[cegb_penalty_feature_lazy: ]
[cegb_penalty_feature_coupled: ]
[path_smooth: 0]
[interaction_constraints: ]
[verbosity: -1]
[saved_feature_importance_type: 0]
[use_quantized_grad: 0]
[num_grad_quant_bins: 4]
[quant_train_renew_leaf: 0]
[stochastic_rounding: 1]
[linear_tree: 0]
[max_bin: 32]
[max_bin_by_feature: ]
[min_data_in_bin: 3]
[bin_construct_sample_cnt: 200000]
[data_random_seed: 502]
[is_enable_sparse: 1]
[enable_bundle: 1]
[use_missing: 1]
[zero_as_missing: 0]
[feature_pre_filter: 1]
[pre_partition: 0]
[two_round: 0]
[header: 0]
[label_column: ]
[weight_column: ]
[group_column: ]
[ignore_column: ]
[categorical_feature: 299]
[forcedbins_filename: ]
[precise_float_parser: 0]
[parser_config_file: ]
[objective_seed: 31732]
[num_class: 1]
[is_unbalance: 0]
[scale_pos_weight: 1]
[sigmoid: 1]
[boost_from_average: 1]
[reg_sqrt: 0]
[alpha: 0.9]
[fair_c: 1]
[poisson_max_delta_step: 0.7]
[tweedie_variance_power: 1.5]
[lambdarank_truncation_level: 30]
[lambdarank_norm: 1]
[label_gain: ]
[lambdarank_position_bias_regularization: 0]
[eval_at: ]
[multi_error_top_k: 1]
[auc_mu_weights: ]
[num_machines: 1]
[local_listen_port: 12400]
[time_out: 120]
[machine_list_filename: ]
[machines: ]
[gpu_platform_id: -1]
[gpu_device_id: -1]
[gpu_use_dp: 0]
[num_gpu: 1]

end of parameters

pandas_categorical:null
