tree
version=v4
num_class=1
num_tree_per_iteration=1
label_index=0
max_feature_idx=195
objective=regression
feature_names=zigzag day_first4greencorr XSMOM1M day_jump RPP_22D before_bot_price_diff FAC_MPB_downmean P_Y_closepctchg20_sub P_Y_volumediv20_diff5 RPP_5D FAC_VWAP_Deviation_askdommean FAC_VWAP_Deviation_first FAC_SPREAD_max FAC_tsi_first P_Y_closepctchg5_sub RPP_4H RPP_30M FAC_PRICE_STD_A_Mstdwap A_Y_volumediv20_diff5 FAC_PVcorrsub_a4b4_min FAC_KDJ_askdommean FAC_ask_amount_sub20_MADmean FAC_ask4_vmean_20_biddommean FAC_ask3_vmean_20_last M_Y_volumediv20_diff5 FAC_PVcorrsub_a4b4_biddommean FAC_OFI2_MADmean FAC_OIR_min FAC_KDJ_biddommean FAC_MCIA_biddommean FAC_PRICE_VOL_CORR_A_kurtosis FAC_ask3_vmean_20_biddommean FAC_PRICE_VOL_CORR_A_MADmean P_Y_volumediv5_diff5 FAC_OFI3_MADmean bar5_trend_corr FAC_KDJ_max FAC_DBCD_min FAC_OFI2_first FAC_Depth_Reversal_TrendRevmean FAC_ask3_vmean_20_first FAC_PVcorrsub_a4b4_mean FAC_PVcorrsub_a4b4_corrAskwap FAC_OI_CHG_Mstdwap FAC_KDJ_min FAC_ORDER_SLOPE_B_askdommean FAC_VOI_kurtosis FAC_bid2_vmean_20_biddommean FAC_MCIA_askdommean FAC_ask_amount_sub20_askdommean A_Y_volumediv5_diff5 FAC_OI_Price_Accel_askdommean FAC_bid1_vmean_20_askdommean FAC_STREN_downmean FAC_ask3_vmean_20_min M_Y_volumediv5_diff5 FAC_RTN_JUMP_Mstdwap FAC_bid4_vmean_20_Mstdwap FAC_ASKDEPTH_min FAC_RTN_JUMP_downmean FAC_CORR_PVOL_RET_max FAC_ask4_vmean_20_min FAC_PVcorrsub_a5b5_askdommean FAC_Depth_Reversal_skewness FAC_bid2_vmean_20_min FAC_RSI_first FAC_bid2_vmean_20_last FAC_PIR_std FAC_PVcorrsub_a3b3_biddommean FAC_RKurt_std FAC_STREN_biddommean FAC_STREN_kurtosis FAC_bid4_vmean_20_min FAC_bid3_vmean_20_min FAC_RTN_JUMP_biddommean FAC_bid5_vmean_20_min FAC_ASKDEPTH_biddommean FAC_bid2_vmean_20_askdommean FAC_ILLIQ_biddommean FAC_BIDDEPTH_vwap FAC_ask5_vmean_20_askdommean FAC_ask4_vmean_20_askdommean FAC_ask5_vmean_20_max FAC_ORDER_SLOPE_B_biddommean FAC_bid_amount_sub20_MADmean FAC_MFI_max FAC_ask2_vmean_20_vwap FAC_ask3_vmean_20_MADmean FAC_ask2_vmean_20_min FAC_OI_CHG_biddommean FAC_ask1_vmean_20_biddommean FAC_MCIA_MADmean FAC_ADTM_last FAC_Bolling_kurtosis FAC_MCIB_min FAC_MCIA_min FAC_ask5_vmean_20_min FAC_ask4_vmean_20_TrendRevmean FAC_ask5_vmean_20_biddommean FAC_OI_V_DIV_vwap FAC_PVcorrsub_a1b1_first FAC_ORDER_SLOPE_B_vwap FAC_Depth_Reversal_min FAC_ask1_vmean_20_vwap FAC_MPC_downmean FAC_ADTM_skewness FAC_ADTM_first FAC_PRICE_VOL_CORR_B_min FAC_OI_CHG_upmean FAC_VOL_FLU_min FAC_ORDER_SLOPE_B_min FAC_RKurt_biddommean FAC_ADTMMA_askdommean FAC_MFI_std FAC_BBI_biddommean FAC_Bolling_downmean FAC_bid5_vmean_20_biddommean FAC_CORR_PVOL_RET_biddommean FAC_bid_amount_sub20_first FAC_PVcorrsub_a5b5_mean FAC_OI_Price_Accel_upmean FAC_AVGDEPTH_biddommean FAC_tsi_last FAC_money_flow_power_first FAC_bid1_vmean_20_MADmean FAC_SPREAD_kurtosis FAC_SOIR_min day_first10rev day_first4redcorr TMB VHF ATR volatility_rg day_first3power M_Y_oi5_diff FAC_resiliency_biddommean FAC_resiliency_askdommean MAdiff_Vol_div FAC_MLQSweight_askdommean FAC_PIR_biddommean P_Y_vcorr10 FAC_PIR_askdommean M_Y_closepctchg20_sub M_Y_closepctchg5_sub down_shadow_5std FAC_CORR_PVOL_RET_upmean FAC_MLQSweight_min M_Y_vcorr10 FAC_SPREAD_first FAC_MCIB_biddommean A_Y_cvcorr10_diff down_shadow_5mean up_shadow_5mean A_Y_closepctchg5_sub FAC_CORR_PVOL_RET_min FAC_ILLIQ_upmean P_Y_cvcorr10_diff FAC_Depth_Reversal_std RPP_5M FAC_ORDER_SLOPE_A_biddommean FAC_Depth_Reversal_max FAC_CMF_askdommean up_shadow_5std FAC_QUA_biddommean FAC_OI_V_DIV_downmean lastprice_bias1 FAC_OI_V_DIV_askdommean FAC_Bolling_std FAC_CORR_PVOL_RET_MADmean FAC_ORDER_SLOPE_A_askdommean FAC_OI_V_DIV_biddommean FAC_ORDER_SLOPE_A_max FAC_STREN_Mstdwap PV_corr_std FAC_MPB_TrendRevmean FAC_Depth_Reversal_kurtosis FAC_OI_GP_CH_TrendRevmean FAC_MAX_max FAC_RUSHSTOPASK_biddommean FAC_DBCD_std FAC_MCIB_max FAC_PVcorrsub_a2b2_std FAC_PRICE_VOL_CORR_A_Mstdwap FAC_MCIB_askdommean FAC_MCIB_corrBidwap FAC_QUA_askdommean FAC_QUA_mean FAC_Depth_Reversal_first FAC_money_flow_power_biddommean FAC_OFI3_downmean FAC_sub_a5b5_vmean_20_biddommean FAC_Depth_Reversal_corrBidwap FAC_QUA_max FAC_PVcorrsub_a2b2_biddommean FAC_STREN_askdommean hour
feature_infos=[-36:41.560975609756099] [-0.99278814327138087:0.99882766965587688] [-0.25886766712141884:0.24736842105263168] [-456.66666666666606:451.33333333333394] [0:1] [-0.025090052399518115:0.020644738365997561] [-0.53215148306440674:6942.6557782220098] [-0.12510524274098:0.078509767708137335] [-4.2468515784732102:9.6307504786727574] [0:1] [0.00048371345398951849:0.10310535765043756] [0:0.10308369966975747] [-0.00047580935407613982:-0.00016301247045398973] [-100:100] [-0.012738145191766193:0.020289584131761851] [0:1] [0:1] [3.1622776601683813:4.6043457732885349] [-1.9692489964617639:4.2905036245198138] [-2.0000473506182193:2.0000003587461119] [-1702.8051385915937:104.26177270588074] [-20716810:4855070] [0.014588022636571368:4.445760714490417] [0.0092237464151399828:26.122337835303636] [-8.7256560875510019:17.509920378433055] [-2.0000090915733342:2.0000083225877958] [-1055:1913] [-1:0.85625431928127149] [-15.921610597129806:148.99796597656882] [0.00029035319989165805:0.0010311557326568377] [-5.9250580782138664:129.24469813978502] [0.017210876825325214:4.3625892711778205] [-0.99960216248367462:0.99999338194472054] [-33.495306324110672:27.323376925681394] [-2373:1098] [-1:1] [-2.9953980873514743:2575.4487364651054] [-0.37764091372986219:0.00013835902946563835] [-2110:2069] [-0.0074710494829648665:0.0031180178704236167] [0.0084475434450690216:26.130107180027938] [-2.0000009686612867:2.000000744478744] [-1.9996761446738724:1.9999973656031036] [-0.0044769318219186616:0.0019353202997351995] [-4181.7304028991348:100.3202240009422] [-10.511434507218778:-0.0021287592429239041] [-0.89859481016958576:233.69596464589017] [0.016125844866074355:9.6822434182906409] [0.00021721608116720924:0.0099531510271956437] [-20716810:12303576] [-7.1756055883210363:7.7687620422246653] [-1:1] [0.010143829406023959:5.2121340782919408] [-0.9017857142857143:0.024242424242424242] [0.0033989195864992713:6.9895499474613754] [-45.640704228835894:41.063229138836938] [-1:0] [0:11.245303280771648] [80.595609028709561:104215.81330979081] [-0.08476394539258994:0] [-2.5310077517825094:118.91094383291946] [0.0020393393998763406:8.918090928805313] [-2.0000056260589529:2.000025587736328] [-6.5657865528034547:7.0710678118654773] [0:9.5330315239305516] [0:99.963951407087563] [0:9.8022877034175036] [0:0.3121640536305908] [-2.0000030711081225:2.00000013158024] [0.00098720809302198622:56.074388470569708] [-1:1] [-1.3348499905585069:240.00000000000054] [0:7.1705777354998963] [0:11.704521189987428] [-1:0] [0:12.498773125916008] [673.96532575822243:65043.773376382109] [0.021144652707763043:5.8340937388127267] [-187.73720426156751:223.18311243706268] [1483.3870738590883:122423.68413420499] [0.015930242922880918:8.1666095323743111] [0.0076702733346953539:9.6486012902033451] [0.017636131953704729:11.47667655392708] [-13.572710767230168:-0.0010532824817456265] [-6262222:12703528] [0:177.45619508280532] [0.02812678349869642:13.023529595406377] [0.0092237464151399828:13.060129900496184] [0.0061366494640307826:12.373151894356953] [-0.00085025365109481221:0.0019353202997351993] [0.0096619605153931559:4.6904293643132036] [0.00026501030145858405:0.0099999999999999985] [-2075.4545454275039:14698.31250369269] [-1.5052515423425537:88.669003743769792] [-0.0075688122838133533:-0.00032181927844649849] [0.00012966501252161883:0.0014469137437530825] [0.0032392780065570608:5.672170201806515] [0.015143194168119212:9.7055045900350105] [0.011641043547398226:8.9341618614341876] [8.5543410226439275e-06:0.065429924388684613] [-1.9926375361637549:1.999999983260901] [-29.673146094647432:-0.0010687321695750829] [-0.15723270364013731:0.0050927495548738003] [0.015204528358468198:5.9941564328374541] [-0.016758571890375589:0.0042114739451985664] [-14.919802924332554:15.375676074227904] [-2060.2000008347482:122009.1343162928] [-1.0000067042914091:0.99668824255119781] [-3.3014244806877772e-05:2.4604496272462757e-05] [0:4.4005752496445814] [-144.80000000000001:-0.0011239112110143299] [2.7477918968986823:118.56442620265649] [-13498947.684066972:995.73827002269172] [7.2611018833813805:54.074688405513783] [-2.5831249999991996:164.1309324324325] [-0.59130481192631867:0.12799785858488119] [0:12.651713034332623] [-2.8265180486287407:81.179446443262393] [-26465384:23839700] [-2.0000009459232153:2.0000137947574625] [-0.010457360990847306:0.0078557681296083422] [3.5:1394.7058823529412] [-100:99.986787464659542] [-1:1] [0.013885854277051614:6.8668135010602063] [-2.034656099864868:159.00014066212992] [-0.96894878662120443:0.90412200938874809] [0:4.7621178535437991] [-0.94944343871532522:0.99987992854520857] [-67.035297105401256:19.860359855109753] [2.2000000000000002:58.799999999999997] [-7.1797357363284267:6.977743301428327] [0:19.108333333333348] [-50.666666666666664:46.666666666666664] [-0.019814516158922824:0.02036485520740916] [41.672287543863717:1000] [41.669936397918526:1000] [-153.39424003504277:218.82706749596693] [9.1532215237498144e-05:0.00054194088865936883] [-0.24201091532636554:-0.00029948387746673861] [-0.81725033796083657:0.99974539235381465] [-0.99750100673071385:-0.00029911777772689043] [-0.12567234147545026:0.082525698276489812] [-0.021637752310651681:0.017369473998266716] [0:13.671584683957754] [-0.9511377646669319:1.4229503823751142] [8.4072788740607784e-05:0.0003209671250715728] [-0.91686963715258218:0.99960586058130618] [-2:-0.00016302044367338099] [-0.001428905028023528:-0.00027944557001542241] [-1.9149496569604065:1.906884514836457] [0:9.8109890109890667] [0:7.3263157894737363] [-0.018553701185196614:0.014489873996334057] [-8.2799202740202364:59.029337684741854] [-617.84663940935263:44.278989984327048] [-1.7990999495008237:1.7852489202879975] [9.396783035098309e-09:0.076131141967399216] [0:1] [0.0021174001384937145:0.24242424242424243] [-0.0075887001451054228:0.47507404995166203] [-1979.7586920473718:4854.1603400276799] [0:13.228849879555025] [0:0.3252833174440376] [0:0.0018514175783219398] [0:0.71489361702127663] [0:1] [0.010022865030181891:1.1998046703083918] [-3.7114749617251257:59.029337684741854] [0.00083023973634761491:0.13676212741087085] [0:0.025566317778846128] [0.0012757136022962844:1.6000000000000001] [-1:1] [0.006182422768525337:1.0508766977281647] [-1.9528672822557216:6.3193126605774346] [-5.9995945067080783:50.000000000000043] [-0.064747990194906624:0.096803792015033585] [-14.266899999998714:8704.0833000000002] [-0.0022261531612373098:0.0047669639522329877] [4.384830229817205e-07:0.057368903242517776] [-0.001428905028023528:-0.00012839051191805716] [4.4304975998072625e-05:2.0217291972838036] [-0.97709743686959827:0.99970537210899102] [-0.0010879470841022791:-9.206407659733266e-07] [-0.001428905028023528:-6.6358423761438406e-05] [0:0.27860465116279071] [0:0.32528331744403755] [-0.053831865948392572:0.44201657972858843] [-1:1] [-65.008474576271183:119.86473429951691] [-93002.060606060608:65194] [-0.0075887001451054236:0.0063400493991627076] [0:0.44239041863307643] [-1.999452224879833:1.9999536742406891] [-1:1] -1:14:9:22:21:10:11:13
tree_sizes=2510

Tree=0
num_leaves=25
num_cat=0
split_feature=36 177 6 0 155 132 9 10 137 138 2 165 67 149 88 58 43 8 50 31 134 8 185 13
split_gain=64.1542 63.7826 42.1662 21.4667 24.237 20.348 63.7787 63.3835 49.2208 20.2875 19.6173 18.3605 18.1659 17.874 16.9366 14.9054 18.0599 13.6582 11.2715 11.1532 8.23639 3.91596 3.8337 3.7934
threshold=8.0254687273593994 5.9975499999995927 0.0056434863549084764 -11.140868057326456 -0.37995944729053416 2.1000000000000045 0.75028089887640459 0.10015664650944271 0.59040276398756297 0.00015065961451848152 -1.0000000180025095e-35 0.32241713906337782 2.1605217200910958e-05 -0.00069908109463273085 0.21493536892087697 2572.9146806767944 2.7801460950274425e-06 0.22237366866861222 -0.013412815438007103 0.18873331885361222 -0.00050285268216965207 0.060222217536925367 0.022798053629129785 1.0000000180025095e-35
decision_type=2 2 2 10 8 10 8 10 10 10 10 8 10 8 2 2 2 10 8 8 8 8 10 2
left_child=1 14 3 4 -2 15 7 -7 -8 19 12 -11 -3 -6 20 17 -17 -4 23 -5 -1 -20 -22 -16
right_child=2 10 5 9 13 6 8 -9 -10 11 -12 -13 -14 -15 18 16 -18 -19 21 -21 22 -23 -24 -25
leaf_value=0.0010503173304063818 0.00069017174422243482 0.0012113306483743144 0.0021278875196219047 0.0019610923315871161 0.0023280194785380921 0.0016216950960251564 -0.0002276420312168773 0.0028339173520884548 0.0014896384680202096 0.0021383501847928896 0.0014454673337131242 0.0025134672896899206 5.0202386319498152e-05 0.0016009605983508938 0.0015802531709023992 0.0019176665423753291 0.0021802950756964938 0.002953963054076842 0.0024318911640940776 0.002086801057378092 0.0014206506524624104 0.0019888757421569719 0.0020154620487121064 0.0020193153759392886
leaf_weight=727 500 599 5130 20575 1321 3824 647 1500 1205 9868 1031 4912 836 2322 1141 64940 7266 557 1501 122215 502 716 610 825
leaf_count=727 500 599 5130 20575 1321 3824 647 1500 1205 9868 1031 4912 836 2322 1141 64940 7266 557 1501 122215 502 716 610 825
internal_value=0.00201546 0.00158809 0.00203016 0.00207758 0.00172259 0.00194008 0.00168519 0.00196426 0.000886118 0.00208695 0.000910624 0.00226338 0.000530503 0.00186599 0.00186647 0.00196363 0.00194417 0.00220983 0.00204118 0.00206865 0.00146658 0.00228661 0.00174383 0.00176695
internal_weight=255270 8488 246782 161713 4143 85069 7176 5324 1852 157570 2466 14780 1435 3643 6022 77893 72206 5687 4183 142790 1839 2217 1112 1966
internal_count=255270 8488 246782 161713 4143 85069 7176 5324 1852 157570 2466 14780 1435 3643 6022 77893 72206 5687 4183 142790 1839 2217 1112 1966
is_linear=0
shrinkage=1


end of trees

feature_importances:
P_Y_volumediv20_diff5=2
zigzag=1
XSMOM1M=1
FAC_MPB_downmean=1
RPP_5D=1
FAC_VWAP_Deviation_askdommean=1
FAC_tsi_first=1
FAC_ask3_vmean_20_biddommean=1
FAC_KDJ_max=1
FAC_OI_CHG_Mstdwap=1
A_Y_volumediv5_diff5=1
FAC_ASKDEPTH_min=1
FAC_PIR_std=1
FAC_ask2_vmean_20_min=1
volatility_rg=1
M_Y_oi5_diff=1
MAdiff_Vol_div=1
FAC_MLQSweight_askdommean=1
FAC_MCIB_biddommean=1
FAC_ILLIQ_upmean=1
lastprice_bias1=1
FAC_MAX_max=1
FAC_QUA_askdommean=1

parameters:
[boosting: gbdt]
[objective: regression]
[metric: rmse]
[tree_learner: serial]
[device_type: cpu]
[data_sample_strategy: bagging]
[data: ]
[valid: ]
[num_iterations: 10000]
[learning_rate: 0.005]
[num_leaves: 32]
[num_threads: 20]
[seed: 142]
[deterministic: 1]
[force_col_wise: 0]
[force_row_wise: 0]
[histogram_pool_size: -1]
[max_depth: 5]
[min_data_in_leaf: 500]
[min_sum_hessian_in_leaf: 0.001]
[bagging_fraction: 1]
[pos_bagging_fraction: 1]
[neg_bagging_fraction: 1]
[bagging_freq: 10]
[bagging_seed: 26665]
[bagging_by_query: 0]
[feature_fraction: 0.7]
[feature_fraction_bynode: 1]
[feature_fraction_seed: 11555]
[extra_trees: 1]
[extra_seed: 12336]
[early_stopping_round: 0]
[early_stopping_min_delta: 0]
[first_metric_only: 0]
[max_delta_step: 0]
[lambda_l1: 1]
[lambda_l2: 1]
[linear_lambda: 0]
[min_gain_to_split: 0]
[drop_rate: 0.1]
[max_drop: 50]
[skip_drop: 0.5]
[xgboost_dart_mode: 0]
[uniform_drop: 0]
[drop_seed: 2046]
[top_rate: 0.2]
[other_rate: 0.1]
[min_data_per_group: 100]
[max_cat_threshold: 32]
[cat_l2: 10]
[cat_smooth: 10]
[max_cat_to_onehot: 4]
[top_k: 20]
[monotone_constraints: ]
[monotone_constraints_method: basic]
[monotone_penalty: 0]
[feature_contri: ]
[forcedsplits_filename: ]
[refit_decay_rate: 0.9]
[cegb_tradeoff: 1]
[cegb_penalty_split: 0]
[cegb_penalty_feature_lazy: ]
[cegb_penalty_feature_coupled: ]
[path_smooth: 0]
[interaction_constraints: ]
[verbosity: -1]
[saved_feature_importance_type: 0]
[use_quantized_grad: 0]
[num_grad_quant_bins: 4]
[quant_train_renew_leaf: 0]
[stochastic_rounding: 1]
[linear_tree: 0]
[max_bin: 32]
[max_bin_by_feature: ]
[min_data_in_bin: 3]
[bin_construct_sample_cnt: 200000]
[data_random_seed: 502]
[is_enable_sparse: 1]
[enable_bundle: 1]
[use_missing: 1]
[zero_as_missing: 0]
[feature_pre_filter: 1]
[pre_partition: 0]
[two_round: 0]
[header: 0]
[label_column: ]
[weight_column: ]
[group_column: ]
[ignore_column: ]
[categorical_feature: 195]
[forcedbins_filename: ]
[precise_float_parser: 0]
[parser_config_file: ]
[objective_seed: 31732]
[num_class: 1]
[is_unbalance: 0]
[scale_pos_weight: 1]
[sigmoid: 1]
[boost_from_average: 1]
[reg_sqrt: 0]
[alpha: 0.9]
[fair_c: 1]
[poisson_max_delta_step: 0.7]
[tweedie_variance_power: 1.5]
[lambdarank_truncation_level: 30]
[lambdarank_norm: 1]
[label_gain: ]
[lambdarank_position_bias_regularization: 0]
[eval_at: ]
[multi_error_top_k: 1]
[auc_mu_weights: ]
[num_machines: 1]
[local_listen_port: 12400]
[time_out: 120]
[machine_list_filename: ]
[machines: ]
[gpu_platform_id: -1]
[gpu_device_id: -1]
[gpu_use_dp: 0]
[num_gpu: 1]

end of parameters

pandas_categorical:null
